1000 300
， 0.150785 0.120591 -0.220204 -0.044533 0.374161 0.044214 -0.392151 0.035214 0.300220 -0.079835 0.027437 -0.011367 0.230634 0.026933 0.125211 -0.171634 0.020817 -0.104070 0.215144 0.220954 -0.077747 -0.139132 0.008615 -0.107691 0.387673 -0.187194 -0.450646 -0.254013 -0.116621 0.233193 -0.223911 -0.034556 -0.205061 -0.138484 -0.083669 0.460513 0.118728 0.110392 -0.008944 -0.074157 -0.040973 -0.531978 -0.328313 0.290329 0.122190 -0.037702 0.257889 0.385802 0.035408 -0.052827 -0.234469 0.076742 -0.040201 -0.234270 -0.248619 -0.025675 0.229412 -0.228384 0.024029 0.266535 0.230727 0.009996 -0.065323 -0.186657 0.034477 0.445319 -0.321535 -0.182754 0.062579 0.097784 0.332899 -0.384770 -0.090071 0.441764 0.306922 0.430655 -0.441365 -0.098867 0.173571 0.100564 -0.116442 0.257811 -0.177054 -0.002415 0.125078 -0.224526 -0.006538 -0.180201 -0.459453 -0.036904 -0.130359 0.491291 0.081479 0.227724 0.026232 -0.224037 0.345327 -0.231416 -0.185328 0.001894 0.234471 0.058773 -0.066648 0.123862 0.032370 0.258498 -0.087427 0.083714 -0.152148 0.175907 -0.021996 -0.014630 -0.101068 -0.035480 0.035609 0.344011 0.009759 0.066831 0.632844 0.087433 -0.192948 0.390997 -0.094056 0.191298 0.192550 0.190220 -0.339591 -0.142565 0.287183 0.213621 0.097270 0.000551 -0.221055 -0.205437 0.221735 -0.153687 0.106505 0.210930 0.066155 -0.035651 -0.159191 -0.059520 0.061278 0.175461 0.066380 0.059594 0.061717 0.039824 -0.066337 -0.010009 0.083429 -0.090552 -0.068912 -0.049722 -0.086552 0.149756 0.313385 0.017155 -0.174139 -0.251176 0.009953 -0.339008 0.082099 -0.191936 -0.101965 -0.100192 -0.357425 -0.299636 0.224958 -0.197894 0.145425 -0.025047 -0.000433 0.143099 0.276526 -0.370530 -0.444545 -0.083754 0.041277 0.028884 -0.067846 -0.218260 0.092554 -0.330169 -0.134646 0.170691 -0.374256 0.223717 -0.208243 0.598531 0.153623 -0.355238 -0.177766 -0.115118 -0.079610 0.271836 -0.210644 -0.367052 0.193966 -0.015062 0.512195 0.030305 -0.024971 0.007503 -0.119463 -0.320602 -0.242386 0.156021 0.057047 -0.025101 -0.208112 -0.043681 0.026542 -0.193764 0.219189 -0.051607 0.195386 -0.143632 -0.247629 -0.423312 -0.172423 0.243321 -0.044196 0.213917 -0.319643 0.230715 0.134094 -0.037873 -0.057430 0.146332 0.052178 0.190156 0.030850 -0.067724 0.220015 -0.079970 0.224325 -0.001729 -0.267367 0.237188 0.166269 -0.202219 0.128762 0.256844 0.088751 -0.088461 0.083998 0.283358 0.188157 0.203104 0.163703 0.179720 -0.054173 0.011931 -0.212735 -0.447108 -0.309587 0.169024 -0.184097 0.510571 0.040733 0.002925 0.055379 0.054257 -0.380701 -0.447608 -0.094398 -0.127117 -0.058867 0.414234 -0.033761 -0.007355 0.274289 -0.127778 0.158654 -0.118561 0.003548 0.053794 -0.060100 0.061714 -0.326247 -0.220464 0.062383 0.112296 -0.077084 0.057894 -0.095091 0.208973 -0.338271 -0.303677 -0.187215 -0.150791 0.339811 0.069382 -0.323648 0.108729 0.065358 -0.532687 -0.066914 -0.100728 
的 -0.251355 0.234742 -0.169728 0.026955 0.258850 0.028063 -0.498176 0.076507 0.151926 0.214029 0.063718 -0.041315 0.509875 0.358331 -0.151229 0.271991 -0.119206 -0.269604 0.296300 0.312931 -0.066358 0.013657 -0.021935 0.264219 0.048273 -0.212434 -0.064783 -0.243087 0.166897 -0.039173 0.017801 -0.204246 -0.252223 0.038224 0.233915 0.094598 -0.024282 0.029599 -0.238779 0.008268 -0.348425 -0.357207 -0.187001 -0.085915 0.094435 -0.196423 -0.098985 -0.023036 -0.048889 -0.121236 -0.061561 0.053498 0.170762 -0.079160 -0.297504 -0.092928 -0.069560 -0.194255 -0.090922 0.148681 0.042842 -0.143766 0.104044 -0.164521 -0.292341 0.286780 0.182208 -0.329816 0.294510 -0.231588 0.298016 -0.394329 0.100928 0.131523 -0.068831 -0.150447 -0.241897 0.092547 0.102829 0.007546 -0.108389 -0.070817 -0.081737 -0.027211 0.129244 -0.093027 -0.295611 -0.236846 -0.057890 -0.066839 0.011099 0.005240 0.137162 -0.068874 -0.115253 -0.341677 0.285972 -0.013840 0.070704 0.352340 -0.029949 0.141934 -0.186863 0.354936 0.121499 0.033314 -0.016845 0.161208 -0.053218 0.250432 -0.049331 -0.172359 -0.379997 0.046485 0.277442 0.398704 -0.108810 0.158978 0.385721 -0.286637 -0.067776 0.296613 -0.363442 -0.100093 0.224731 -0.218920 -0.247039 -0.230429 0.226328 -0.170270 0.154259 0.209709 -0.087820 -0.098306 -0.071855 -0.041103 0.056996 0.228446 0.055172 0.049946 -0.225500 -0.190046 0.079560 -0.020013 -0.026853 -0.280321 0.005508 0.059598 0.165607 0.192093 -0.095852 -0.140277 0.064719 -0.251456 0.278217 -0.088299 -0.219203 0.013059 0.157793 -0.196203 0.048998 -0.284616 0.138768 0.311586 -0.078249 0.335556 -0.227364 -0.281466 0.129702 -0.159860 0.347008 0.033982 0.188490 0.165433 0.086361 -0.202150 -0.141796 -0.065891 0.122970 0.052331 -0.089454 -0.614564 0.207704 -0.182507 -0.354835 -0.050928 -0.574270 0.185539 0.028532 0.386459 0.006514 -0.276518 0.217876 0.157171 0.018123 -0.038838 -0.274358 -0.034387 0.072527 -0.132678 0.234160 0.077634 -0.041475 0.150509 0.061529 0.011897 -0.165895 0.195852 -0.085900 -0.019213 -0.496772 0.138552 0.294121 -0.111139 0.277529 -0.149880 0.160431 -0.059254 0.054732 -0.165471 -0.444856 0.137528 0.049098 -0.097076 -0.109031 0.421171 0.023120 -0.119956 -0.254408 0.211035 0.023602 -0.015998 -0.178379 -0.182102 0.095864 -0.154922 0.287742 0.006186 -0.021971 0.275445 0.159945 0.277346 0.060271 0.102517 0.204141 0.032923 0.172259 0.294199 0.156201 0.286705 0.055102 0.088510 0.002244 0.196588 -0.035131 -0.461734 0.012106 0.201592 0.317460 0.262966 -0.115693 0.024206 0.095358 0.285183 -0.412490 0.012694 -0.009153 -0.078339 0.176317 0.142109 -0.219134 -0.115016 0.255364 0.036955 0.227214 -0.009634 -0.232816 -0.238256 -0.323461 0.087714 0.028072 -0.418370 -0.038899 0.068426 -0.237388 -0.148316 -0.345656 0.002217 -0.119330 0.061476 0.206175 -0.320072 0.206702 0.297621 -0.255238 0.076537 -0.021104 -0.527221 -0.229531 0.180781 
。 0.207820 0.141425 -0.337281 0.158955 0.232709 0.008633 -0.401047 -0.088699 0.113330 0.205596 -0.090022 -0.159480 0.384821 0.434617 -0.030863 0.094337 -0.240978 -0.064044 0.194914 0.244060 -0.056428 0.299720 -0.054518 -0.175669 -0.093260 -0.223271 -0.287228 -0.117357 -0.127598 0.261782 -0.032199 -0.182117 -0.241167 0.141915 0.133332 0.322000 0.408136 -0.167207 0.058791 -0.179005 -0.161681 -0.333219 -0.374392 0.144024 0.100053 -0.032752 -0.036455 0.388170 0.260317 0.152076 -0.295651 0.081622 0.030135 0.087505 -0.251233 -0.338854 0.130807 -0.033580 0.000386 0.170454 0.201234 -0.158534 -0.018089 -0.214981 -0.247114 0.372023 0.182729 -0.094472 -0.059845 -0.314979 0.185997 -0.143473 0.092069 0.156185 0.210508 -0.062960 -0.247002 0.306240 -0.270808 0.423476 0.103978 -0.400794 -0.586421 0.006869 0.147641 -0.049529 -0.037204 -0.268445 -0.117609 0.306768 -0.110252 0.581077 0.206094 0.051169 -0.024623 -0.442770 0.385068 -0.357508 -0.341424 -0.211000 -0.072502 0.062128 -0.152022 0.252595 -0.012366 0.216837 -0.026067 0.222362 0.092667 -0.144601 0.080318 0.052002 -0.199245 0.064659 -0.033763 0.026169 -0.019713 0.175073 0.430071 -0.110518 -0.139008 0.469881 -0.263162 0.106531 0.131026 0.205255 -0.458193 -0.310037 0.299294 -0.203785 0.266664 -0.162723 -0.352753 -0.274689 0.183864 -0.227554 0.189774 0.114063 0.327354 -0.086230 -0.022444 0.038875 0.081120 0.214421 0.058760 -0.263463 0.234214 0.352219 0.084009 0.021389 0.131383 0.081624 0.207803 -0.174422 0.105694 -0.083929 -0.237927 0.081080 0.109725 -0.350901 0.247316 -0.220660 0.157330 -0.315979 0.177928 0.037649 -0.076490 -0.449081 0.028912 -0.117943 0.117839 0.285788 -0.030305 0.308912 -0.095203 -0.093707 -0.244332 0.087029 -0.051776 -0.080488 0.262420 -0.268478 0.138869 -0.266508 -0.350839 0.072271 -0.601778 -0.203720 -0.049413 0.183061 -0.030447 -0.155639 0.145435 -0.012184 -0.184868 0.045767 -0.071148 -0.511011 -0.153584 0.095028 0.257493 -0.003672 0.150491 0.133388 0.019724 0.006281 0.209686 0.098627 -0.284086 0.095505 -0.451720 0.032433 0.007100 -0.115185 0.206835 -0.191447 0.095215 -0.260691 -0.166263 0.060945 -0.083133 0.230603 -0.186615 0.051271 -0.073509 0.167201 -0.113514 -0.234193 -0.032185 0.088274 -0.076958 -0.236269 -0.009735 0.324146 0.088477 -0.072942 -0.056873 0.244113 -0.232731 0.153337 0.254945 0.211904 0.253087 0.132090 0.065523 0.084262 -0.083730 0.316399 0.131076 -0.067015 -0.030577 0.048939 0.111360 0.268850 -0.122467 -0.422824 0.010984 0.156956 -0.241428 0.427866 -0.021745 0.178677 -0.099039 0.315951 -0.122698 -0.175679 -0.046428 -0.297919 0.110841 0.188884 -0.009761 -0.031709 0.268292 -0.008552 -0.048118 -0.062769 -0.056635 0.031275 -0.176941 -0.050995 -0.422973 -0.329249 -0.040493 0.129607 0.019758 -0.113496 -0.282847 0.148012 -0.167779 -0.396133 0.108845 -0.074981 0.104715 -0.035879 -0.365303 -0.142196 0.015788 -0.555588 0.047561 -0.070897 
、 0.020587 -0.472420 -0.441270 0.650659 0.406180 -0.197017 -0.230998 -0.362920 -0.372085 0.397043 0.072840 -0.284241 0.100514 0.404480 0.026885 0.076531 0.021320 -0.204192 0.052256 0.010462 -0.034778 -0.254024 0.233768 0.143283 -0.183988 0.050939 0.111923 -0.525068 -0.182478 -0.147235 -0.369964 -0.144947 0.063151 0.297017 0.098701 -0.424132 0.037056 -0.200835 -0.332074 -0.489462 0.034135 -0.323598 -0.360085 -0.316614 0.187683 -0.255723 -0.058787 0.139332 0.013192 -0.604719 0.172337 0.096078 -0.328717 0.098481 -0.244850 -0.686584 -0.170958 0.113674 0.368373 0.154224 -0.246487 0.280782 -0.475528 0.156185 0.100453 0.449817 0.136580 -0.054464 0.150265 -0.024728 -0.352151 -0.339325 -0.200320 0.329272 -0.055238 0.376020 -0.309081 -0.298133 -0.193488 -0.041716 0.104432 0.029608 -0.296870 -0.222157 0.325999 -0.104704 0.004482 0.134504 0.152487 0.358797 -0.050900 0.201785 0.078425 0.224464 -0.212519 -0.205734 0.209766 -0.259546 0.031841 0.272559 -0.218404 0.084419 -0.321479 0.599889 -0.031406 -0.140179 0.285739 0.295384 -0.360827 0.011107 0.066013 -0.014231 -0.057434 -0.169341 0.120717 0.642869 0.327570 0.217719 0.249617 -0.386213 -0.116256 0.172977 -0.113538 0.385959 0.232586 0.368014 -0.268189 0.167918 0.645393 0.337745 -0.307303 -0.051535 -0.426871 -0.025932 0.267314 -0.475536 -0.145523 -0.287734 -0.311688 -0.456115 0.104609 -0.557859 -0.240811 0.282144 0.438276 0.048305 0.540532 -0.247755 0.100008 0.789338 -0.357708 0.053297 0.243144 0.269019 0.141052 -0.027212 -0.027286 0.193171 -0.172309 -0.061671 0.079660 -0.332868 0.459509 -0.184712 -0.601989 0.345772 -0.154187 -0.112382 0.042056 0.271919 0.343621 -0.133445 -0.354046 0.251916 0.122768 0.063169 0.121945 0.317521 0.065932 -0.684687 0.076070 -0.514248 0.189479 -0.509776 -0.401582 -0.526398 0.169975 0.020878 0.306576 0.235314 0.170858 -0.207777 0.025229 -0.616450 0.304510 0.512164 -0.346290 -0.218654 0.283448 -0.075213 0.391648 0.164533 -0.249151 -0.132962 0.262656 -0.010441 0.430222 0.150771 0.183622 -0.173504 0.052470 -0.236338 0.050889 -0.014044 0.015513 0.243859 0.325064 -0.006671 -0.205713 -0.421216 -0.354675 -0.346634 -0.164077 0.146330 -0.209599 0.137700 -0.043063 -0.338416 0.142401 0.299513 -0.185685 -0.320883 -0.348900 -0.237008 0.113864 0.221632 -0.640200 -0.088414 0.031443 0.373052 -0.249916 0.094118 -0.012612 0.279523 -0.261441 0.321026 -0.040661 0.327270 -0.003185 0.323550 -0.687475 0.233919 0.584195 0.245827 -0.000473 -0.215521 -0.468168 0.324638 0.096166 0.373137 0.526964 -0.085607 -0.048359 0.063092 0.106286 0.153121 0.066234 0.024120 -0.308376 0.397766 0.249160 0.171151 -0.087304 -0.163175 0.563848 0.369402 0.289702 -0.258292 -0.157105 0.150678 -0.155253 0.109920 0.098947 0.457249 -0.119492 0.092475 -0.140216 0.175311 -0.244663 -0.324123 0.111319 -0.080049 0.768271 0.100696 -0.348324 -0.236327 0.031901 -0.870347 0.510523 0.065956 
和 0.009246 0.187802 0.066590 -0.095002 0.193442 0.067781 -0.194179 -0.203283 -0.278398 -0.057377 -0.020548 0.097457 0.524572 0.198415 0.077525 -0.046012 -0.060477 -0.433855 0.061244 -0.172567 0.090958 -0.084587 0.106998 0.072527 -0.093111 -0.172190 0.029164 -0.375554 0.218426 -0.077061 0.086391 -0.428057 -0.343778 0.062685 -0.064995 -0.126412 -0.210003 -0.176249 -0.237303 -0.396488 0.287409 -0.428557 -0.216365 0.174137 0.061383 -0.210169 0.105965 0.013781 -0.097406 0.329738 -0.214015 0.088694 -0.062060 0.215306 -0.508465 -0.318117 -0.207800 -0.071376 0.175870 0.080844 -0.354933 -0.018021 -0.116181 0.362905 -0.273662 0.204710 0.080758 -0.266032 0.223442 0.110943 -0.166306 -0.086209 -0.229415 0.345870 0.036410 0.128935 0.165563 -0.258419 -0.238574 0.041963 -0.141433 -0.062748 -0.283840 0.036802 0.479146 -0.166955 -0.136145 -0.265375 0.117080 0.046164 -0.058065 0.197442 0.230248 0.363331 -0.243701 -0.441123 -0.098351 0.263523 0.062191 0.059908 -0.098550 -0.013858 -0.487530 0.589485 -0.046383 0.262925 0.123228 -0.394310 0.011502 0.255776 0.118021 -0.080147 -0.056654 -0.060372 -0.007087 0.056174 0.106345 0.130136 0.505137 -0.298888 0.179562 0.208505 -0.218718 0.522443 -0.137746 0.255113 -0.258563 -0.192490 0.447395 0.286713 -0.083046 0.000473 -0.029164 -0.428331 0.139342 -0.220389 -0.249447 0.161648 -0.050149 -0.129073 -0.224604 -0.440600 -0.052445 0.177623 0.085769 -0.235558 -0.103103 0.167589 0.438816 0.406755 -0.083057 0.083692 -0.294812 0.150367 0.101659 0.011089 0.113637 0.106322 0.360088 0.091910 0.123526 -0.250483 0.442286 0.130716 -0.669093 0.083499 0.142587 -0.161110 0.034475 0.286870 0.075115 -0.106290 -0.338480 -0.336946 0.143898 -0.244154 0.571724 0.270967 0.077746 -0.120023 0.048937 -0.670473 -0.107469 -0.224632 -0.425490 -0.112817 -0.607191 -0.214467 0.102636 0.176972 -0.044489 -0.370338 -0.032045 -0.222617 0.150631 -0.081570 -0.348390 -0.068198 -0.110086 0.022373 0.143049 -0.572873 0.268941 0.324005 0.144683 -0.029876 0.191286 0.124241 -0.059253 0.160804 -0.006967 -0.029622 0.003841 -0.460058 0.289513 0.294915 0.369316 -0.541435 0.361522 -0.481090 -0.401677 0.024154 0.167025 0.356716 0.188370 0.088036 -0.120268 -0.666454 -0.418293 -0.021296 0.088165 0.172277 -0.567481 0.143308 -0.088686 -0.253056 0.056544 -0.026469 -0.055702 -0.034872 -0.236803 0.103329 0.054178 0.153317 -0.223366 0.414667 -0.252991 0.233321 0.059627 -0.070688 -0.248993 0.178232 0.411271 0.176697 -0.281404 -0.502257 0.122006 0.204134 0.416635 0.497369 0.164767 0.153696 0.286559 0.095634 -0.190687 0.207247 0.058435 0.035693 -0.270296 0.121577 0.341860 -0.055386 0.121884 0.054041 0.292038 0.004957 0.129410 -0.245613 -0.147639 0.143018 0.154269 -0.218372 -0.150983 0.026403 -0.074261 -0.174115 0.022063 0.171042 -0.276256 -0.243437 0.300195 -0.004085 0.388441 -0.042360 -0.064346 -0.161472 0.136743 -0.496433 0.005538 0.038096 
在 -0.370578 0.114584 0.148609 0.229271 0.374493 0.007748 -0.108473 -0.236975 0.131620 0.052712 0.071583 -0.347132 0.182613 0.165984 0.075636 0.358962 0.028002 0.068589 0.391040 0.204595 0.032460 0.037185 -0.073899 0.084047 0.257322 -0.027603 0.040917 -0.145123 -0.051523 -0.049534 0.129160 -0.101339 -0.368948 0.148900 -0.408434 -0.010884 -0.012244 -0.377474 0.067594 -0.100619 -0.239032 -0.243602 -0.297553 -0.294291 0.178818 0.063004 0.003325 0.275306 0.076572 0.464100 -0.261892 0.284721 0.026645 0.076907 -0.356248 -0.364353 0.033242 0.362306 0.185951 0.303598 0.168822 -0.060651 -0.229074 -0.018111 -0.079567 0.136307 -0.374176 -0.130897 -0.103030 0.040601 0.523648 -0.500655 0.101458 0.026185 0.378274 -0.188157 -0.758069 -0.328628 0.054232 0.104715 0.070999 -0.102315 -0.353952 0.102510 -0.212711 -0.209222 -0.514347 0.013917 -0.019446 -0.081471 0.022254 0.223097 0.029348 0.120642 0.134566 -0.335567 0.224940 -0.532737 -0.014863 0.293532 -0.130266 0.206515 -0.095340 0.255533 -0.112722 0.087352 -0.160761 0.121337 -0.099957 0.216508 -0.042747 -0.125711 0.014033 0.443398 0.320373 0.300066 -0.043615 0.108533 0.465920 -0.076490 0.475319 0.049113 -0.254793 0.303440 0.048246 0.325391 -0.029892 -0.306144 0.102287 0.102483 0.100921 0.078972 0.007220 0.042349 0.413125 0.285081 -0.128222 0.096263 0.317372 -0.269997 -0.220057 -0.500020 -0.108368 -0.236274 0.347945 0.030136 -0.208576 0.239859 0.002103 0.179931 0.191830 -0.130268 0.059043 0.264547 -0.219895 -0.019061 -0.256901 0.105795 -0.197705 -0.413620 0.401210 -0.018253 -0.067668 -0.184309 -0.366764 0.221449 -0.199286 -0.104705 -0.062815 -0.139191 0.115160 0.162042 0.343752 -0.247896 -0.003959 -0.291326 -0.177021 -0.060669 -0.074792 -0.478428 -0.110250 -0.631280 -0.024391 -0.136100 -0.205393 -0.160300 -0.413919 0.159170 0.045893 0.160618 0.331492 -0.207233 0.157816 0.366711 -0.013985 -0.059961 -0.102371 -0.024862 0.262594 -0.112298 0.059825 -0.099192 0.049808 0.110611 -0.386721 0.117852 0.324194 0.209644 -0.315824 0.278459 -0.314010 -0.074374 -0.151407 -0.007025 0.202429 0.168676 0.188198 0.087275 0.254991 -0.332590 0.118773 0.085632 0.023903 -0.325493 -0.313374 0.370139 -0.135483 0.099386 -0.193635 0.254903 0.201432 0.096566 -0.180571 -0.051519 -0.139726 -0.068023 0.001241 0.366948 -0.009423 0.343344 0.600848 0.027781 0.402133 0.212432 0.338295 0.119924 -0.249907 0.116507 0.391650 0.112454 -0.169653 0.096008 0.051651 0.243489 0.312505 -0.202720 -0.273598 0.449988 -0.389721 0.138191 -0.130816 0.181274 0.068712 0.354199 -0.367699 0.277625 0.203890 -0.278347 0.012358 0.020461 -0.114834 -0.042977 0.370715 -0.042359 -0.229721 0.129059 0.199345 0.055800 -0.211593 0.033335 -0.425115 -0.167509 0.012266 0.262286 0.073505 0.048154 -0.219148 0.475250 -0.327906 -0.215913 0.135177 -0.273027 0.055713 -0.160021 -0.255042 -0.217125 0.278733 -0.043975 -0.177284 -0.268583 
年 0.254776 -0.046401 -0.087285 -0.017019 0.306811 -0.170750 -0.489472 -0.435844 0.278713 0.283143 0.142750 -0.122807 0.074825 0.200926 0.069114 -0.042241 0.117768 0.027666 0.224373 -0.052307 0.070911 0.245225 -0.232411 0.083536 0.314211 -0.258618 0.062870 0.082918 -0.395109 -0.007322 0.372891 -0.079961 -0.012374 0.181339 0.031277 0.306866 0.189933 -0.384490 -0.159406 -0.319298 0.233754 -0.412821 0.122732 -0.332255 0.125963 0.029183 0.847016 -0.001146 0.012481 0.247477 -0.353758 -0.234336 0.530029 -0.052274 -0.341808 0.311497 0.699933 0.380532 -0.116778 0.378787 0.042226 -0.004410 0.034390 0.139014 -0.038610 0.436970 -0.037922 0.028208 0.446346 -0.152887 0.129377 -0.105486 0.165243 0.076395 0.176107 -0.055881 -0.417507 -0.291771 0.042704 0.332836 -0.004846 0.105383 -0.106393 -0.096236 0.201523 0.097017 -0.134186 0.076732 -0.034329 -0.144579 -0.232253 0.395741 0.391548 0.286563 -0.169057 -0.243131 -0.057116 -0.147834 -0.463370 -0.166071 -0.044748 0.157483 -0.064703 -0.169120 0.121140 0.256355 -0.093311 0.080441 0.372675 0.257590 0.136895 0.191745 -0.323000 0.129240 0.214291 0.340757 0.379348 0.087858 0.188544 -0.340918 -0.011187 0.517191 0.116197 0.174295 -0.474475 -0.014423 0.136835 -0.100012 0.346679 0.010453 0.214766 -0.432312 -0.213002 -0.078844 0.002165 0.039132 0.169786 -0.087047 0.396227 -0.054928 -0.142508 -0.318684 -0.211546 0.421694 0.359104 -0.148012 -0.662970 0.020631 -0.185976 0.492572 -0.108807 0.065465 0.704911 0.225449 -0.336618 -0.273914 -0.492488 0.163257 -0.255841 -0.340446 0.066742 -0.624096 0.079540 -0.327717 -0.063455 -0.079438 -0.080857 -0.161425 0.930765 0.193394 0.084930 0.054418 -0.266726 0.387163 -0.114911 0.043447 0.074625 0.193958 0.083029 0.061947 -0.226244 -0.101963 0.257350 -0.396019 -0.075950 -0.196018 -1.019298 0.145870 -0.118124 -0.039896 0.284552 -0.057186 0.192561 0.190904 0.399498 0.078700 -0.072311 -0.043429 0.328501 -0.195779 -0.000858 -0.653298 -0.096595 0.541952 -0.290638 0.184153 0.145036 0.331073 -0.431957 -0.384946 -0.171659 -0.319194 -0.039654 -0.227290 0.025106 -0.107955 -0.026723 0.078574 -0.107859 -0.183846 -0.133324 -0.004071 -0.074797 -0.142508 0.089530 -0.170960 -0.673621 -0.319957 0.228593 0.921784 0.106127 -0.026754 0.496303 -0.174498 0.044541 -0.115662 -0.119420 0.505645 0.051688 -0.371852 0.590423 -0.354471 0.635926 -0.140642 -0.055511 -0.191847 -0.729349 -0.156423 0.160665 0.198064 0.052805 -0.175666 0.084358 0.186968 -0.013088 -0.356229 -0.330010 -0.017192 -0.529720 0.282789 0.330524 0.035716 0.215855 0.428998 -0.307152 0.275071 0.035138 0.022006 -0.162047 0.236623 0.121018 0.144602 0.406296 0.131425 -0.076091 -0.256180 0.093782 -0.115747 -0.018418 -0.071683 -0.369383 -0.607826 0.031144 0.066132 -0.286340 -0.654868 -0.326468 0.340933 0.105646 0.017926 -0.238853 -0.050515 -0.083280 -0.160842 -0.428963 0.152697 0.043155 -0.292334 0.135049 -0.164676 
“ -0.293615 -0.115089 -0.238320 0.221570 0.115102 -0.207272 0.068964 -0.123072 -0.395964 0.113114 0.393907 0.015688 0.388734 0.015695 -0.118031 0.285429 0.144719 0.367149 0.284579 0.485743 -0.241705 0.228520 -0.018515 0.361553 0.078271 -0.667888 -0.180235 -0.570064 0.118748 -0.121224 0.235703 0.260476 0.067257 -0.438508 -0.172922 0.190853 0.128630 0.090309 0.090924 0.233936 -0.312314 -0.323048 0.620609 0.026224 0.306705 0.047863 0.078783 0.730412 0.126097 0.228458 -0.501899 -0.227050 -0.258650 0.235588 0.052569 -0.051302 0.038628 -0.060263 -0.488423 -0.134014 0.141182 0.029596 -0.319840 -0.416857 -0.455739 -0.242184 -0.196039 -0.059435 -0.237628 -0.178542 0.233945 -0.767417 -0.491848 0.025460 0.130701 -0.206838 -0.467036 -0.277371 -0.432821 -0.020355 -0.178274 -0.402603 0.075385 0.165004 0.152418 0.131834 -0.085320 -0.170936 0.334775 -0.172929 0.085168 -0.273453 0.000638 0.411289 -0.159533 0.165199 0.132429 -0.057500 -0.284510 0.349212 0.136535 -0.172545 -0.301861 0.283874 0.142214 -0.022537 0.085207 -0.031147 -0.604848 0.060458 0.104133 -0.212972 0.034000 0.125715 0.403672 0.434132 -0.527532 -0.223686 0.352432 -0.570526 -0.101535 0.298403 -0.265191 -0.043081 0.269794 0.171069 -0.301017 -0.077093 -0.100157 0.024993 0.274263 -0.234432 0.152585 -0.155968 0.257945 0.036716 -0.337248 0.000778 -0.370783 -0.560521 -0.239286 -0.252765 0.139159 0.359303 0.032197 0.006514 0.111420 0.329191 0.493758 0.261230 -0.093392 -0.258635 0.601083 -0.480020 0.067786 0.481197 -0.126452 -0.055470 -0.154496 0.040451 -0.071477 -0.309524 0.199497 -0.054357 0.236583 0.370528 0.160097 -0.620375 0.399221 0.018707 -0.057668 -0.171824 -0.127438 0.285141 -0.156010 -0.205659 -0.045452 -0.113841 0.206151 -0.395775 -0.187311 -0.614248 -0.276297 -0.162743 -0.318599 0.044105 0.052278 0.696168 -0.066439 0.448792 0.098299 -0.137533 -0.320067 0.242941 0.529044 0.063605 -0.613315 -0.402327 0.105894 0.117667 0.286785 -0.179191 0.007531 0.134051 0.181575 0.193202 0.255570 0.126863 -0.389422 -0.393996 0.082341 0.056043 -0.362327 0.173094 0.369616 -0.101465 0.122502 -0.239053 -0.014367 -0.117809 -0.235897 0.399187 -0.007129 0.180699 -0.516682 0.213473 -0.148920 -0.031339 -0.076308 0.063195 -0.159719 -0.113252 0.107835 -0.301524 0.008650 -0.124069 -0.020473 0.048299 -0.303596 -0.628962 0.242857 -0.103400 0.363028 -0.229084 0.005843 -0.036280 -0.247063 0.313790 -0.300025 -0.149947 -0.265187 0.265592 0.088693 0.049911 -0.029774 -0.244846 0.248094 0.066606 0.243028 0.071226 -0.334487 -0.083945 -0.028078 0.265195 -0.358613 -0.318960 0.150128 -0.017645 0.233573 -0.166306 0.167262 0.206235 -0.048764 0.012396 0.185666 0.336059 0.240972 -0.016371 -0.353894 0.098782 0.056904 0.475034 -0.191898 -0.164951 -0.273130 -0.436088 -0.023701 -0.308958 -0.163801 0.135327 -0.007196 0.243669 -0.007505 -0.287521 -0.098461 0.085840 0.312395 -0.318302 0.320139 -0.214533 
了 -0.222543 -0.394016 0.390941 0.100147 0.160561 0.108689 -0.106021 0.128990 -0.311466 -0.308874 0.211421 -0.387247 0.255649 -0.006180 -0.267803 0.401849 -0.165783 -0.184371 0.321459 -0.163203 0.122940 0.166760 -0.234501 0.201766 0.000539 -0.002919 -0.075091 0.034572 0.023227 -0.010656 0.542050 -0.107826 -0.401865 0.466492 -0.006027 0.168707 -0.294567 -0.116170 -0.023444 0.036730 0.143386 -0.079701 -0.033257 -0.098485 0.229655 0.530596 -0.005286 0.052877 0.171863 -0.001157 -0.332035 0.334894 0.702438 0.201221 0.123757 0.383090 0.359025 -0.162605 -0.491545 0.366643 -0.202451 -0.005647 -0.419006 0.527965 -0.594418 -0.132854 0.087760 -0.480882 -0.167205 0.141134 0.362572 -0.321588 -0.004711 0.071623 0.007396 0.353655 0.140540 0.006114 0.199216 -0.034390 0.260900 0.007105 -0.344120 0.314134 0.067443 -0.089455 -0.340465 0.179093 -0.176231 -0.329052 0.036915 -0.345917 -0.030311 0.152213 -0.002566 -0.216080 0.373147 -0.049489 -0.641262 0.738181 0.033758 -0.075021 -0.399572 0.045937 0.207203 0.227147 -0.398112 0.022088 0.062974 0.497446 0.227697 -0.276282 -0.040719 0.033888 -0.223598 0.343487 0.108341 0.100107 0.192620 -0.488172 -0.144532 0.632351 -0.067938 0.084618 0.002743 0.234776 -0.253984 -0.009857 -0.240084 0.072979 -0.169925 -0.177613 -0.053479 -0.247750 0.265680 -0.104145 -0.212100 -0.199306 0.139332 -0.017099 0.293904 -0.312052 0.131872 -0.126986 0.158184 0.344504 -0.137323 0.382334 0.256423 0.203234 -0.049731 -0.438878 -0.016768 -0.020988 -0.213763 0.026507 -0.054685 0.028362 0.000218 -0.246954 -0.206561 -0.149021 0.146116 -0.204236 -0.267071 0.377965 -0.123800 -0.315376 0.411988 0.242312 -0.127966 0.094465 0.448077 0.008251 0.219625 0.086087 -0.110396 -0.200799 -0.244349 0.261717 -0.214780 -0.669876 0.290712 -0.162897 -0.745586 0.007055 -0.643100 0.115420 0.480143 -0.262352 0.532060 0.267716 -0.044414 -0.135716 0.168353 -0.019583 0.209689 -0.113549 0.048939 0.376739 -0.033730 0.100920 0.085258 -0.060117 -0.037775 -0.078513 -0.224768 0.382127 0.201598 0.186018 -0.385223 -0.319415 -0.551951 -0.328470 0.202808 0.030914 -0.269807 -0.078551 -0.006589 -0.780046 -0.272300 0.199069 0.399223 0.328116 0.110549 0.519216 -0.025655 0.285452 0.015711 0.106745 0.183588 0.357325 -0.233653 -0.444802 0.240244 -0.484708 -0.382537 -0.148878 -0.278595 0.091504 0.355685 0.538763 0.292676 -0.058138 0.001308 -0.208589 0.114220 -0.006248 0.368640 -0.690636 0.102560 0.157460 0.243110 0.138071 -0.395567 -0.430269 -0.137167 0.281143 -0.090789 -0.077215 0.090328 0.006556 0.108218 0.589028 -0.134863 -0.176049 0.043472 0.067148 -0.281033 0.131539 -0.049745 -0.109731 0.659098 0.298433 0.118136 -0.155357 -0.047486 -0.014839 -0.555688 0.556054 0.124314 -0.422327 -0.038367 0.127716 -0.292152 -0.465378 -0.042020 0.233524 -0.453797 -0.249643 0.427614 -0.395184 0.225653 -0.104807 -0.058549 0.235683 -0.022220 -0.073800 -0.041982 0.105472 
与 0.124834 0.457789 0.032558 0.316169 0.383837 -0.006194 -0.256281 -0.222765 -0.357801 -0.359164 0.275994 0.026027 0.636667 0.052777 0.173463 0.285398 -0.290574 -0.107601 0.178295 0.152815 0.230622 -0.012001 0.053505 -0.109148 0.211888 -0.239361 0.116899 -0.070633 0.032064 0.465884 -0.041063 -0.303791 -0.295515 0.453373 0.326953 -0.067459 0.063676 0.384462 -0.200332 -0.346561 0.007964 -0.640036 -0.527738 -0.021911 0.091717 -0.367217 -0.230174 0.006570 -0.009643 -0.000921 -0.341065 0.160624 0.066914 0.147372 -0.321151 0.133645 0.039998 -0.240044 -0.266855 -0.362460 -0.263401 0.351991 -0.480417 0.089883 -0.008578 0.203094 -0.203293 -0.024274 0.415597 0.472692 0.505671 -0.081627 0.212000 0.096174 0.292747 -0.246496 -0.542901 -0.286312 -0.077652 -0.337435 0.160001 -0.020235 -0.333684 0.357001 0.182578 -0.354132 0.196842 -0.256294 -0.153410 0.377495 0.054938 0.195079 0.136133 0.339132 -0.164173 -0.050032 -0.016079 0.163198 -0.061385 -0.323478 -0.111168 0.033572 -0.653740 0.724060 0.164445 0.028030 0.016230 -0.463494 -0.241219 0.444983 0.129574 -0.140178 -0.057825 0.026251 -0.055720 -0.097752 0.209257 0.434053 0.324714 -0.198075 -0.166582 0.535485 -0.109202 0.075381 0.075805 0.267421 0.186917 -0.156439 0.498950 0.001472 0.055905 0.133573 0.008142 -0.006008 0.060333 0.371331 0.258888 0.061057 0.613634 -0.301784 -0.476529 -0.366290 -0.171450 -0.040370 0.211887 -0.305965 0.176539 0.025458 0.409570 0.192408 -0.432599 -0.195568 0.211889 0.769759 -0.160172 -0.126618 0.006075 0.290226 -0.066201 0.321890 -0.032138 -0.192010 0.417532 0.343522 -0.504854 -0.071318 0.436069 -0.574956 -0.084977 0.532218 0.304954 0.112253 -0.016581 -0.288135 0.046350 0.095008 0.090065 0.259781 0.015782 -0.394803 -0.038452 0.078410 -0.049351 -0.493124 -0.462973 -0.174855 -0.158269 0.066917 0.376735 0.525025 -0.213876 -0.472779 -0.255883 0.017076 -0.140991 0.453322 -0.323181 0.181951 0.003230 -0.124019 0.197725 -0.688990 0.027954 0.322983 -0.014397 -0.159503 0.162846 0.283804 0.106912 -0.100607 -0.250938 0.001286 -0.107075 -0.244382 0.317852 0.008526 0.504651 -0.132031 0.267646 -0.612140 0.093957 -0.282126 0.144661 0.157967 -0.232209 0.275814 0.349718 -0.300982 -0.005355 0.098901 0.099219 -0.092032 -0.193667 0.096375 -0.024916 0.217348 -0.317318 -0.116501 0.123387 0.029927 -0.203166 0.235922 -0.400612 -0.109315 0.171719 0.206516 -0.315516 0.338221 -0.191841 -0.139562 -0.054819 0.199027 0.181004 0.208384 -0.217252 -0.225189 0.081542 0.586177 0.376730 0.109507 0.103935 -0.009690 -0.015127 0.342072 -0.157006 0.094583 -0.066370 -0.055133 -0.419174 -0.150568 -0.291155 0.035555 -0.181622 -0.395414 -0.141415 0.201742 -0.031622 0.113338 0.166813 -0.043650 0.004672 0.051456 -0.314309 0.132712 -0.462179 -0.777298 -0.055027 -0.140629 -0.214938 -0.156067 0.479913 0.073216 0.638994 0.225050 -0.021639 -0.316342 0.075584 -0.242881 0.033519 -0.323348 
（ 0.010680 -0.075026 0.023041 0.107647 0.242431 0.180436 -0.272966 -0.116206 -0.392378 0.101403 0.314000 0.138145 0.672527 -0.283071 0.191635 -0.040479 0.003212 0.181728 0.202372 -0.020616 0.158444 -0.344207 -0.477033 0.550201 0.108690 0.286058 0.202349 -0.733645 0.132109 -0.260344 0.229974 -0.512474 -0.507579 -0.214355 -0.176316 -0.111656 0.234793 0.426964 0.065629 -0.195799 -0.018400 -0.170829 -0.064001 -0.096622 0.060448 -0.118465 0.114336 0.567363 0.240503 -0.208992 -0.022279 0.059253 -0.226717 0.272189 -0.432993 0.063515 -0.217932 0.093465 -0.164092 0.430714 -0.093015 -0.130763 -0.382517 0.339545 -0.187508 0.650388 -0.418286 0.189763 0.116718 0.405492 -0.105904 -0.098059 -0.023126 0.125553 0.157462 0.037779 0.001258 -0.441347 0.064995 0.033605 -0.130782 0.254115 -0.015869 0.094949 0.560619 0.113656 0.169243 -0.496785 0.185070 -0.149838 -0.271606 -0.009593 -0.300664 -0.215756 -0.365952 -0.160831 0.110982 -0.456092 0.198560 0.142444 -0.060799 0.499635 -0.522462 0.162736 0.309661 0.359676 0.657525 0.686800 -0.047861 -0.315867 -0.140455 -0.283273 -0.044528 0.030756 -0.267922 0.253268 0.066369 0.440538 0.619642 -0.227097 -0.170009 0.380464 -0.398810 0.172289 -0.342040 0.208666 -0.123696 -0.225467 0.357095 0.229639 0.163389 -0.091435 -0.451264 -0.283813 0.027837 -0.034215 0.512160 -0.009581 0.137300 0.257692 0.010059 0.187159 0.139156 -0.158154 0.538272 0.004312 0.002731 0.322093 -0.114262 0.420769 0.158212 0.173405 0.313064 -0.022143 -0.055426 0.058287 -0.332400 -0.504039 -0.231701 -0.039127 0.639796 0.020835 0.366843 0.096772 -0.015775 0.086442 -0.070154 -0.474286 0.188250 -0.278559 0.251988 0.016084 0.322340 0.031984 -0.126484 0.045844 0.202140 0.150625 0.198497 0.249146 0.102270 -0.504168 -0.256443 -0.746274 -0.172771 -0.516629 -0.545134 0.132114 0.339468 0.218218 0.356185 -0.421959 0.155530 -0.094834 0.884395 -0.127762 -0.379285 -0.590896 0.049714 0.056940 0.065991 -0.186116 0.191951 -0.321515 0.135090 0.057741 -0.009771 -0.282616 0.217486 0.227851 -0.319433 0.055817 -0.229388 -0.171239 -0.236514 -0.001971 0.083766 0.050797 0.256123 -0.290140 -0.199444 0.307205 0.036690 0.512413 -0.268303 -0.114571 -0.464798 -0.433427 0.123881 0.121496 0.174876 -0.131342 0.026211 -0.419783 -0.391519 0.039161 0.425875 0.092726 -0.228699 -0.228943 0.555011 0.371567 0.342484 -0.246822 -0.165906 0.245038 -0.147679 0.180647 0.026393 0.673784 -0.072728 -0.192265 -0.030166 -0.058222 -0.161914 -0.066019 0.475800 0.545424 -0.221625 0.307523 0.031000 0.523052 0.289108 0.572221 0.271680 0.098962 -0.237390 -0.541024 -0.115369 -0.188568 0.019217 0.107221 0.423160 -0.385281 0.411840 0.056148 -0.275890 -0.009638 -0.060540 -0.590768 -0.398123 -0.317255 -0.215956 0.721950 0.203195 -0.110730 0.156410 -0.089051 0.446478 0.253404 -0.264585 0.212040 0.047027 -0.431063 -0.757599 0.517641 0.122087 -0.663097 0.056516 -0.018331 
） -0.063988 0.189860 0.209275 0.360078 0.224930 -0.008218 -0.316004 -0.477369 -0.222185 0.028691 0.124553 -0.006002 0.349978 -0.178431 -0.102462 -0.088742 0.002481 -0.167933 0.085137 -0.086229 0.074882 -0.236431 -0.394685 0.354503 -0.092955 0.962100 -0.061470 -0.254097 -0.199989 -0.345445 0.126461 0.025424 -0.669806 -0.220599 -0.246640 0.357137 0.055189 0.113166 -0.136743 -0.087471 0.020252 -0.099143 -0.138340 -0.028861 0.307819 -0.343478 -0.138416 0.352331 0.655823 -0.019119 0.443382 -0.121643 0.311874 -0.008224 -0.384401 0.088773 0.294453 -0.088436 0.129996 0.540394 0.298293 0.007322 -0.848260 0.176040 -0.176855 0.310496 -0.225247 0.080595 0.172533 0.002118 -0.169759 -0.116763 0.496289 0.007915 0.508780 0.146228 -0.211933 -0.504796 -0.050684 0.522591 -0.061425 0.030495 -0.105622 0.156045 0.968630 -0.101866 -0.186485 -0.493387 -0.186950 0.030556 -0.223941 0.206621 0.166925 -0.078598 -0.451957 0.078936 -0.235923 -0.242802 0.280523 -0.075675 -0.382392 0.309810 -0.408210 -0.115337 0.095491 0.293790 -0.007280 0.306810 -0.389655 -0.379777 -0.324121 -0.441993 0.293188 0.194360 -0.005883 0.346337 0.094132 0.153250 0.499204 -0.451376 -0.204689 0.294335 -0.054510 -0.046380 -0.272061 0.320069 -0.109923 -0.446690 0.675902 0.130445 -0.336069 -0.118116 -0.181183 0.301474 -0.009887 0.274885 0.576465 -0.232427 -0.135163 0.061663 -0.113924 -0.077136 0.196041 0.052880 0.599604 -0.039811 -0.025261 0.420946 -0.561811 0.456573 -0.030011 -0.225863 0.352755 0.364948 0.085768 -0.128355 0.032051 -0.396089 -0.034529 0.020141 -0.032834 -0.090166 0.436424 -0.214121 -0.088415 -0.122750 -0.521654 -0.772616 0.107689 -0.258079 0.289686 -0.263359 0.239005 -0.159896 0.027193 -0.331377 -0.237960 0.405413 0.380723 0.223327 -0.059694 -0.304756 0.222238 -0.623951 -0.208574 -0.435517 -0.652186 0.354281 0.289068 0.219449 0.120333 -0.158238 0.141838 0.427870 0.517837 0.379548 -0.222817 -0.477310 0.250179 -0.243375 0.293349 -0.155234 -0.044976 0.219418 0.028785 -0.074589 -0.019084 -0.061461 0.093618 0.158439 -0.433534 -0.066048 -0.186688 -0.004059 -0.008873 -0.253653 0.637865 -0.024097 0.257344 -0.429858 -0.104803 0.753180 -0.008375 0.427900 -0.348563 -0.429897 -0.259399 -0.313411 0.006157 0.287730 0.040377 0.090674 0.221514 -0.197838 -0.137635 0.305165 0.249322 0.069071 -0.512925 -0.130335 0.237817 0.334836 0.268775 -0.559457 -0.170789 -0.208477 -0.015978 -0.017516 0.104303 0.339696 0.301285 -0.272989 -0.111242 0.163836 -0.082625 -0.444447 0.093436 0.229445 0.264242 0.102350 0.193952 0.372278 0.090883 -0.084185 0.091364 -0.000855 0.274327 0.081656 0.144787 0.269734 -0.378198 0.172195 0.693217 -0.197341 0.303422 0.130103 -0.011773 0.308719 0.081498 -0.815670 -0.246750 -0.259496 -0.226102 0.491654 0.374420 -0.015765 -0.053135 0.023945 0.334399 0.253800 0.223719 0.630435 -0.093041 0.195262 -0.471930 0.425884 0.356528 -0.788234 -0.520376 -0.195754 
是 0.051332 0.098313 -0.366668 0.033559 0.155046 -0.247947 -0.450974 -0.139915 0.131269 -0.235745 0.401817 0.260033 0.896013 0.079781 0.114767 0.808984 0.030351 0.058715 -0.108158 -0.176691 0.009013 0.152925 0.028650 -0.004869 0.074946 -0.252463 -0.018377 -0.459276 0.336296 0.269682 0.153782 -0.268621 -0.317889 -0.259296 -0.122551 0.171627 -0.270696 0.078176 -0.364145 -0.198442 0.005987 -0.208313 0.128199 0.407987 -0.071161 -0.625780 0.004664 0.091201 -0.017795 0.021355 0.142084 -0.202418 -0.290574 0.097095 -0.181339 0.233691 0.090501 0.000260 0.596862 -0.250466 0.329730 -0.078370 -0.246829 -0.216282 0.078521 0.167886 0.461241 -0.218734 -0.181573 -0.011342 0.313828 0.014660 -0.000866 0.147140 0.431257 -0.115546 -0.068071 -0.049770 -0.059790 0.104210 0.071527 -0.323419 -0.375746 0.288992 0.158265 -0.353322 -0.100574 -0.068826 -0.091015 0.167556 -0.193370 0.014581 0.519355 0.114017 -0.413233 -0.201829 0.114061 -0.197748 0.293833 0.310610 0.177634 -0.312430 -0.252427 0.193227 -0.022737 0.147889 -0.284973 0.067177 -0.273686 0.045908 -0.004221 -0.109715 -0.325179 0.002061 0.189262 0.686845 0.003207 0.381197 0.205640 -0.284107 -0.002748 0.390352 -0.336190 -0.065881 0.180468 0.009938 -0.421854 -0.231551 0.669668 -0.229565 0.480764 -0.042076 -0.354929 0.021673 0.325306 -0.202649 0.034070 -0.004751 0.288790 -0.176432 -0.286043 -0.341875 0.098452 -0.199923 0.745515 -0.029136 -0.138051 0.321312 -0.249912 -0.081809 -0.144083 -0.198426 -0.083845 0.079386 -0.068280 -0.104337 0.102174 -0.344215 0.110996 -0.438552 0.077722 0.034001 0.167760 -0.511478 -0.107762 0.082356 -0.236429 -0.487875 -0.037866 -0.365495 -0.004339 -0.355530 -0.022136 -0.065419 0.070045 -0.322910 -0.149768 0.038768 -0.012222 -0.242359 -0.291785 -0.627365 -0.532528 -0.226480 -0.343789 -0.013030 -0.549746 0.400931 0.198282 0.363114 0.052027 -0.372606 0.016026 -0.189203 0.030689 -0.043942 -0.150732 0.222832 -0.317916 0.094513 0.046141 -0.380582 -0.039233 0.188031 -0.050015 -0.169715 -0.049030 -0.017959 -0.159002 0.016432 -0.441153 0.188285 -0.055860 -0.020825 0.131394 0.103623 0.143936 -0.248458 -0.116982 -0.263487 -0.319535 0.533013 0.336758 -0.247540 -0.320086 0.580038 -0.346682 -0.116201 -0.032538 0.111317 -0.008518 0.488295 0.123890 -0.458413 0.165262 -0.031546 0.269826 -0.322890 -0.331041 0.048656 0.197387 0.244223 -0.007832 -0.228471 -0.270549 -0.102719 0.156469 -0.187758 0.118483 -0.126611 0.222955 0.014021 -0.189774 0.421025 -0.035399 -0.397529 -0.272247 0.148767 0.408521 -0.046339 -0.210083 -0.075097 0.271677 0.103378 -0.323184 0.129610 -0.376212 -0.245549 0.151199 0.288021 0.156857 -0.093838 0.263839 0.303237 -0.018498 -0.046005 0.517944 -0.308072 -0.385410 0.197704 -0.347975 -0.288564 -0.441390 0.078399 0.251667 -0.102326 -0.482476 0.191797 -0.061053 0.185119 0.120259 0.093081 0.445223 -0.229567 0.301160 -0.012379 -0.371344 -0.423023 0.003983 0.123564 
” -0.162252 -0.010282 -0.164574 0.277628 -0.020904 -0.254579 -0.183700 -0.296156 -0.002768 0.152144 0.327035 0.011950 0.481034 -0.078029 -0.023099 0.213914 -0.022750 0.166109 0.707099 0.228914 -0.208364 0.054405 0.057396 0.406948 -0.434846 -0.409198 -0.279732 -0.361267 0.015030 0.093715 0.270118 0.155026 0.049386 -0.287581 -0.047566 0.384805 -0.011597 0.101413 -0.178233 0.185575 -0.099346 -0.267826 0.329670 -0.024760 0.227396 -0.056745 0.497721 0.565808 0.206968 0.373978 -0.498704 0.182293 -0.312089 0.097046 0.076147 0.138673 0.135545 -0.367931 -0.747878 0.052255 -0.241862 0.204366 -0.770465 -0.295240 -0.415083 0.037015 -0.160445 0.181495 -0.412610 -0.022090 0.083275 -0.413557 -0.225618 0.059954 -0.208812 -0.081279 -0.181618 -0.254986 -0.449061 0.092031 -0.111520 -0.395340 -0.072359 0.027026 0.234042 0.092557 0.244967 0.338481 0.284330 0.129597 0.179400 -0.009449 -0.179854 0.143213 -0.174366 0.267196 -0.013228 -0.157239 -0.574316 0.065404 0.239056 -0.259396 -0.133381 0.151613 0.284845 0.105756 0.207572 0.138387 -0.478334 -0.091541 0.063164 -0.164342 0.231237 -0.117329 0.406248 0.424443 -0.103846 0.167059 0.327596 -0.081958 0.125768 0.331455 -0.401613 -0.154244 0.077915 0.323007 -0.274049 -0.476319 0.083176 -0.104871 0.238198 0.049019 0.019232 0.026921 -0.171216 0.151329 -0.103679 0.180725 -0.151879 -0.490154 0.011673 -0.011233 -0.053616 0.229039 0.079791 0.174662 -0.124733 0.594318 0.528394 0.195760 0.001157 -0.089284 0.660567 -0.465975 0.042554 0.484367 -0.217597 -0.306089 -0.125180 -0.375073 0.065617 0.042095 0.047534 -0.242316 0.023613 0.151857 0.002220 -0.295960 0.179055 -0.017277 0.067595 0.283759 0.057977 0.308160 -0.034696 -0.222696 -0.171310 0.190946 0.113918 -0.102275 0.008173 -0.501131 -0.108318 -0.045405 -0.354457 0.030150 0.153912 0.529930 0.168204 0.200079 0.178903 -0.067777 -0.367277 0.269884 0.575002 -0.476212 -0.461371 -0.370255 0.073279 0.066695 0.536583 -0.589822 -0.195687 0.071482 -0.176831 0.234811 0.199420 0.165516 -0.010891 -0.284049 -0.117320 0.054209 -0.204876 0.279545 0.126655 0.073534 0.013520 -0.350478 -0.249568 0.277425 -0.287294 -0.021255 0.120046 0.136453 -0.275411 0.034762 -0.213795 -0.120196 0.103960 -0.128716 -0.215140 -0.024301 0.042801 -0.287867 0.241451 -0.280791 0.057860 0.030629 -0.390558 -0.568660 0.294725 -0.194529 0.276382 -0.093279 -0.005167 0.294431 -0.151254 0.590115 -0.093810 0.098362 -0.275608 -0.010323 0.196073 0.322725 -0.123144 0.101345 0.106018 -0.253810 0.088104 -0.196751 -0.561945 0.097659 -0.079591 0.354931 -0.008989 -0.100481 0.398600 -0.143550 0.466006 0.104891 0.327300 0.310339 0.294908 0.164589 0.158685 0.367227 0.379797 -0.152714 -0.446679 -0.087782 -0.115956 -0.260044 -0.291445 0.184224 -0.055267 -0.407656 -0.076695 -0.019626 -0.061233 -0.011280 0.121536 0.137161 -0.106185 -0.251407 -0.010011 0.029138 0.398329 -0.402731 -0.004598 -0.083501 
为 -0.023537 0.109233 0.101640 -0.046187 0.313231 -0.609975 0.035716 -0.326817 -0.305285 0.507088 0.119509 0.039074 0.322342 0.115928 -0.135971 0.311819 -0.344412 0.256780 -0.201812 -0.278747 -0.303667 -0.073424 0.019341 0.221924 -0.643326 -0.328940 -0.366775 -0.288007 -0.169911 0.113116 -0.353861 -0.331939 0.217512 -0.139331 0.144393 -0.002168 0.338743 0.186427 0.077309 -0.133952 -0.484871 -0.255382 -0.079808 -0.083619 0.368890 -0.389777 0.092145 0.363800 -0.028779 -0.052656 0.207187 -0.036291 -0.084025 0.238225 -0.472429 0.574978 0.382162 0.137530 0.208685 0.113968 0.024014 -0.179745 -0.228008 -0.425721 0.206333 0.092604 0.398303 -0.049919 0.126388 0.117705 0.202852 0.237410 0.462676 0.226478 0.423022 0.124082 -0.561841 -0.071385 -0.038739 0.087645 -0.024359 -0.347006 0.142474 -0.165344 -0.419538 -0.021051 -0.536972 -0.091643 -0.072362 0.142037 0.119961 -0.255026 0.277724 -0.183714 -0.207895 0.289586 -0.023296 -0.261244 0.552290 0.603522 0.646471 0.171212 0.015186 0.169785 0.109917 -0.434915 -0.319558 -0.507724 -0.331366 0.406562 -0.238743 0.187044 -0.527274 0.188620 0.438465 0.669214 0.038418 0.744684 0.159511 0.071253 -0.161697 0.151348 -0.060892 0.118657 -0.163512 0.057415 -0.322850 -0.142684 0.654553 -0.169926 0.376047 -0.116869 -0.391155 -0.238085 0.159552 -0.871853 0.402206 0.105379 0.037590 -0.205540 -0.315400 -0.102517 -0.291707 -0.209734 0.283218 -0.380472 -0.058460 0.501234 0.019932 0.254534 -0.394012 -0.074163 0.095991 -0.491480 -0.276529 0.041134 0.258168 0.295026 -0.331239 -0.668350 -0.146215 -0.298421 -0.027291 -0.519811 -0.511415 0.325787 -0.104837 -0.518200 -0.021066 -0.372490 -0.040242 0.105305 0.084993 -0.049460 -0.022810 -0.044971 0.278955 0.526526 0.109942 0.001821 -0.374180 -0.931890 -0.040129 -0.539321 -0.201585 0.288766 -0.376835 -0.256372 -0.081933 0.282602 -0.649469 0.173733 -0.197517 0.132494 0.377049 0.390741 -0.539167 -0.089200 0.365180 -0.151396 0.163198 0.098688 -0.064496 0.021454 0.196747 -0.208314 -0.581058 0.298728 -0.089284 -0.175493 -0.314787 0.120891 -0.274629 -0.323546 0.461330 0.331994 -0.021795 -0.098345 -0.099470 -0.069616 0.221876 0.226432 0.171676 -0.104449 -0.150671 0.284056 0.148768 -0.281951 -0.064144 -0.190776 0.242701 -0.243811 -0.369756 -0.154352 0.477190 -0.457308 0.275529 0.089167 -0.224253 0.235688 0.045434 -0.206241 0.698651 -0.053504 0.474756 -0.276551 -0.311282 -0.093732 0.272751 0.111130 -0.456531 0.058362 -0.415376 0.265888 -0.228516 -0.087440 -0.494656 0.520215 -0.026012 -0.286069 0.581205 -0.037233 -0.217559 0.320867 0.275297 -0.196087 -0.296540 -0.358176 0.025512 0.052187 0.126763 -0.003963 -0.081218 0.102902 0.214104 0.316766 0.247772 0.277632 -0.602287 -0.078487 0.374468 -0.054132 -0.300217 -0.507572 -0.167045 -0.125233 -0.099790 -0.176692 -0.171824 0.214698 0.244758 0.166099 -0.212209 -0.345887 -0.657885 0.315180 0.447394 -0.436367 0.175216 -0.264734 
一 0.234236 -0.178566 -0.087391 -0.261628 0.308671 0.222972 -0.319243 -0.203402 -0.492876 -0.500190 -0.033090 0.141824 0.309444 0.180569 -0.284012 0.687559 -0.096038 -0.495826 0.657962 0.150683 0.105494 0.413143 -0.175562 0.397629 0.066537 -0.352792 0.059863 -0.644121 0.601273 0.277684 -0.255887 -0.073844 0.114514 -0.159698 -0.464008 0.419783 -0.531248 -0.345718 -0.042649 0.245277 -0.137505 -0.437132 0.140034 -0.147572 -0.320907 -0.096191 -0.258570 0.011869 -0.401658 -0.240828 0.071370 0.080895 0.074254 0.306951 -0.088324 0.691873 -0.505041 0.551658 0.111586 0.538875 0.064155 -0.149308 0.051863 -0.219870 0.050485 0.520590 0.069573 0.229464 0.210362 0.258945 0.407004 -0.543177 0.247368 0.013904 0.344828 -0.201060 -0.475929 0.082930 -0.111991 0.274822 -0.154772 -0.222660 -0.059670 0.451559 0.273061 0.072205 -0.262370 0.122284 -0.128027 0.027665 -0.048634 0.534227 0.085170 0.189297 -0.309097 -0.233599 0.451507 0.329568 -0.062269 -0.010679 -0.228660 -0.115756 -0.011071 0.449690 0.060434 0.616081 0.182631 0.338128 -0.032033 0.951523 0.186385 -0.220414 -0.628120 0.348086 0.262616 0.654458 0.160634 0.104867 0.317256 0.175651 -0.487715 0.265119 0.051235 -0.447543 -0.131929 0.192984 -0.457238 0.092594 -0.055269 0.109052 0.174515 -0.063540 -0.040879 0.015139 0.061196 0.540808 -0.064036 0.161987 0.168922 -0.051490 0.155628 0.178041 -0.347597 0.246364 -0.013354 0.104418 -0.493491 0.292111 0.291506 -0.024855 0.092014 -0.154233 -0.047900 0.386253 0.228990 0.034783 0.468844 0.201962 -0.148670 0.013290 0.448889 -0.002645 -0.025873 -0.014246 -0.239510 0.436937 -0.104081 -0.044550 0.345029 0.024130 0.245413 -0.237780 -0.114857 -0.002510 0.446217 -0.388510 -0.202934 -0.470534 0.233456 0.103915 -0.179555 -0.365261 -0.104109 -0.223889 -0.520708 0.176832 -0.312594 0.356330 -0.338026 0.243027 0.412980 0.218655 -0.288995 0.014776 0.165504 -0.251076 -0.319213 -0.725538 0.161516 -0.258408 0.095141 -0.079303 0.025000 0.106632 0.481275 0.548162 -0.240871 0.426713 0.083235 0.089150 0.069807 0.054492 0.385865 0.108431 0.321211 -0.220812 0.181999 -0.233840 -0.536901 -0.254625 -0.075490 -0.009967 -0.029534 0.044040 -0.028564 0.455399 0.134329 -0.097577 0.457546 -0.177121 -0.331451 0.330253 -0.147286 -0.095717 0.206957 0.234655 -0.053681 1.055270 -0.119817 0.208375 0.080484 0.270584 0.174053 -0.009946 0.246752 0.177445 0.048391 -0.025205 -0.062400 -0.288711 -0.291624 0.200771 0.051233 0.373841 -0.049687 -0.234936 -0.402626 0.109002 0.147596 0.005205 0.158055 -0.043912 0.285749 0.094534 -0.062630 0.144371 -0.208904 -0.213913 0.378571 -0.228448 -0.109163 -0.277365 0.137351 0.321923 0.189084 0.480453 -0.001383 0.117729 -0.062024 -0.362955 -0.083443 -0.455315 -0.460627 0.023522 -0.082241 0.221166 -0.064858 0.182880 0.030249 0.248339 -0.490137 0.215629 -0.064121 0.075092 0.253860 0.161173 0.228363 -0.365722 -0.387921 0.053336 
： 0.184703 -0.289219 -0.465309 0.226172 -0.023463 -0.040748 0.547715 -0.413186 -0.505076 -0.433708 0.168898 -0.082766 0.091080 -0.171101 -0.183988 -0.509305 0.113408 -0.131974 0.193332 0.070006 0.433861 0.026653 -0.425217 0.264911 0.516102 -0.100340 -0.529974 -0.093372 0.054879 -0.298407 0.072665 -0.023169 0.089691 -0.312641 0.084789 -0.400427 0.294928 0.186210 -0.730635 -0.248325 0.270195 -0.077546 -0.558314 0.055433 0.170503 0.335506 -0.255156 0.135724 -0.366726 -0.162168 0.173134 -0.509325 0.028469 0.464905 -0.368303 0.532806 -0.113899 0.036228 0.132361 0.250268 -0.070013 -0.688831 -0.815331 -0.086353 -0.059272 0.898565 -0.181478 -0.325722 -0.032613 -0.213237 0.031825 -0.207870 -0.544624 0.406065 -0.363332 -0.349331 -0.758923 0.284814 -0.148264 0.312511 0.630914 -0.201942 0.072349 -0.697529 0.573763 -0.480178 -0.313262 -0.949290 -0.016926 -0.003182 0.193139 -0.533833 -0.376595 0.212081 -0.012816 0.106325 -0.103529 -0.207391 0.254280 -0.160479 -0.147834 0.282498 -0.542433 0.438855 0.436987 0.433564 -0.914326 0.061679 -0.160102 0.196946 -0.187228 0.062240 -0.089880 0.190788 -0.481860 0.637889 -0.148965 -0.257831 0.003473 -0.366691 -0.208603 0.000986 -0.269009 -0.556065 -0.150867 -0.088001 -0.382562 0.303330 0.204442 -0.067960 -0.251151 -0.420860 0.202181 0.024123 0.046148 -0.488627 0.014406 0.305336 0.095287 -0.239086 -0.069738 -0.285089 0.036009 0.074122 0.803597 0.260718 0.014921 0.598611 0.394560 -0.435692 -0.313400 0.053856 0.396366 -0.127994 0.581910 0.091132 -0.492734 -0.499290 -0.332844 -0.258591 0.124110 -0.993058 -0.461940 -0.470187 0.172370 0.642957 -0.181909 -0.067311 0.057528 0.117087 -0.235620 -0.195090 -0.343772 0.117494 -0.104361 -0.581864 0.222079 0.016197 -0.003101 -0.378350 -0.181052 -0.260062 -0.812741 -1.051053 0.478029 -0.083398 0.662680 0.216072 -0.132948 0.238925 -0.365377 0.487427 0.374349 -0.196386 0.015916 0.291951 0.136682 0.313596 0.154374 -0.216724 -0.465595 -0.369788 0.368350 -0.146203 0.114706 -0.829480 0.118239 0.154975 0.786584 -0.177698 -0.720101 -0.394363 0.532512 0.070765 -0.338943 -0.366609 0.361654 -0.449173 -0.265721 0.291296 0.223976 0.519230 -0.159758 0.173560 0.170258 0.333149 -0.106675 -0.550018 -0.145399 0.103573 -0.585286 -0.180209 -0.182759 -0.437582 -0.271070 -0.093084 0.228843 0.149707 -0.042108 0.030408 0.311100 -0.057090 0.401189 0.190859 -0.009019 0.173005 0.101297 0.324013 0.204472 0.397522 -0.289305 0.204786 -0.289639 -0.306479 -0.477549 0.000864 -0.375614 -0.056259 -0.014895 0.502819 -0.576911 0.406250 0.480752 0.018541 -0.455258 -0.342208 -0.308123 0.250300 0.316729 -0.532802 -0.139376 0.321094 0.481136 0.651930 0.230575 0.242168 0.162941 -0.587617 -0.120314 0.297364 -0.381622 -0.647889 -0.225268 -0.142417 -0.338756 -0.541367 -0.046746 -0.759210 0.221865 0.278563 0.183245 -0.054998 0.607638 0.412090 -0.636190 -0.271069 0.267582 -0.018722 0.144135 0.130727 
由 0.081184 0.209185 -0.530409 0.368004 0.244069 0.168565 0.152083 -0.383003 -0.168690 0.256679 0.077495 -0.270547 0.423970 -0.185123 0.142296 -0.108563 -0.137754 0.194834 -0.636342 0.516941 0.259522 0.406514 0.196570 0.294868 0.177997 -0.379267 0.426024 0.179518 -0.382012 0.111610 0.514629 0.056087 -0.109077 -0.403247 0.092532 -0.610451 -0.329189 0.044624 -0.388492 0.001207 -0.387888 0.263575 0.280229 -0.453473 -0.519949 -0.281103 -0.329512 -0.086528 -0.862350 -0.087486 0.737949 0.407652 0.071565 0.558109 -0.217075 0.189845 0.176163 -0.308907 -0.118145 0.391270 0.316412 -0.076917 0.240120 0.160518 0.169842 0.362611 0.120449 -0.348706 -0.334442 0.116597 0.313514 -0.057714 0.458889 0.815605 -0.211276 -0.306807 0.163162 -0.034974 0.247772 0.263012 0.264364 0.224226 0.217759 0.091662 -0.622634 0.311477 0.212571 -0.835726 -0.090328 0.196339 -0.284550 -0.193465 0.428421 0.918268 -0.572996 -0.402348 0.293854 0.248022 0.529968 0.066340 0.560224 -0.023462 -0.166833 0.330171 -0.092669 -0.495190 -0.013033 0.248053 0.100854 0.348640 0.115817 0.316978 0.048797 -0.479249 0.046255 0.406153 -0.013941 0.327348 0.039056 0.241205 -0.317866 0.401322 -0.008155 -0.307618 0.242070 0.302595 -0.466502 0.007850 0.659199 0.449326 0.592916 0.170413 0.454133 0.008280 -0.478069 -0.040566 0.093324 -0.140311 0.511058 0.018289 -0.248730 -0.547589 0.037140 0.468277 0.339328 -0.482659 -0.603385 -0.140108 -0.241715 0.905055 0.017212 -0.269451 0.007132 -0.379186 0.097311 0.041220 0.320614 0.076392 -0.595697 -0.492677 -0.417002 -0.085297 -0.427937 0.004388 -0.365423 0.032471 -0.280396 -0.315092 -0.147609 -0.082926 -0.082166 -0.028303 0.140468 0.025160 0.019364 -0.429625 -0.418680 0.146677 -0.231625 -0.128003 -0.252910 -0.289351 -0.204061 -0.325620 -0.628344 -0.287401 -0.121068 -0.047249 0.200277 0.000857 0.066236 -0.031976 -0.124324 0.336867 0.298400 0.493085 0.299626 -0.135834 0.217273 -0.066447 -0.201806 0.036739 -0.100625 -0.294283 0.417778 0.001555 0.605976 -0.119127 0.376149 0.251283 0.401233 -0.514208 -0.243928 0.132414 0.379935 -0.087584 0.254764 0.300187 -0.142340 -0.388964 0.261407 -0.004944 -0.010749 -0.135719 -0.200940 0.732686 -0.774343 -0.244240 -0.094851 -0.013117 -0.081163 -0.107378 -0.067819 0.402844 0.061689 -0.348099 -0.077538 0.020682 -0.227990 -0.572562 0.126636 0.158000 0.031227 -0.493510 -0.133134 -0.442369 -0.227275 -0.436184 0.112226 -0.141699 -0.162755 0.228267 -0.125366 -0.159587 0.039943 -0.668929 -0.096572 -0.196612 0.229253 0.187223 -0.016911 0.219106 -0.290327 -0.386801 -0.234187 0.278673 0.343092 0.455245 -0.185774 0.406485 -0.145480 0.231682 0.142222 -0.148508 0.501327 -0.497741 0.153880 0.148529 0.133628 0.487226 0.060678 -0.293363 -0.141837 -0.072870 -0.113202 -0.568622 0.222882 0.176654 0.110100 -0.452399 -0.219686 0.169676 0.683291 0.096997 -0.620140 -0.519626 -0.212725 -0.393379 -0.075978 0.076076 
《 -0.351015 0.517941 -0.522381 0.141030 0.678759 -0.564008 0.141092 -0.446353 -0.203243 -0.458762 0.208856 -0.057382 0.208998 -0.337149 0.142195 0.219818 0.368485 0.199215 0.279121 0.077277 0.470396 -0.058192 -0.274326 -0.505847 0.181979 -0.302560 -0.301087 -0.795901 0.307252 0.132620 0.246599 -0.013582 0.298566 -0.280218 -0.412303 -0.019245 0.171057 -0.082772 0.173021 0.247046 -0.008438 -0.201173 0.156909 -0.446135 0.111865 0.126848 0.114413 0.218603 0.035009 0.087545 -0.534284 0.266923 -0.374316 0.049034 -0.333557 0.099703 0.439448 -0.207312 0.267490 0.156581 -0.493475 -0.106740 -0.007314 0.332509 -0.519584 0.191474 0.136129 0.006985 -0.021904 -0.404937 0.198029 0.205543 -0.466965 -0.170406 -0.151518 0.438274 -0.204698 -0.153505 -0.144600 -0.056456 0.142822 0.123569 0.269736 0.100715 0.826366 0.395882 0.253166 -0.544052 0.516134 -0.985354 0.497499 0.078239 -0.438297 -0.383168 -0.276790 -0.050173 -0.143154 0.037879 -0.367308 0.495340 -0.370618 -0.323140 0.140534 0.986415 0.629390 -0.436455 0.094903 0.232949 -0.055690 0.373985 0.455242 0.647480 -0.305636 -0.501331 0.788907 0.332277 -0.149792 -0.041305 -0.237279 -0.032547 -0.311757 0.547026 0.214192 -0.437284 -0.355405 0.754127 -0.189894 -0.260147 0.551542 0.440718 0.178346 0.163602 0.241869 0.119873 0.027819 0.493825 -0.280593 0.035686 0.132220 -0.229242 -0.176164 -0.606913 0.120692 0.937847 -0.212024 -0.157571 -0.145627 -0.404271 0.223229 -0.022575 0.104625 -0.034301 0.537105 -0.086141 -0.477385 0.169857 -0.066167 -0.174269 0.269756 0.001112 -0.112027 -0.885393 0.160308 -0.240507 -0.366675 0.643922 -0.072632 -0.353831 0.270726 -0.169225 -0.360916 0.130924 -0.562920 0.489302 -0.207427 0.035435 0.630937 0.020697 0.046554 -0.639099 0.254723 -0.089049 -0.243474 -0.567750 -0.944496 -0.186768 -0.935591 0.231346 -0.388055 0.327153 0.088751 0.332207 0.172126 -0.654860 0.526100 0.021853 -0.201909 -0.641413 0.155200 0.649217 0.040763 -0.080786 -0.424509 -0.249294 0.294423 -0.146077 0.564237 -0.242869 -0.338527 -0.658945 -0.391142 -0.447541 0.115370 0.207479 0.190331 0.286366 -0.013473 -0.245898 -0.507629 -0.165681 -0.140867 0.220717 -0.608220 0.177697 -0.446524 0.414874 -0.115634 -0.041945 -0.333563 0.191504 0.266454 0.130018 -0.364211 -0.458238 -0.251280 -0.288436 -0.085410 -0.000156 -0.269937 0.082196 0.806382 -0.171686 0.513842 0.288894 -0.573450 -0.031401 0.112532 0.038034 -0.207726 -0.030074 0.026933 -0.023011 0.204410 0.114035 0.109601 -0.022212 -0.400580 -0.343602 0.270917 -0.108535 -0.331474 0.019048 0.017161 0.417586 -0.555535 0.260463 -0.416928 -0.153597 0.113706 0.187327 -0.266116 0.332659 0.128653 -0.242735 -0.559267 0.250339 -0.084408 0.246305 0.191158 0.213439 0.190897 0.361577 -0.000877 -0.068676 -0.099679 0.008063 -0.182796 0.291687 0.393261 0.000396 -0.255721 -0.043372 -0.171539 -0.189841 0.239158 0.388358 0.098804 -0.358939 -0.090162 -0.572205 
》 -0.197055 0.644273 -0.299540 0.238337 0.601504 -0.529055 0.239695 -0.428284 -0.118917 -0.517978 0.332728 0.298922 0.218688 -0.455360 0.292587 0.026106 0.481774 0.004261 0.585353 0.335269 0.503644 -0.042724 -0.076754 -0.645742 -0.081379 -0.006029 -0.316422 -0.760343 0.001748 -0.016386 0.342308 0.136820 0.302155 -0.239272 -0.372606 -0.109835 0.188382 -0.123517 0.377623 0.170027 0.179038 -0.161607 0.068248 -0.184708 0.069600 0.124872 0.108679 0.300066 -0.114467 0.319707 -0.366547 0.203216 -0.342531 -0.061339 -0.093596 0.182432 0.181365 -0.289402 0.022256 0.395717 -0.500407 -0.014608 -0.150702 0.490263 -0.419825 0.320341 0.319858 0.070778 -0.122880 -0.308344 0.391305 0.151613 -0.241238 -0.340136 -0.194518 0.133358 -0.224448 -0.341475 -0.227764 -0.078119 0.239040 -0.143222 0.208442 0.057344 0.412709 0.191441 0.095720 -0.392488 0.570700 -0.531217 0.519328 0.044305 -0.246926 -0.238805 -0.234908 -0.021933 0.077515 0.141076 -0.003019 0.442915 -0.571835 -0.249682 0.074292 0.489776 0.301405 -0.501022 0.103730 -0.030656 -0.068032 0.209723 0.288776 0.613159 -0.151369 -0.458509 0.588127 0.397958 0.057182 -0.185691 0.001805 -0.138777 -0.166957 0.501080 0.154059 -0.529280 -0.295765 0.554233 -0.158294 -0.481542 0.631966 0.365127 0.372384 0.183336 0.262800 -0.343786 0.270990 0.512602 -0.269269 0.109899 0.054910 -0.250176 0.109837 -0.807979 -0.011228 1.019641 -0.163717 -0.292812 0.010993 -0.265591 0.147687 -0.092287 0.043461 0.038313 0.492021 0.111230 -0.334666 0.076942 -0.166836 -0.229419 0.340981 -0.188464 0.028337 -0.697605 0.165324 -0.137157 -0.217833 0.832013 -0.294064 -0.711329 0.041114 -0.084058 -0.351146 0.108751 -0.621966 0.329233 -0.440908 -0.162380 0.332226 0.095893 0.239255 -0.642114 0.400227 -0.279191 0.003755 -0.441956 -1.066066 0.055842 -0.478840 0.115118 -0.170669 0.167098 0.175877 0.279513 0.230101 -0.250843 0.403286 -0.276650 -0.048908 -0.614120 0.044882 0.370232 0.275986 -0.124468 -0.539181 -0.266388 0.018228 -0.180489 0.309296 -0.536253 -0.307200 -0.832257 -0.352168 -0.037230 -0.074252 0.489313 0.158717 0.311134 -0.079223 -0.213628 -0.486612 -0.069478 -0.083643 0.062982 -0.479432 -0.075440 -0.586288 -0.103650 0.145430 -0.073925 -0.352875 -0.125012 0.136914 0.262086 -0.563284 -0.541924 -0.238360 -0.279027 0.002650 -0.292405 -0.466147 -0.141863 0.656571 0.277966 0.520052 0.379694 -0.435739 -0.039056 -0.182566 -0.362914 0.034656 -0.370561 0.014796 -0.201924 0.238954 0.130237 -0.088403 0.295671 -0.321365 -0.275713 0.172985 0.013836 -0.187319 0.150239 0.201766 0.530947 -0.503673 0.339867 -0.131178 -0.081203 0.240144 0.306983 -0.092427 0.525154 0.377256 0.221459 -0.324881 0.232481 0.099741 0.091568 -0.049558 0.236300 0.296410 0.049800 0.114298 -0.235307 0.040027 0.053115 0.177884 0.199388 0.591599 -0.013184 -0.148990 -0.126946 -0.132031 -0.147440 -0.046262 0.312092 0.310726 -0.357765 -0.288108 -0.665660 
被 -0.363473 -0.018758 -0.275846 -0.098775 0.141953 -0.567543 -0.271318 -0.088439 -0.310722 0.063476 -0.253844 0.081205 0.086320 0.475076 -0.107533 0.254728 -0.074052 0.129236 -0.076787 0.530430 -0.312846 0.053521 0.237766 0.315734 0.053996 -0.370555 -0.338776 -0.265800 -0.051449 -0.090478 -0.197254 -0.097274 -0.470009 -0.144616 0.199696 0.394511 -0.227241 -0.127925 -0.147613 -0.283021 -0.188520 -0.109455 0.259482 0.074867 0.266634 0.170887 0.533720 0.021583 0.197460 0.028854 -0.060751 0.134992 1.183228 -0.014440 -0.207135 0.135025 -0.135676 -0.423648 -0.348284 0.133341 -0.234293 -0.081660 0.242978 0.070196 0.176508 0.011343 -0.347298 -0.334909 0.045529 0.568976 0.673283 0.334169 0.124547 -0.386431 0.263685 -0.236707 -0.355622 0.258778 0.096442 -0.223683 0.081345 -0.372490 -0.248735 -0.152759 -0.082050 -0.332510 -0.318815 0.075772 -0.136665 -0.147662 0.144879 -0.028362 -0.052892 0.121650 -0.256972 0.127254 -0.105474 0.298290 0.056645 0.404118 0.052981 0.028740 -0.246146 0.228979 0.245977 0.143152 -0.206207 0.186524 0.001775 0.394407 0.052318 -0.526676 0.085218 0.119619 0.593513 0.086091 0.187800 0.398747 -0.120118 0.220489 0.438211 0.101533 -0.372114 -0.411530 0.202061 0.499519 -0.112981 -0.291211 -0.222646 0.381996 0.362817 0.047738 -0.174372 -0.619065 0.291595 -0.009663 -0.078125 -0.017383 0.566477 -0.564364 0.531468 -0.413554 -0.101651 0.016981 -0.236431 -0.824070 -0.163605 -0.202640 0.380325 0.710680 -0.059020 -0.425567 -0.162694 -0.138359 -0.594016 -0.138940 0.078063 -0.279827 0.077266 -0.298719 0.213398 -0.009995 0.252082 -0.478939 -0.278465 -0.138966 0.009503 -0.193089 -0.252504 0.112788 0.253637 0.069541 -0.296792 -0.416996 -0.319699 -0.539944 -0.291561 -0.335321 0.157866 0.263160 0.070366 -0.406856 0.116354 -0.388293 -0.350872 -0.157131 -0.238051 -0.002759 -0.243201 -0.617216 0.462096 -0.419517 0.028305 0.247074 0.035705 0.247836 0.267919 -0.340594 -0.274959 0.040191 0.181664 -0.213566 -0.190360 0.350879 0.084848 0.049802 0.033962 0.133271 0.112009 0.001845 -0.278025 -0.255521 -0.239687 -0.289969 0.262512 0.176608 -0.140387 -0.160823 0.081528 0.196684 -0.157360 0.363878 0.002131 -0.165540 -0.762420 -0.116414 0.130087 -0.228615 0.315199 0.140618 -0.226617 -0.098367 -0.519670 0.383812 -0.334722 0.187597 0.113457 -0.260188 -0.126083 0.034175 0.899669 0.002602 -0.021553 -0.232258 -0.339963 -0.614449 0.167460 0.008716 -0.274557 -0.300061 -0.222263 0.212298 0.223891 -0.533471 -0.042698 -0.458271 -0.620931 0.274601 -0.318605 0.389096 0.296248 -0.401893 0.132423 0.384604 0.212218 -0.128089 0.177608 -0.056728 -0.022179 -0.186325 0.002680 0.083438 0.103730 0.439826 0.654390 -0.150461 0.308211 -0.128562 0.302074 -0.245330 0.053631 0.062934 0.364002 -0.053216 -0.261032 -0.089347 -0.047400 0.396145 -0.215440 -0.446825 0.378798 0.140825 0.538244 -0.170169 -0.139047 -0.370100 -0.149518 -0.468650 0.436419 -0.052885 
于 0.050915 0.484486 -0.189588 0.196527 0.303481 0.227992 -0.198503 -0.263179 0.289502 0.428981 0.199702 -0.277735 -0.082082 -0.002826 -0.335103 0.260930 0.455602 0.334393 0.448217 0.049662 0.121028 -0.582686 -0.084933 0.151949 0.655000 -0.514113 0.039687 -0.618289 -0.269439 0.566085 0.267341 -0.076606 0.122298 -0.090137 0.352347 0.175200 0.174804 0.177005 0.008700 -0.252502 0.020311 -0.141848 -0.210625 -0.412184 0.387736 0.072139 -0.327567 -0.062025 0.425472 0.522093 -0.141849 -0.006991 0.362177 0.359574 0.162701 0.280669 -0.091787 0.049567 0.446169 0.489762 -0.256171 0.433374 0.261076 -0.123500 0.295936 0.045448 -0.280328 -0.456969 0.189658 -0.107740 0.194562 -0.466557 -0.063681 0.316639 0.503206 -0.398845 -0.077918 -0.444553 -0.358539 0.056844 -0.317949 0.024249 -0.219668 -0.087653 0.253472 -0.227402 0.068779 -0.151759 -0.532043 0.432916 0.388360 0.535836 0.020813 -0.014805 -0.173200 0.054563 -0.188124 -0.315493 0.398771 0.307404 0.076506 0.711416 0.231524 0.330743 0.117025 0.343639 -0.506022 0.606811 -0.122053 0.320200 0.254134 0.128176 -0.291983 -0.166297 0.174265 0.355945 -0.057197 -0.041405 0.656263 -0.203053 0.126477 0.305677 -0.437656 0.181033 -0.058082 0.440767 -0.365794 -0.429480 0.124691 0.259000 0.222823 -0.171007 0.063980 0.111152 0.096823 0.212461 -0.300865 0.098076 -0.237590 -0.217208 -0.051418 0.013509 -0.192858 0.050745 0.174207 0.332904 -0.379849 -0.287988 -0.553102 0.174425 0.435681 0.031354 0.187958 0.576118 0.117654 -0.094601 0.267420 0.068651 -0.432570 -0.422416 0.121400 -0.020297 0.064433 0.370971 -0.557634 0.246556 0.152035 0.229075 0.596548 -0.385618 -0.182076 0.372301 0.290481 -0.367881 -0.205500 -0.651850 -0.242149 -0.024813 -0.393354 -0.196087 -0.269136 -0.094414 0.183573 -0.458389 -0.396687 0.032452 -0.319420 0.044717 -0.164196 0.119897 -0.447510 0.169046 0.133551 0.792659 0.205149 0.075851 0.233812 -0.084910 0.640863 -0.050924 -0.174409 -0.034125 0.137626 0.360592 -0.578026 0.258455 0.541647 -0.004364 0.189273 -0.043909 -0.537769 -0.220784 0.454014 -0.370452 0.305759 0.413354 0.118615 -0.021464 0.576362 0.097404 -0.029922 -0.317950 0.443987 -0.103628 -0.016866 0.043342 -0.108230 -0.651268 -0.140015 0.338392 0.141911 -0.071337 -0.020476 0.102708 -0.021983 -0.299051 -0.393285 0.063346 -0.394878 0.196192 0.502260 0.081218 0.323866 -0.101071 0.583543 -0.045156 -0.301725 0.457382 0.283549 0.101042 -0.060585 -0.034981 -0.264341 0.423383 0.384992 -0.464974 -0.496802 0.565038 0.032383 0.292294 0.405431 0.005173 -0.237702 0.304674 0.104521 -0.210275 0.420494 -0.375612 0.032392 0.252653 -0.221949 0.342049 0.315825 -0.011858 -0.100015 0.191010 0.321187 -0.207982 -0.251999 0.034964 0.265129 -0.476263 -0.428215 0.460986 -0.104327 -0.711889 -0.340259 -0.035792 0.047502 -0.191148 0.025508 -0.207726 0.410359 -0.458232 0.164795 -0.006294 0.309532 0.050075 0.085288 -0.364295 
有 0.177698 -0.260713 -0.389222 -0.087990 0.305368 0.173240 -0.107084 0.250318 0.211481 0.094281 -0.363026 -0.091548 -0.029017 0.404446 -0.110325 0.241108 -0.050909 -0.497661 -0.216411 -0.393420 -0.011692 0.320026 -0.179098 0.172702 0.415309 0.249300 0.304578 0.100362 -0.108382 0.357552 0.176908 -0.283061 0.012529 0.358799 0.211425 0.487650 -0.195725 0.089026 -0.603463 -0.054077 0.115253 -0.087444 0.138845 0.026205 0.266816 -0.105306 0.086822 0.440815 0.255496 0.229010 -0.548200 -0.052920 -0.428096 -0.093005 -0.425898 0.167428 -0.273751 -0.286849 -0.049573 0.082862 -0.283953 -0.436186 -0.061886 -0.208242 -0.113225 0.111841 -0.016524 -0.179189 -0.148215 0.075966 0.232271 -0.166259 -0.390415 -0.092019 -0.074830 -0.074443 -0.444292 0.012566 -0.109399 0.059020 0.470883 -0.280614 -0.272837 0.298569 -0.180785 -0.349044 -0.410065 -0.065320 0.099449 -0.048162 0.316204 0.093863 0.001105 0.186398 -0.325805 -0.005361 0.219701 0.136154 -0.125132 0.685295 -0.486406 0.242025 0.020621 0.361898 0.035465 -0.226572 0.135516 0.172674 -0.570576 -0.041762 -0.344031 -0.032612 -0.352508 0.180483 -0.508354 -0.198949 0.194017 0.411901 0.596049 -0.189330 0.334333 0.031202 -0.321058 0.272728 -0.195750 -0.093826 -0.019061 -0.280231 0.122132 0.112259 0.310916 -0.373472 -0.248290 0.110588 -0.270605 -0.295989 -0.048237 -0.025200 -0.535734 -0.382571 -0.339301 0.147538 0.259908 0.556785 -0.017320 -0.036820 0.113606 0.170101 0.125413 0.343905 0.246773 0.102602 -0.037136 -0.016664 -0.078593 0.185904 0.102495 -0.033540 0.067519 -0.310095 -0.022891 -0.511088 0.249221 -0.405522 0.080656 0.220838 0.428354 -0.489986 -0.211843 -0.526706 0.037470 -0.103816 0.155197 -0.339405 -0.470274 -0.423582 -0.426732 0.105093 -0.049378 -0.054788 0.048693 -0.386163 -0.364816 -0.103254 -0.255263 -0.303215 -0.242124 0.164765 -0.335160 0.354873 0.302180 -0.397309 -0.172366 0.086178 0.019489 0.123080 0.024008 -0.293987 0.371042 0.005553 0.411780 0.107951 -0.262154 -0.159892 0.502782 -0.013856 0.232762 0.189763 0.154406 0.018902 -0.550565 -0.169415 0.370698 -0.011999 0.398281 -0.128154 0.295215 -0.005687 -0.087288 -0.566704 0.004885 0.481680 0.151855 -0.133899 0.020131 0.225400 0.169455 0.352853 0.280903 -0.016342 -0.120431 -0.173393 -0.409964 0.029946 -0.045899 0.098492 -0.197736 0.210359 0.103969 0.091298 0.116315 0.306801 0.289343 -0.050124 -0.036196 0.372644 -0.066398 -0.255100 -0.224757 -0.144406 -0.150822 0.262610 0.385889 0.240043 -0.400969 -0.139881 -0.428689 0.321893 0.355112 -0.209573 0.218431 -0.230593 -0.085827 0.053854 -0.769466 -0.387189 0.056953 -0.310098 -0.332532 0.190396 -0.400041 0.228447 0.240691 0.400328 -0.051976 0.384972 -0.048850 -0.356935 -0.171028 0.649392 -0.064830 -0.297888 -0.085639 -0.172919 0.034355 -0.266211 -0.109977 0.430779 -0.009598 -0.824421 -0.129281 0.084083 0.406105 -0.030677 -0.146731 -0.101323 0.023939 -0.333823 -0.233877 -0.329466 
以 0.466626 -0.083089 -0.120111 -0.107905 0.154064 0.158720 0.433733 -0.131444 0.317216 0.092524 -0.059844 0.311491 0.224907 0.594845 0.273599 0.054929 0.047795 0.261357 0.209477 -0.428436 -0.438987 0.049630 -0.011777 -0.072079 0.135285 -0.252075 -0.157844 -0.135012 0.400002 -0.114815 0.251356 -0.065528 -0.061583 0.049467 0.170003 -0.041124 0.268542 0.002440 -0.230757 0.553436 -0.180978 0.118240 -0.337795 -0.453938 0.017153 -0.070889 -0.303827 0.260971 -0.148812 0.501001 -0.186098 0.058481 0.365124 -0.321799 -0.041111 0.355224 -0.206154 -0.283607 0.021806 0.428792 -0.171925 0.153461 -0.395039 -0.013560 0.069016 -0.069330 -0.537557 -0.407743 -0.114085 0.025808 0.193647 -0.279013 0.439590 0.425092 0.136661 0.318034 -0.312426 -0.062115 0.433495 0.115475 0.185508 -0.124496 -0.124544 -0.020142 0.303307 -0.183739 0.193264 -0.615316 -0.108977 0.056232 0.512866 0.048717 0.344358 0.231190 -0.156896 0.031388 0.355353 0.351126 0.393095 -0.070596 -0.050999 0.632738 -0.240819 0.493978 0.023122 -0.188078 0.189888 -0.242149 -0.145818 0.292048 -0.076324 -0.153669 0.068884 0.441843 0.529816 0.293039 0.130082 0.144883 0.029514 0.286767 0.258496 0.040142 0.029560 0.116813 0.368700 -0.413337 -0.428727 -0.154547 0.167214 0.271684 -0.014938 0.018934 -0.060006 -0.426401 0.426136 -0.348754 0.500820 -0.088650 0.158634 -0.597851 -0.263500 -0.094771 -0.166257 0.291577 0.295870 -0.256830 -0.076286 0.016490 0.050572 0.116892 -0.359695 -0.452653 0.025332 0.438891 -0.193491 0.241954 -0.060408 -0.004210 -0.048351 -0.449604 -0.210541 -0.510386 -0.050095 -0.350984 0.038645 -0.039482 0.438653 0.448446 0.099504 -0.143707 -0.141020 -0.023599 -0.098252 0.358575 0.126446 0.210717 0.116257 -0.034104 -0.361902 -0.321424 0.477016 -0.386818 0.139933 -0.161742 -0.618643 0.577570 -0.019240 -0.097131 0.250171 0.297298 0.346102 0.096589 -0.017192 0.491571 0.199828 0.080919 -0.269446 -0.033943 0.297442 -0.166104 0.082433 -0.170667 0.184666 -0.205333 0.066241 -0.047183 -0.004321 -0.438882 -0.302879 0.018856 0.452621 -0.243464 0.014600 -0.221205 -0.069366 0.126749 -0.371221 -0.156287 -0.172774 -0.324264 0.364859 0.312062 0.414813 0.286853 -0.317116 0.311930 -0.220523 0.121482 0.206078 0.069182 0.419071 0.159885 -0.140579 0.260676 -0.430178 -0.157573 0.435346 0.063887 -0.243099 -0.030191 0.371864 -0.048542 0.383486 -0.416972 -0.248554 0.178490 0.075303 0.036158 -0.176885 0.004469 0.088243 -0.414030 -0.076562 0.477674 0.122791 -0.697344 -0.108816 0.114834 0.251016 0.014883 0.493556 0.150373 -0.435635 -0.074985 -0.020984 -0.024847 -0.052895 0.066311 0.146948 -0.155495 -0.453944 0.003599 0.266535 0.511950 0.154316 0.068866 0.096880 -0.023085 0.297239 0.023114 -0.172529 -0.394813 -0.155811 -0.121845 0.120401 -0.400425 -0.141865 -0.159507 -0.029250 -0.298946 0.631887 0.162521 0.014769 0.143181 -0.430987 -0.308361 -0.080676 0.041367 -0.092952 0.082189 
及 0.591607 -0.033464 -0.091544 -0.099413 0.226256 -0.174358 -0.060128 -0.150773 -0.364590 0.171383 -0.300306 -0.109741 0.310721 0.023168 0.610727 -0.229519 0.176192 -0.392504 0.044644 -0.031373 -0.013802 0.063200 0.047752 0.220861 -0.147983 -0.268152 -0.353478 -0.428515 0.408492 0.193489 0.095943 -0.219284 -0.358023 -0.361896 0.392843 -0.227379 -0.237596 0.196877 -0.425812 -0.053945 -0.180113 -0.768995 -0.248002 -0.375834 -0.135124 -0.154378 0.096604 0.018443 -0.377763 -0.246429 -0.118724 0.020973 -0.230902 0.073389 -0.368609 -0.202570 -0.505248 -0.014248 -0.085805 0.351346 -0.432837 -0.168536 0.058649 0.425183 -0.071185 0.543875 0.336954 0.037408 0.233820 -0.150502 0.097558 -0.052423 -0.008374 0.554314 0.123330 -0.094619 0.203611 -0.376479 -0.175340 -0.291386 -0.144665 -0.102170 -0.207564 -0.030370 0.025120 -0.364569 0.094918 -0.136472 -0.291440 -0.117749 0.272263 -0.227744 0.205514 -0.112152 -0.089815 0.128824 0.160504 -0.251421 0.240092 0.255348 0.225003 0.028485 0.074115 0.416328 -0.189641 -0.131959 0.417559 -0.090786 -0.116987 0.226979 -0.210785 -0.199107 -0.109743 0.118570 0.312823 0.261689 0.158810 0.319931 0.197094 -0.396434 0.164284 -0.192595 0.006137 0.482128 0.218412 0.123612 -0.290157 -0.212035 0.045030 -0.061653 -0.179567 0.426317 -0.015189 -0.134337 0.062773 -0.417361 0.022033 -0.179116 -0.081614 -0.180025 -0.091114 -0.317693 0.004681 0.312660 -0.016500 -0.032117 0.078395 -0.127018 -0.389696 0.274329 0.129049 -0.023260 0.214954 0.627681 0.219891 -0.240041 -0.120807 -0.049539 0.083410 -0.065889 -0.391250 0.128933 0.477527 0.110163 -0.297200 0.045639 0.330371 0.094647 -0.101087 0.439754 0.030639 0.109012 -0.113429 -0.081689 0.220471 -0.465008 -0.160810 0.078419 -0.071851 -0.332665 0.132160 -0.325915 -0.114657 -0.494544 -0.099577 -0.631521 -0.124479 -0.137944 0.109140 0.199738 0.158773 0.185192 -0.060456 -0.084755 0.115288 0.071963 -0.286595 0.317609 0.027860 -0.218845 0.147673 -0.383497 -0.017460 0.069033 0.215071 -0.250224 -0.065234 0.459243 0.146397 -0.135876 -0.032022 -0.414711 -0.017959 -0.021555 0.123854 0.286398 0.273723 -0.267548 -0.094796 -0.386967 0.123355 -0.286656 -0.227770 0.182626 0.246507 0.191065 -0.128845 -0.699082 0.017128 0.084192 0.278797 -0.026481 -0.087022 0.097848 -0.221847 -0.440699 -0.121531 -0.157344 -0.070396 0.409881 0.117978 0.004976 0.182139 0.138763 -0.565909 0.330141 -0.340586 0.285243 0.024450 -0.056291 -0.543856 0.288553 0.085418 0.211710 -0.410055 -0.017877 -0.127980 -0.044914 0.168090 0.331088 0.227033 0.343715 0.039893 0.148921 0.231445 0.095746 0.255951 -0.148219 -0.308189 0.593340 -0.116436 0.144029 0.431335 0.004674 0.407893 0.176687 0.321937 -0.063721 0.237808 0.422368 0.085224 -0.087244 -0.214277 0.372272 -0.246661 -0.319974 -0.190504 0.210405 -0.089885 -0.094294 0.408335 -0.388977 0.155324 0.128572 -0.301328 -0.424910 -0.174950 -0.228418 0.286923 0.134686 
后 0.308681 -0.120037 -0.129120 -0.286279 0.007062 -0.391151 0.046541 -0.564350 -0.333363 0.021421 -0.158174 -0.307281 0.165314 0.366527 0.015756 0.047493 -0.139430 0.040464 0.080585 -0.060356 0.039562 -0.017794 0.368991 0.515959 0.341333 -0.238661 -0.125803 -0.295677 -0.562156 0.163187 0.130452 -0.075608 -0.149496 0.047702 0.391583 0.186089 0.505613 -0.144963 -0.367048 -0.191736 0.576142 0.156040 -0.148313 0.355398 -0.292238 0.198294 0.127990 0.617127 0.062563 -0.528246 -0.047011 0.207808 0.587558 -0.081542 -0.215322 -0.271414 -0.009221 -0.067953 -0.256568 0.103663 0.009982 -0.161723 0.323510 0.128336 0.209676 -0.043426 0.055161 0.095541 0.072591 -0.276464 0.301331 -0.030246 -0.265446 0.030879 0.229305 0.193028 -0.007911 0.006218 0.323589 0.533076 -0.546448 -0.149718 0.015111 0.190090 0.266785 -0.288631 -0.449673 -0.571801 0.248424 0.216333 0.328104 0.183971 -0.023352 0.073572 -0.339347 0.338659 0.299741 -0.085042 0.061448 0.336521 0.779552 0.165715 -0.353233 0.080306 -0.089713 0.080662 -0.164076 -0.248032 -0.018653 0.079691 -0.356306 0.283155 -0.210859 -0.116968 0.222275 0.573244 0.393274 0.139692 0.614016 0.051748 0.225589 -0.215234 -0.121047 0.586079 -0.053722 0.002915 -0.297179 -0.016675 -0.089191 0.128132 0.400616 0.195877 -0.274355 -0.244094 -0.038506 0.098602 0.369904 0.303451 0.309067 -0.230355 0.068679 -0.000005 0.134024 -0.143982 -0.355850 0.075398 -0.566502 0.063548 0.112557 0.040211 0.225242 -0.229649 0.127242 0.327698 -0.256702 0.214745 -0.084389 0.266796 -0.427836 -0.467326 -0.136314 -0.337859 0.263675 0.273977 -0.147782 0.247155 -0.045703 0.091615 0.112269 0.290784 0.058189 -0.041741 0.173045 -0.340671 -0.061391 -0.390303 -0.087256 0.307459 0.126682 -0.518028 -0.041674 0.246331 -0.427927 -0.328023 -0.428417 -0.300332 0.007136 -0.126110 0.317475 -0.276681 0.090725 0.164855 0.057405 -0.265217 -0.385649 -0.079971 0.096728 -0.024566 -0.134028 0.241829 0.110095 -0.371860 -0.052225 0.083524 -0.211331 0.111869 0.034802 0.330384 -0.476416 -0.024958 0.136111 0.303299 -0.395775 -0.569946 0.216415 -0.017775 0.094223 -0.089455 -0.438271 -0.058445 -0.662136 0.037113 0.139422 -0.185141 -0.470279 0.510714 -0.539111 0.159378 -0.447611 0.407369 0.069831 0.040495 -0.275298 -0.101758 -0.067394 -0.110684 -0.058594 0.088028 -0.176931 0.153544 -0.189236 -0.143123 0.318399 -0.276539 0.013636 -0.053922 -0.406170 0.262382 -0.423938 -0.510365 0.142068 -0.006156 -0.024338 -0.159605 0.028579 -0.354327 -0.048219 -0.215770 -0.274240 0.492667 0.842314 0.237959 -0.295332 0.255415 -0.464215 0.077206 0.157323 -0.301725 -0.349537 -0.115272 -0.106924 -0.092632 0.089147 0.161682 0.059819 -0.053166 -0.094643 0.147612 0.066594 -0.282849 0.002657 -0.123152 -0.296858 0.236663 0.080732 -0.161219 0.381852 0.139616 -0.247834 -0.229699 0.110831 -0.573863 0.062985 -0.053553 0.140600 -0.258183 0.591547 -0.107343 -0.290472 0.006720 
一个 0.263680 -0.123083 -0.029756 0.197940 0.824901 0.146655 -0.209181 0.268970 0.510120 -0.199127 -0.340274 0.233015 -0.039371 0.375967 -0.199925 0.487658 -0.331463 -0.537193 0.692656 0.722118 0.196998 0.411697 -0.085831 0.914626 -0.074635 -0.421005 0.124448 0.029322 -0.043221 0.370504 -0.205124 -0.322770 -0.111684 0.080255 0.407939 0.014833 0.295695 -0.039663 0.083439 0.626730 -0.158426 -0.468900 -0.137614 0.312867 0.092263 -0.542527 0.045284 0.239355 -0.680053 -0.197644 0.267756 -0.425173 0.175914 0.822423 -0.280572 -0.266006 -0.088892 0.396302 0.384492 0.762287 0.196258 -0.391738 -0.000948 -0.363280 -0.049334 0.432893 0.085512 0.091633 -0.110814 0.098608 -0.012429 -0.641220 -0.021450 0.333346 -0.149910 -0.299444 -0.094245 0.074372 0.148515 -0.248061 0.588826 -0.007744 0.214600 0.296525 -0.007023 -0.404966 0.223995 -0.306377 -0.622145 0.266778 -0.112204 -0.258862 -0.255342 0.087283 -0.149251 0.007394 0.265236 0.130989 -0.171182 0.183874 -0.092499 0.094171 0.002920 0.438699 0.089120 0.078685 -0.279236 -0.076951 -0.201776 0.442513 -0.019486 0.350155 -0.440416 0.476257 0.123312 0.536157 0.142166 0.204987 -0.018315 0.065708 -0.151374 0.499148 -0.460743 0.050630 -0.101580 0.143656 -0.194978 -0.477178 -0.260324 -0.102115 0.414127 -0.013477 -0.250402 0.094629 0.244548 0.204822 0.304824 0.448692 -0.240739 -0.038901 0.729300 0.231712 0.481449 -0.120211 -0.149329 -0.281980 -0.348717 0.411711 -0.027455 0.295260 0.248758 -0.115328 0.130707 -0.070748 0.199938 -0.329290 0.313446 -0.154259 0.470151 -0.023250 0.183153 0.200006 -0.369988 -0.676588 0.158293 -0.135781 -0.118953 -0.391320 -0.090464 -0.199025 0.236110 -0.389840 0.001146 -0.189845 0.236837 -0.118187 -0.116318 0.171485 -0.171977 -0.089073 -0.156407 -0.046396 0.084722 0.334512 0.077312 0.076398 -0.612503 0.670406 -0.214487 1.068150 0.347771 -0.257047 0.019345 0.069757 -0.242609 -0.025264 0.379748 -0.041566 0.261582 -0.027046 0.202150 -0.435754 -0.448409 0.348554 0.331452 -0.165157 -0.161458 -0.039498 0.138166 -0.131928 -0.477474 -0.253463 0.431705 -0.153277 -0.141260 -0.020495 -0.055241 -0.130277 0.050579 -0.167251 -0.314209 0.033535 -0.311748 0.293066 0.130622 0.554959 0.005644 0.282022 -0.307333 0.174354 -0.338703 0.341796 -0.536845 0.267620 -0.510797 -0.127453 0.068382 -0.157659 -0.088286 0.549176 0.099179 0.434907 -0.054590 -0.066255 -0.210333 0.482934 0.084441 -0.241253 0.433079 -0.433709 -0.283897 0.008801 -0.361840 0.206137 0.295958 -0.744786 0.038172 0.231196 -0.074010 -0.338795 -0.115613 -0.496121 0.175546 0.209813 0.034480 0.120164 -0.162336 -0.538103 0.035117 0.383152 0.001441 -0.298904 0.086130 0.673544 0.719536 -0.408522 0.417690 -0.244625 -0.125180 0.227932 0.534534 -0.398437 -0.321017 -0.223515 0.155619 -0.193957 0.176197 -0.282377 0.109588 -0.015182 0.630051 0.050796 0.007378 0.536685 0.293814 0.361772 0.413937 -0.234161 -0.619834 0.252477 
中 -0.291859 0.171496 0.019813 0.079478 0.084295 -0.197590 0.242408 -0.214541 0.362499 -0.321451 -0.320657 -0.189904 0.338341 0.270734 0.338894 0.167725 0.154544 -0.457951 0.544990 -0.160646 0.001958 0.276465 0.040280 0.560716 0.317595 -0.373842 -0.624115 -0.160740 -0.412827 0.042152 0.160795 0.035213 0.003862 0.040224 -0.282815 -0.068241 0.356572 -0.163259 0.536368 -0.022600 0.097021 -0.184392 0.286935 0.086670 -0.238186 0.371261 -0.137881 -0.114398 0.032769 0.097825 0.076604 0.047236 0.101139 -0.062751 -0.666020 0.462687 -0.459136 -0.364595 0.354286 -0.023892 0.282636 0.097485 0.071148 -0.234573 0.151205 0.277129 0.286635 0.322853 -0.250220 0.004687 0.446516 -0.265718 0.224326 -0.036475 -0.135068 -0.109016 -0.132661 -0.202232 0.547872 -0.069790 -0.170061 -0.036433 0.180927 0.220481 -0.088962 -0.187434 0.091135 0.403824 -0.034164 0.148683 0.155016 -0.215815 -0.030999 -0.450719 -0.211747 -0.393282 0.722186 0.007880 -0.369995 0.204822 0.003308 -0.006357 0.222183 0.247665 -0.278561 0.551204 0.041436 0.064863 -0.150724 0.116312 0.780745 -0.332806 0.098634 -0.011470 0.268484 0.471265 -0.207123 -0.014628 0.268643 -0.050597 -0.040361 0.327670 -0.122859 0.097166 -0.296715 0.426015 -0.255260 -0.000224 -0.189685 0.036976 0.501237 -0.222924 0.140943 0.221700 0.169787 -0.207925 0.212429 0.316652 0.671081 -0.139366 0.192994 -0.674601 -0.183834 0.344213 -0.061666 -0.002425 -0.326144 -0.245802 0.006154 0.467868 0.133673 -0.153093 0.339316 0.362951 0.188350 0.255853 0.094172 0.080084 -0.074166 0.209565 0.083662 -0.361359 0.024094 -0.259719 -0.099660 0.358237 0.019099 -0.176954 0.102065 -0.158037 0.073602 -0.317149 0.287415 -0.079366 0.042776 -0.861105 -0.060941 0.475475 -0.332331 0.071765 0.017283 -0.335940 -0.241679 -0.830355 -0.252220 0.173292 -0.502888 -0.050374 -0.162793 0.283807 0.383547 -0.145189 -0.330878 0.247236 -0.217824 -0.332247 -0.324812 0.014740 -0.592011 0.304927 0.356587 -0.013071 0.192890 -0.184084 0.030860 -0.624211 0.329919 -0.381139 0.074270 -0.250516 -0.213048 -0.158862 -0.243507 0.116811 -0.057134 -0.098659 -0.159368 -0.101566 0.277960 -0.323000 -0.210002 -0.259114 0.413573 -0.118858 -0.523921 0.474439 -0.121134 -0.325018 0.356011 0.424204 -0.045077 -0.286427 -0.531680 0.184582 0.149156 -0.036710 0.656872 0.479104 -0.187526 0.350571 0.150770 0.333389 -0.284554 -0.427486 -0.203209 0.190184 -0.666749 -0.038617 -0.402178 -0.034846 -0.146745 0.547992 0.470446 0.269041 0.080210 0.115680 -0.079070 0.563131 0.255225 0.333158 0.123934 0.393892 0.123042 -0.069819 -0.691177 -0.225975 -0.392675 0.179137 -0.160876 0.029788 -0.024519 0.271092 0.582064 0.003825 0.011526 -0.187486 -0.001375 -0.114856 -0.110579 -0.058732 0.227700 0.067378 0.145953 0.063263 -0.337030 0.140121 -0.063971 0.015837 0.389517 -0.133702 0.638324 -0.262946 -0.347327 0.531579 -0.297044 0.057780 0.084265 0.160896 -0.008325 0.239908 
( 0.532550 -0.427822 0.446288 0.133659 0.011640 0.255892 0.007314 0.140051 -0.156528 0.029120 0.655707 0.246727 0.248393 0.506539 -0.119570 0.558185 0.159361 0.149978 0.090620 0.174096 0.061510 -0.184735 0.031005 0.546475 -0.166736 0.225058 0.755342 -0.710685 0.173858 -0.138122 -0.005130 -0.188333 -0.716986 0.172185 0.110242 -1.083709 -0.016318 0.258614 -0.299881 0.263551 0.288365 -0.190882 -0.534939 -0.252345 -0.114986 -0.233738 0.205936 0.014363 0.187542 -0.191142 0.044417 0.403285 0.543136 0.581908 -0.118053 -0.813722 -0.103165 0.129751 0.245857 0.996653 -0.370115 -0.135689 -0.460416 0.500585 0.264750 0.283552 -0.472953 -0.068757 -0.115617 -0.195960 0.599295 -0.520437 -0.480989 -0.470601 0.182651 -0.030420 0.316729 0.243760 0.723159 -0.512185 -0.310901 0.706431 -0.024072 0.437408 -0.685798 0.542167 0.151061 -0.862898 -0.795192 -0.046996 0.168829 0.599759 -0.775867 0.446997 0.179852 0.135699 -0.234228 0.609252 -0.311114 0.209260 0.511576 -0.257102 -0.132810 -0.111016 -0.526533 0.830019 0.437986 0.917916 -0.584254 -0.382962 0.211604 -0.122515 0.231454 -0.263717 0.667233 0.007216 -0.149567 -0.057504 -0.352324 -0.202509 -0.712925 0.117918 0.212175 0.190116 -0.052144 0.036691 -0.152188 0.124984 0.283325 -0.006745 -0.019089 0.046867 -1.012639 0.250055 -0.149895 -0.672662 0.588240 -0.367952 -0.083244 -0.024182 0.136219 -0.638569 0.436578 0.325133 0.440388 0.158529 0.093166 -0.006800 -0.525252 0.526914 0.307492 0.466849 0.224110 -0.352677 0.438459 -0.115957 0.074913 0.052340 0.079918 0.095223 0.009634 0.209529 -0.025856 -0.849198 -0.863523 0.495877 0.330187 0.245572 -1.054341 -0.184635 0.187682 0.331462 -0.696232 0.441968 -0.715383 0.638189 -0.734145 0.157425 -0.074361 -0.347377 0.127328 -0.377052 0.040006 -0.696327 -0.176525 -0.022695 -0.410742 1.276834 -0.695639 0.376022 -0.545678 0.117256 -0.036266 0.046776 0.164427 -0.824134 0.422778 0.166813 0.156052 -0.251699 0.108861 -1.705767 -0.445656 0.121024 0.425922 -0.280398 -0.289980 0.008140 0.908696 -0.142326 -0.531639 0.016753 -0.297292 -0.042489 0.073120 1.066336 -0.820459 -0.145093 -0.023051 -0.244155 0.136273 0.240587 0.002842 -0.260646 -0.459778 0.258760 0.043917 -0.435427 -0.221799 0.125028 -0.430487 0.324715 0.292445 -0.247724 0.364546 0.122281 0.855536 -0.005215 -0.599278 0.267270 0.533898 0.469800 1.202220 0.059740 0.043446 0.848576 -0.819010 -0.050861 -0.514440 0.224690 -0.006820 0.406312 -0.150440 -0.544685 0.165868 -0.377902 -0.116710 -0.196195 0.923784 0.519776 -0.249946 -0.218857 0.155627 0.634727 0.804312 -0.207616 -0.337193 -0.187675 -0.304390 0.639634 0.346823 -0.447133 0.747994 0.661631 -0.072836 -0.669188 -0.043983 0.216256 0.635710 0.309297 -0.139505 0.239696 -0.164639 0.683434 0.038145 -0.485318 0.098506 0.214658 1.431266 0.656861 -0.291824 0.430009 0.364830 -0.325835 -1.258203 -0.029944 -0.049260 -0.492477 0.075692 -0.272934 
人 0.131425 0.625972 -0.046564 -0.027138 0.076847 0.174626 -0.422511 0.061332 0.486408 -0.070132 -0.376597 -0.549105 0.197597 0.290700 0.175620 0.102078 -0.211584 -0.321513 0.105825 0.045917 0.441539 -0.060719 0.361958 0.071484 0.368535 -0.431666 0.330377 -0.699103 0.128450 -0.307439 0.677852 0.279086 0.020859 0.194737 -0.519302 0.248747 0.488922 0.170421 -0.034600 -0.009946 -0.208254 -0.449481 -0.111561 -0.710879 0.505099 0.399548 0.143153 0.544193 0.149418 0.183745 -0.241107 0.288883 -0.286226 -0.291482 -0.082486 0.319738 0.250922 0.408253 0.182433 0.033304 0.213861 -0.206535 -0.601473 0.129065 -0.203066 0.171477 0.095566 -0.001697 0.575633 -0.245939 -0.043135 -0.031507 -0.277168 -0.308333 -0.254487 -0.265668 0.005595 -0.296787 0.213795 0.088324 0.293412 0.685150 -0.159345 0.377972 -0.310039 -0.298357 0.172785 -0.389814 0.205925 0.029481 -0.915700 0.158761 0.268936 -0.035407 0.471411 0.253711 -0.072770 -0.230667 -0.155019 0.488738 -0.048679 0.546722 -0.248952 -0.199116 0.213726 0.177500 -0.577922 -0.541410 0.226894 0.512589 -0.209749 0.067505 -0.055483 -0.224613 0.012688 0.044105 -0.176727 0.120464 0.591541 0.300118 0.154552 0.278145 0.205715 -0.046086 -0.049635 0.697251 -0.006784 0.144732 -0.413943 0.149850 -0.248881 -0.482291 -0.786544 -0.444876 -0.206929 0.143329 0.035635 0.282833 0.164341 0.030037 -0.127843 -0.294906 -0.172582 0.507944 -0.447196 -0.441718 0.460971 -0.170726 -0.187993 0.082712 -0.393679 0.095412 0.120270 0.501491 -0.366551 0.109482 -0.161716 0.461570 0.571587 -0.949206 0.343110 0.039469 -0.124504 -0.288263 -0.205703 -0.083152 0.090832 -0.965470 -0.229818 -0.948327 0.716986 -0.207113 0.054835 0.361221 -0.536383 0.763133 -0.221406 -0.111187 0.188295 -0.160385 -0.025632 -0.200089 -0.013364 -0.249652 -0.561737 -0.023715 -0.118049 0.111469 -0.245433 0.260335 0.077633 0.416537 -0.156149 -0.048213 0.218552 0.627269 -0.383005 -0.169360 0.000380 0.310459 0.093949 -0.509893 -0.108853 -0.075538 -0.092856 0.232823 0.340026 -0.209682 -0.134730 0.077987 0.153322 -0.448613 0.168723 -0.252604 -0.220002 -0.021433 -0.282554 -0.075663 -0.409146 -0.149464 -0.591408 -0.124310 -0.327043 0.277042 0.148154 -0.132481 -0.209643 -0.085713 0.607370 0.188844 0.155965 0.200758 0.086256 -0.096056 -0.241174 -0.639411 0.121120 0.467818 0.048419 0.151824 -0.595188 -0.209164 0.341753 0.113770 -0.067342 0.039647 -0.380810 0.098062 0.166283 0.084155 -0.433834 0.116376 0.102302 -0.402747 0.025018 -0.302624 0.308107 0.163884 -0.096023 0.371079 0.264673 0.128958 -0.068630 0.156852 0.289117 -0.543472 -0.893870 -0.549297 0.303095 0.182649 -0.128409 0.539480 -0.397184 0.709725 -0.040668 0.059775 0.557948 -0.555245 -0.514662 -0.082594 -0.193081 -0.011715 0.182633 0.252040 -0.213705 0.212400 -0.326501 0.309483 -0.240936 -0.459515 -0.251847 -0.020668 0.777273 0.331092 -0.101271 0.218832 0.094006 0.436799 -0.424083 0.066143 
而 -0.014283 0.091651 -0.115481 0.283127 0.129977 -0.114741 -0.247492 0.012991 0.010643 0.100246 -0.231800 0.294131 0.501194 0.399439 0.118859 0.109611 -0.536599 0.191509 0.266635 0.172624 0.007312 -0.119676 0.194714 -0.086883 -0.235952 -0.272717 -0.230772 0.039447 0.317345 0.059506 0.162579 0.194589 -0.066315 -0.085469 0.357447 0.363999 0.043659 0.228569 0.036318 0.013653 0.119210 -0.430287 -0.158677 0.163085 0.225734 -0.169070 0.210578 0.096143 0.003070 -0.189201 -0.562955 0.273721 0.489871 -0.274878 0.203349 0.302994 -0.004400 0.021621 -0.009637 0.149603 -0.058142 -0.245404 0.041585 0.081758 -0.397707 0.182950 -0.433508 0.215419 0.110131 -0.217110 0.337021 0.059355 0.101510 0.475387 -0.245184 -0.094498 0.255069 -0.190051 -0.028854 0.175053 -0.176007 0.044545 -0.325125 -0.147618 0.195537 -0.639412 -0.549815 -0.245753 -0.052524 0.080584 0.133947 -0.245585 -0.233300 0.152206 -0.221749 0.219599 0.167072 -0.485216 -0.240382 0.036558 0.332211 0.313547 -0.004627 -0.011274 0.142622 0.312162 0.281115 0.232801 -0.149869 0.149038 0.107852 -0.016205 0.243899 0.175510 0.226637 0.366404 0.223281 0.456769 0.143033 0.023933 0.003035 0.149658 0.330875 0.178175 0.104408 0.070253 -0.422260 -0.284900 0.112754 -0.111581 0.151361 0.108582 -0.228642 -0.397267 0.111243 0.293138 -0.155424 0.402422 0.551355 -0.464766 0.113959 -0.025096 -0.001718 0.378510 0.013522 -0.055586 0.007221 0.085898 0.357618 -0.008654 0.154966 0.126613 0.257027 0.226475 0.461623 -0.454357 0.141879 0.228284 -0.278975 -0.142758 -0.089815 -0.716655 0.042684 -0.245997 -0.278149 -0.033043 -0.343296 -0.105304 -0.407398 -0.000568 0.362662 0.080203 -0.017457 0.143652 -0.043526 -0.425109 -0.117942 -0.047899 -0.190526 0.208134 -0.094656 -0.031571 0.162034 -0.242610 -0.117354 -0.072070 -0.189250 -0.107813 0.158756 0.156028 0.009180 0.063973 -0.113828 -0.243267 -0.241183 -0.005926 -0.225328 -0.041078 -0.055841 0.159601 -0.034249 -0.186869 0.058542 0.070747 0.225178 -0.007971 -0.073335 0.256783 -0.399239 0.064329 0.057082 -0.056125 0.305762 -0.159236 0.064625 0.482675 -0.027058 -0.156656 0.213847 -0.324531 -0.141306 0.339977 0.244743 0.299416 -0.007793 0.411555 -0.327002 -0.460210 0.216018 0.110317 0.094448 -0.041355 -0.101301 -0.100651 -0.020492 -0.061481 -0.194053 0.159557 -0.115515 0.552704 -0.067120 0.150982 0.376180 0.074004 0.073906 -0.287080 -0.382503 0.107467 0.012880 0.127491 -0.251761 -0.036670 0.131671 0.071097 0.284641 -0.232704 0.273652 -0.166473 0.200159 -0.120007 0.339513 0.462889 -0.228775 0.007748 -0.275811 -0.313592 0.498811 -0.321322 0.618306 0.078594 -0.281913 0.015765 0.396248 -0.031750 0.490264 0.062606 0.474934 0.333587 -0.145202 0.320184 0.218731 -0.075185 0.024672 0.040820 -0.002244 0.018465 -0.186801 -0.034858 -0.168989 -0.247214 0.471734 0.138537 -0.063878 -0.007818 -0.006742 0.014032 0.016559 -0.322241 -0.024771 -0.145955 
也 0.130330 -0.184683 -0.061306 -0.308109 -0.243213 0.166435 -0.136474 -0.090895 -0.411750 -0.019161 -0.192011 0.352101 0.091263 0.356061 -0.171934 -0.210203 0.132908 0.025484 0.135598 0.123447 0.023326 0.210498 0.254450 0.004988 -0.240837 -0.485109 -0.444064 -0.399139 -0.026216 -0.181596 -0.086733 0.030514 -0.019961 0.438873 0.028951 0.103270 -0.089885 -0.122479 0.082233 0.089951 0.027250 -0.258098 -0.078737 0.100975 0.089615 -0.286270 -0.126871 0.235347 0.286700 -0.007568 0.262574 0.335003 0.007142 -0.172455 -0.184269 0.064465 -0.197307 -0.392395 0.115018 0.341793 0.084618 0.040302 0.155828 -0.244290 -0.544739 -0.125408 -0.118097 0.581866 0.105502 -0.106883 0.441964 -0.314507 0.080037 0.117686 -0.079951 0.008950 -0.060191 -0.079673 -0.008085 -0.083500 0.034113 -0.133758 0.017586 -0.081357 -0.382324 -0.043224 0.237284 -0.172863 -0.369279 0.007903 0.313531 -0.296191 0.186356 0.077192 -0.191052 -0.154551 -0.039319 0.143066 -0.279414 0.004315 0.326872 -0.097121 -0.332833 0.240412 0.058192 0.079521 0.054842 0.266863 -0.199545 -0.067513 0.106092 -0.195017 -0.010112 -0.167456 0.056967 0.568292 -0.093918 0.447581 0.404078 -0.277870 0.019099 0.040783 -0.153792 0.390145 0.299933 0.328403 0.058413 -0.133996 0.165272 0.252989 0.161371 0.023025 -0.296823 0.301917 0.117999 0.054023 -0.033591 0.080856 0.314552 -0.326067 -0.205643 -0.261350 0.269833 0.558996 0.209973 -0.165813 0.288524 -0.015757 0.354076 0.067215 0.325670 0.193988 -0.216526 0.278981 0.000084 -0.084461 -0.303968 0.125472 0.011252 -0.340840 -0.325469 0.116677 0.456591 0.140466 -0.030599 0.102864 -0.035908 -0.061974 0.018100 0.103390 0.273646 0.206644 0.263609 -0.097696 -0.272501 -0.266206 -0.037653 -0.067418 -0.486497 0.056867 -0.464029 -0.355993 -0.062922 -0.486772 -0.164243 -0.330148 -0.699825 -0.310151 -0.054050 0.149130 -0.067150 -0.346675 0.082874 -0.052586 0.030330 0.068158 -0.157162 0.141213 0.181579 0.073030 0.117162 -0.035043 -0.025764 -0.309901 -0.009975 -0.319955 0.051567 0.122020 0.300235 -0.105761 0.059981 -0.175508 0.571770 -0.417870 0.120552 -0.030217 -0.081571 0.266155 0.049773 -0.448383 -0.041797 0.298987 0.132903 -0.396502 -0.315408 0.642424 -0.143179 -0.149416 0.072551 -0.000521 0.351425 0.285243 0.112168 0.206230 -0.158061 -0.220051 0.084737 0.011032 -0.173694 -0.045290 0.079842 0.209740 -0.246867 0.080934 -0.157800 -0.126738 0.262376 0.328766 0.067242 -0.089786 0.166557 0.198703 -0.008395 0.002869 -0.143706 -0.027267 -0.134282 0.104593 0.082495 0.241638 -0.196099 0.248172 -0.014916 0.284843 -0.154906 -0.125112 0.017346 -0.243979 0.100099 0.363822 -0.475181 0.049612 -0.142656 0.282257 -0.204854 -0.162629 0.352618 0.042685 -0.344290 0.384253 0.102479 -0.254886 0.033341 -0.026766 -0.213014 -0.411389 -0.107001 0.075362 0.011733 -0.310755 -0.157508 -0.096795 0.160032 0.619013 -0.149136 -0.401357 0.020356 -0.147608 -0.064532 0.034807 
他 -0.013289 0.041648 -0.088319 -0.321491 -0.171184 0.097593 -0.391339 -0.144099 0.247227 -0.196372 -0.148025 0.089273 -0.344697 0.227292 -0.154018 0.298050 0.141087 -0.287890 0.320547 -0.013402 0.235585 0.110161 -0.285208 0.261680 0.415963 -0.576136 -0.221527 -0.171101 -0.172299 -0.344787 0.206350 -0.096471 0.125008 -0.065277 -0.002994 0.012880 0.152547 0.008188 -0.101291 -0.258381 0.091902 -0.238976 -0.477967 0.051307 0.287094 0.011633 -0.036877 -0.248320 -0.109295 -0.029420 -0.071555 -0.024158 0.373750 -0.138904 -0.070961 -0.071653 0.147146 0.379462 -0.185823 0.382298 -0.113357 -0.444534 0.227820 0.037336 -0.303721 -0.005480 -0.289607 0.192446 -0.076588 -0.062560 0.158506 -0.155285 0.270433 0.304046 0.367111 -0.021372 -0.136908 0.128750 -0.065351 -0.190820 0.413186 -0.246448 -0.162891 -0.181196 0.183281 -0.029897 -0.332059 -0.139425 -0.114379 -0.088052 0.082077 0.284516 0.012192 -0.250165 -0.170057 0.139327 0.007589 0.326908 -0.119972 0.154178 -0.117213 0.262825 -0.082689 0.321500 -0.006062 0.429624 -0.146308 0.040625 0.045664 -0.120974 0.111256 -0.044270 -0.111069 0.043703 0.173901 0.522991 -0.353636 0.173777 0.243771 -0.703663 -0.063556 0.093292 -0.020254 0.214591 0.116553 0.237247 -0.214416 -0.034529 -0.009550 0.195219 0.020189 -0.124229 -0.048116 -0.070083 -0.001761 0.204815 0.169125 0.159814 0.352238 0.243656 -0.230118 -0.285384 0.085251 0.380457 -0.249402 0.465521 0.008137 -0.368162 0.288530 0.419775 -0.086183 -0.233364 0.134777 0.090865 0.086244 -0.067830 0.135321 0.237803 0.082523 -0.466276 0.223735 -0.022381 -0.228647 -0.265020 0.202789 -0.007549 0.278802 -0.375317 -0.008505 0.114149 0.294981 -0.050010 0.250265 -0.173417 0.192129 0.056596 0.066702 -0.009219 0.109634 0.247187 -0.131541 -0.170329 -0.323229 -0.145979 -0.334043 -0.059786 -0.366061 -0.266256 -0.040805 0.158292 0.139277 -0.132610 0.117943 -0.021360 -0.400972 0.095878 -0.004818 -0.139246 0.059196 0.471063 0.248053 -0.284308 -0.065477 0.119598 -0.064964 0.266832 -0.101244 0.189797 -0.232040 0.129105 0.230796 -0.510332 0.244995 -0.036733 -0.136882 0.386482 -0.297000 0.097421 -0.126122 -0.281903 0.107967 0.115405 -0.096803 -0.065056 -0.320639 0.258132 -0.254164 -0.300047 -0.087766 0.088156 0.233273 0.386730 -0.085128 -0.114226 0.030495 -0.283358 0.201267 0.028220 -0.098574 -0.272294 -0.000525 0.158153 0.119168 0.104274 0.055544 -0.344099 -0.304463 -0.164267 0.069996 -0.190567 0.200174 0.270607 0.142511 0.005935 -0.065524 0.007615 -0.405750 0.116456 0.210894 0.408084 -0.050745 -0.071170 -0.230241 0.327868 -0.249270 0.035840 -0.396138 -0.128626 -0.239573 0.159590 0.158279 -0.229021 0.357611 -0.127224 0.240734 0.085743 0.127839 0.100996 0.151325 0.114957 -0.044566 -0.109665 -0.051520 -0.028525 -0.188986 -0.137014 -0.020089 0.443872 -0.126405 -0.529451 0.223223 -0.339859 0.075027 -0.101339 0.030781 0.088598 0.148531 -0.073396 0.001079 0.210050 
位于 -0.027591 0.225785 0.173414 -0.366850 -0.148211 0.282366 -0.041783 -0.243492 0.148842 -0.264097 -0.168648 0.643523 0.623849 0.599154 -0.058388 0.169155 0.137638 -0.033543 0.070479 0.660108 0.133879 0.095014 0.054900 0.244689 -0.050066 -0.329638 0.191780 -0.481613 0.140763 1.057202 0.336012 0.164614 -0.395206 0.522821 -0.007395 -1.024445 -0.368096 0.391787 -0.155498 -0.564495 0.244057 -0.456000 0.065205 0.103706 0.138768 0.118487 0.095711 0.498822 -0.352224 0.012723 0.256044 -0.474133 0.120169 0.428465 -0.192580 0.186114 0.287443 0.874226 0.533978 0.030849 -0.340271 -0.091934 -0.014767 0.420639 0.286675 0.013225 -0.100402 0.036003 -0.224896 0.203004 -0.101981 -0.581428 0.028696 0.359253 0.294196 -0.486724 0.124913 -0.111299 0.066846 -0.141847 0.133347 -0.625749 -0.453243 0.095951 -0.221906 0.061035 0.288037 -0.252700 -0.271794 0.079255 0.065316 -0.477988 0.157149 0.010960 -0.768126 -0.112757 -0.498494 -0.051275 -0.545762 0.740122 0.124351 -0.004320 0.001390 0.847297 -0.452467 0.106558 -0.359087 -0.077134 -0.638996 0.297234 -0.361784 -0.063274 0.700236 -0.279438 0.252728 0.312040 0.068667 0.229406 0.919025 0.111404 -0.338672 -0.169141 -0.244479 -0.252932 0.422739 0.398654 -0.368488 -0.204163 0.281593 -0.464334 -0.555116 -0.634453 -0.412662 0.032290 0.131980 0.061890 0.315639 0.423910 -0.093353 -0.398128 -0.347621 0.165569 0.393139 0.148369 -0.283451 0.210645 -0.893932 -0.172527 -0.497359 0.258514 -0.189710 -0.015691 -0.052058 -0.261182 -0.197781 -0.165037 -0.431053 -0.099694 -0.031273 -0.381382 -0.584736 0.155862 0.543798 -0.134438 -0.196284 -0.236928 0.042654 0.266598 -0.149992 -0.284479 0.659189 -0.318448 -0.036798 -0.589884 -0.836958 -0.268093 0.333743 -0.075238 0.298427 -0.210465 -0.252522 0.185184 0.154105 0.119363 -0.104176 0.181351 -0.113947 0.301907 -0.213178 0.443898 -0.047275 -0.053527 0.508217 -0.597811 0.213098 0.000572 -0.094575 -0.099745 0.092236 -0.166689 -0.231275 0.305623 -0.215964 0.608720 0.040512 0.128680 0.182386 -0.239690 0.330189 0.130466 -0.724405 -0.260931 0.140476 0.215127 0.353722 0.484709 0.461981 0.039832 -0.215040 -0.186824 0.378547 0.461604 -0.123039 0.424349 0.060910 -0.102165 0.057803 -0.444297 -0.297339 0.336247 -0.090041 0.484164 -0.160470 -0.288038 0.583634 -0.340301 0.199692 -0.448809 -0.615343 0.630196 0.378297 0.092155 -0.006929 0.316487 0.003530 -0.033038 0.326042 -0.208533 0.263447 0.405921 -0.526432 0.022071 -0.159436 0.461837 0.461674 -0.611321 -0.231880 0.592131 0.201818 -0.584026 0.164093 0.092766 -0.551532 0.395692 -0.061071 -0.119135 0.488698 -0.219576 -0.076018 0.164033 -0.328349 0.143460 0.139035 0.066698 0.082697 -0.431972 -0.120966 -0.207575 0.345650 0.232325 -0.461376 -0.289681 0.193199 0.847035 0.216468 0.331778 0.069587 0.095636 0.059618 -0.160218 0.002213 -0.591574 -0.211501 0.758644 -0.365289 -0.107688 0.859224 -0.338921 0.355523 0.516277 
上 0.221057 0.003597 -0.651414 -0.212214 0.834730 -0.065583 -0.008671 0.144776 0.357051 -0.448063 -0.039719 0.149895 -0.023169 0.284681 0.246967 0.683769 -0.014847 -0.059826 -0.117831 -0.387997 0.121404 0.373668 -0.287846 0.127986 -0.257833 -0.079031 0.082775 -0.667976 -0.241400 -0.167574 0.396435 -0.190599 -0.066216 0.315420 -0.054335 0.078879 -0.337050 -0.087093 -0.037045 -0.154612 0.410505 0.134430 0.209731 -0.491990 -0.350671 0.215552 -0.327570 -0.150596 -0.064196 -0.042982 0.307660 0.827123 0.045436 0.508966 0.108440 0.270548 -0.076785 -0.421445 0.496280 0.401651 0.181536 -0.241142 -0.175639 0.033421 -0.276653 0.497688 0.245261 -0.273387 -0.049622 0.263006 0.114991 -0.402811 -0.073419 0.173202 0.263470 0.138380 -0.248014 -0.494168 -0.167276 -0.328855 -0.038401 -0.108612 0.330109 0.122603 -0.352208 -0.263065 0.112865 0.087002 0.143148 -0.365166 0.229063 -0.118373 0.019514 -0.340459 -0.024004 -0.285625 0.172113 -0.079813 -0.222051 -0.147851 0.180543 0.346641 0.123435 0.161734 -0.045918 0.404137 -0.407973 -0.168475 0.100469 0.463558 -0.142949 -0.266827 0.072850 0.380561 0.993662 0.258855 -0.237009 0.270241 0.066678 -0.134843 0.263358 0.199149 0.121629 0.130131 -0.300798 -0.493580 -0.744082 -0.496193 -0.277549 0.186941 0.296207 0.092627 -0.042949 -0.089597 -0.049343 0.328184 0.158050 0.689011 0.234459 -0.505551 -0.017061 -0.622032 0.555002 -0.169366 -0.065335 -0.025484 -0.111552 -0.607039 0.239877 -0.306688 0.389346 -0.162196 -0.133604 0.216632 -0.226027 0.154288 -0.312793 0.257083 0.411849 -0.373687 -0.456584 -0.184431 -0.140708 0.107973 -0.406314 -0.383996 -0.589519 -0.275375 0.112313 -0.187001 0.476123 0.058520 0.435810 0.409865 0.048561 -0.418500 0.152501 0.302276 0.153521 -0.029468 0.534951 -0.647073 -0.132372 -0.058184 0.003923 0.031148 -0.024861 0.069219 -0.039539 0.195517 -0.021885 -0.060844 0.184665 -0.146360 -0.573976 -0.088412 -0.605053 0.256394 0.441042 0.271681 0.340834 -0.276948 0.251007 0.026965 0.475402 0.291930 0.209036 0.239714 0.549522 0.127889 -0.475598 -0.165617 -0.549156 -0.510040 0.306774 0.069967 0.325706 0.039051 0.106424 -0.202974 0.410578 -0.155849 0.585759 0.032840 0.356976 0.370809 -0.359451 -0.033147 -0.389348 0.400437 -0.157452 0.052134 -0.307868 0.205762 -0.273033 0.150854 0.123341 0.240819 -0.364095 0.675010 0.275782 0.260558 0.251831 -0.089871 0.122803 0.047927 0.414139 0.237171 0.325641 0.421819 -0.304780 0.454353 0.288104 -0.165097 0.505719 0.398194 -0.072479 0.172053 -0.302729 0.400257 0.055110 0.361010 -0.461060 0.548832 -0.197416 0.149165 -0.000077 -0.270300 0.116972 0.166749 0.294648 -0.009694 0.386351 -0.186736 0.018477 0.353257 0.600477 0.167713 0.193120 -0.262776 0.424889 -0.188599 -0.258032 -0.013751 -0.154515 -0.082942 0.644722 0.440178 -0.123529 -0.482018 0.106909 0.504100 -0.312458 0.402655 0.094274 0.339970 0.072384 0.006926 0.301100 0.259200 
