1000 300
， -0.242002 0.139317 0.073788 -0.191109 0.088181 0.130866 0.126029 -0.072774 0.033516 0.247278 -0.055172 0.099577 0.167462 0.121275 -0.083338 0.081527 0.058406 0.266421 -0.124063 -0.065634 0.209595 -0.157670 0.031766 -0.118293 -0.168351 0.202597 0.202922 0.124894 -0.057245 0.098171 0.034170 -0.143032 -0.143716 0.002146 0.061219 -0.035221 0.024447 0.033303 0.133639 -0.059718 0.059530 -0.054115 0.035636 -0.164973 0.061861 -0.109346 -0.085209 -0.085099 0.127743 -0.131120 0.056368 -0.017568 -0.009874 -0.016600 0.014478 0.009149 -0.027063 -0.015415 -0.283486 -0.040792 0.188910 0.028454 -0.044064 0.100624 -0.009462 -0.080857 0.040545 -0.005537 -0.036212 0.044027 -0.235816 -0.014745 0.041173 -0.065867 -0.005235 -0.200076 0.040505 0.097962 0.076498 -0.178725 0.015071 -0.030532 0.004769 0.015816 -0.030832 0.068382 -0.066298 0.099470 -0.017083 -0.250631 0.161023 -0.079982 -0.126984 -0.080702 0.024507 -0.000645 -0.314999 -0.110070 0.291645 -0.083795 0.116406 -0.101431 0.118904 -0.214203 0.181134 -0.095293 0.117530 -0.012665 0.103981 0.368019 -0.062691 -0.000143 -0.225434 -0.068760 -0.018834 -0.185576 -0.187346 0.075910 -0.083685 -0.092830 -0.114153 0.077046 0.041093 -0.011316 -0.002522 -0.041101 -0.024474 0.306561 0.093463 0.316316 0.009754 0.063543 -0.154886 0.006987 0.025564 0.020051 -0.150334 0.079129 -0.089099 0.069003 0.134286 -0.134166 -0.001461 -0.071054 -0.169309 0.082467 -0.068512 -0.061558 -0.032017 0.114095 -0.011179 0.095866 -0.036014 0.064751 -0.119641 -0.134687 -0.082851 0.185694 0.082839 0.002753 -0.299435 0.190554 -0.135371 0.020623 -0.214308 -0.047491 0.123006 0.191199 0.055531 0.083302 0.094577 0.077801 -0.102016 -0.090139 0.176489 -0.237936 0.121613 0.015426 -0.021517 0.038345 0.028009 -0.049229 -0.165124 -0.062632 0.030684 -0.134149 -0.165838 0.143414 -0.108364 0.197383 -0.224774 -0.144321 0.224089 -0.012868 -0.173403 -0.127287 -0.039225 0.220698 -0.006987 0.026861 -0.189358 0.157060 0.143233 0.167810 -0.149444 -0.027800 0.163588 0.035141 0.183786 -0.127705 0.173385 -0.202757 -0.147942 -0.076592 -0.003011 -0.139574 -0.112869 -0.064014 0.194622 -0.161900 -0.143356 0.050513 -0.056426 0.086472 0.087492 0.268955 0.001419 0.036116 -0.114096 -0.167506 0.070115 0.153624 -0.109859 0.052445 0.140756 0.234842 0.113303 -0.142721 -0.023089 -0.032978 -0.136452 0.254206 -0.043077 0.014901 -0.299866 -0.112999 -0.155500 -0.060025 -0.120024 -0.110233 0.110861 -0.352640 -0.017273 0.100056 0.016184 -0.004901 -0.053175 -0.083350 -0.023941 -0.060037 -0.083070 0.123628 0.043001 0.020699 -0.120731 0.006473 0.179610 0.039977 -0.106998 0.081468 0.164332 -0.077026 -0.080798 -0.250718 0.180576 0.195863 0.009220 -0.118200 -0.032641 0.035829 -0.093076 -0.152009 -0.140133 -0.228049 0.113847 -0.022057 -0.023483 0.022497 0.066408 -0.056784 0.011133 0.172242 0.198639 0.049223 -0.054923 -0.083077 -0.085516 0.141039 0.055923 -0.080048 
的 -0.086717 0.077708 0.095153 -0.077534 -0.201572 -0.039050 0.224178 -0.177118 -0.027403 0.057477 -0.066669 0.129152 0.339479 0.319836 -0.079052 -0.062012 -0.059611 0.254263 -0.185260 0.022473 0.223313 -0.019133 0.057403 -0.174267 -0.147680 0.251430 0.173374 0.246176 -0.020732 -0.072165 0.137978 -0.004279 -0.204397 0.063094 -0.063386 0.095960 0.069273 0.146528 0.036587 0.130660 0.087360 -0.003464 0.024737 -0.299916 0.129249 -0.125533 -0.013744 -0.051457 0.025344 0.002261 0.186270 0.103902 -0.059690 0.048668 0.111586 -0.164116 0.041392 -0.124705 -0.200835 -0.057292 0.124204 -0.053406 0.015944 0.156397 -0.017505 -0.139332 0.029014 -0.046029 0.012049 0.040188 -0.291011 -0.174347 0.063485 -0.087494 0.094362 -0.079236 0.011456 -0.083285 -0.176781 -0.068978 -0.152112 -0.210051 0.029724 0.225077 -0.043523 0.056013 -0.091748 0.117421 -0.145361 -0.097812 -0.056271 -0.030124 -0.010288 -0.476084 -0.095660 -0.233154 -0.258442 -0.264762 0.061714 -0.032359 0.061973 -0.091926 -0.156904 -0.245128 0.211210 -0.197555 -0.036293 -0.074462 -0.173573 0.413925 -0.106995 -0.116096 -0.157440 -0.103499 -0.028887 0.011878 -0.210234 0.056505 -0.052651 -0.095527 -0.176350 0.111157 0.043746 -0.004119 0.102981 0.160593 -0.059218 0.166139 0.056845 0.193976 0.131427 0.054011 -0.119366 -0.066942 0.143589 0.037313 0.038312 -0.017474 0.047537 -0.031885 0.142218 -0.032938 -0.093258 -0.123730 -0.118566 0.238340 0.219073 -0.099050 -0.176125 0.053183 0.120483 -0.074427 -0.174691 0.093147 -0.143450 0.101692 0.047367 0.125672 0.157444 -0.026954 -0.072655 -0.034560 -0.093559 -0.003457 -0.239246 0.066908 0.262661 0.233278 -0.103094 0.084275 0.204504 -0.178564 -0.054058 -0.007667 0.213545 -0.285583 0.004152 0.051650 0.045800 0.037554 -0.055800 -0.153859 -0.073797 -0.053326 0.174354 0.014296 -0.146158 0.021431 -0.138027 0.240331 -0.126139 0.035494 0.263673 0.022703 -0.080158 -0.220688 -0.112638 0.038217 -0.037354 0.122898 -0.244030 0.379962 0.040260 0.070950 -0.107942 -0.052696 0.158893 0.074293 0.073716 -0.169331 0.273622 -0.032327 0.039874 -0.240399 0.045044 -0.096061 0.015051 -0.252653 0.278527 -0.094377 -0.199571 -0.133038 -0.095627 0.237342 -0.007894 0.312058 -0.069167 -0.269420 0.140624 -0.004655 -0.061251 0.224296 -0.180805 0.013177 -0.144518 0.288182 0.092436 -0.145238 -0.181346 0.127326 -0.010286 0.192822 0.021140 -0.022966 -0.320514 -0.089973 -0.144749 -0.045754 -0.065430 -0.260918 -0.027799 -0.202658 0.045565 -0.038084 -0.116678 0.114645 -0.147475 -0.055767 0.205335 -0.190325 -0.131642 0.083878 -0.012678 0.139224 0.088108 0.098209 0.175561 -0.034547 0.000758 0.166132 0.184148 0.132228 -0.220062 -0.276506 0.091954 0.216221 -0.031100 0.018810 -0.044368 -0.095684 -0.094428 -0.055514 -0.137786 -0.182290 0.221477 0.060446 -0.047094 0.007152 -0.019735 -0.182819 -0.000238 0.170862 0.145751 0.109331 0.044553 0.032508 -0.257849 0.111964 0.030822 -0.128930 
。 -0.114365 0.122019 0.028330 -0.154405 -0.082406 0.006950 0.244836 -0.022653 0.054961 0.083837 -0.124509 -0.020202 0.225958 0.073275 -0.119383 -0.009769 -0.109966 0.126226 -0.050557 0.071971 0.125425 -0.194978 -0.087468 -0.210904 -0.253794 0.272352 0.077864 0.132150 0.052836 -0.033375 -0.040572 -0.185757 -0.162437 -0.011026 -0.069384 -0.051264 -0.054722 0.006327 0.098569 -0.101593 0.146099 0.063027 -0.079797 -0.207214 0.167566 -0.110669 0.041188 -0.131455 0.030900 -0.098480 0.297080 -0.074289 -0.058574 -0.045986 -0.067652 -0.039158 -0.070145 -0.019326 -0.201515 -0.072990 0.122455 0.043708 -0.029868 0.053288 0.011829 -0.106239 0.014581 0.095562 -0.184938 0.044542 -0.310307 -0.016505 0.135909 -0.127191 0.197215 -0.149586 -0.025520 0.117701 -0.011428 -0.197481 0.097762 -0.025431 -0.164756 0.096924 -0.047540 0.114459 -0.151242 0.134405 -0.135813 -0.226506 0.060476 -0.069083 -0.054344 -0.156373 -0.055480 -0.067134 -0.388187 -0.068489 0.321033 -0.117394 0.042288 -0.057646 -0.091360 -0.068372 0.169932 -0.172838 0.126903 -0.161305 0.119163 0.419171 -0.002529 0.167016 -0.187612 -0.079557 -0.031828 -0.084735 -0.297036 -0.064673 -0.149450 0.011352 -0.132555 0.098269 0.064695 -0.041106 0.096642 -0.027683 0.061721 0.168324 0.112802 0.175981 0.041488 -0.020347 -0.146387 0.042113 0.162911 0.057273 -0.075095 0.041463 0.081015 -0.057071 -0.029709 -0.150371 -0.028554 -0.016504 -0.244163 0.153869 0.229289 -0.091048 -0.080774 0.138653 -0.109443 0.228959 -0.046632 0.096475 -0.027365 -0.032173 -0.044187 0.018416 0.072340 -0.044745 -0.328880 0.007316 -0.044325 -0.006206 -0.183415 0.033983 0.117594 0.107404 0.062854 0.030380 0.244514 -0.010033 -0.049033 -0.114234 0.200898 -0.009388 0.105121 0.000041 -0.006056 0.022211 0.001507 -0.003979 -0.166377 0.063544 0.117205 -0.009292 -0.117458 0.177443 -0.151759 0.179367 0.007158 -0.011563 0.201624 -0.185859 -0.228021 -0.168982 -0.067912 0.022254 0.017199 0.002956 -0.237643 0.173091 0.067473 0.070121 -0.122944 -0.025653 0.114937 -0.006300 0.218278 -0.204975 0.220986 -0.154137 0.003570 -0.278988 -0.018547 -0.057187 -0.144127 -0.011614 0.203019 -0.039667 -0.079438 -0.000665 -0.074490 0.016130 0.093753 0.152570 0.020086 0.045813 -0.185480 -0.212300 0.018037 0.200512 -0.030539 0.046494 0.189321 0.152170 0.174876 -0.211196 -0.099389 0.049074 -0.214498 0.215338 0.009664 -0.017129 -0.314053 -0.089267 -0.199180 -0.030611 -0.050670 -0.135251 -0.020167 -0.220138 0.048496 -0.022833 -0.039102 0.023115 -0.098832 -0.126579 -0.014242 0.012257 -0.046638 0.076218 -0.011540 -0.064163 -0.044354 0.000642 0.247612 0.005325 -0.260361 0.015789 0.201388 0.072724 -0.209301 -0.187138 0.120584 0.270446 -0.039432 -0.118817 -0.016090 -0.046074 -0.033649 -0.197945 -0.115242 -0.271381 0.040619 -0.052232 -0.150357 -0.082893 -0.005905 -0.153000 0.150479 0.037960 0.077362 0.077516 0.042213 0.055036 0.039008 0.110687 0.036073 -0.137635 
、 -0.218755 0.104672 -0.032240 -0.175267 -0.031778 0.085487 0.042656 -0.130028 0.323578 0.026084 0.099210 0.121885 0.162732 -0.132377 -0.354574 -0.109364 -0.337062 0.074147 -0.098594 -0.015474 -0.034215 -0.087167 -0.480474 -0.325940 -0.121858 0.074491 -0.017066 0.342301 -0.273088 0.413539 0.389287 0.056022 -0.085937 0.086941 0.130311 -0.076691 -0.283226 0.073652 0.245304 -0.200827 -0.231907 -0.238023 -0.012973 -0.169951 0.089159 -0.190956 0.017254 -0.375868 -0.011334 -0.069799 -0.070289 -0.053016 0.076941 -0.032634 -0.036743 -0.186243 0.035622 0.069422 -0.214610 0.077250 0.130871 -0.036083 -0.129539 0.032169 -0.134059 -0.418624 0.137294 0.044108 0.010295 -0.080272 -0.103430 -0.302032 0.000638 -0.180021 -0.076271 -0.206716 0.019895 -0.004316 -0.396725 -0.089563 -0.218103 -0.198701 0.023082 -0.248580 0.196351 -0.328194 -0.209898 0.175611 0.135225 0.190780 0.137474 -0.483085 -0.230455 0.032805 -0.145240 0.007534 0.290377 -0.248840 0.110030 -0.017205 0.133560 0.072419 0.115029 -0.038776 0.445849 0.000331 -0.082096 -0.114570 -0.018416 0.236443 -0.363573 -0.221253 0.112276 0.010471 0.099705 -0.055250 -0.230183 -0.042170 0.156025 -0.115510 -0.033051 0.005111 0.049026 0.262675 -0.110888 -0.200476 -0.061172 0.030605 -0.272732 0.057471 0.278456 -0.290801 0.148137 -0.008269 -0.155345 -0.047509 -0.204856 0.100057 -0.227843 0.163550 0.335440 -0.072119 0.197110 -0.120810 0.081945 0.090463 -0.099534 0.264033 0.050570 0.446549 0.341366 0.313307 -0.133685 -0.245386 -0.282129 0.101202 0.144212 -0.196481 0.301935 -0.174991 -0.390048 0.522385 -0.269818 0.190578 -0.504242 0.230800 0.159327 0.459633 -0.023270 -0.250343 0.402026 0.027579 0.045780 0.056635 0.022978 -0.254602 0.213710 -0.127369 -0.077507 -0.390284 0.036464 -0.097871 0.152762 -0.294253 0.330010 -0.161530 -0.180592 0.143998 -0.215741 0.002479 -0.022535 -0.146443 0.073295 -0.147995 -0.306987 0.037985 -0.000610 0.223511 -0.208933 0.154226 -0.286694 0.357042 0.078332 0.130030 -0.232757 0.040723 0.322659 -0.132372 0.078642 -0.131303 0.076427 -0.204964 -0.197500 -0.043472 -0.057403 -0.030519 0.034882 -0.195405 0.016433 -0.216987 -0.296426 -0.281292 -0.061204 0.042741 -0.052125 0.339162 -0.155859 -0.284904 0.190523 0.222723 0.288811 -0.100322 -0.380222 -0.348286 0.023299 -0.061175 0.008540 0.047030 -0.227378 0.088395 -0.236679 0.229386 -0.055002 -0.237411 -0.348234 -0.197966 -0.320130 0.131924 0.062154 0.014773 0.143260 -0.138102 0.062834 -0.043348 0.020203 0.053407 -0.123872 0.021875 0.072621 -0.379451 -0.077352 0.069308 0.173613 0.166043 0.139316 -0.126090 -0.217275 -0.277025 -0.246810 0.153019 -0.115614 0.018469 -0.121825 0.245444 0.003490 0.375863 -0.291652 0.255328 -0.098356 -0.073689 0.058193 -0.036545 0.090877 0.083755 0.010495 0.025639 -0.033253 -0.048239 -0.064086 0.027124 0.092067 0.191939 -0.080064 -0.140970 -0.223796 0.046355 -0.174176 -0.062020 -0.004782 0.213918 
, -0.166416 0.458875 0.117787 -0.300892 -0.232379 0.109313 -0.325269 -0.166099 -0.742212 0.159520 -0.067204 -0.071487 -0.018421 -0.325464 -0.291194 -0.048401 0.242334 -0.276290 -0.151345 -0.185863 0.276093 -0.094200 0.340196 0.453599 -0.176286 0.169466 0.018721 -0.049713 -0.094083 0.275080 0.510926 -0.065622 -0.098817 0.100917 0.141492 -0.173913 -0.528509 0.261855 0.141042 0.348194 -0.374325 -0.405739 -0.341175 0.018615 -0.328050 -0.588039 -0.174528 -0.039509 -0.056424 0.271162 -0.135461 -0.110497 -0.303946 -0.232517 0.032250 0.035609 -0.438125 -0.043177 -0.024131 -0.254204 -0.192914 0.159849 -0.071816 -0.046594 0.349104 -0.364416 0.114040 -0.188564 0.066528 0.115232 -0.081358 0.109149 0.525326 -0.212109 0.055900 -0.191771 -0.174951 -0.142281 0.428672 0.190950 0.029326 0.087188 0.025949 -0.152817 0.132441 0.194583 0.086394 0.190709 -0.108562 0.179136 0.154072 -0.067831 -0.422674 -0.062222 -0.429175 -0.001138 -0.513993 -0.139846 0.568298 -0.171959 0.266043 -0.442888 0.400827 -0.593836 0.418644 -0.389662 0.075764 0.323857 -0.302740 0.150010 -0.280062 0.094327 0.067203 0.031793 0.210205 -0.459572 -0.300911 0.366372 -0.528620 0.337505 -0.131694 0.425632 0.087045 0.343555 -0.049181 0.518542 0.187935 0.114424 -0.076487 0.090124 -0.166517 0.106330 0.327029 -0.225788 0.120094 0.103110 0.119615 0.124835 0.149056 -0.132554 0.351411 -0.144999 -0.342927 0.236944 -0.381474 -0.314731 -0.231660 0.139596 -0.136836 0.125580 0.330348 0.356486 0.143588 0.023362 0.031224 0.397691 0.257322 -0.278811 0.396760 0.033045 -0.237052 0.487402 -0.081698 0.102236 -0.289858 -0.005784 -0.125871 0.314722 -0.018002 -0.246684 0.259345 -0.064844 -0.565438 -0.212749 -0.319846 -0.071193 -0.207861 -0.118316 -0.003704 0.355060 -0.186315 -0.257154 -0.485915 -0.224720 -0.196574 -0.583351 -0.601249 0.128027 -0.239855 0.578740 0.085863 0.168902 0.411708 -0.320317 -0.028827 -0.084776 -0.085382 0.014303 -0.376463 -0.087720 -0.172336 0.038462 0.219802 0.202950 0.266123 -0.433358 -0.089561 -0.129590 0.382207 -0.401684 -0.061437 -0.160810 -0.224305 -0.042502 0.120188 0.232212 -0.237504 -0.268921 0.023427 -0.029060 0.109704 -0.176758 -0.336594 -0.142732 0.139333 0.227468 -0.146876 -0.272985 0.357296 0.392635 -0.429176 0.289104 -0.153258 0.182625 0.049656 0.718984 0.198912 -0.515648 0.059150 -0.413140 0.138642 -0.181294 -0.205664 -0.099981 -0.504930 -0.166517 -0.802458 -0.056121 -0.241593 0.057339 0.147216 0.186103 -0.129237 0.308711 0.147341 -0.349369 -0.070612 0.683587 0.370243 -0.383530 -0.347732 0.643833 -0.088899 0.076559 0.224312 0.454706 0.192787 0.118958 0.202993 0.258872 -0.224670 -0.249491 0.358069 -0.306227 0.528824 0.023136 -0.075061 -0.014940 -0.298007 -0.439542 0.116294 -0.389173 -0.054450 0.445328 -0.109228 -0.230623 0.294286 0.308293 0.315038 -0.655326 -0.099326 0.021598 -0.142140 0.352612 -0.080029 0.281831 -0.281419 0.442771 0.091643 -0.376297 
： -0.217221 0.008480 0.099879 -0.489337 0.285080 -0.020574 0.217413 0.313973 0.075262 -0.344234 0.089133 0.009720 0.093719 0.048263 -0.089107 -0.059540 0.104164 0.144109 0.216485 -0.154479 -0.214702 -0.330133 -0.122943 -0.267092 -0.507135 0.007970 -0.038366 0.487400 0.097920 -0.130156 0.179016 -0.129281 -0.031336 -0.078795 0.099526 -0.377794 -0.534716 -0.013938 0.148968 -0.124491 -0.025619 -0.115374 -0.396839 -0.138798 0.088467 -0.338754 -0.238117 -0.165040 0.314243 -0.154723 0.572941 -0.207054 -0.027581 -0.363955 0.331185 -0.081086 -0.178682 -0.162301 -0.145298 -0.445905 -0.240664 -0.445383 -0.131062 -0.304050 -0.043202 -0.264867 -0.203243 0.180534 -0.486693 -0.107285 -0.099181 0.155434 0.146508 -0.209692 -0.111644 -0.209858 -0.146715 -0.010627 -0.114623 -0.204866 -0.004815 -0.157063 -0.104354 -0.126373 0.260780 -0.187593 0.034845 0.370106 -0.106363 -0.027004 -0.030012 0.327615 -0.124037 -0.098301 -0.497387 0.105783 -0.448005 0.061362 0.766626 -0.099608 0.142099 -0.011643 0.198739 0.053278 0.154733 -0.463993 0.205373 -0.246697 0.422328 0.326943 -0.182602 -0.163700 -0.003114 0.095113 -0.027952 -0.175492 -0.121231 -0.259410 0.004997 0.501693 -0.199294 0.195451 0.149059 -0.061804 -0.171716 0.495038 -0.065960 -0.050214 0.316759 -0.133889 -0.050357 -0.116957 0.146254 0.212027 -0.041579 -0.086608 -0.174297 -0.312327 0.043546 -0.245898 0.171922 -0.176081 0.183121 0.368148 0.131462 0.291604 0.203694 0.041965 0.003210 0.066147 -0.089935 0.442280 -0.034561 0.172753 -0.042735 0.394625 -0.078218 -0.197446 0.073987 -0.405199 -0.332117 0.220422 -0.249733 0.129411 -0.195615 0.206853 -0.139406 0.130479 -0.123578 -0.331978 0.376037 -0.062942 -0.014644 -0.007090 0.278068 -0.150194 -0.032104 -0.009309 -0.323009 -0.203907 -0.321960 0.002870 0.274457 -0.006239 0.130424 -0.137819 -0.362961 0.014982 0.063862 -0.104676 -0.451527 0.090401 0.125245 0.098342 -0.399731 0.041799 -0.194267 -0.337733 -0.490814 0.246589 -0.040535 0.315814 0.181316 -0.189501 -0.287052 0.180923 0.389246 -0.209190 0.174535 -0.266208 0.015258 -0.156378 0.019171 -0.414749 0.075101 -0.039837 0.214992 -0.117157 0.262818 0.082468 0.002574 -0.045091 -0.117141 0.161498 -0.137450 0.077235 -0.190537 -0.285159 0.170931 0.015363 -0.074657 0.487023 -0.387176 -0.101316 0.113981 0.154959 -0.002791 0.114659 -0.202214 0.201039 -0.125179 -0.148194 -0.171708 0.010908 -0.272884 -0.198410 -0.112396 -0.232757 -0.137033 -0.049453 -0.142680 -0.213748 0.321751 0.069444 -0.099458 -0.309993 -0.351306 0.081869 0.110953 -0.379615 -0.163681 -0.108756 0.030337 -0.208858 -0.001345 -0.006148 -0.099124 -0.301316 -0.002606 0.198582 0.190097 -0.078955 -0.061973 -0.154218 0.291054 0.156159 -0.120882 0.336544 0.082755 -0.314118 -0.253215 -0.199294 0.141628 -0.453980 0.325609 0.144577 0.133480 -0.061707 0.218061 -0.078088 -0.164657 0.107552 0.330840 0.363383 0.004554 -0.020078 0.113618 -0.175600 0.182011 0.142050 
和 -0.154827 0.102943 0.095537 -0.065668 -0.170060 -0.014211 0.164307 -0.144551 0.205258 0.022798 -0.077970 -0.057161 0.301809 0.066070 -0.343513 -0.028136 -0.059721 0.226771 -0.305395 0.063696 0.020289 -0.113166 -0.126215 -0.204444 -0.219926 0.154901 0.323276 0.230440 -0.122597 -0.104742 0.255037 -0.111496 -0.249729 -0.011468 0.006216 0.122375 -0.280202 0.032616 0.149353 0.147382 -0.011987 -0.110430 0.040363 -0.264190 -0.014589 0.016552 0.020731 -0.332164 -0.055469 -0.080869 0.226376 0.006909 -0.101634 -0.056643 -0.009214 -0.323564 -0.011844 -0.062181 -0.207687 0.088062 0.209974 -0.066008 -0.161876 0.216585 -0.041933 -0.310693 0.019087 -0.019382 0.004750 -0.024561 -0.079578 -0.162158 0.108384 -0.012155 0.108491 -0.163078 -0.039817 -0.050092 -0.115997 -0.150196 -0.148862 -0.149122 0.063143 0.097983 -0.027537 -0.139480 -0.155004 0.174203 -0.095380 0.056659 -0.040405 -0.201840 -0.182106 -0.225710 -0.054475 0.000199 -0.009224 -0.436755 -0.067646 0.006373 0.150610 0.024521 0.062513 -0.265787 0.219284 -0.133181 -0.123997 -0.017062 -0.115936 0.283200 -0.214329 -0.189321 0.094795 0.007259 0.043845 -0.099657 -0.190462 -0.068130 0.148361 -0.050502 -0.106885 0.054308 -0.045554 0.041833 -0.133040 -0.112741 0.057079 -0.064782 -0.007800 0.215330 0.245632 -0.000207 -0.013187 -0.013649 0.071542 0.045631 -0.048219 0.133589 -0.074350 -0.011649 0.157185 -0.240488 -0.077741 -0.065263 -0.180561 0.180365 0.132645 0.014922 -0.001122 0.280575 0.309215 0.230090 -0.153869 -0.154699 -0.242643 0.109213 0.077038 -0.019846 0.251219 -0.174571 -0.189158 0.108979 -0.305045 0.049207 -0.237013 -0.073051 0.255196 0.319237 -0.006922 0.078610 0.317811 -0.043227 0.056548 0.011125 0.274748 -0.262772 0.011192 0.060136 0.049377 -0.167716 -0.010994 -0.402125 -0.024064 -0.229529 0.153070 -0.043836 -0.119356 0.006883 -0.235463 -0.000679 0.042366 -0.002847 0.185465 -0.067067 -0.183046 -0.180445 0.011952 0.203509 0.053438 0.090382 -0.237883 0.460954 0.003971 0.117604 -0.080001 -0.056987 0.260405 0.153446 0.354347 -0.214651 0.134852 -0.047278 0.028035 -0.304292 0.034092 -0.032120 -0.044664 -0.338681 0.186877 -0.160732 -0.250543 0.024804 -0.041280 0.056384 -0.068341 0.248207 -0.135024 -0.229195 0.015276 0.094357 0.232263 0.008569 -0.229286 -0.128778 -0.056743 0.086507 0.080794 -0.164680 -0.216839 0.066025 -0.056971 0.190736 -0.042808 0.009270 -0.234058 -0.071912 -0.205098 0.038450 0.139838 -0.174638 0.072834 -0.279586 0.082325 0.063682 0.065584 0.113368 -0.201039 -0.200257 0.204870 -0.311095 -0.017903 0.243068 0.091245 0.242331 0.196992 -0.061099 0.031145 -0.162943 -0.153409 0.065009 0.066087 0.178581 -0.256799 -0.037364 0.030833 0.193265 -0.267838 0.037509 0.018986 -0.123760 0.012845 -0.043829 0.031315 -0.165025 0.187242 -0.025953 0.050553 0.000717 -0.021976 -0.113598 0.017572 0.311966 -0.029283 0.031429 -0.073844 0.039394 -0.378867 0.023752 -0.048099 0.043318 
在 -0.079352 -0.018328 0.080696 -0.101202 0.020050 0.156953 -0.059751 0.004810 -0.112943 -0.048491 0.006620 0.233746 0.277191 0.237083 0.026136 -0.023099 -0.086519 0.322531 -0.247404 0.253479 0.241942 -0.366756 -0.079692 -0.010014 -0.048600 0.483415 0.283302 0.393282 0.033442 -0.099772 -0.073968 -0.020652 -0.097767 -0.226088 -0.105222 0.139441 -0.059856 0.100374 0.096654 -0.084872 0.163942 -0.108321 -0.039772 -0.211032 -0.037219 -0.044675 -0.085428 -0.054245 -0.047243 -0.107936 0.138238 -0.058882 -0.138114 -0.093585 0.128758 0.115518 0.004833 0.179362 -0.118232 0.069292 -0.124889 -0.025189 0.050521 0.037004 0.087165 -0.052530 0.024895 -0.014085 -0.005701 0.105041 -0.129384 -0.025887 0.077078 -0.193858 -0.209718 0.005728 0.052195 0.145920 0.007420 0.216938 -0.231721 -0.067652 -0.007285 0.104348 -0.329729 0.204705 0.113962 -0.130103 -0.076987 -0.306337 0.107313 0.009002 -0.057779 -0.213214 0.079769 0.102384 -0.334775 -0.288185 -0.041926 0.047724 -0.033593 0.023345 -0.370420 -0.321050 0.018290 -0.156635 0.023889 0.006536 0.016709 0.221410 -0.386775 0.063065 -0.259994 -0.114422 -0.239405 -0.040440 -0.192894 -0.032444 -0.110345 -0.125802 -0.311046 0.300524 0.062899 -0.254693 -0.098904 -0.064442 0.037882 -0.031520 -0.115170 0.164066 0.072852 -0.033359 -0.075182 -0.038534 0.275529 0.256537 -0.052158 -0.238906 0.106806 0.056010 0.179613 -0.363403 -0.190415 0.200856 -0.213633 0.237521 0.085236 -0.071147 -0.105297 0.227146 0.115114 -0.234863 -0.042049 0.163793 -0.010871 0.046552 0.034556 -0.065542 -0.253709 -0.076158 -0.283515 0.024577 -0.201119 0.124810 -0.347668 0.041078 0.011815 0.326605 0.112836 0.102131 0.102686 -0.254311 -0.011295 0.019356 0.299330 -0.307652 0.075651 0.153520 -0.259293 0.028274 0.026114 0.017047 -0.256507 -0.146391 -0.039300 0.011420 -0.181612 0.073317 -0.075665 0.375623 -0.160151 -0.015521 0.404878 -0.054566 -0.060805 -0.121520 -0.148045 0.100611 -0.156118 -0.097318 -0.056125 0.261301 -0.227826 0.037488 0.048595 -0.163982 0.118519 0.018999 0.227962 -0.095450 0.189146 -0.035163 0.049195 -0.129364 0.043680 -0.162761 -0.191341 -0.129799 0.384170 -0.238064 -0.119367 -0.115586 -0.149969 0.183397 0.054292 0.172386 0.166419 -0.237482 -0.072231 -0.095666 -0.039181 -0.089789 -0.351730 0.032791 0.033598 -0.019906 0.012260 -0.175798 -0.223262 -0.154089 0.127332 0.284985 -0.078082 0.204104 -0.218850 0.063363 -0.307117 -0.198442 -0.064341 -0.031773 0.316602 -0.350067 -0.079618 -0.118457 0.186378 -0.121454 -0.122671 -0.112528 0.154076 -0.201409 0.237407 0.001649 0.143423 0.000659 0.180755 0.083871 0.241300 0.052746 0.261906 0.101338 0.101743 0.038757 -0.505571 -0.327398 0.069691 0.358495 0.037192 -0.206626 0.018943 0.048326 -0.072638 -0.027121 -0.141585 -0.211400 0.002519 -0.002012 -0.057201 0.001305 -0.209103 -0.305639 -0.022513 0.131048 0.327110 0.128082 0.050256 0.139027 -0.220567 0.031555 -0.061271 -0.262832 
了 -0.145946 -0.011267 0.241033 -0.021967 -0.102958 0.227279 0.323938 -0.079604 -0.098935 -0.098690 -0.075964 0.213604 0.418811 0.366966 -0.085624 0.062869 0.126106 0.045175 0.002315 -0.036434 0.144876 0.337324 -0.160087 0.030055 -0.358237 0.405239 0.334795 0.357023 -0.173660 -0.370551 0.200968 -0.369741 -0.291534 0.193109 0.010797 0.273241 0.135588 0.174958 0.152032 0.243462 0.085357 -0.243067 -0.137179 -0.390172 0.063558 0.062903 -0.170123 -0.022754 -0.225022 -0.159566 -0.009962 0.056958 -0.151037 -0.102605 0.290049 -0.110768 -0.072182 -0.051338 -0.325062 -0.083852 0.000336 -0.080513 -0.251112 0.011714 0.016375 -0.024083 -0.022815 -0.091664 0.013207 -0.049661 -0.275228 -0.099660 0.152726 -0.180633 -0.193340 0.136277 -0.053325 0.215530 -0.027799 0.138216 -0.126520 -0.250883 0.091381 0.318617 -0.330435 0.079277 0.003595 0.043566 -0.403787 -0.067146 -0.049088 -0.072976 -0.296027 -0.050972 0.095308 -0.022772 -0.123976 -0.138564 0.119119 -0.175600 0.097597 0.014944 -0.104337 -0.153884 0.196614 -0.161320 0.067292 0.143530 0.131270 0.394278 0.079133 -0.170537 -0.180367 -0.250917 -0.074086 -0.021875 -0.256137 0.185998 0.134725 -0.174310 -0.091706 0.201749 0.121108 -0.065764 -0.185886 0.159363 0.097196 0.267227 0.080603 0.374497 0.149392 0.174223 -0.416381 0.101011 0.236600 0.118253 0.259288 -0.122285 0.050873 0.240724 0.141170 -0.293871 0.070785 -0.045762 -0.068914 0.296068 0.319669 0.075542 0.092972 0.248563 0.265543 -0.108036 0.120394 0.122605 0.104654 0.162821 0.086995 0.069502 -0.063428 0.080011 -0.118514 -0.016618 -0.032832 0.165684 -0.297552 0.129007 0.093105 0.452463 -0.157697 -0.138088 -0.140178 -0.170839 0.054850 -0.040062 -0.112034 -0.010102 -0.178522 0.033897 0.041476 0.037969 -0.287119 -0.171609 -0.228225 0.075365 -0.160033 -0.227917 -0.170019 0.103800 -0.200590 0.355726 -0.150159 -0.044477 0.209686 -0.239617 0.029176 -0.027113 0.016270 0.011958 -0.129182 0.318783 -0.143655 0.327880 0.033780 -0.023597 -0.068228 -0.074786 -0.019237 0.175780 0.051073 -0.319673 0.300202 0.084746 0.130305 0.027854 -0.164402 0.024707 0.019685 -0.147383 0.395440 -0.152339 -0.311589 0.032857 0.262576 0.017507 0.154019 -0.042363 -0.035649 -0.132481 0.023972 -0.079715 -0.296244 0.111540 -0.235367 0.080747 0.103076 0.314453 0.246359 -0.397442 0.045309 -0.081186 0.015030 0.320847 -0.015211 0.158277 -0.309526 0.042228 0.035473 0.460651 -0.113563 -0.175489 0.047338 -0.145283 -0.131980 -0.020128 -0.218324 0.068369 -0.004671 -0.069535 0.022109 -0.221369 0.052845 0.184062 0.015381 0.294529 0.088081 0.216896 0.030783 -0.072804 0.215754 0.194074 -0.015838 0.330497 -0.262551 -0.073459 0.060632 0.137413 0.192987 -0.143582 0.063803 0.084413 -0.091637 -0.113888 0.167194 0.161551 0.402136 0.082162 -0.068454 0.123904 0.311941 -0.123067 0.087819 0.225667 0.216648 -0.162740 0.134317 -0.232447 -0.590055 0.186269 -0.287727 -0.245727 
是 -0.068435 0.086612 0.041014 -0.080026 0.018134 0.151582 0.310172 -0.032617 -0.069928 0.125596 0.038483 0.063065 0.193735 0.292336 -0.183463 -0.109359 0.116510 -0.011390 -0.279877 -0.070984 0.028936 0.115336 0.049742 -0.216181 -0.246439 0.393780 0.112588 0.212735 0.066879 -0.069529 0.316852 0.039473 0.045270 0.079152 0.052268 0.081605 0.000634 0.249300 -0.148143 0.299150 -0.057606 -0.123098 -0.049928 -0.164229 0.220259 -0.301264 -0.037056 0.179081 0.157821 -0.005271 0.369990 0.040886 -0.036962 0.099465 0.039445 -0.018389 0.270933 0.050992 -0.128956 -0.090578 0.233250 -0.060498 0.091359 0.073126 -0.097803 0.113003 -0.035624 -0.159839 -0.171626 -0.020792 -0.248836 -0.123041 0.066055 -0.018969 -0.013435 -0.401410 0.034169 0.177635 -0.042069 -0.029150 -0.140934 0.138793 -0.078838 -0.078607 -0.206194 0.063850 -0.087226 0.180745 -0.351556 -0.245347 0.110028 0.189087 0.053166 -0.251778 -0.244873 -0.187898 -0.277659 0.032360 0.147866 -0.183440 -0.031335 -0.006031 -0.254075 -0.136785 0.273639 -0.052323 0.234138 -0.065875 -0.064677 0.556554 0.007212 0.113029 -0.307552 -0.207065 -0.005358 -0.101728 -0.197621 0.014062 -0.194712 -0.093937 -0.098482 0.162546 0.081780 -0.066447 0.221708 0.106834 0.079306 0.035108 -0.069520 0.079395 0.029150 -0.097694 -0.104962 -0.162582 0.066454 0.019875 -0.058010 -0.143535 0.146354 0.081975 0.097954 0.068149 -0.178155 0.080682 -0.230446 0.195232 0.101309 -0.067172 -0.126079 0.082107 0.337892 -0.047960 -0.159706 0.039663 0.008830 0.119983 0.210816 -0.053748 0.116449 -0.032495 -0.106229 -0.002375 -0.233156 0.130932 -0.131307 0.209959 0.141804 0.245674 0.001328 -0.086237 0.226390 -0.042952 -0.092885 0.007108 0.198502 -0.338547 -0.133708 -0.145136 -0.048833 -0.017483 -0.172134 -0.095687 -0.041293 -0.160926 0.243580 -0.213017 -0.157789 -0.097852 -0.160847 0.133700 -0.132596 -0.025033 0.143863 -0.085148 0.169754 -0.132803 -0.285838 0.102763 0.016430 -0.132086 -0.166653 0.356173 0.083426 0.026029 -0.001572 -0.085846 0.182012 -0.024667 0.106504 -0.212041 0.271886 -0.041399 -0.010201 -0.365297 0.000195 -0.080677 -0.074930 -0.174539 0.183039 -0.328576 -0.291796 -0.153051 -0.243914 -0.083866 -0.084821 0.364896 -0.019266 -0.057195 0.023770 -0.085538 0.103595 0.193868 -0.047888 -0.109131 -0.136571 0.187664 0.281279 -0.003338 -0.187083 0.065914 0.007670 0.054222 -0.156337 0.101175 -0.116562 -0.226725 -0.167828 -0.142021 0.020737 0.123473 0.211587 -0.159410 0.096541 -0.305382 0.126846 -0.033557 -0.193616 0.119427 0.350484 -0.048114 -0.084439 0.030511 -0.012331 0.075956 0.222005 0.086450 0.171640 0.154613 0.153648 0.227244 0.188433 0.081560 -0.303414 -0.266977 0.488503 -0.137099 -0.027457 0.134055 -0.157528 0.037058 -0.145057 -0.130768 -0.276214 -0.111041 0.177576 0.185033 0.041555 -0.097160 -0.046817 -0.261425 0.118861 0.219894 0.035690 0.450671 0.013216 0.052916 -0.098094 -0.047360 0.057878 -0.112646 
“ 0.007234 0.093311 0.001780 -0.116332 -0.124055 0.003852 0.065355 0.071624 -0.159572 0.211190 -0.133930 -0.086175 0.142619 0.082422 -0.131528 -0.235888 0.095093 -0.019910 -0.081601 -0.086257 0.259485 -0.091287 0.010308 0.308958 -0.277934 0.376835 -0.019363 0.445640 0.250138 -0.010963 0.322810 0.219605 0.242359 0.285978 0.018980 -0.064250 0.219450 0.194441 0.252923 -0.158274 -0.107275 -0.171398 -0.054005 -0.263447 0.166076 -0.061094 -0.304414 0.071675 0.161846 -0.197732 0.277175 -0.051730 -0.208372 0.179828 0.148004 0.025525 0.178450 -0.073230 -0.366930 0.052269 0.166108 0.096178 -0.039345 0.110227 -0.050790 0.064998 0.113991 -0.126375 0.301727 -0.225194 -0.290708 -0.206016 0.374024 -0.016774 0.079344 -0.128651 0.188323 0.080003 -0.148849 0.061274 -0.439299 -0.016298 0.148199 0.203512 -0.256720 0.056983 -0.020329 0.380282 -0.497828 -0.125171 0.155276 -0.099767 0.100944 -0.101469 0.051890 -0.029757 -0.150845 -0.053194 0.366718 -0.069796 0.283387 0.064756 0.061128 0.097160 0.161721 0.265483 0.090991 -0.124224 0.204297 0.402231 0.021623 -0.010530 0.153876 -0.091703 0.007095 -0.365628 -0.092885 0.239887 0.092062 0.085443 0.039293 0.266985 0.155259 0.113085 -0.073971 0.178842 -0.020828 -0.283475 -0.170377 0.280054 -0.250041 0.221438 -0.170236 0.030597 -0.065206 -0.340517 -0.205864 0.020111 0.094878 -0.328173 0.084378 -0.156588 0.245673 -0.030519 0.058752 0.220691 0.186140 -0.209078 0.035742 0.346682 0.003334 -0.375392 0.079420 -0.005893 -0.002545 0.054856 0.112352 0.174799 -0.125725 0.050632 0.074559 0.001866 -0.017856 -0.035103 -0.156609 0.310383 0.249907 -0.071914 -0.259645 -0.125849 0.204729 0.208392 -0.049982 0.192980 -0.028296 0.023077 -0.077172 -0.001955 -0.073846 -0.124095 -0.223568 -0.021734 0.013018 -0.194619 0.449021 -0.245494 -0.223684 0.118121 -0.067978 0.077829 -0.439271 0.026462 0.055718 -0.062925 -0.160846 -0.134778 -0.145988 -0.226238 -0.107424 0.115538 -0.089514 0.016675 -0.036792 -0.423222 -0.013588 -0.268351 0.143284 0.216717 0.167788 -0.470608 0.006816 -0.015307 0.244689 0.011588 0.043408 -0.010734 -0.032100 -0.202437 -0.037019 -0.130947 -0.139818 0.021448 0.176401 -0.058107 0.167359 -0.049052 -0.057478 -0.023956 0.176348 0.040568 -0.096150 -0.008340 -0.184120 -0.113361 0.108351 -0.191431 0.247659 0.150173 -0.046442 0.062233 0.113069 0.031709 -0.018355 0.167086 0.027871 -0.145323 -0.197885 0.102918 -0.182576 -0.010526 0.053479 -0.160668 0.058512 0.090901 0.225298 -0.089656 -0.013662 -0.009206 0.318404 -0.161080 -0.068719 -0.005221 0.039481 0.200642 -0.173418 0.272758 0.018032 -0.163685 -0.129879 -0.158918 0.192137 0.093167 -0.123617 -0.014347 -0.146520 -0.003938 -0.404778 0.352277 0.490756 0.122826 -0.226054 -0.175186 -0.125558 -0.039480 0.053915 -0.219524 -0.083869 0.341506 -0.073169 -0.129830 0.047795 0.095492 0.080026 0.167835 -0.111354 -0.074129 0.241872 0.145883 -0.031088 -0.346716 
” -0.031693 0.067343 0.073922 -0.097475 -0.198147 -0.055159 -0.018980 0.001196 -0.145539 0.181829 -0.218470 -0.088433 0.209279 0.085517 -0.243571 -0.223738 -0.051623 -0.077341 -0.001944 -0.031803 0.258170 -0.098471 -0.054493 0.261817 -0.316744 0.264314 -0.193103 0.464071 0.114838 -0.002015 0.319962 0.165774 0.123447 0.195280 -0.035272 -0.039685 0.214516 0.257427 0.138653 -0.280084 -0.057317 -0.179258 -0.020241 -0.293026 0.095421 0.008353 -0.177630 0.052098 0.089982 -0.210979 0.278412 -0.138054 -0.139843 0.222852 0.158215 0.054560 0.055333 0.018747 -0.333909 0.028155 0.287412 0.098565 -0.029730 0.120509 0.001278 0.090743 0.077089 -0.100225 0.304607 -0.206319 -0.318134 -0.160543 0.246981 -0.024660 0.225047 -0.133089 0.184752 0.045712 -0.045427 0.071525 -0.368630 0.001933 0.126148 0.281878 -0.242205 0.139754 -0.091263 0.357476 -0.471781 -0.164854 0.167092 -0.204470 0.089264 -0.059086 0.032069 -0.032350 -0.243251 -0.108998 0.290196 -0.084181 0.372289 0.049940 0.008778 0.116833 0.137024 0.126479 0.214005 -0.106140 0.071598 0.439579 0.152752 0.145544 0.201413 -0.093314 0.140908 -0.233816 -0.150370 0.145464 0.110701 0.122762 0.057239 0.233658 0.147512 0.147207 -0.052947 0.144345 0.080430 -0.237150 -0.121259 0.293116 -0.175299 0.189926 -0.141907 -0.106456 0.022513 -0.339715 -0.199289 0.073303 0.095506 -0.281667 0.063463 -0.198155 0.216641 -0.020167 0.022848 0.142435 0.192003 -0.274946 -0.032910 0.340248 -0.020440 -0.304910 0.149013 0.033005 0.151111 -0.084385 0.054468 0.159482 -0.134178 0.011232 0.042823 0.042774 -0.059739 -0.107356 -0.114689 0.341990 0.234250 -0.086019 -0.143905 -0.220419 0.284694 0.213589 -0.061997 0.017384 -0.028998 0.058121 -0.019457 -0.096617 0.081914 -0.229600 -0.345419 -0.022415 -0.033777 -0.168519 0.495007 -0.346213 -0.150815 0.114475 -0.100782 0.021882 -0.251640 0.096979 0.047205 -0.097485 -0.198740 -0.151567 -0.138932 -0.167803 -0.080132 0.093271 -0.260239 0.091323 0.004814 -0.358427 0.015661 -0.301019 0.164446 0.102465 0.206346 -0.478538 0.064553 -0.047612 0.289148 0.039388 0.142146 0.095216 -0.077681 -0.194427 -0.078559 -0.067824 -0.037119 -0.000556 0.106218 -0.166986 0.185270 -0.078029 0.021209 0.068292 0.161334 0.007012 -0.063088 -0.045078 -0.126229 -0.125984 0.062574 -0.158439 0.203353 0.144210 0.004238 0.084122 0.025870 0.026732 0.038629 0.171882 0.027577 -0.098428 -0.167208 0.158269 -0.246695 0.043159 -0.008459 -0.109971 0.119496 0.146427 0.211284 -0.019309 0.064732 0.093690 0.311050 -0.194392 0.017703 0.051564 0.013803 0.258561 -0.192355 0.185791 -0.004937 -0.115552 -0.152063 -0.105926 0.273609 0.173960 -0.070252 -0.116570 -0.170346 -0.008133 -0.259085 0.268758 0.400630 0.113552 -0.101585 -0.188653 -0.214832 -0.264429 0.064990 -0.202950 -0.052851 0.305542 -0.021187 -0.172461 -0.030869 0.001982 -0.009234 0.164079 -0.093428 -0.069262 0.201432 0.158063 0.110858 -0.282060 
《 0.106739 0.264750 0.084918 -0.104113 -0.347512 0.206473 0.237083 0.062582 -0.177169 0.145006 -0.276873 -0.314988 0.206472 -0.016103 -0.169454 -0.312067 -0.315047 0.035533 -0.026242 0.007476 -0.210098 0.014803 0.097859 -0.092647 -0.195957 0.191630 0.036005 0.435101 -0.250234 0.199412 0.213773 0.305942 0.162470 0.113283 -0.113162 -0.232128 -0.240070 0.343155 0.123997 -0.414965 0.257288 -0.192124 -0.035759 0.069238 -0.102999 -0.017806 0.027529 0.211347 -0.005311 -0.433219 0.291819 0.245681 -0.420902 0.118651 0.256703 0.081270 0.203919 -0.259045 -0.268931 -0.222723 0.083679 0.133900 -0.130522 0.132386 -0.123784 0.035237 0.105442 -0.382509 0.008844 -0.445002 -0.537069 0.197453 0.278127 -0.017783 0.214414 0.171877 -0.172308 -0.050951 -0.248598 0.053992 -0.178213 -0.143490 0.200220 -0.055231 -0.090898 0.008398 0.145467 0.287471 0.123202 -0.171356 0.243899 -0.259270 0.030333 -0.203052 -0.187312 0.141021 -0.358868 -0.208248 0.263006 -0.075993 0.036890 -0.058287 0.024606 0.060914 -0.059675 -0.062590 0.099165 -0.331383 0.091951 0.079747 -0.207321 0.094603 0.046366 -0.245694 -0.124635 0.021652 0.012867 -0.017135 0.082217 0.417966 -0.032576 0.325040 0.229597 -0.165903 0.324053 0.425593 -0.187816 -0.023894 -0.211551 0.005339 -0.007092 0.142649 -0.031370 0.024217 -0.316928 -0.092800 -0.001705 -0.357693 0.051591 -0.305847 -0.046248 -0.367194 -0.009115 -0.270462 -0.012179 -0.001455 0.188500 0.099314 -0.240663 0.451102 0.171699 0.163800 -0.053162 -0.042838 0.107632 0.112446 0.434043 0.247660 -0.149902 -0.206798 -0.333507 0.133309 -0.192694 -0.010145 -0.402606 0.837702 -0.034447 0.177584 -0.257561 -0.327240 0.191586 0.044556 0.041750 -0.375182 0.083705 0.452599 -0.279107 -0.047247 -0.011556 -0.385529 -0.039084 -0.167936 -0.342075 0.111205 0.045840 -0.124224 -0.069815 -0.166326 -0.013273 0.046205 -0.513955 -0.124382 -0.087888 -0.074808 -0.374025 0.123174 -0.106354 -0.051926 -0.447046 -0.189807 -0.417188 0.076814 -0.203210 -0.019753 -0.216451 -0.547020 0.091358 0.097982 -0.151556 -0.332251 -0.217146 -0.054000 0.291670 -0.013817 0.057616 -0.126962 -0.040711 -0.228469 -0.098592 0.080569 -0.602278 -0.289544 0.126433 0.216360 0.489015 -0.009900 -0.010108 -0.010771 0.124569 0.238073 -0.289229 0.645786 -0.031495 -0.377407 -0.050442 -0.251314 -0.002682 0.375815 -0.322427 0.382758 0.300741 0.380144 -0.125548 -0.374134 -0.234358 0.053435 0.143980 0.335375 -0.075577 0.107453 0.019004 -0.192755 0.235121 0.353024 -0.176018 0.228842 0.151946 -0.103778 -0.306018 -0.362887 0.132734 -0.525047 -0.141874 0.061945 0.119237 0.712935 0.316900 -0.332319 -0.481452 0.308894 -0.182396 0.345809 -0.021328 0.160544 -0.221744 -0.258012 0.026960 0.504090 -0.317726 0.421817 0.009263 -0.272255 -0.047967 -0.011460 0.231439 0.085858 -0.388252 -0.264580 0.165169 -0.191205 -0.152458 0.283167 0.303516 0.204854 -0.124194 0.472392 0.067452 0.412392 -0.164122 -0.356760 
（ -0.389071 0.117335 -0.056772 -0.162246 -0.012422 0.067930 0.275109 -0.178265 0.037856 -0.160827 -0.106679 -0.179041 0.137638 0.144397 -0.094849 -0.294228 0.150550 -0.080490 0.047138 -0.122823 -0.139553 -0.326570 -0.408917 -0.030021 -0.537952 0.360920 -0.245655 0.369427 0.013355 0.106590 0.020481 0.204309 -0.137582 -0.318600 0.146328 -0.319746 -0.060929 -0.144891 0.128983 -0.054729 -0.094018 0.043610 0.026620 -0.186248 0.155135 -0.223002 -0.074382 -0.034653 0.062286 -0.012415 0.000164 -0.291976 0.101973 -0.173983 0.142655 0.081248 0.017692 0.119859 -0.097155 -0.220429 -0.010303 0.120689 0.048771 -0.038449 -0.016153 0.200330 0.012471 -0.370209 -0.304273 0.093923 -0.242861 -0.162430 0.175768 -0.136715 -0.052203 -0.081802 -0.443990 0.346889 -0.018481 -0.083275 -0.530769 -0.038806 -0.012653 -0.253101 0.148092 0.090636 -0.044488 0.228649 0.084566 0.231561 -0.169440 0.131191 -0.090191 -0.092254 -0.284294 -0.233659 -0.239594 -0.065750 0.307819 0.065010 0.288732 0.037808 -0.092086 -0.128373 0.238419 0.000158 0.176256 -0.216818 0.193259 0.045859 -0.171984 -0.117536 0.193963 -0.030190 0.157227 -0.037830 -0.211141 -0.033308 -0.023276 0.200246 -0.141621 0.110390 0.237107 0.156960 0.015182 -0.059671 0.050280 0.006123 -0.070457 0.033363 0.253798 -0.081608 -0.008366 -0.092384 -0.228807 -0.031115 0.001196 -0.130897 -0.077655 -0.217403 -0.145048 -0.122094 0.083013 -0.092849 -0.040900 0.192408 0.158166 0.016972 -0.109524 0.456320 0.045737 0.170174 0.211308 0.293598 0.015732 0.144017 0.155916 -0.082343 0.261500 -0.272267 -0.259965 0.249704 -0.148352 0.216449 -0.301552 0.071053 -0.186358 0.137940 0.008811 0.004945 0.454948 0.017157 -0.486518 -0.045221 0.430151 -0.312670 0.055683 0.076151 -0.159326 -0.389595 -0.059620 -0.182945 -0.001555 -0.057539 0.221279 -0.248230 -0.289467 0.053555 -0.166634 -0.004484 -0.048722 -0.280236 0.194535 0.061349 -0.336159 -0.062463 -0.134844 0.016584 -0.056453 -0.169300 -0.113846 0.356741 -0.151547 -0.010394 -0.010272 -0.134694 0.046076 -0.207642 0.163883 -0.226455 -0.006739 -0.347039 0.026487 -0.044907 -0.375392 0.074828 -0.119144 -0.448864 0.054360 0.159064 -0.401117 -0.267748 0.010136 -0.054173 0.011325 -0.035496 0.015280 -0.146307 0.051456 -0.080894 0.103128 0.325914 -0.071052 -0.180172 0.017560 0.060279 -0.064612 0.075357 -0.358851 0.158826 0.100023 0.029559 -0.037924 -0.277802 -0.061939 -0.246577 -0.024348 -0.009570 -0.169914 0.076628 -0.031882 0.073690 0.132355 0.004021 0.169671 -0.086762 -0.116644 0.052461 0.101889 -0.314941 -0.102120 -0.196038 0.136557 0.091501 0.092533 0.032788 -0.270373 0.128357 -0.071014 -0.069048 0.101410 -0.083245 -0.106934 -0.101314 0.100752 0.115176 -0.006335 -0.014713 -0.012973 -0.259657 0.051969 -0.002550 -0.067337 -0.198814 0.299724 -0.039413 -0.067419 -0.032377 0.000641 -0.061389 -0.041350 0.418417 0.155090 0.061572 -0.146951 0.307964 0.053186 0.101330 -0.012064 0.140700 
为 -0.039356 0.077386 -0.046929 -0.144582 0.294829 0.231352 0.290536 -0.117614 0.271435 0.164752 -0.101408 -0.152506 0.081832 0.274525 -0.095507 0.359112 0.094243 0.163716 -0.359387 0.040337 0.545362 -0.033828 0.043406 -0.128316 -0.442568 0.330789 0.476580 -0.091953 0.158898 -0.225724 0.240492 -0.218000 -0.012038 0.335036 0.036649 -0.134782 -0.299286 0.199882 -0.010286 -0.039692 0.184113 0.178940 0.028076 -0.244786 0.168801 -0.169074 -0.440954 0.337423 0.141522 -0.150220 0.237128 -0.332358 -0.246733 -0.267597 0.153867 0.400567 0.346252 -0.124895 -0.382548 0.073813 0.344162 0.040410 0.018031 0.077786 -0.117633 -0.120747 0.020926 -0.248487 -0.200154 0.286554 -0.329844 0.035810 0.186974 0.014354 -0.127023 -0.015179 -0.020691 0.067018 -0.230038 -0.251062 -0.171186 -0.124475 -0.378402 -0.042216 -0.004449 -0.110995 -0.105087 0.105485 -0.267185 -0.103106 -0.062265 -0.192591 -0.182428 0.177393 -0.110871 -0.162588 -0.304778 -0.314306 0.303274 -0.174372 -0.099161 -0.070395 -0.012251 -0.079949 0.296691 -0.157254 -0.205113 -0.144657 0.002868 0.539795 -0.025076 -0.120188 -0.250757 -0.044057 0.117553 -0.118235 -0.163141 -0.130859 -0.125210 -0.121077 0.107884 -0.170215 0.195562 0.148136 -0.127203 0.173955 0.250379 -0.056960 0.013725 -0.194964 0.033310 0.019481 -0.151952 0.118017 0.032824 0.195632 -0.154233 0.162792 -0.005861 -0.039325 0.317470 -0.011443 -0.170255 0.101996 -0.097501 -0.075486 0.328866 -0.120195 0.192584 0.092799 0.000339 0.297285 -0.218759 -0.186346 -0.049209 0.116490 0.272322 0.203043 0.429422 -0.246980 -0.244305 -0.100316 -0.345589 0.107980 0.028649 0.139022 0.031230 0.071347 0.157037 0.295111 0.158738 -0.240471 0.032223 0.281786 0.319998 -0.441219 -0.222009 -0.321331 -0.337723 -0.189394 -0.216832 -0.131811 -0.274425 -0.053505 0.399204 -0.253256 -0.159516 0.097451 0.063652 0.155082 -0.380570 0.229374 0.173912 0.089235 0.145558 -0.372456 -0.119811 0.273309 -0.130441 0.000100 -0.108624 0.248585 -0.005051 -0.020313 0.076252 0.137524 0.270275 0.042335 0.204240 -0.160965 0.203624 -0.240649 -0.079926 -0.214380 0.181494 -0.212124 -0.285049 0.021695 0.208334 -0.235870 -0.256989 0.015357 -0.192043 0.359885 -0.012517 0.144156 -0.002800 -0.059361 -0.159858 0.040281 0.120586 -0.037971 0.116936 0.075187 0.112610 0.159369 -0.003039 -0.207173 -0.235267 -0.049059 -0.201729 -0.030708 -0.422985 -0.085890 -0.036260 -0.165011 -0.254133 -0.067690 -0.128222 -0.305649 -0.112710 -0.070504 -0.154874 0.062393 0.348275 -0.041642 -0.288569 -0.078043 0.100948 -0.005595 -0.206544 -0.066880 -0.246064 0.011261 0.155468 0.119183 0.046414 0.198532 0.121904 0.002503 -0.001955 0.004600 0.042621 -0.183539 -0.018227 -0.025945 -0.077953 0.307744 -0.163614 0.273232 -0.213774 -0.272426 -0.171448 0.055866 0.131872 -0.070132 0.077496 -0.075747 -0.030400 0.017960 -0.050754 0.215000 0.172246 0.126030 -0.107913 -0.379902 -0.044190 0.132783 0.055192 -0.272903 
年 0.094981 -0.300745 0.174187 -0.073359 -0.081657 0.170452 0.484422 0.353795 0.183044 -0.059123 -0.127599 -0.021169 0.280661 -0.182124 -0.370613 0.068271 0.109131 -0.128716 -0.029966 -0.020279 -0.074341 -0.341407 -0.256742 0.254081 -0.510043 0.121383 0.044647 0.225190 0.086341 -0.260402 -0.257839 0.079681 -0.072341 -0.025277 0.160895 -0.033208 -0.014549 -0.169920 0.226221 -0.096078 0.110513 0.205249 -0.406202 -0.144412 0.070148 -0.275668 -0.295912 0.063975 -0.053651 -0.266411 -0.193537 -0.124001 -0.112503 0.047448 0.187409 0.033850 -0.149374 0.009430 0.103302 -0.088210 -0.072456 0.129270 -0.213726 -0.152316 -0.257180 -0.000101 0.134525 0.112317 -0.022700 0.337296 -0.561387 0.370411 0.119497 -0.093666 -0.043138 -0.069016 -0.065026 0.368923 0.195074 -0.314311 -0.335035 -0.029264 -0.236667 -0.264518 -0.389216 0.211055 -0.062461 0.016867 0.299380 0.080122 0.189041 -0.021154 0.171047 -0.094410 0.050749 -0.008481 -0.229202 0.049456 0.332438 0.079222 0.177589 -0.119008 -0.110564 -0.021812 0.442183 -0.154018 0.063991 0.107416 -0.058040 0.280544 0.109454 -0.012039 0.115546 -0.112416 -0.428797 -0.305639 -0.245493 -0.200469 -0.195029 0.298321 0.037562 -0.005674 0.161483 -0.066707 0.468968 0.078849 0.229716 0.055862 -0.207105 0.328138 -0.032247 -0.128181 -0.432630 -0.284082 -0.042357 0.283370 0.363773 -0.266893 0.086831 0.211891 -0.274932 0.085253 0.030022 0.136041 -0.344247 0.212301 0.133918 -0.164863 0.050246 0.240572 0.403885 0.244609 0.404338 0.267315 0.153570 -0.028610 0.362856 -0.190789 -0.052585 -0.450898 -0.466990 0.088011 0.356430 0.289315 -0.088479 0.400434 -0.021064 0.022923 0.194771 0.052766 0.391000 0.320288 -0.063144 0.253930 0.244960 0.170533 0.166333 0.173865 0.008009 -0.102177 -0.335532 -0.175981 -0.198221 0.162727 -0.211598 -0.085985 -0.063669 -0.079122 0.168276 0.083101 0.102270 -0.087445 0.535421 -0.129801 -0.333979 0.155267 0.263425 0.065387 0.075345 -0.058503 -0.072901 0.213472 -0.160577 0.265054 -0.177631 -0.367876 -0.008978 -0.192224 0.103326 -0.080115 -0.174908 0.203608 -0.014803 -0.065258 -0.014860 0.251342 -0.291351 -0.314878 0.451388 -0.190499 -0.427721 -0.393315 0.218192 -0.030633 0.258597 -0.321742 -0.366118 0.336005 -0.156022 -0.045067 -0.116799 -0.139739 -0.019555 -0.183450 -0.014861 -0.078708 -0.280256 -0.457111 -0.258477 0.247297 -0.006953 -0.307351 -0.201027 -0.084556 -0.382445 -0.221386 -0.217846 0.088394 -0.279324 0.328138 -0.004402 -0.263996 -0.113055 -0.076662 -0.083963 -0.042268 -0.145468 -0.063145 0.067290 -0.224017 -0.083398 -0.029574 -0.044941 0.109506 -0.277435 0.347298 0.013782 -0.259419 0.087493 0.072770 0.001236 -0.134476 0.155480 -0.045444 -0.043147 0.256242 0.497502 -0.223750 0.186794 0.151071 -0.074169 -0.416402 0.022725 -0.476522 0.467384 -0.359519 -0.315274 0.106411 0.035504 -0.188741 0.048920 0.178491 0.419633 0.017383 -0.144070 0.184029 -0.308989 0.206748 0.023030 -0.109771 
》 0.079554 0.218423 0.172964 -0.170648 -0.342870 0.202532 0.044471 0.161076 -0.195370 0.208510 -0.057453 -0.192175 0.076336 -0.011513 -0.025690 -0.373683 -0.328476 -0.003228 -0.030066 -0.124197 -0.125248 -0.159463 0.115700 0.048119 -0.197956 0.109665 0.012303 0.355436 -0.137864 0.084311 0.283167 0.336841 0.310474 0.056037 -0.138625 -0.150655 -0.218976 0.325373 0.057864 -0.377855 0.120807 -0.140661 0.037908 0.015790 -0.072911 0.045799 -0.091934 0.200808 -0.044104 -0.433301 0.269620 0.178058 -0.314079 0.072373 0.120952 -0.051082 0.310949 -0.331537 -0.207049 -0.232472 0.034890 0.184804 -0.228701 0.121598 -0.140181 0.099919 0.075778 -0.460397 0.030597 -0.468683 -0.505195 0.167414 0.188653 -0.094731 0.139835 0.120212 -0.101702 -0.089464 -0.148912 0.077574 -0.203722 -0.077460 0.204774 0.000922 -0.018456 -0.072683 0.201025 0.381371 0.141547 -0.170818 0.243388 -0.217111 0.095924 -0.228925 -0.109140 0.130100 -0.245169 -0.248227 0.240950 -0.076099 0.046072 0.093884 0.158287 0.134264 -0.009370 0.000381 0.135105 -0.261670 0.086474 -0.023657 -0.150745 -0.044281 -0.005815 -0.167894 -0.175823 -0.138806 0.022506 -0.101057 0.162076 0.338366 -0.144978 0.293634 0.230954 -0.072060 0.379559 0.475994 -0.139891 0.205597 -0.164919 -0.067157 -0.038426 0.195845 -0.077308 0.081076 -0.474127 -0.000635 0.020100 -0.275164 0.048986 -0.252315 -0.008524 -0.380806 0.124840 -0.221729 0.013339 0.016628 0.147831 0.038023 -0.300685 0.563762 0.067520 0.086343 -0.069393 -0.096742 0.146565 0.206900 0.310608 0.303210 -0.113317 -0.317820 -0.280732 0.166788 -0.286591 -0.039452 -0.371306 0.830568 -0.070283 0.187614 -0.248002 -0.224678 0.160703 0.213518 -0.042701 -0.297415 0.305358 0.376214 -0.232371 -0.129571 0.008422 -0.446112 -0.114332 -0.188122 -0.441226 0.069860 0.035357 0.046719 -0.034830 -0.145808 0.003079 0.016298 -0.528636 -0.255557 0.025100 -0.064639 -0.398453 0.171983 -0.079510 -0.016583 -0.439684 -0.073840 -0.362852 0.130011 -0.166024 -0.006650 -0.277683 -0.532943 0.005522 0.244602 -0.153060 -0.372831 -0.219480 -0.015767 0.272387 0.184793 -0.028264 -0.077244 -0.011533 -0.089276 -0.033456 0.062523 -0.559425 -0.421464 0.153925 0.302027 0.454748 -0.097191 -0.039734 0.072792 0.164654 0.164821 -0.191296 0.603728 -0.073898 -0.517329 -0.022817 -0.221832 -0.033891 0.354506 -0.363248 0.434600 0.270266 0.380261 -0.088670 -0.235414 -0.196312 0.000085 0.251449 0.248508 -0.169148 0.076832 0.110904 -0.165155 0.176990 0.367103 -0.113428 0.166025 0.095219 -0.118142 -0.227946 -0.453317 0.218166 -0.570083 -0.167542 0.107378 0.005794 0.742931 0.370974 -0.242197 -0.483529 0.242462 -0.219568 0.291701 -0.124241 0.264552 -0.322458 -0.274319 0.074863 0.454595 -0.239823 0.368304 -0.116571 -0.181010 -0.042643 0.018860 0.263943 0.083765 -0.354587 -0.254542 0.115801 -0.276402 -0.240631 0.305265 0.368171 0.152868 -0.177766 0.447708 0.071320 0.283976 -0.116877 -0.461663 
） -0.410415 0.058280 -0.049905 -0.199952 0.114504 0.090436 0.294054 -0.104716 0.127606 -0.157109 -0.250097 -0.123284 0.099139 0.152895 -0.068676 -0.198247 0.171117 -0.095976 0.095604 -0.116061 -0.152994 -0.308063 -0.307852 -0.198624 -0.494326 0.300251 -0.150292 0.255624 0.003959 0.062108 0.007291 0.153683 -0.162367 -0.327972 0.223232 -0.266122 -0.034632 -0.103030 0.155972 -0.075369 -0.091776 -0.019752 0.105866 -0.198324 0.222144 -0.338209 -0.166877 -0.074127 -0.032845 0.015764 -0.026216 -0.311804 0.065110 -0.160611 0.008666 0.082533 0.002727 0.100146 -0.069392 -0.168841 -0.015340 0.099944 0.020894 -0.038548 0.046959 0.128978 0.073935 -0.339669 -0.320609 0.143547 -0.263507 -0.108561 0.224282 -0.038567 -0.094941 -0.098491 -0.403717 0.306494 -0.042544 -0.022327 -0.385793 0.003673 -0.040111 -0.211582 0.092504 0.208006 -0.003819 0.132069 -0.034845 0.126263 -0.107733 0.114116 -0.120799 -0.085355 -0.288817 -0.153328 -0.238132 -0.035976 0.391259 0.032607 0.268571 0.115053 -0.096631 -0.030366 0.124746 -0.038729 0.051190 -0.205863 0.196292 -0.027219 -0.138523 -0.107871 0.178655 -0.120374 0.091024 -0.080611 -0.230900 -0.034055 -0.023431 0.191938 -0.172329 0.041757 0.199632 0.075225 0.038760 -0.010075 -0.063165 0.089776 -0.073628 -0.016499 0.237350 -0.084767 -0.098523 -0.028107 -0.182957 0.020693 -0.100030 -0.116505 -0.108402 -0.111556 -0.045966 -0.118117 0.030821 -0.035983 -0.073898 0.208640 0.158576 -0.007962 -0.146505 0.342250 0.060472 0.138632 0.169646 0.204410 0.029006 0.013481 0.189381 -0.064045 0.208393 -0.291474 -0.277657 0.236895 -0.086652 0.186990 -0.406505 0.102730 -0.184020 0.238692 0.034453 0.026089 0.410528 -0.008027 -0.409010 -0.062215 0.338595 -0.372829 0.082036 0.085939 -0.161269 -0.296309 -0.063454 -0.100534 -0.021772 -0.028472 0.139351 -0.100389 -0.237463 0.013731 -0.158445 -0.039266 -0.032207 -0.306926 0.098970 0.077944 -0.281075 -0.111729 -0.084313 -0.042822 -0.123812 -0.194795 0.000664 0.368539 -0.127919 0.024385 -0.023837 -0.010294 0.035801 -0.223024 0.180600 -0.250911 0.126338 -0.278892 -0.002865 -0.079807 -0.407039 0.032678 -0.173316 -0.371189 0.048907 0.056064 -0.340050 -0.253158 -0.006902 -0.054262 0.069609 -0.018221 0.017803 -0.178407 -0.035636 -0.143859 0.068862 0.336453 -0.024757 -0.237369 0.042071 0.068555 -0.022844 -0.002086 -0.254210 0.133998 0.084943 0.117323 0.012299 -0.329983 -0.017826 -0.209642 -0.099038 -0.001684 -0.242677 0.121456 -0.055510 0.041090 0.131670 -0.106655 0.148920 -0.192469 -0.108836 0.016947 0.121723 -0.315927 -0.145373 -0.174236 0.110576 0.113149 0.086734 -0.059187 -0.249442 0.179259 -0.022662 -0.045425 0.174363 -0.046672 -0.054120 -0.241503 -0.021754 0.156766 -0.027900 0.056432 0.025859 -0.207370 0.040755 0.028455 -0.097191 -0.201163 0.296279 -0.180272 -0.121161 -0.000599 0.084798 0.075924 -0.075260 0.325935 0.165138 0.027398 -0.218109 0.258554 0.017208 0.018200 0.122506 0.101268 
与 0.088450 0.114348 -0.079427 -0.139838 -0.051257 0.099729 0.209656 -0.249713 0.187457 -0.037138 0.094043 -0.062062 0.014238 -0.053814 -0.391839 -0.212015 -0.040909 0.258730 -0.348197 0.224738 -0.065483 -0.073781 0.081995 -0.091297 -0.114858 0.245024 0.375050 0.003827 -0.061429 -0.036801 0.251693 -0.211241 0.067096 0.044930 -0.067653 0.062908 -0.326147 -0.144992 0.253178 0.180705 0.209359 -0.003405 0.083014 -0.163076 0.018475 0.058764 0.027499 -0.267756 0.103657 -0.121788 0.386640 -0.001545 -0.057506 -0.294089 -0.096088 -0.342151 -0.066716 -0.220761 -0.303294 0.072826 0.199410 -0.154063 -0.017669 0.007076 -0.046262 -0.135321 0.015914 -0.335233 -0.019459 0.225549 -0.113604 0.005836 0.039767 -0.011808 0.205100 -0.150573 0.044790 -0.223135 -0.145920 -0.185323 0.036389 0.035577 -0.095690 -0.042427 0.050976 -0.183921 -0.018541 0.054305 0.016582 -0.068131 0.077548 -0.099762 0.009070 -0.345343 0.117532 0.011537 -0.109474 -0.412757 0.055053 0.020322 0.055361 0.201370 -0.114759 0.109620 0.316369 -0.348613 0.049603 -0.218424 -0.156900 0.242442 -0.251611 -0.102218 -0.113215 0.104863 -0.067677 -0.376594 -0.162506 -0.125555 0.213156 -0.022310 -0.001123 0.072806 -0.162478 -0.001702 -0.126586 0.025695 -0.007989 -0.007727 0.116576 0.178513 0.043053 0.050236 -0.037997 0.035045 -0.099242 -0.147938 0.117787 -0.143619 -0.023956 -0.263906 0.133429 -0.192383 -0.276451 -0.099903 -0.414310 0.378653 0.208698 -0.194147 -0.164967 0.277040 0.145205 0.166100 -0.194965 -0.186951 -0.180600 0.016405 -0.089259 -0.326851 0.177453 -0.024473 -0.185625 0.293105 -0.295594 0.259198 -0.396846 -0.034404 -0.010650 0.070737 0.044898 0.243620 0.307227 -0.050270 -0.079925 -0.088970 0.265305 -0.389692 -0.080916 0.125688 -0.010990 -0.176247 0.017664 -0.385291 -0.288218 -0.129384 0.295273 0.109560 0.189958 0.069259 -0.282602 0.105908 0.171167 0.408419 -0.110175 -0.031882 -0.014668 -0.065324 0.045367 0.212494 0.099578 0.011242 -0.045742 0.392431 0.031791 0.308136 -0.079724 -0.312830 0.152254 0.153077 0.507483 -0.165991 -0.059470 0.050691 -0.136155 -0.506931 0.142018 0.043144 0.077373 -0.170734 0.074442 -0.104374 -0.115663 -0.106807 -0.022581 0.219403 -0.005405 0.230368 -0.063293 -0.255305 0.058222 -0.092761 0.168703 -0.150224 -0.244524 -0.184030 -0.328033 0.192478 0.186687 -0.399226 0.047770 -0.188266 -0.100889 0.787165 -0.009744 0.134427 -0.260645 0.035694 -0.140252 -0.098558 0.273473 -0.077614 -0.006206 -0.040852 -0.060834 -0.192857 0.116842 0.095713 -0.171871 0.131737 0.099343 -0.472490 -0.174138 0.236726 0.103717 0.123281 -0.080558 0.199294 0.050914 0.051746 -0.187278 0.054463 -0.138101 0.346545 -0.291382 0.014857 -0.041591 0.252370 -0.133557 0.169041 -0.182269 0.006838 0.053156 0.077142 0.031450 -0.033024 0.269786 0.011382 0.143192 0.176011 -0.039704 -0.305475 -0.204728 0.225502 0.176991 0.197733 -0.234977 0.050862 -0.353234 -0.036871 0.035263 0.073707 
； -0.005231 0.028822 0.092595 -0.219216 0.022633 0.101053 0.185880 0.086294 0.167980 0.146329 0.077136 0.086967 0.124154 0.030531 -0.019675 0.063035 -0.041769 0.202821 -0.150413 0.113220 0.052280 -0.238382 -0.143498 -0.271890 -0.439423 0.295891 0.174982 0.227951 -0.048328 -0.165141 0.027229 -0.348246 -0.167372 0.020466 -0.017724 0.209802 -0.064367 -0.034642 0.122587 -0.468208 0.003180 0.001737 0.153377 0.078937 0.090344 0.028847 -0.125522 0.022701 0.024019 -0.036638 -0.046859 -0.220679 -0.060773 -0.034759 0.043160 0.178289 0.161346 -0.106842 -0.129248 -0.041520 0.418192 -0.237182 -0.026770 0.252844 0.074950 -0.292407 0.020225 0.084527 -0.173472 -0.211054 -0.310364 0.045176 0.021018 0.120509 -0.142708 -0.026003 0.127939 0.366203 0.113257 -0.118355 -0.115148 -0.232944 -0.172031 -0.071966 -0.040023 -0.179510 -0.256097 0.358524 -0.084697 -0.107788 0.354961 -0.143695 -0.158978 -0.105707 -0.186618 0.037410 -0.135658 -0.179167 0.362414 0.034868 0.128909 -0.112009 0.009606 -0.057134 -0.031170 -0.044828 -0.026588 -0.156487 0.116367 0.288531 -0.019720 -0.100542 0.023084 -0.082166 0.031086 -0.354996 -0.322913 -0.058130 0.020068 0.186194 -0.152803 -0.055087 0.130093 -0.093635 0.120882 -0.160704 0.062260 0.084994 0.382053 0.074373 0.198963 -0.049164 -0.074637 -0.220832 -0.095703 0.209237 -0.196301 0.259178 -0.088041 0.008339 0.085666 -0.040416 -0.079925 0.038079 -0.103701 0.234827 0.081701 -0.118183 -0.079086 0.117265 -0.024961 0.329692 0.091965 0.015523 -0.310646 -0.212855 0.002994 -0.057502 0.042462 0.024383 -0.331620 0.184327 -0.191827 -0.078981 -0.385038 0.271480 0.321523 0.165206 -0.062112 0.036937 0.422664 0.002527 -0.220086 -0.105902 0.164956 -0.226727 0.007062 -0.027630 0.171908 -0.471999 -0.248048 0.006216 -0.060915 -0.349637 0.258857 -0.159172 -0.319788 0.135203 -0.228181 0.054906 -0.112816 -0.212959 0.014976 0.073508 -0.342839 -0.095439 -0.053783 -0.013313 -0.058427 -0.049863 -0.169026 0.148006 0.334390 0.188942 -0.088268 0.026535 0.051237 -0.016983 0.261098 -0.143704 -0.092018 -0.192351 -0.191336 -0.086572 0.123822 -0.130272 -0.346810 0.016061 0.082495 0.108502 -0.094684 0.046219 -0.155828 -0.003135 -0.045479 0.204714 -0.385670 -0.025058 -0.022501 0.073937 0.281956 0.181440 -0.156174 -0.181726 0.161608 0.059958 -0.149017 -0.210765 0.081194 0.065503 -0.232969 0.192933 0.131484 0.046225 -0.301898 0.054547 0.109994 -0.012239 -0.108758 0.066019 -0.004146 -0.254865 -0.041321 -0.071754 0.101885 0.084236 -0.019225 0.057187 0.097196 -0.095806 0.122752 0.080334 0.194295 -0.065896 0.075490 0.081189 -0.019041 0.065843 -0.149425 0.227930 0.061655 0.225182 0.159435 -0.076091 0.091328 0.319833 -0.143424 0.030917 -0.071090 -0.058538 -0.104821 0.000187 -0.117018 -0.282926 -0.149567 0.009719 0.058856 0.038722 0.172444 0.042399 -0.004756 0.147708 0.170794 0.077547 -0.089270 -0.043417 0.028871 -0.118238 -0.108869 0.036958 
一 0.051908 0.265069 0.142855 -0.058685 -0.123091 0.008772 0.276803 -0.115483 0.100715 -0.054886 -0.250417 -0.246451 0.113813 0.637383 -0.336035 0.102253 0.029292 0.057046 0.045784 0.047208 -0.146077 -0.279746 0.196790 -0.066519 -0.241039 0.220849 0.161368 0.198711 0.081119 0.304658 0.007696 0.020533 0.006640 0.152808 0.106249 0.139420 0.112754 0.070617 0.308164 0.186218 -0.189427 0.074847 -0.119774 -0.082222 0.484219 -0.034736 -0.132364 -0.027384 0.209817 0.099350 0.260685 0.396633 0.036451 -0.212257 0.078833 0.164065 0.293173 -0.065737 0.091288 -0.119879 -0.050060 -0.070554 -0.090388 -0.141470 0.069432 -0.105745 0.156897 -0.181886 -0.196516 -0.034273 -0.245117 -0.270041 -0.037593 -0.093992 -0.111543 0.162071 0.163637 0.085425 0.036401 0.011373 -0.248783 -0.402737 0.147302 0.091942 -0.154290 -0.080027 -0.027228 0.215840 -0.191465 -0.207367 0.040164 0.036279 -0.067593 -0.057633 -0.073496 -0.109563 -0.059842 -0.108702 0.172678 -0.206672 0.169062 0.169436 -0.004081 -0.126622 -0.011674 -0.101401 -0.019806 -0.132471 0.126894 0.325371 0.074292 -0.161590 -0.220455 0.037443 0.049311 -0.077409 -0.028900 -0.072854 -0.510645 -0.106076 0.053728 0.073868 0.084131 -0.114266 0.052208 -0.013437 -0.029099 0.067700 0.178234 0.212812 -0.408771 0.183639 -0.214858 -0.166860 -0.074760 -0.193280 -0.137921 -0.007570 0.176735 0.077609 0.162810 -0.225201 0.217176 -0.386494 -0.245659 0.133908 0.035560 -0.049522 -0.028373 -0.106652 -0.103459 -0.221093 -0.219222 0.246778 0.187980 0.214326 -0.142299 0.062817 0.120803 -0.082337 0.055968 -0.104654 0.194297 0.248048 -0.356572 0.119378 0.166851 0.143161 -0.226409 0.012561 0.299927 0.042096 -0.070946 0.196751 0.082919 -0.045862 0.177032 0.022726 -0.116471 0.238137 -0.198874 -0.243411 -0.187183 0.043675 0.169045 -0.013046 -0.376647 -0.254650 -0.376341 0.164345 -0.134679 -0.213252 0.083318 0.022411 -0.203731 -0.053681 -0.248799 -0.227929 -0.002337 0.035230 -0.083526 0.439508 -0.141586 0.190100 0.033259 -0.349867 0.195013 -0.237782 -0.328735 -0.385175 0.138012 0.136495 -0.012646 -0.010040 -0.127452 0.068867 0.021807 0.135462 0.122552 -0.041068 -0.069219 -0.244600 -0.069029 0.159662 -0.172853 0.299193 0.289039 0.132103 -0.026275 -0.311789 -0.153604 0.213793 -0.365293 0.038816 0.144998 0.280172 0.159746 -0.173894 -0.138486 0.018233 0.114323 0.161288 0.114163 0.279031 -0.404678 -0.161571 -0.075808 0.122181 0.035951 -0.139378 0.007982 -0.164587 -0.184423 -0.188246 -0.029560 0.077702 -0.275416 0.147918 0.386103 -0.446900 0.119173 -0.037494 -0.420627 0.068632 -0.005334 0.368553 0.003916 0.026635 0.034667 0.113305 0.067509 0.297008 -0.288933 -0.340298 0.488598 0.082818 0.119024 -0.238901 -0.185509 0.293339 0.061510 -0.065378 -0.145225 -0.216209 0.213565 -0.040034 0.187163 0.023955 0.195962 0.136549 0.006394 0.230895 0.274176 0.162363 -0.076284 -0.207235 -0.361812 0.031826 -0.161876 -0.296928 
有 0.068904 0.095346 -0.038363 -0.168167 -0.314002 -0.201613 0.276732 -0.193538 -0.191889 0.103380 0.101246 0.126128 0.197014 0.023044 0.036249 -0.186716 -0.001001 0.291730 -0.153776 -0.029002 0.109920 -0.151445 -0.030813 -0.079552 -0.169578 0.243634 0.211527 0.033915 0.256238 0.008338 0.242993 -0.110231 -0.579312 0.102888 -0.012447 0.117380 0.018353 -0.004083 0.198570 0.040669 -0.169983 0.072037 -0.189044 -0.289279 0.321805 -0.296286 0.019250 -0.244423 0.060993 -0.168618 0.316067 0.157377 0.012799 -0.039196 0.115092 0.018751 0.106562 -0.095396 -0.281877 -0.370197 -0.019361 -0.082767 0.088551 0.474724 0.181906 -0.109876 -0.091387 -0.088898 -0.199619 -0.226677 -0.331751 -0.051936 -0.357015 0.284507 0.202138 -0.074898 -0.139290 -0.251182 -0.292613 -0.107403 -0.035936 -0.013413 0.253487 0.021971 0.011038 -0.190402 -0.141628 0.432715 -0.150164 -0.169120 0.082608 0.064229 -0.190574 -0.177555 -0.323110 0.010144 -0.325881 0.043553 0.011648 0.073802 -0.044012 -0.379289 -0.083910 -0.386494 0.114062 -0.055280 0.112664 -0.184495 0.109415 0.474534 0.109356 0.257643 -0.284634 -0.132529 -0.138321 -0.247465 -0.164633 0.018066 -0.090322 -0.180455 -0.247252 0.239405 0.208384 0.112334 -0.165133 -0.192265 0.130742 0.262617 0.126206 -0.051649 -0.047638 -0.243054 -0.106011 0.111826 -0.128300 -0.191668 0.053278 -0.139906 0.041922 0.328005 -0.079519 0.134103 0.034809 -0.121429 -0.256996 0.123148 0.298450 0.034863 0.129936 0.217973 0.115227 0.133256 -0.124205 -0.303490 -0.031016 0.147830 0.441530 0.180471 -0.049006 0.294867 -0.162018 0.009595 -0.030344 -0.028168 -0.595896 -0.045773 0.062510 0.234876 -0.221076 -0.154729 0.315943 0.086036 -0.219285 -0.156564 0.292904 -0.086772 -0.032327 -0.106690 -0.174238 -0.374967 -0.152024 -0.035683 0.024077 -0.207643 0.377804 -0.117451 -0.387094 -0.128708 -0.135982 0.224955 -0.106750 -0.196459 0.212655 -0.230943 -0.027244 -0.301603 -0.005536 -0.101705 -0.000403 0.024609 0.110052 0.237516 -0.032643 0.007219 -0.137385 -0.039930 0.089548 0.026120 0.265985 -0.205246 0.284821 0.009748 0.042928 0.057607 0.384127 -0.084387 0.261929 0.165268 -0.013658 -0.148505 0.027893 -0.168748 0.065170 -0.003597 0.203459 0.139946 -0.004308 0.016596 -0.095577 -0.028615 0.113034 -0.003420 -0.205056 0.077533 0.188469 -0.015484 0.122687 -0.335326 -0.036597 0.201661 -0.361716 0.034554 0.107016 0.181897 -0.016714 0.013306 0.096415 -0.089342 0.051946 -0.240343 -0.087685 -0.339971 -0.067624 -0.113495 0.157421 0.016810 -0.408181 -0.198689 -0.104924 -0.219234 0.035500 0.376272 0.039439 -0.094535 0.017768 0.175874 0.093448 0.075273 -0.175366 0.269565 -0.043603 -0.146939 -0.455299 -0.154174 0.415801 0.077984 0.183117 -0.111025 0.101763 -0.094579 -0.123417 -0.042083 -0.174596 -0.047169 -0.171188 0.059154 0.127712 -0.292659 -0.075411 -0.032326 -0.158242 0.296392 0.055580 0.154727 -0.106999 -0.342990 -0.066145 0.048727 -0.121956 0.071940 
( -0.467147 -0.121658 0.082342 -0.417860 -0.000874 0.185775 0.395631 -0.327069 -0.157898 -0.140066 -0.001256 -0.154398 0.106832 0.103886 0.023442 -0.321556 0.021105 -0.006827 -0.006678 -0.422820 -0.088672 -0.238384 -0.590480 -0.082100 -0.530420 0.422167 -0.117756 0.283215 0.164128 -0.033158 0.320559 0.332111 -0.195646 -0.209024 -0.020315 -0.644872 -0.256972 -0.179527 0.136785 0.061283 0.148577 0.122825 -0.258616 0.070177 -0.216680 -0.085984 -0.057966 0.065424 0.018803 0.199564 -0.134616 -0.487826 0.079141 -0.502021 0.014057 0.056209 -0.067352 0.141344 0.094871 -0.304282 0.024985 -0.222699 0.020136 -0.116121 0.005991 -0.087468 0.116307 -0.365173 -0.118948 0.140905 -0.155062 0.046189 -0.023405 -0.242427 -0.141258 -0.142812 -0.229153 0.088297 0.034474 0.053706 -0.518027 -0.037298 0.015062 -0.296297 0.034021 0.253085 -0.194547 0.380293 -0.072251 0.189127 0.026032 -0.036848 -0.222239 -0.183858 -0.160944 -0.044166 -0.227489 -0.162139 0.219545 0.008245 0.294557 -0.069225 -0.164338 -0.273716 0.176406 0.000912 -0.070127 -0.163754 0.044663 0.069285 -0.246290 -0.188229 0.105141 -0.147374 0.053787 -0.132336 -0.170140 0.093093 -0.060711 0.218999 -0.200413 0.236921 0.289483 0.014864 -0.004696 0.062035 -0.184744 0.264010 0.007808 -0.087188 0.623798 0.195932 0.147500 -0.313588 -0.205840 0.109650 -0.189826 -0.066777 0.223527 -0.257104 -0.232314 -0.084431 -0.079187 0.271536 0.017584 0.216225 0.120718 0.046466 0.127138 0.400592 0.028364 0.134655 0.325456 0.020065 0.194272 0.104082 0.060851 -0.207012 0.125512 -0.352358 -0.125176 0.297145 -0.320507 0.622734 -0.550187 0.024431 -0.210396 0.192260 0.005834 0.079549 0.189653 0.048321 -0.622565 -0.167088 0.277455 -0.231345 -0.107614 0.024103 -0.248723 -0.275543 -0.229492 -0.119493 0.020147 0.197715 0.109493 -0.178967 -0.416423 0.068873 -0.050475 -0.143603 -0.048349 -0.077761 0.376979 -0.157062 -0.253584 -0.167607 0.285150 0.065219 0.025316 -0.358471 -0.128114 0.349357 -0.269490 -0.043009 0.127589 -0.202173 0.162724 -0.162813 0.138171 -0.402767 -0.093649 0.006081 0.074222 0.016003 -0.214487 -0.042399 -0.066798 -0.580337 0.163047 0.236084 -0.179875 -0.164470 -0.035855 -0.357943 0.169660 0.025467 -0.100661 -0.071692 -0.229809 -0.026857 0.180501 0.447432 -0.217555 -0.263626 0.049605 0.344926 -0.037757 0.170115 -0.452303 0.304971 0.096089 -0.120349 0.306326 -0.123409 -0.135537 -0.231327 -0.339792 -0.197298 -0.427507 0.114109 -0.172267 0.394044 -0.159948 0.272905 -0.136336 -0.000825 0.153944 0.222699 0.102303 -0.294506 -0.102988 -0.236843 -0.162964 0.097718 0.319480 0.027138 -0.178816 0.043752 -0.230488 0.002720 0.155272 -0.031076 0.097445 -0.178826 0.107133 -0.040672 -0.288956 0.013716 -0.239366 -0.292839 -0.082712 -0.363749 0.116574 -0.067485 0.355692 0.276316 -0.114984 -0.164100 0.062126 -0.322842 -0.108562 0.504137 0.366565 0.118848 -0.155379 0.435951 -0.004837 -0.071061 0.290759 -0.169800 
. -0.167445 -0.156558 0.424485 -0.485721 -0.167722 -0.027113 0.139853 -0.264821 -0.392369 0.251420 -0.040171 -0.304817 0.338378 -0.018231 -0.283189 -0.166175 0.369615 -0.162669 0.118836 -0.123095 0.287333 0.024452 -0.105125 -0.083526 -0.655141 0.179087 -0.223444 0.204442 0.014352 0.183218 0.046033 0.158177 -0.013997 -0.088626 -0.150230 0.119541 -0.664869 0.181801 0.054505 -0.434544 -0.235060 -0.211691 0.074453 -0.109550 0.344865 -0.343287 0.216823 -0.094392 0.073069 -0.021085 0.247607 -0.253513 -0.068156 -0.212651 -0.134457 -0.317585 -0.214730 0.227207 0.218809 0.215987 0.026412 -0.222249 0.066523 -0.063573 0.121698 0.085774 -0.026226 -0.564293 -0.369855 -0.350452 -0.082789 0.032720 0.304135 0.034970 0.136429 -0.048834 -0.216705 0.191750 -0.018059 0.033144 0.207901 -0.043495 0.417031 0.014664 0.114326 0.178787 0.176328 0.457893 0.013764 -0.226435 0.134027 -0.206744 -0.008692 0.012681 -0.017129 0.281157 -0.161918 -0.091667 0.478727 -0.230606 0.320081 -0.064947 0.058289 -0.035936 0.260567 -0.271716 0.070083 0.059674 -0.149534 0.319314 -0.071993 0.201215 0.121066 -0.507274 -0.131283 0.188629 -0.216691 -0.014720 -0.047953 0.359793 -0.308714 0.201985 0.127027 0.218756 -0.046351 0.207073 0.328085 -0.099780 -0.001347 -0.026210 0.428130 -0.100742 0.381736 -0.211244 0.031993 0.088915 -0.067335 0.032568 -0.276159 -0.048034 -0.057436 -0.287420 0.062664 0.042746 -0.113234 0.206789 0.318802 0.109740 -0.317692 0.014734 0.052103 0.474418 0.109664 0.274484 -0.036136 0.171894 -0.215354 0.101192 0.240585 -0.332180 -0.191612 0.056535 -0.127061 0.152284 -0.319791 -0.028251 -0.106703 -0.072797 -0.023782 -0.270229 0.265062 -0.118185 0.208227 -0.115002 0.136482 0.099808 0.127816 0.105427 0.271148 -0.026299 -0.181676 -0.048390 0.203059 -0.040482 -0.201103 -0.091634 -0.357861 0.212355 -0.251477 -0.125048 -0.225376 0.118616 -0.068230 -0.483083 -0.316974 -0.102804 0.126143 -0.024701 -0.110077 -0.346284 0.121572 0.346912 -0.071324 0.028779 0.276306 -0.210325 -0.256537 0.057030 0.296240 -0.191368 0.211131 -0.276952 -0.126239 -0.241655 0.342175 0.022348 0.003434 -0.180416 0.360662 -0.255655 -0.288675 -0.180192 -0.287122 -0.286834 0.028052 0.203202 -0.492204 -0.263137 -0.114641 0.317186 -0.043383 0.471045 -0.211259 -0.044229 0.020776 0.352477 0.149202 -0.270661 0.129487 -0.377160 0.088210 0.234082 -0.452701 -0.323533 -0.222953 0.095249 -0.339529 0.173003 -0.299972 -0.360055 -0.019145 -0.295904 -0.101814 0.074114 0.034722 0.020841 -0.191696 0.266100 0.126584 -0.265518 0.422808 -0.140278 0.037137 0.031277 0.080713 0.185527 -0.033531 0.026454 -0.007694 -0.241954 0.128077 0.118387 0.184277 0.126961 -0.096577 -0.011577 0.010958 -0.019535 0.029470 -0.151144 -0.066816 -0.023447 -0.221747 -0.052818 0.238966 0.172657 0.261618 -0.260043 0.155581 0.169836 0.235057 0.340321 0.001531 0.330137 -0.012313 0.226299 0.183417 -0.242978 0.208486 -0.153361 
等 -0.223759 -0.032881 0.012734 -0.049657 -0.143579 0.203686 0.276565 -0.088807 0.160509 0.189528 0.108212 0.094399 0.266899 -0.242777 -0.281321 -0.129417 -0.342887 0.140151 -0.039920 0.204518 0.078771 -0.037705 -0.257318 -0.300541 -0.073155 0.125182 -0.113212 -0.050033 -0.136595 0.210196 0.416556 -0.190998 -0.159409 0.112530 0.230784 0.143129 -0.011512 0.217281 0.122114 0.071503 -0.164121 -0.420961 -0.062061 -0.122662 0.070975 -0.306893 0.021049 -0.526088 -0.269397 -0.264476 0.010301 0.034865 -0.129051 -0.321307 0.080672 -0.234343 0.089009 0.107644 -0.446211 0.114131 -0.117733 -0.067231 0.081991 0.230922 0.061902 -0.311472 0.182757 -0.111064 -0.137343 0.175114 -0.071306 -0.207188 -0.067438 -0.352886 0.061686 -0.181451 0.064220 -0.191026 -0.118120 0.024274 -0.202172 -0.081074 0.065095 -0.121016 0.045328 -0.173513 -0.080297 0.296489 0.085178 -0.089673 -0.057673 -0.268761 -0.241513 -0.057377 -0.081766 -0.130661 0.181101 -0.245594 -0.003068 -0.001814 0.181401 -0.145904 0.116486 -0.112459 0.242133 -0.025522 -0.144689 -0.105004 0.017677 0.400617 -0.283608 0.083323 0.115588 0.170631 -0.055276 0.121204 -0.255622 -0.134799 0.155680 -0.178417 -0.137711 0.029838 0.001671 -0.063842 -0.130204 -0.119538 -0.169083 0.078982 0.148957 -0.305327 0.069262 -0.168842 -0.134333 -0.019697 -0.016107 0.053732 0.069024 0.000256 -0.136765 0.253146 0.176980 -0.248329 0.175296 -0.156899 0.003203 0.055008 0.061493 0.014087 0.089973 0.461494 0.115816 0.652442 0.034226 -0.038477 -0.159733 0.094540 0.032171 -0.280533 0.041884 -0.038390 -0.196540 0.410819 -0.079373 0.178438 -0.434330 0.316010 0.306499 0.066138 0.035848 -0.004353 0.299686 0.261870 0.019950 -0.117529 0.002232 -0.173789 0.255468 -0.369341 -0.044668 -0.198168 -0.141242 0.131169 -0.381466 -0.215631 0.183079 -0.022106 -0.278009 0.003579 -0.352167 0.054809 -0.195867 0.028552 0.087245 -0.269108 -0.148610 -0.095445 0.007887 -0.192101 -0.237282 0.007320 -0.194812 0.334765 0.075209 0.091800 -0.186031 -0.097230 0.280656 -0.087566 0.332882 -0.233132 0.067844 -0.044160 -0.062628 -0.310202 -0.140678 0.080330 0.264571 -0.123502 -0.112516 -0.403640 -0.279211 -0.171600 -0.063551 0.036101 -0.132381 0.231257 0.063152 -0.067767 0.226582 0.061860 0.154380 0.042875 -0.241947 -0.461252 0.099424 -0.233815 -0.029711 -0.091762 -0.218914 0.118218 -0.332788 0.081991 -0.218450 -0.064149 -0.157815 -0.095298 -0.097940 0.102733 0.089718 -0.169903 -0.106984 -0.127593 0.206419 0.136195 0.020406 0.039438 -0.077274 -0.099026 0.004432 -0.410701 0.198086 0.344006 0.140559 0.166316 0.144216 -0.163976 -0.119957 -0.218577 -0.422981 0.273279 -0.026303 0.121574 -0.223929 0.230934 0.004100 0.410806 -0.028781 0.134333 -0.044124 -0.121763 0.224151 0.021828 -0.043658 -0.044378 0.051722 0.000670 -0.065895 0.048690 -0.232025 0.147218 0.032192 0.190482 0.022490 0.042442 -0.239222 -0.146086 -0.050499 0.002226 -0.036484 0.082371 
) -0.422466 -0.231102 0.056059 -0.376720 0.263555 0.301664 0.378051 -0.178550 0.059528 -0.095420 -0.203503 -0.090944 0.129902 0.109474 0.132694 -0.220394 0.019569 -0.067282 -0.048634 -0.462621 -0.138268 -0.271357 -0.500904 -0.258336 -0.413930 0.394755 -0.070184 0.214925 0.241664 0.023766 0.337828 0.269067 -0.010179 -0.201325 0.178238 -0.519408 -0.170789 -0.246784 0.082305 -0.024892 0.231769 -0.005100 -0.245577 0.073704 -0.088488 -0.304379 -0.108079 -0.020145 0.034037 0.141197 0.007871 -0.517888 0.044995 -0.342417 -0.090462 -0.038501 0.072866 0.158843 0.085985 -0.290586 -0.075783 -0.168079 0.064545 -0.038343 0.044768 -0.072889 0.160876 -0.395456 -0.212203 0.302306 -0.150474 0.056229 0.087816 -0.133472 -0.128811 -0.135826 -0.290279 0.134618 0.114247 0.056746 -0.316246 0.022803 0.005183 -0.236229 -0.090860 0.239715 -0.112819 0.270982 -0.078620 0.094619 -0.013975 -0.059097 -0.328414 -0.181241 -0.292295 0.003381 -0.400245 -0.209819 0.214327 0.021963 0.145782 0.015837 -0.269315 -0.171392 0.245357 0.000467 -0.131035 -0.178756 0.098454 0.192766 -0.165477 -0.279745 0.072219 -0.197920 -0.083211 -0.086633 -0.294241 -0.077553 0.110596 0.214112 -0.239279 0.176188 0.311782 0.081488 -0.019811 0.137789 -0.142945 0.297835 0.085055 -0.056079 0.510619 -0.052081 0.060933 -0.388038 -0.130935 0.118221 -0.274531 -0.114079 0.092627 -0.193761 -0.203154 -0.120401 0.016736 0.337097 -0.177792 0.208429 0.144900 0.084132 0.015169 0.328024 -0.046298 0.061861 0.247795 -0.154950 0.078333 -0.017065 0.075752 -0.268811 0.058802 -0.484714 0.021962 0.316904 -0.249695 0.556631 -0.509832 0.073327 -0.092085 0.259649 -0.109490 -0.061325 0.145362 0.016016 -0.593795 -0.211424 0.127984 -0.377685 -0.043253 0.045928 -0.227431 -0.095203 -0.143047 -0.025737 0.087737 0.199629 0.018135 -0.063126 -0.364551 0.005475 0.036351 -0.077937 -0.107025 -0.132086 0.215531 -0.093253 -0.188578 -0.197445 0.220910 0.064620 -0.072964 -0.393298 -0.083377 0.486307 -0.240312 0.048904 -0.046913 -0.130478 0.125032 -0.189506 0.103840 -0.439259 0.007783 0.089560 0.102202 -0.023222 -0.184368 -0.209850 -0.192869 -0.533583 0.044471 0.049124 -0.226636 -0.102899 -0.143948 -0.194253 0.396198 0.039417 -0.182528 -0.170449 -0.164627 0.029489 0.177636 0.482740 -0.261346 -0.314958 -0.027129 0.113746 -0.096388 0.074608 -0.431887 0.190427 0.081880 0.053069 0.286767 -0.230747 -0.162025 -0.172613 -0.340753 -0.161270 -0.328700 0.151167 -0.073597 0.412414 -0.116143 0.197123 -0.095089 -0.173267 0.171734 0.166311 0.191069 -0.368623 -0.125739 -0.303106 -0.099723 -0.061491 0.182195 -0.011250 -0.136964 0.172991 -0.164060 -0.002761 0.255996 -0.076437 0.132745 -0.232085 0.108737 -0.010252 -0.172851 0.023971 -0.153209 -0.258930 -0.171298 -0.289131 0.043327 -0.010119 0.213559 -0.002247 -0.060399 -0.114415 0.153772 -0.106380 -0.167936 0.519189 0.462189 0.192363 -0.306277 0.252629 0.024945 -0.105676 0.178054 -0.244377 
中 -0.284367 -0.196963 0.132420 0.204435 0.244873 -0.157446 0.216716 -0.172695 -0.113603 -0.026078 -0.176747 0.106268 0.247760 0.132319 0.090396 -0.260688 0.025732 0.049545 -0.229907 0.116652 -0.021680 -0.314914 0.123674 -0.176528 -0.118103 0.239279 0.292940 0.244754 0.134267 0.110044 0.015292 0.049369 0.032334 0.008768 -0.086580 0.256857 -0.077086 0.104587 0.078442 -0.115193 -0.006480 -0.158636 -0.560875 -0.039216 0.220100 0.198012 -0.197736 -0.116679 0.068838 -0.500874 0.244573 0.262319 0.070676 -0.289808 -0.044948 -0.338174 0.084258 0.154028 -0.228884 -0.292850 -0.211896 -0.023028 0.158013 0.114544 -0.012655 -0.224094 0.178493 -0.144976 0.045989 -0.103720 -0.204965 -0.225919 0.227980 -0.065138 -0.306169 0.060505 0.165356 0.333418 0.101235 0.254726 -0.146577 -0.167414 0.085901 0.073940 -0.070854 -0.171437 -0.069014 0.245145 -0.130606 -0.185373 0.302673 -0.407544 -0.040733 -0.253441 -0.117372 0.082356 -0.269474 -0.274729 -0.272249 0.036133 0.114945 0.449093 0.095627 -0.217079 -0.055953 -0.155134 -0.023831 0.001586 -0.249371 0.408401 -0.186169 0.116473 -0.173874 -0.134932 -0.233140 -0.490707 -0.193133 -0.264700 0.122796 -0.045214 -0.237990 0.037461 0.123383 0.150016 0.023261 0.182526 -0.249153 0.121990 0.222423 0.140194 0.159706 0.093215 0.015249 -0.052453 0.193262 0.146836 -0.173961 -0.185143 0.137063 -0.517822 0.237928 -0.012648 -0.066726 -0.378909 -0.202451 0.418515 0.320254 -0.307387 -0.172562 0.345030 0.156549 0.052754 -0.055594 0.221811 0.008796 -0.117742 -0.029721 0.394247 0.259949 -0.233933 -0.192581 0.048715 0.221528 0.245923 -0.255021 0.386730 -0.054536 0.112572 0.017668 0.408123 0.194222 -0.071099 0.140448 -0.023488 0.198311 -0.264408 0.048846 0.187086 -0.133245 -0.031687 -0.108919 0.001513 -0.153824 -0.005086 -0.065367 -0.030871 -0.279171 0.122433 -0.227389 0.103227 -0.228252 0.228766 0.302476 -0.035846 -0.080396 -0.199529 -0.054874 -0.104644 -0.537373 -0.018756 -0.423203 0.216058 -0.141955 0.137426 0.353463 -0.075266 -0.031214 0.157750 -0.077132 -0.232539 0.003492 -0.195483 -0.093069 0.334165 -0.099900 -0.411435 -0.452447 0.190198 0.461034 -0.301092 0.040627 -0.273510 0.004242 -0.043458 -0.065478 0.410166 -0.253072 0.183258 0.036926 -0.145581 0.249091 0.268832 -0.105058 -0.159620 0.204254 0.231626 0.189486 -0.131529 -0.394688 0.013827 0.137013 0.117081 -0.065199 0.226086 -0.071828 -0.048517 0.005204 -0.116133 -0.004710 -0.327958 0.568307 0.023172 -0.006934 -0.135822 0.232176 -0.252619 0.119608 -0.188681 0.279000 -0.205658 0.265459 0.183942 -0.029403 0.075391 0.000362 -0.071565 -0.075021 -0.145718 0.350598 0.282365 -0.227926 0.022903 -0.416364 -0.442442 0.005373 0.416719 0.099300 0.078540 0.085871 0.113484 -0.093518 -0.055979 0.349066 -0.419639 0.211140 0.280375 -0.102035 0.165528 -0.349737 -0.068335 0.205502 0.237948 0.251502 0.205040 0.101862 0.200803 0.036034 0.027059 -0.041814 -0.119990 
人 0.227150 0.444498 0.078589 0.185295 -0.016068 0.068869 0.331649 -0.040909 0.068987 0.272540 -0.221050 0.023285 -0.146150 -0.339902 -0.095539 -0.137758 0.313289 -0.156886 0.333739 -0.127740 0.060391 -0.379158 -0.070990 -0.115289 -0.053756 -0.171821 -0.105972 0.376681 -0.184769 0.139430 -0.089378 0.006509 -0.107326 -0.041654 0.079445 -0.471566 0.072806 -0.180086 0.200647 0.205594 -0.034568 -0.369160 0.021223 -0.288531 0.202848 -0.047260 -0.222308 -0.158372 0.205230 -0.472078 0.379360 0.068441 -0.143181 -0.114322 -0.194089 0.082934 0.082559 -0.068363 -0.310041 -0.057150 -0.094604 -0.128620 -0.125243 0.386534 0.280701 0.325894 -0.008867 0.017789 0.197383 0.210423 -0.167212 0.215922 -0.148649 -0.104650 0.148074 0.054530 -0.254854 -0.011973 -0.120683 -0.003021 0.161642 -0.204315 0.064932 -0.266652 -0.230883 0.039952 -0.062654 0.181335 -0.234398 -0.078077 0.496711 -0.019555 0.066684 -0.400539 0.260829 0.220960 -0.619994 0.092330 -0.007848 0.402374 0.210692 -0.243433 -0.087202 0.151770 0.462963 -0.400877 0.060104 0.122197 0.324386 0.069597 0.457051 0.022870 -0.005106 -0.466722 -0.148651 -0.225875 -0.145527 0.038803 -0.052936 0.070863 -0.438544 -0.423540 0.033086 0.155712 -0.123619 -0.106562 -0.020639 0.059358 -0.156188 0.453043 -0.036399 -0.346653 0.139285 0.056655 0.062815 0.140855 -0.462382 -0.376722 -0.003453 -0.223602 -0.358288 -0.050204 0.052523 0.046537 -0.316338 0.305538 0.023660 0.032583 0.383953 0.154094 -0.118589 -0.012325 0.157231 0.126851 0.005294 0.114882 0.023585 0.054957 0.180373 0.149230 -0.075576 -0.027723 -0.038622 0.073982 -0.625502 -0.099328 0.087540 -0.109597 -0.098827 0.321744 -0.199282 -0.078746 -0.241534 -0.408069 0.079669 -0.441098 0.024462 0.095502 0.252477 -0.337473 -0.183685 -0.083425 0.018237 -0.136687 0.329677 -0.215725 -0.110731 -0.331441 -0.006314 0.425512 -0.166958 -0.414828 0.512830 -0.081702 0.215309 -0.069071 0.065967 -0.266377 -0.040979 0.060603 -0.418307 0.015023 0.327682 0.205683 0.005265 0.108636 0.311033 -0.108989 -0.205580 -0.318827 -0.084990 -0.065119 -0.215672 -0.104935 -0.108512 -0.091654 -0.324647 0.206177 0.088456 -0.212141 -0.645423 -0.140342 -0.003404 0.066883 -0.009433 -0.058891 0.029985 0.430078 0.016076 0.010610 0.371980 -0.394409 -0.392665 0.437473 -0.013690 0.216802 0.026068 -0.372126 -0.061284 0.164622 -0.155317 0.072688 0.199633 -0.203085 0.107652 0.312724 -0.174410 -0.103836 -0.262838 -0.108036 0.163662 -0.166614 0.185998 -0.237665 0.253904 0.014381 -0.137472 0.106235 0.090539 0.216437 0.135987 0.112843 0.267140 -0.267928 0.017380 0.296228 -0.242156 -0.128117 -0.035946 0.229215 -0.199915 0.241889 0.026567 0.040266 0.193335 0.420391 0.193447 -0.427925 -0.229622 -0.019971 -0.245975 -0.399442 -0.543340 0.054114 0.284208 -0.086097 -0.390672 0.155146 0.475280 0.131491 0.112587 -0.064116 0.114693 0.163227 0.168538 -0.138572 -0.108718 -0.018941 -0.057876 0.100174 
之 0.192917 0.188376 -0.074572 -0.048461 -0.244694 0.110017 0.274456 -0.020409 0.054761 0.108693 -0.223036 0.057974 0.064027 -0.028035 -0.057126 0.113424 -0.311361 0.263600 -0.144489 0.121088 0.037492 -0.164889 -0.077269 0.120142 0.007812 0.177963 -0.034214 0.082258 -0.028605 0.110765 0.072904 0.265725 -0.106821 0.108491 -0.061776 0.030751 -0.080786 0.185309 0.143053 -0.117354 0.345526 -0.220846 -0.133643 -0.022892 0.050312 0.228665 -0.089061 0.052291 -0.053496 -0.096183 0.427310 -0.090996 -0.129724 -0.075023 0.163088 0.298743 -0.004564 0.159085 -0.426866 -0.054174 -0.000731 0.038463 0.101073 0.014104 -0.186695 -0.200474 0.040719 -0.216284 -0.252935 0.166701 -0.315419 0.012828 -0.046272 -0.150893 0.099500 -0.051842 0.441275 -0.138732 0.105916 -0.204760 -0.131104 -0.121630 0.094547 -0.002319 0.130966 -0.019294 -0.132620 0.049034 -0.110156 -0.226205 0.129970 -0.126456 -0.044610 0.104255 -0.164131 -0.269452 -0.001195 -0.121734 0.025505 0.033867 0.080482 0.091145 -0.294961 0.027503 0.199090 -0.114960 0.090586 -0.127817 -0.157732 0.104853 -0.174333 -0.344029 -0.206811 0.015326 -0.134715 -0.377238 -0.039933 0.091906 0.084551 0.256412 -0.172376 0.177234 0.432314 -0.073651 0.134621 0.087218 -0.354035 0.119669 0.016822 0.193478 -0.129205 0.178075 -0.042417 0.185411 -0.162639 -0.018063 -0.063795 -0.289754 0.021285 0.014467 0.266723 0.208754 0.241590 -0.152863 0.058562 0.110090 0.399966 -0.171869 0.232190 0.115917 0.196389 -0.012037 -0.092356 -0.037913 0.033701 0.268372 -0.247343 0.515263 0.195242 0.126395 0.077784 0.261934 -0.016785 -0.062274 -0.405624 0.098379 0.011391 -0.162182 -0.222497 0.176574 0.402063 0.260959 -0.149259 -0.136742 0.423057 -0.135426 -0.063830 0.058952 0.009234 -0.386844 -0.346684 -0.056089 -0.023605 -0.103055 0.394152 0.197360 -0.046621 -0.032188 0.035575 -0.059676 0.001299 0.098873 0.095659 -0.040138 -0.157951 -0.000758 0.010586 -0.139482 0.056005 0.272713 -0.365107 0.261157 -0.065607 0.222269 -0.075671 -0.409532 0.143553 -0.001288 -0.008880 -0.293482 0.099239 0.042025 0.097489 -0.435727 0.170624 -0.111524 -0.119440 -0.083669 -0.084798 -0.097941 -0.255696 -0.079178 -0.021847 0.142326 0.120817 0.088728 0.104308 0.017015 -0.008234 0.026444 -0.159039 -0.075129 0.027663 0.107629 -0.129024 0.430382 -0.004105 -0.310345 0.088448 -0.060953 -0.116666 0.167075 0.243712 -0.118687 -0.255104 0.098969 -0.048038 0.217701 -0.082345 -0.353757 0.001718 0.077000 0.190147 -0.095729 0.242884 0.122257 -0.186620 -0.104062 0.055142 -0.168845 0.212239 -0.016301 -0.323980 0.036656 0.089448 -0.274855 0.088711 -0.111544 0.040721 -0.102572 0.118026 -0.112206 -0.101434 -0.118238 0.054505 0.081737 0.402008 0.412156 -0.062948 0.048701 0.096602 -0.190308 -0.142861 0.166072 0.137241 0.053294 -0.142128 0.361424 0.406584 -0.037045 0.016662 0.149781 0.403133 0.093278 -0.324022 0.159219 0.229363 0.125725 0.079713 -0.283889 
他 -0.087618 0.025356 0.234210 0.075398 -0.095068 0.097586 0.304918 -0.065005 0.095411 0.071963 -0.111880 0.280076 0.238617 0.102771 -0.008652 -0.183240 -0.017053 0.251426 0.076403 -0.181729 0.103737 -0.023462 -0.068131 -0.248557 0.036583 0.141476 0.185628 0.416118 -0.081950 -0.018409 0.080324 0.119182 -0.243918 0.132207 0.091505 0.173336 0.120396 0.126879 0.131915 0.217843 0.146791 -0.089175 -0.009779 -0.109532 0.333012 0.063301 -0.094528 -0.135473 0.071632 -0.105003 0.339719 0.215248 -0.096288 0.016086 0.266422 0.026929 -0.019892 -0.149005 -0.481075 0.157229 0.199133 -0.135923 -0.220078 0.111303 -0.187087 0.113367 -0.159767 -0.045881 0.138963 0.055214 -0.399729 0.092815 -0.007525 -0.146793 0.138994 -0.179764 0.163385 0.068320 0.092593 -0.237043 0.017125 -0.121340 -0.030128 -0.058875 -0.336735 0.379595 0.065507 0.223378 -0.169394 -0.221875 -0.001778 0.211777 -0.057876 0.039089 0.020635 0.157758 -0.163409 -0.257265 0.218340 0.146498 0.268975 -0.240678 -0.138751 -0.250957 0.158503 -0.154729 0.083763 0.084817 0.092179 0.192360 -0.001958 -0.001384 -0.099569 -0.258396 0.248735 -0.026363 0.047630 0.023383 -0.240503 -0.343069 -0.320222 0.063933 -0.078783 -0.235876 -0.106694 0.120713 -0.037235 0.120222 0.082310 0.461584 -0.124831 0.093659 -0.151764 0.185624 0.015883 0.019673 -0.066980 -0.068343 -0.159900 0.050468 0.104092 -0.199127 -0.054250 -0.069094 -0.275606 0.235436 0.126295 0.142647 0.085490 0.080784 0.033136 -0.199792 -0.157805 0.202874 0.031198 0.138765 -0.042808 0.098403 -0.219934 -0.065837 -0.115518 0.101896 0.030381 0.110832 -0.253513 0.003625 -0.050307 0.070924 -0.014196 0.015619 -0.109571 -0.103924 -0.164330 -0.022782 0.204729 -0.109093 0.026064 -0.023123 0.266835 -0.210930 0.105549 0.054927 0.000309 -0.089298 -0.010447 0.205060 -0.142343 -0.030556 -0.143975 0.136186 -0.349442 -0.120257 0.189793 -0.100350 -0.123631 0.049900 -0.212770 0.037630 -0.271303 -0.074035 -0.378616 0.073513 0.055982 -0.142958 -0.236161 -0.194051 -0.013861 0.091450 -0.140580 -0.333685 0.079605 0.014637 -0.215589 0.123259 0.103758 0.040885 -0.071746 -0.131777 0.228617 -0.095334 -0.399277 0.115002 0.020264 -0.146585 0.116654 -0.048159 -0.014536 0.026625 -0.059820 -0.011308 0.021675 0.106323 -0.060115 0.082552 -0.074309 -0.245253 0.174388 -0.431439 0.154956 -0.085951 0.057291 0.042010 0.018425 0.021281 -0.323508 0.005861 -0.282700 0.165080 -0.221180 -0.260766 0.111747 -0.317720 0.019553 -0.281245 -0.268036 0.047858 0.057498 -0.148149 0.209488 -0.166899 0.071630 0.233696 -0.196229 0.149392 -0.155644 0.284802 0.101641 0.011128 0.147349 -0.022768 0.091927 0.131007 -0.275662 -0.223501 -0.174716 0.080448 0.050884 -0.101502 0.082620 -0.128479 -0.002787 -0.286373 -0.102173 -0.148420 0.329566 0.139795 -0.249020 0.214099 0.288641 0.018162 -0.016378 0.370196 0.172677 0.294339 0.010953 0.030381 -0.263125 0.082180 -0.303014 -0.272612 
而 -0.306583 0.159577 0.253615 -0.238251 -0.096912 -0.032293 0.127256 -0.116735 -0.151146 0.263244 -0.037738 0.066138 0.327296 0.241237 -0.086666 -0.159537 -0.050737 0.299023 -0.100880 0.142573 0.432675 -0.123832 -0.181003 -0.179498 -0.344239 0.171337 0.112637 0.425522 -0.182953 0.159890 0.099897 -0.103678 -0.114762 0.169306 -0.092739 0.179831 0.174118 0.051050 0.218572 0.097726 -0.069563 0.116013 0.065657 -0.057374 0.153618 0.136161 -0.128227 0.178432 0.197347 -0.069730 0.077035 0.178723 0.101763 -0.002507 -0.053041 -0.020501 -0.172775 0.113143 -0.356271 0.031081 0.008408 -0.147081 0.089465 0.110984 -0.140875 -0.000081 0.293493 -0.080679 -0.133800 -0.098563 -0.202997 0.045782 0.124312 -0.036174 -0.006935 0.080460 0.277745 0.030345 0.114846 -0.209704 -0.193628 -0.206273 -0.181877 0.205250 0.007675 -0.016428 -0.126379 0.108295 -0.207178 -0.399378 0.004673 -0.049137 -0.115767 -0.063986 0.013622 -0.352158 0.056902 -0.002837 -0.081127 -0.096947 0.351015 0.005308 -0.233872 -0.150779 0.131472 -0.460302 0.207121 -0.173399 -0.077598 0.395128 0.136637 0.132287 -0.240246 -0.249369 0.004561 -0.380159 0.157525 0.248599 0.251180 -0.069167 -0.020499 0.081935 0.108975 -0.166114 0.062589 -0.169907 -0.167934 0.284427 0.290172 0.264986 0.059272 -0.096494 -0.288416 0.128498 0.225587 0.031800 -0.151432 0.086365 -0.014522 0.026318 0.002861 0.015078 0.046005 0.012347 -0.075486 -0.085718 0.029729 -0.201279 -0.072455 0.219698 -0.168695 0.101973 -0.281758 0.250762 0.181687 -0.214164 0.059302 0.298687 0.360971 -0.103041 -0.171544 -0.008632 0.000604 -0.198439 -0.380043 0.110719 0.187701 0.159408 -0.058224 0.010644 0.210461 -0.228721 -0.436008 -0.147430 0.237132 -0.055219 -0.130255 0.158533 0.091075 -0.002779 -0.056443 -0.283435 -0.136627 -0.097017 0.204107 -0.229933 -0.275074 0.133803 -0.267337 0.109963 0.269240 0.074640 0.122007 0.043001 0.035260 -0.181453 0.061212 0.167369 -0.292407 -0.026139 0.034405 0.328493 -0.039287 0.097119 -0.139457 -0.085689 -0.051118 -0.137350 0.218647 -0.237308 0.190412 -0.099292 -0.172763 -0.382400 0.205004 0.004727 -0.043713 -0.142744 0.193484 -0.090708 0.013000 -0.163375 -0.038366 0.310907 0.181913 0.127028 -0.109733 -0.073137 0.203919 -0.021897 0.042769 0.133138 -0.036056 -0.011642 -0.134509 0.227447 0.252820 -0.295220 -0.090485 -0.003179 -0.026464 0.303515 0.266425 0.114258 -0.335869 -0.092208 -0.167858 -0.153567 0.003060 -0.006734 -0.032957 -0.123071 -0.149906 -0.133943 -0.131900 -0.062656 0.193334 -0.048749 0.095653 -0.181193 -0.077837 0.244446 -0.085748 0.074972 -0.073631 0.047854 0.233800 -0.092642 -0.111630 0.356330 -0.029700 0.190088 -0.151855 -0.287351 -0.012587 0.117064 -0.076083 0.249941 -0.095814 0.067837 0.030034 -0.047226 -0.147830 -0.288119 0.301040 0.186868 -0.160425 0.119161 0.200094 0.086734 0.158530 -0.096509 0.048508 0.109528 -0.226696 -0.250998 -0.019409 0.125545 -0.190321 -0.328489 
以 -0.296543 0.042051 -0.053365 0.069273 0.084172 0.174317 0.341282 -0.264961 0.146720 0.070054 0.025883 -0.286449 0.150376 0.050876 0.010530 -0.141264 -0.171698 0.300096 -0.187438 0.271511 0.649691 -0.108448 -0.126493 -0.016464 -0.059442 0.188686 0.429155 0.134431 0.125155 -0.135702 0.165902 -0.048094 -0.280237 0.242025 -0.051820 0.098704 -0.187380 0.070805 0.095626 -0.175266 0.019895 -0.043447 0.136100 0.113773 0.192962 0.035849 -0.185689 0.312348 0.104497 -0.014200 0.185338 0.092795 -0.027887 -0.309281 0.133020 0.061017 0.234157 0.280839 -0.234795 0.070292 0.256262 -0.120937 0.016456 0.091689 0.024696 0.023796 0.266567 -0.015668 0.082358 0.198358 -0.421446 -0.069883 -0.067568 -0.108498 -0.161528 0.115036 0.275151 -0.142864 -0.072517 -0.206951 0.067048 -0.051406 -0.144279 -0.215680 0.015299 0.021964 0.227263 0.056521 -0.262768 -0.048792 -0.004538 -0.130458 -0.175842 -0.199398 -0.139594 -0.061046 -0.042437 -0.353090 0.029849 -0.221088 -0.113691 -0.015907 -0.185655 -0.037645 0.243253 -0.110907 0.023243 0.035885 -0.127077 0.515166 -0.032276 -0.158437 -0.128867 -0.304741 0.123729 -0.345122 -0.031548 0.054489 0.230626 -0.186310 -0.150761 0.084475 0.040822 -0.085884 -0.024244 -0.131372 -0.076164 -0.055845 0.179166 0.002215 -0.033337 0.134266 -0.319361 -0.179057 -0.092024 0.139443 -0.061611 0.043300 0.014815 0.054925 0.228013 -0.000927 0.018307 -0.051194 -0.047599 0.013377 0.024046 -0.110096 -0.054866 0.091591 0.048485 0.246081 -0.141485 -0.248368 -0.000338 0.119467 -0.139270 0.294382 0.024423 -0.023891 0.026178 0.083075 0.095780 -0.069097 -0.253306 0.115124 -0.071727 0.047693 -0.035727 -0.274247 0.350210 -0.031362 -0.057351 -0.079027 0.227592 -0.314714 -0.054213 -0.130861 -0.239979 -0.074324 -0.133700 -0.264195 -0.275557 -0.120875 0.341633 -0.263833 -0.120766 0.042635 0.089021 0.017808 -0.272203 0.343108 0.383006 -0.047120 -0.174973 -0.140007 0.286444 0.331035 -0.475675 -0.128596 -0.226863 0.387350 0.242225 -0.012174 0.182297 0.065554 0.200059 0.061857 0.041743 -0.307932 0.314346 -0.057831 0.073063 -0.290978 0.153569 -0.430024 -0.249316 -0.082876 0.151468 -0.333202 -0.111364 -0.135234 -0.034765 0.266820 -0.003743 0.120728 0.259659 -0.059880 -0.239765 0.128288 0.209747 -0.041848 0.192930 0.070496 0.102872 0.137052 0.251835 -0.210218 -0.108229 -0.160131 0.001330 -0.009956 -0.086048 -0.123528 -0.097960 -0.179444 -0.212102 -0.087989 -0.152024 -0.213211 -0.208857 0.032608 0.025916 0.145040 0.222649 0.002096 -0.440506 0.084458 0.320711 -0.098734 -0.370308 -0.215741 0.233236 0.039213 -0.235601 0.121217 0.055376 0.038773 -0.006023 0.288013 0.089783 0.042793 -0.170684 -0.008095 0.052305 0.078254 -0.098730 -0.014743 -0.030565 0.191872 0.307828 -0.154662 -0.078679 -0.376147 0.451534 0.129363 0.014057 -0.041758 0.010842 0.244406 0.098815 -0.009255 0.010304 -0.078302 -0.088895 -0.310729 0.032999 0.207714 0.117402 -0.466543 
也 -0.098228 0.379400 0.106945 -0.089005 0.028922 0.011104 0.174094 0.054574 -0.186061 0.223419 -0.151746 0.081117 0.355937 0.155141 0.053451 -0.193892 0.036150 0.187850 -0.100730 0.063273 0.257211 -0.075402 -0.025050 -0.211076 -0.220864 0.267863 0.070100 0.140918 0.005120 0.188744 0.171073 -0.069683 -0.171650 0.222429 0.050779 0.161314 0.018765 -0.164807 0.053779 0.274019 0.190162 -0.068933 -0.105454 -0.092024 0.132352 0.122067 -0.102075 0.060844 -0.024019 -0.188269 0.279646 0.239824 0.000542 0.000200 -0.196565 -0.328703 -0.048053 0.190284 -0.402904 0.070603 0.041341 0.146452 -0.027858 0.206971 -0.223903 0.017602 0.053635 -0.092723 -0.024037 -0.197181 -0.065824 0.003094 0.129618 -0.130155 0.166169 -0.240901 0.219589 -0.056978 0.044651 -0.017267 -0.022382 -0.106096 0.125004 0.087635 -0.051337 0.065654 0.107111 0.388952 -0.180537 -0.272478 -0.054402 -0.087009 -0.332325 -0.074100 0.102146 -0.151119 -0.263819 -0.107067 0.093024 -0.112856 0.088158 -0.207581 -0.069872 -0.259969 0.225599 -0.203305 0.347532 -0.171545 0.052385 0.400100 0.016163 0.211549 -0.182369 -0.105478 0.065297 -0.236010 0.169432 0.135445 -0.040111 -0.105023 -0.111005 0.096739 0.023159 -0.149176 0.113290 -0.068587 0.070539 0.289114 0.278648 0.346332 -0.136436 0.045077 -0.291514 0.299133 0.198670 0.033401 0.037499 -0.047128 -0.094067 -0.215079 0.093145 -0.002535 0.040779 -0.167427 0.019338 0.101256 0.151742 0.009616 0.128759 0.212964 0.035144 0.242954 -0.133397 0.243979 0.143118 -0.068360 0.110418 0.098415 0.277493 0.144354 -0.149089 -0.062647 -0.070893 -0.076613 -0.216840 -0.017927 0.235670 0.278820 -0.143792 0.075537 0.091082 -0.091874 -0.195508 0.008231 0.222835 -0.081478 -0.127189 -0.114636 -0.106679 0.046002 -0.212335 -0.029333 -0.113468 -0.203664 0.201632 -0.271950 -0.338714 0.160195 -0.291958 0.284346 0.043601 -0.080831 0.170545 -0.224227 0.081198 -0.138745 -0.188906 -0.076773 -0.108855 0.090324 -0.144850 0.143041 -0.028649 0.062731 0.121347 -0.123516 0.176339 0.139900 0.245069 -0.195129 0.059854 0.034080 -0.041134 -0.165519 0.035437 0.042567 -0.070050 -0.261059 0.299273 -0.085091 -0.320805 -0.038077 0.022363 0.123202 -0.001492 0.125657 0.104588 -0.074002 -0.184589 0.045845 0.010027 0.213269 -0.090320 0.055773 0.040120 -0.037066 0.242946 -0.203794 -0.157185 -0.056741 -0.209723 0.271367 -0.003205 0.169943 -0.345403 0.037929 -0.206206 -0.001872 -0.128562 -0.073020 -0.034269 -0.212216 -0.115239 -0.072319 0.037898 -0.082399 0.069549 -0.131737 0.155908 -0.108250 0.006771 0.090839 -0.122508 0.014536 0.067526 0.165725 0.152443 -0.070849 0.059482 0.096949 0.193025 0.230366 -0.259708 -0.222025 0.031376 0.127686 -0.131216 -0.063878 0.050849 -0.160404 0.064920 -0.219043 0.057292 -0.239721 0.238918 -0.031618 -0.063203 0.098787 0.297940 -0.279940 0.124652 0.271506 0.051141 0.242976 0.115107 0.151745 -0.155167 0.119454 0.038149 -0.140352 
或 0.013822 -0.007316 -0.065292 -0.218912 0.082157 -0.099859 0.227482 0.136337 0.032115 0.307339 -0.061829 -0.188608 0.137929 -0.161585 -0.049636 -0.035775 -0.203136 0.218258 -0.019832 -0.115774 0.166657 -0.123637 -0.022770 -0.217797 -0.129656 0.028033 0.245580 0.513934 -0.204509 0.313690 0.101749 0.015686 -0.173835 0.078613 0.178643 0.034805 -0.007460 -0.081811 0.170327 -0.247798 -0.062354 -0.029791 0.058508 0.248266 -0.110854 -0.061182 0.065118 -0.163263 -0.103680 0.085742 -0.072558 -0.285015 -0.002099 -0.396216 0.213539 0.099218 0.094167 0.006715 -0.318748 0.107285 0.055644 -0.023714 0.084934 0.113773 0.353459 -0.275474 0.072167 -0.305960 -0.321094 -0.328476 -0.188010 -0.557409 0.261050 -0.154006 -0.129532 -0.186215 0.384953 0.174057 0.239159 -0.134866 -0.278445 -0.495175 0.175746 -0.274099 0.329639 -0.298747 -0.110386 0.150545 0.144616 -0.050325 0.027858 -0.025016 -0.276589 -0.134038 -0.333342 0.069078 -0.331755 -0.265854 0.133358 0.016567 0.471975 -0.105558 0.034044 -0.511686 0.097999 -0.186849 -0.119349 -0.285352 -0.141212 0.578493 0.290432 0.053213 0.085471 0.139444 0.309851 -0.319547 0.003978 0.018173 0.010631 -0.114967 -0.467818 -0.006072 0.111734 -0.401344 -0.142263 -0.179203 -0.252993 0.139954 0.406835 0.194512 -0.048992 0.134701 0.207272 -0.179356 0.103457 0.122665 -0.214409 0.405873 0.010429 0.071287 -0.004765 -0.045656 0.390473 -0.008150 0.039708 0.397634 0.033045 -0.004597 -0.079246 0.026940 0.014769 0.248676 -0.200693 0.143537 -0.021598 -0.284324 0.233519 -0.142965 0.407922 0.148774 -0.145685 -0.213280 -0.083432 -0.179058 -0.421427 -0.078576 0.549917 0.302480 -0.053659 0.355839 0.427637 -0.015906 -0.240038 -0.127709 0.353976 -0.229713 -0.100205 0.024347 -0.037065 -0.199598 -0.161172 -0.033329 -0.037524 -0.205815 0.229844 -0.110201 -0.178991 0.433955 -0.042210 0.161824 -0.124240 -0.115921 0.281295 -0.080066 -0.121607 -0.029717 0.233307 -0.161680 -0.396335 -0.095915 -0.075781 0.537591 0.082175 -0.100390 0.200540 -0.056549 -0.111641 -0.294984 0.236257 -0.333184 0.335784 -0.207568 -0.171699 -0.214639 0.040067 -0.145418 -0.053427 -0.043774 0.101766 -0.353612 -0.205638 -0.329475 -0.219453 0.068930 0.109764 0.537798 -0.163286 -0.010981 -0.278187 0.111782 0.375718 0.005292 -0.009985 -0.004676 0.038620 0.151536 -0.024963 -0.044838 -0.256426 0.480060 -0.102246 -0.043795 0.138833 0.263949 -0.250043 0.186393 -0.324837 0.040766 -0.188522 -0.169237 -0.055854 -0.336522 -0.507889 -0.092179 0.272418 0.277221 -0.137532 -0.024356 0.100091 0.112831 -0.152536 0.136006 0.395704 -0.129021 0.214687 -0.149693 -0.156182 0.029576 0.016662 0.324203 -0.010778 0.113089 0.080931 -0.179943 -0.306511 0.353855 -0.342239 0.017199 -0.063003 -0.113652 0.260915 -0.002695 0.198965 -0.270415 0.012839 -0.033640 0.222344 0.143284 -0.075447 -0.056019 0.054836 0.292202 0.300527 0.212289 -0.179484 -0.023523 0.256105 0.179442 -0.238530 -0.045043 
