1000 300
， 0.116763 -0.082260 -0.067078 -0.029883 -0.075887 -0.051286 0.007959 0.224768 0.252038 0.208444 0.017629 -0.104018 -0.094959 0.098876 -0.065687 0.184916 -0.127854 0.248928 0.104157 -0.148353 0.077860 -0.007354 -0.127350 -0.164475 -0.180341 -0.358898 0.078146 -0.067673 -0.055576 0.029715 0.123122 -0.121995 -0.051993 -0.048758 -0.135541 0.043256 -0.183343 -0.080673 -0.075949 0.061835 0.081334 0.103449 0.019898 0.076836 0.085583 -0.070263 -0.032449 0.018588 0.033652 0.015484 0.055451 -0.045655 -0.136057 -0.060691 0.072127 0.031991 0.188020 0.207825 0.081752 0.083736 -0.038618 0.138348 -0.046512 -0.021833 0.109968 0.033512 0.045206 -0.010084 0.091958 -0.194951 -0.159990 0.058008 -0.001572 0.034666 -0.024496 0.303954 0.020020 0.003014 -0.118737 -0.209840 0.041661 0.009458 0.150402 -0.159963 0.039824 0.042007 -0.262157 0.192999 -0.088982 -0.038410 0.202906 0.255513 0.006213 0.058120 -0.210630 0.171170 -0.025463 0.027729 0.125723 -0.017329 0.162773 -0.035359 0.008858 -0.007480 -0.027391 0.172096 -0.036285 -0.034581 0.202008 -0.260291 0.008708 -0.095335 -0.086988 0.081278 -0.061598 -0.001893 -0.057711 0.101038 -0.006811 -0.055690 -0.207095 0.247709 0.113529 -0.142621 0.066121 -0.138459 0.028558 -0.061720 0.102723 0.064467 0.040612 -0.022052 -0.063909 -0.141679 0.060119 0.071160 -0.251036 0.100922 -0.072855 -0.118118 -0.092793 -0.002933 -0.073955 0.162419 0.019187 0.137558 0.220994 -0.079502 0.121626 0.101937 -0.101008 -0.136232 0.096239 0.077353 -0.103507 -0.054759 -0.143126 -0.126335 -0.179927 0.156055 -0.101075 -0.203876 0.027287 -0.265118 -0.063621 0.148040 -0.100638 -0.025835 0.109120 -0.076422 -0.167988 -0.104126 0.182287 0.282136 0.087624 -0.048716 0.001527 -0.152110 0.147111 0.025552 0.140297 0.049224 0.104875 0.053782 -0.014343 0.023506 0.148961 0.099353 -0.100504 -0.016181 -0.016553 0.215660 0.128343 0.034957 0.034747 -0.061415 -0.089484 0.213664 0.096811 0.090329 0.078707 -0.156218 -0.064646 0.047928 0.013651 -0.131513 0.046465 -0.001592 -0.013851 -0.118704 0.206831 0.040117 0.042594 -0.049295 -0.092637 -0.038863 -0.048042 0.165611 -0.193435 0.204151 0.034877 0.062784 0.023507 0.046520 0.124340 0.203301 -0.003575 0.058374 -0.006238 -0.102386 -0.109284 -0.123178 0.013688 -0.119323 -0.074344 0.112219 0.129893 0.008465 0.249269 -0.226597 0.000340 -0.179201 0.071809 -0.016313 0.074435 -0.081355 0.104379 0.126296 -0.180818 0.052274 -0.120663 -0.087182 -0.016562 -0.279705 -0.181116 0.086621 0.016839 0.025342 0.098148 -0.020664 0.008898 -0.130658 -0.086944 0.013699 0.101855 -0.092297 -0.071577 0.087417 0.071538 0.004213 -0.090544 0.081705 0.068172 -0.057647 -0.076508 0.062339 -0.095134 0.033350 -0.026139 0.045429 0.125526 0.171386 -0.029183 -0.039124 -0.161334 0.035237 -0.076599 0.205941 -0.017346 0.144933 -0.239269 -0.022208 -0.039640 0.066611 0.041280 0.059769 0.046976 0.047563 0.033082 -0.003963 
的 0.041535 -0.185500 -0.048225 -0.129857 0.002393 0.086562 -0.022853 0.230734 0.180895 0.192077 -0.000546 0.071862 -0.101875 -0.015719 0.037059 -0.020241 0.155442 0.302460 0.016569 0.083599 0.048516 -0.032043 0.026900 -0.201132 -0.263163 -0.276126 0.040874 -0.270671 0.082008 0.034942 -0.043373 -0.187942 -0.031920 -0.061249 -0.036984 -0.188358 -0.372991 0.138241 -0.131618 0.133267 0.047171 0.144297 0.045936 0.085248 0.095899 -0.003523 -0.154941 -0.185499 0.019421 -0.016969 0.027074 0.065746 -0.104547 -0.220769 0.007536 -0.031955 0.215589 0.237812 -0.092006 0.084819 0.019432 0.194165 -0.048507 0.077531 0.107515 -0.057502 -0.119158 0.077002 0.098011 -0.186789 -0.173031 -0.056295 0.060950 0.032214 0.085887 0.228796 -0.105635 -0.016106 -0.189752 -0.238900 0.072762 0.099244 0.214801 -0.303884 0.109666 -0.078008 -0.279624 0.273974 -0.043385 -0.010926 0.024450 -0.085954 0.119903 -0.062557 -0.221129 0.156134 -0.069036 0.070575 0.138675 0.020077 -0.004359 0.002479 0.118904 -0.061819 0.018913 0.254111 -0.097257 -0.135138 0.165416 -0.153962 0.068240 -0.126796 -0.141083 0.043506 -0.032594 -0.080338 -0.050785 -0.005483 0.145473 0.044297 -0.335989 0.077180 0.275532 -0.185497 0.154489 -0.197424 0.105009 0.014801 0.123384 0.183688 0.083802 -0.006367 -0.052858 -0.060496 -0.075571 0.138276 -0.186025 -0.044822 0.033241 -0.129241 0.218615 -0.179597 -0.235334 0.189234 -0.109471 0.046816 0.197423 0.080650 0.084687 0.075099 -0.165180 0.082134 0.023613 0.054415 -0.030142 -0.138455 -0.035414 -0.162792 0.049289 -0.008265 -0.162760 -0.253219 -0.245980 0.057803 -0.097642 0.299555 -0.006793 -0.014930 0.251304 0.125647 -0.139995 -0.120750 0.238296 0.304497 0.090571 0.017042 0.042346 -0.102550 0.100731 0.050058 0.097046 -0.103479 0.149122 -0.049875 -0.024555 0.188739 0.067898 0.032076 -0.094424 -0.097709 0.073142 0.323061 -0.005992 0.112236 0.117963 -0.125206 0.103803 0.151531 -0.010549 -0.046713 0.201585 -0.110987 -0.151980 0.102576 -0.086103 -0.244305 -0.002578 0.083993 -0.033650 -0.185476 0.299627 0.234432 -0.022165 -0.004990 -0.044582 0.038647 0.032417 0.102269 -0.007081 0.098103 -0.036611 -0.024291 -0.138480 -0.001277 0.251877 0.210281 -0.050266 0.030624 -0.102907 -0.038366 -0.111487 -0.061647 -0.005754 -0.091972 0.017784 0.089970 0.155343 0.137571 0.230377 -0.035126 -0.119346 -0.107107 0.266403 0.121380 0.040188 -0.009455 0.113203 0.044155 -0.263204 0.123629 -0.210371 -0.210493 -0.052333 -0.213066 -0.034859 -0.086748 0.237481 0.104492 -0.107250 -0.330692 0.056519 -0.293840 0.145059 0.001571 0.143828 -0.241129 0.001349 -0.010062 -0.121316 -0.036666 -0.119723 0.033529 0.057611 -0.020864 0.127060 0.077861 -0.240151 -0.033967 0.015965 -0.053873 -0.082100 0.075464 -0.025442 0.011140 -0.001537 0.071530 0.174507 0.298550 -0.059680 0.138905 -0.112451 -0.045284 -0.244256 0.056036 -0.069633 0.092941 0.028071 0.020061 -0.057477 -0.080065 
。 0.210587 -0.163065 0.006192 -0.135545 0.038499 -0.120849 0.097238 0.116032 0.245585 0.308626 0.071497 -0.090338 -0.079287 0.068408 0.017308 -0.009488 -0.013035 0.258040 0.021260 -0.083507 0.124694 0.042416 0.069036 -0.043368 -0.083092 -0.339110 0.122177 -0.071179 0.082236 0.014972 0.032710 -0.234265 0.004370 0.089791 -0.004441 -0.066444 -0.169379 -0.096934 -0.103553 0.086960 0.102729 0.098736 -0.058078 -0.027558 0.102432 0.081183 -0.147282 -0.153955 0.007021 0.083105 -0.000284 -0.093173 -0.155574 -0.045489 0.055853 0.153239 0.253536 0.221904 -0.105893 0.169030 0.064682 0.107338 -0.095201 0.128326 0.077837 0.089312 0.096570 -0.001897 0.151040 -0.200081 -0.075666 -0.029703 0.108214 0.006987 -0.085677 0.341182 0.010399 -0.030148 -0.143208 -0.243640 0.114065 0.037030 0.243877 -0.368152 0.167611 0.065385 -0.163616 0.250176 -0.015771 -0.002173 0.129617 0.065897 0.117605 -0.014973 -0.158034 0.038159 0.024635 0.069948 0.033073 -0.226784 0.125612 0.029203 0.008795 -0.194744 -0.040245 0.088164 0.003369 -0.089732 -0.028853 -0.274276 0.197101 -0.293676 -0.180309 0.035911 -0.006678 -0.136823 -0.080891 -0.050965 0.053319 -0.029664 -0.221985 0.063072 0.168323 -0.262511 0.192748 -0.120062 0.134782 0.042996 0.082397 0.095520 0.035484 0.027273 -0.116240 -0.018914 -0.020458 0.029714 -0.216124 0.025709 -0.146562 -0.073632 0.165112 0.030296 -0.026687 0.098596 0.057900 -0.034158 0.046729 0.005793 0.104124 0.129548 0.016410 -0.033451 -0.001295 0.078260 -0.054860 -0.053641 -0.153713 -0.025654 -0.278349 -0.008128 -0.192734 -0.222209 -0.070149 0.016265 -0.037493 0.069424 -0.010060 0.006855 0.069604 -0.076408 -0.113348 -0.043084 0.130540 0.308468 0.007802 0.029433 0.033857 -0.009708 0.179134 0.118109 0.262789 -0.030249 0.037541 0.076719 -0.226914 0.092294 0.186059 0.121427 -0.100329 -0.022823 -0.014167 0.327733 -0.048356 0.028486 0.094518 -0.025954 -0.073259 0.033666 0.142609 0.118831 0.132816 0.049875 0.042707 -0.051245 -0.137776 -0.163588 0.008942 -0.055546 0.089863 -0.107538 0.282234 0.011798 -0.123133 0.081943 -0.053719 -0.047804 -0.082989 0.127196 -0.325627 0.042255 0.023751 0.126382 -0.089876 0.127374 0.059546 0.048495 0.083503 0.215543 0.099608 -0.130904 -0.186149 -0.160727 0.039468 -0.153078 -0.041493 0.068424 0.120751 0.094625 0.317722 -0.215681 -0.001107 -0.102570 0.086099 -0.066569 0.026174 0.049855 0.129769 0.107459 -0.293900 0.091874 -0.170678 -0.016845 0.082193 -0.130606 0.008256 0.031918 -0.193058 0.114872 -0.177598 -0.138316 0.038467 -0.208385 -0.046944 -0.041561 0.141137 -0.056490 0.022187 0.022751 0.099160 -0.241217 -0.020730 -0.053535 0.069057 -0.056116 -0.116843 0.049181 -0.064115 -0.028395 -0.016597 0.001526 0.191549 0.248315 0.143676 0.121256 -0.184679 -0.047729 0.026027 0.218801 0.052528 0.177221 -0.017580 -0.066345 -0.162462 0.048664 -0.147189 0.214738 0.141296 0.304065 -0.054951 -0.113204 
、 -0.083906 -0.021279 -0.162081 -0.033575 -0.103414 -0.067491 0.035180 0.438456 0.488413 0.030042 0.090061 0.173177 -0.135802 -0.133360 0.222017 0.047579 -0.226616 0.567574 -0.142319 -0.026982 0.071089 -0.333012 0.120305 0.036562 -0.074596 0.150754 0.127030 -0.059739 -0.100913 0.118664 0.050508 0.040146 -0.386128 -0.271568 -0.138651 0.111973 -0.406343 -0.112639 0.196124 0.005706 -0.208769 -0.009320 0.163361 -0.114572 -0.290822 -0.136405 -0.151409 -0.001380 0.237791 0.097186 0.135876 0.140442 0.237828 -0.058347 -0.003189 0.029691 -0.012939 0.455096 0.054684 -0.135600 -0.255755 0.039120 -0.109654 -0.075200 0.068771 0.072609 -0.152087 0.207399 0.039014 -0.021717 -0.009274 0.070798 0.067293 0.236950 0.066340 0.298190 0.178981 0.400320 0.371320 -0.159982 -0.453190 0.144590 0.200404 -0.133569 0.065965 -0.167128 -0.447832 -0.298867 -0.162684 -0.105161 -0.044919 -0.395371 0.478480 0.402234 0.258434 -0.063563 -0.313179 0.198037 -0.015487 0.031201 -0.007727 -0.277076 0.112271 0.064902 0.058660 0.202698 0.144196 -0.254793 0.157227 -0.119795 -0.168519 0.332021 -0.083220 0.180600 0.235715 -0.072276 -0.205692 -0.082391 0.183879 0.074419 -0.123803 0.121789 -0.213186 -0.199439 0.281193 -0.241932 0.338509 0.093067 0.005447 -0.153801 0.134561 -0.114989 -0.155524 0.013461 -0.282480 0.240226 -0.260605 -0.025688 0.172797 -0.424429 -0.151637 0.133372 -0.047292 -0.132383 -0.071621 0.333055 0.028778 -0.022814 0.289154 0.071596 -0.201490 0.173244 0.013482 0.132821 0.152409 -0.325685 0.008653 -0.431402 -0.198360 0.303683 0.110609 -0.338213 -0.157812 -0.173171 -0.191587 0.131009 -0.047488 0.018874 0.026234 0.088602 -0.196919 -0.233028 -0.146327 0.273953 0.095189 -0.093792 -0.377444 -0.342278 0.270583 -0.257460 -0.208385 0.024672 0.014782 -0.175448 -0.261236 -0.197528 0.071030 -0.298310 -0.276316 -0.041421 0.066508 -0.216589 0.254966 -0.032169 0.036255 -0.280859 -0.207884 0.278057 0.300540 0.192074 -0.023047 -0.098310 0.075200 0.351168 -0.085522 -0.012827 -0.119450 0.131811 0.128143 -0.424399 0.279832 0.208348 0.055386 -0.268755 -0.019822 0.110083 -0.329258 0.411063 0.033614 0.165978 -0.004984 0.377855 -0.085425 -0.447749 -0.050363 -0.099359 -0.160797 -0.148366 0.044332 -0.153101 -0.139619 0.153068 0.109169 0.186757 -0.428068 0.131170 -0.052283 -0.272085 0.404528 0.273663 -0.054744 -0.247597 0.040137 0.024222 -0.012214 0.258861 0.087338 -0.033724 0.102070 0.379372 0.139368 0.032649 -0.151004 -0.418303 -0.255583 -0.200107 0.134519 0.237053 0.045655 -0.204167 0.261330 -0.020722 -0.097237 0.017375 -0.029487 -0.473406 -0.112147 0.173009 -0.339590 -0.200075 -0.105508 0.001460 0.251267 -0.219376 -0.066547 0.016468 -0.376457 -0.038021 -0.429877 -0.284632 0.132312 0.299520 0.017956 0.045789 0.256180 0.099520 -0.134625 0.408314 -0.160868 0.011602 -0.512852 -0.018737 -0.279197 0.263514 -0.043667 0.074782 0.435261 0.270067 -0.008637 -0.186420 
和 -0.034841 -0.225123 0.103976 0.091373 -0.090944 -0.110397 0.221433 0.327579 0.162576 0.104704 -0.072235 0.096772 -0.132339 -0.024986 0.163400 0.150328 -0.192009 0.508679 -0.060258 0.241762 0.003008 -0.256682 0.077015 -0.024718 -0.100012 0.066012 0.036020 -0.251459 0.044291 0.178238 -0.027749 -0.138617 -0.243691 0.030507 -0.242750 0.065587 -0.134379 -0.152112 -0.037396 -0.066322 -0.028123 0.140717 0.167743 -0.237847 -0.160802 0.086256 -0.284462 -0.114769 0.033170 0.110478 0.110637 0.047398 0.014155 -0.054526 -0.128183 0.064969 0.277194 0.244297 -0.159002 0.078581 -0.157974 0.245649 -0.082574 -0.188467 0.117176 -0.024845 -0.170061 -0.029844 0.093549 0.009868 -0.331294 -0.093046 0.156077 0.230484 -0.189196 0.384669 0.011635 0.297098 0.045951 -0.132634 -0.154242 0.099910 0.258173 -0.235614 0.082410 -0.091609 -0.449665 0.114062 -0.136851 -0.034346 -0.070555 -0.369673 0.177199 0.060370 -0.077266 0.076032 -0.160059 0.175265 0.055480 0.043463 0.035123 -0.086465 0.097171 -0.086765 0.015124 0.401428 0.001373 -0.086389 0.258664 -0.093469 0.146879 0.185211 -0.204598 -0.056896 0.208601 -0.299466 0.003693 0.141757 0.356208 0.122402 -0.119447 0.149283 0.137971 -0.230946 0.282426 -0.183208 0.220292 -0.150164 0.022724 -0.030355 0.041452 -0.060931 -0.216225 -0.011201 -0.350512 0.192483 -0.080639 -0.061757 0.077753 -0.263462 0.065746 -0.083504 -0.143334 0.082441 -0.100517 0.077072 0.134796 -0.220603 -0.008452 0.016132 -0.249780 0.122878 0.060975 0.033354 0.078797 -0.300825 0.164527 -0.195171 0.129651 0.034259 -0.137572 -0.365136 -0.217763 -0.194616 -0.152673 0.176095 0.017932 0.036601 0.235964 -0.025804 -0.233271 -0.262775 0.177600 0.346002 0.099386 0.019846 -0.204420 -0.203896 0.059123 -0.161798 0.254505 0.000882 0.247370 -0.109494 -0.042871 -0.065782 0.015598 -0.053033 -0.128178 -0.240327 0.127221 -0.087310 0.071674 0.225837 0.137487 -0.212237 0.045409 0.215219 0.139734 -0.030801 0.040857 -0.064560 -0.139240 0.275004 -0.230048 -0.214131 0.010567 -0.157962 0.092398 -0.185927 0.467655 0.184360 0.276106 -0.081382 0.076505 0.068642 -0.175930 0.271899 -0.161287 0.255601 -0.053330 0.176318 -0.048572 -0.049851 0.187798 0.174399 -0.040405 -0.275147 0.038292 -0.143104 -0.134994 0.095223 0.067884 -0.079059 -0.047174 0.279431 0.181239 -0.022660 0.327547 -0.057609 -0.015286 -0.353843 0.113312 0.130446 -0.076992 0.233910 0.150955 0.058795 -0.071956 0.236692 -0.085418 -0.077755 -0.004155 -0.142285 -0.144440 -0.117715 0.218269 0.111396 -0.010447 -0.494230 0.102239 -0.098261 0.146940 0.056567 0.126711 -0.315755 0.027868 -0.018084 -0.138165 -0.175237 -0.073938 0.142834 0.151744 -0.019462 -0.157016 -0.077966 -0.262617 -0.213658 -0.170927 -0.063929 0.016509 0.083734 0.010201 0.090932 -0.161255 0.060744 0.162711 0.314797 -0.073146 0.165709 -0.353931 -0.056001 -0.220450 0.217702 -0.156648 -0.145465 0.147922 0.195808 -0.243734 -0.213002 
了 0.005683 0.141247 -0.315991 -0.429501 -0.077158 -0.124404 -0.013841 0.430922 0.062299 0.163450 0.028142 -0.074112 -0.279572 0.197800 0.130042 0.094147 0.264703 0.567700 0.100210 -0.057727 0.101797 -0.107044 -0.105927 -0.100114 -0.281995 -0.121832 -0.157253 -0.220038 0.162559 0.151454 0.127836 -0.114204 -0.122423 0.050750 -0.143034 -0.092342 -0.212577 -0.160893 0.031543 0.031218 0.123944 0.166421 0.064540 -0.025506 -0.143519 0.097707 0.107820 -0.239261 -0.243509 0.135616 -0.054910 -0.229078 -0.375226 -0.314370 -0.158701 -0.109591 0.220221 -0.054247 0.230880 -0.012439 0.225662 0.229967 -0.115807 0.116038 -0.052367 -0.211860 -0.253968 0.030807 0.411516 -0.044646 -0.140191 -0.031539 0.064450 -0.033054 0.039368 0.389726 -0.052933 -0.182097 0.133095 -0.030179 0.083827 -0.103396 0.208643 -0.319213 0.076410 0.018565 -0.455064 0.085642 -0.062116 0.031161 -0.273655 0.243992 -0.057665 -0.086495 0.062602 -0.054516 0.063156 0.117775 0.145733 -0.015124 0.232677 0.110012 0.092087 -0.255030 -0.000088 0.276354 -0.191705 -0.053190 -0.083829 -0.311915 0.090416 0.032916 -0.224146 -0.173498 -0.111832 -0.197803 0.154031 -0.209567 0.035087 0.004359 -0.237148 0.029988 0.341325 -0.086758 0.255399 0.043614 -0.059350 -0.071950 -0.049309 0.052766 0.120667 -0.119944 0.011725 -0.330804 0.206504 0.319947 -0.039231 0.266767 0.055209 0.052482 0.375344 -0.195192 -0.154096 0.131269 0.034137 -0.088530 0.027236 0.045181 -0.049112 0.169941 -0.030098 -0.335426 -0.045677 -0.271209 -0.059262 -0.172556 -0.055385 -0.119699 -0.104521 0.140985 -0.088951 -0.481731 0.003283 -0.056043 -0.050613 0.370985 -0.117936 -0.097095 0.213654 -0.011287 -0.202594 -0.176105 0.175598 0.126918 0.051732 0.082434 -0.169453 -0.222776 -0.167657 0.126784 0.143249 0.022295 0.428529 0.055613 -0.054236 0.040783 0.337868 -0.129691 -0.062275 -0.007735 0.103609 0.140763 0.218509 0.178472 -0.006316 -0.013973 -0.052042 0.154521 -0.035748 0.126089 -0.123722 -0.030718 -0.016288 0.199816 -0.313292 -0.094986 -0.158936 -0.221178 0.314173 0.144308 0.417116 -0.124460 0.099164 -0.003156 -0.060000 -0.309097 -0.237136 0.027493 -0.324877 0.004647 -0.025024 0.160457 -0.033321 -0.068246 0.085435 0.298775 0.017514 -0.024283 -0.047276 -0.069274 0.206037 -0.183709 0.188627 -0.266941 -0.294609 0.138138 0.121432 0.165416 0.266716 -0.601399 -0.166004 -0.217072 0.254261 0.223415 0.076209 -0.161682 0.094017 0.153437 -0.223828 0.111702 -0.046041 0.072516 -0.216847 -0.047861 0.062022 -0.038611 0.249463 -0.119475 -0.067541 -0.260724 -0.075744 -0.007086 0.091009 -0.044551 -0.106654 -0.244902 0.008558 0.187382 0.044903 0.097643 -0.255083 0.192686 -0.125321 0.064030 0.252434 0.202172 -0.278539 0.146974 -0.224155 0.063203 0.052347 0.000020 -0.006007 -0.122739 -0.248338 0.267776 -0.033098 0.201260 -0.140109 0.351312 -0.101764 0.190672 -0.317060 0.174612 0.165776 0.205320 0.123955 0.018873 -0.253288 0.152302 
在 -0.033605 -0.136339 -0.139621 -0.081309 0.153462 0.161360 -0.015092 0.242770 0.141488 0.090037 -0.296420 -0.113540 -0.371243 0.131865 -0.039866 0.100314 0.045088 0.402950 -0.042642 0.001978 -0.182074 0.048952 -0.043077 -0.169501 -0.059258 -0.227425 -0.042517 0.086016 0.144011 -0.048005 -0.028864 0.076376 0.011912 0.225348 0.158678 0.007979 -0.248668 -0.128748 -0.236022 0.046567 0.036228 0.032708 0.315213 -0.034013 -0.167562 -0.099142 0.015017 -0.342257 0.051127 0.159926 0.066482 0.006947 -0.232739 0.012486 0.223257 0.363989 0.128805 0.151021 0.096059 -0.031281 -0.061703 0.151458 -0.049628 0.039535 -0.058591 -0.019520 -0.023661 0.107745 0.233620 -0.137869 -0.130347 0.104603 -0.044155 -0.234655 0.093901 0.049432 0.068661 0.194214 -0.076334 -0.090187 0.192445 -0.054064 0.245944 -0.379641 -0.048597 0.227441 -0.098479 -0.022767 0.134416 -0.093127 0.005169 -0.209013 0.057743 -0.032949 -0.154911 -0.009521 -0.203216 -0.035762 -0.125292 0.310647 0.256988 -0.049043 0.009832 -0.132767 -0.191456 0.021849 -0.006908 0.057202 0.033579 -0.315839 0.198309 -0.045829 -0.431948 0.150437 0.067349 -0.002860 -0.026075 0.077861 0.017298 -0.047089 -0.079912 0.385092 0.300217 -0.125204 0.180128 -0.045615 0.006150 0.037308 0.036172 -0.024231 -0.246921 -0.156272 -0.112986 -0.085114 -0.109310 0.349512 -0.131035 0.049524 -0.027051 0.037631 0.054947 -0.395193 -0.296870 0.168571 0.087537 0.028777 0.106454 0.065059 0.273078 0.026250 -0.027624 0.180982 -0.148564 -0.035351 -0.052013 0.006937 -0.123774 -0.073719 -0.113500 0.059195 -0.107241 -0.195949 -0.157989 0.024577 -0.099705 0.065541 -0.281113 0.056092 0.190576 0.068279 0.074964 -0.014811 0.122567 0.343210 -0.227157 0.352215 -0.074518 -0.016618 0.133247 0.128476 -0.003845 0.285711 0.069141 0.027920 -0.053161 0.232497 0.145597 -0.100953 -0.143336 -0.067584 -0.043596 0.387829 0.287206 0.149496 0.084954 -0.146948 0.060520 0.154973 -0.047274 0.003206 -0.193915 -0.044667 -0.190529 0.113070 -0.065359 -0.360275 0.062859 -0.013206 0.039160 0.040028 0.329419 0.018801 0.122263 -0.047458 -0.140627 -0.121667 -0.187209 0.074881 -0.276452 0.150967 0.061943 -0.096233 -0.200776 0.283044 0.065974 0.340665 0.182387 0.030718 0.101517 -0.143281 -0.372820 -0.096944 0.132380 -0.038145 0.184410 0.324002 0.212826 -0.084166 0.383021 -0.319357 0.132497 -0.382414 0.061468 0.187374 0.025236 -0.263253 -0.019239 0.153744 -0.011660 0.208974 -0.187855 -0.203578 0.163507 -0.255685 -0.421209 -0.132609 0.076545 0.006606 -0.022803 -0.104139 0.111778 -0.416847 -0.072177 -0.000133 0.250886 -0.186004 -0.088098 0.207310 0.033072 -0.081494 -0.145197 0.134118 0.279780 -0.113478 -0.201538 -0.056353 -0.184270 -0.214537 -0.115420 -0.056896 0.187864 -0.052562 -0.135760 -0.078778 0.015543 0.219399 0.231037 0.305705 -0.256544 -0.024357 -0.174897 -0.241005 -0.172013 -0.188166 -0.315457 0.019051 -0.031613 0.093391 -0.044489 0.037254 
” -0.130160 -0.131156 0.249452 0.074735 -0.192935 -0.142091 -0.103035 0.120624 0.395991 0.481597 -0.054774 -0.203121 -0.046333 0.262284 -0.078024 0.184371 -0.316246 -0.340006 0.055264 -0.093629 0.195996 -0.122822 -0.008997 0.104126 -0.181111 -0.480595 -0.042869 -0.214766 -0.066383 0.277791 -0.125572 -0.099704 0.111945 -0.164719 -0.259501 -0.045733 -0.134997 0.269707 -0.420025 0.268264 -0.143017 0.266228 0.085877 0.140366 -0.091118 0.143277 0.116835 -0.099059 0.227507 0.028285 0.097366 0.034542 -0.342946 -0.316248 -0.164512 0.160044 0.221395 0.329079 -0.153971 -0.131875 0.207542 0.201134 -0.271081 -0.250809 -0.152786 -0.128992 0.195534 0.174895 -0.052237 0.171573 0.222188 -0.093436 0.146603 -0.415659 -0.102874 0.025095 -0.065242 -0.038815 0.013921 -0.188001 -0.135109 0.122335 0.071404 -0.355874 0.042723 -0.086687 -0.093526 0.163359 -0.115419 0.055750 0.131925 0.132374 0.203897 -0.211285 0.049556 -0.150523 -0.044264 -0.160003 0.222029 -0.080606 0.342200 0.190025 -0.211455 -0.052748 0.004478 0.127364 -0.136039 -0.208112 0.291550 -0.035118 -0.209673 -0.307821 0.178405 0.192891 -0.146174 -0.131999 -0.176961 0.237118 0.071543 -0.006380 -0.228072 0.190558 0.174323 -0.150389 0.244249 -0.215400 0.079639 -0.112426 -0.000445 0.232062 0.252167 -0.251505 -0.113072 0.180975 0.119521 -0.165147 -0.243135 0.166370 0.136098 -0.053228 0.001271 -0.302805 -0.070839 -0.043200 -0.186686 -0.035915 0.212635 -0.053373 0.262854 0.204231 -0.070239 -0.017379 0.096764 -0.037133 0.128748 -0.071612 -0.149179 -0.026257 -0.115685 0.175327 -0.005292 0.046367 0.140650 -0.148508 -0.085028 0.239319 0.161927 -0.083311 0.314656 -0.122128 -0.100012 -0.033479 0.159102 -0.082885 -0.110915 0.051549 0.032061 -0.227327 0.022029 0.196126 0.066001 0.417201 0.141918 -0.046763 -0.073814 -0.047632 -0.017359 -0.001429 -0.125596 0.055840 0.033643 0.082745 0.053001 0.365231 -0.115720 -0.172253 0.005555 0.045320 0.179048 0.101172 -0.082590 0.124362 0.081818 0.035519 -0.271788 0.202088 -0.105748 -0.124683 0.326138 -0.415990 -0.071920 0.088465 0.077043 -0.039653 0.038828 -0.165726 -0.011103 0.091853 -0.006176 0.199022 0.089897 -0.222875 -0.400492 0.091546 0.140687 0.155104 -0.041671 -0.175697 0.384942 -0.481150 -0.321160 -0.033211 0.032113 -0.148816 0.067869 0.060994 0.022071 -0.228195 -0.071800 -0.325016 -0.313301 0.028645 0.130213 -0.193227 0.136587 0.036905 -0.098735 0.199694 -0.042358 0.039044 -0.003340 0.031233 -0.079343 -0.113208 -0.208853 -0.276286 -0.002829 -0.127126 -0.372243 0.074930 0.187727 -0.322082 -0.188760 -0.041932 -0.013958 -0.129017 0.175415 -0.089963 -0.157074 -0.154167 -0.042954 -0.308686 -0.047100 -0.103879 0.375667 -0.029839 -0.233007 -0.065811 -0.075450 0.206199 0.154131 0.047658 0.160303 0.065235 0.208555 0.242129 0.216131 0.355241 0.024178 -0.236598 0.219979 -0.107816 -0.235067 0.255373 -0.008679 0.274476 0.213632 0.481153 0.073119 -0.101891 
“ -0.189601 -0.063125 0.245660 0.012640 -0.267401 -0.208238 -0.174116 0.187790 0.206416 0.408004 -0.094015 -0.050471 -0.084651 0.290044 -0.088882 0.335689 -0.236812 -0.305140 0.056452 -0.128582 0.086283 -0.055589 -0.115060 0.121993 -0.247471 -0.338237 -0.069550 -0.195517 -0.134922 0.276091 -0.145954 -0.041466 0.109181 -0.160269 -0.401498 0.105355 -0.166212 0.406251 -0.431715 0.430790 -0.028768 0.275739 0.155192 0.197427 -0.079064 0.061178 0.048983 0.012403 0.165759 0.116078 0.109614 0.160442 -0.237250 -0.362632 -0.097612 0.159679 0.194924 0.300163 -0.130757 -0.107208 0.155041 0.203162 -0.272186 -0.190500 -0.096774 -0.182803 0.204008 0.183983 -0.040714 0.306484 0.028593 -0.118893 0.077190 -0.391776 0.009684 0.097245 0.003965 -0.005859 0.026433 -0.186642 -0.115513 0.235458 0.072444 -0.190764 0.079052 -0.138495 -0.076316 0.106919 -0.184008 -0.004907 0.249128 0.207228 0.242265 -0.253061 0.099060 -0.011725 -0.136183 -0.145536 0.192799 -0.117047 0.340017 0.200763 -0.256875 -0.029489 0.031754 0.171130 -0.217032 -0.063514 0.236879 0.011529 -0.307155 -0.202218 0.301374 0.075459 -0.220577 -0.111854 -0.262473 0.178206 0.121344 -0.130246 -0.215173 0.231808 0.145356 -0.111417 0.172461 -0.122566 -0.061954 -0.113336 -0.017939 0.238592 0.227146 -0.289142 -0.104417 0.080090 0.000250 -0.021901 -0.262824 0.241805 0.154834 -0.047868 -0.097053 -0.347519 -0.185526 -0.018171 -0.161747 -0.002818 0.215315 -0.003428 0.117832 0.155215 0.017643 -0.028676 0.037997 -0.075658 0.119971 -0.082198 -0.174276 0.045946 0.000148 0.238723 0.088595 0.003113 0.090704 -0.212771 -0.190034 0.310699 0.157654 -0.141983 0.291365 -0.150890 -0.109707 0.080206 0.266275 0.006587 -0.182516 0.006090 0.112381 -0.227191 0.067755 0.246256 0.084310 0.375106 0.146368 -0.135084 0.047153 -0.132343 0.005815 -0.104873 -0.190616 0.168434 0.024615 0.064550 0.074058 0.461834 -0.193338 -0.042962 -0.068781 0.020249 0.103863 0.192274 -0.165890 0.028304 0.071529 0.127958 -0.267504 0.299222 -0.063853 -0.057074 0.299574 -0.428627 -0.003870 0.100639 0.078342 -0.108686 -0.035862 -0.128054 -0.057176 0.095976 0.095417 0.278549 0.162425 -0.228282 -0.284328 -0.004855 0.128245 0.169327 -0.169644 -0.210178 0.288103 -0.408585 -0.325612 -0.049505 0.104274 -0.235918 0.051291 0.102623 0.123116 -0.238403 -0.016506 -0.323839 -0.372827 -0.026208 0.141022 -0.294738 0.097864 -0.085298 -0.157947 0.169972 -0.085023 -0.029410 0.085493 -0.027541 -0.012856 -0.149641 -0.316796 -0.208299 0.181519 -0.163634 -0.072559 0.067446 0.115389 -0.305362 -0.077402 -0.085350 -0.000211 -0.105574 0.289179 -0.010189 -0.078245 -0.078782 -0.195023 -0.221161 -0.100110 -0.057497 0.384508 -0.269790 -0.357184 0.005363 0.039789 0.254123 0.053562 0.004020 0.137501 0.059589 0.172396 0.307920 0.247524 0.382911 -0.118806 -0.279044 0.120369 -0.153195 -0.231490 0.324592 -0.027907 0.236080 0.117498 0.295119 0.053361 -0.053090 
是 0.009795 -0.321207 0.115160 -0.214727 -0.290484 -0.068669 -0.245259 0.283159 0.124958 0.389297 -0.129661 -0.059939 0.008597 0.041951 0.008868 0.057667 0.085070 0.233667 0.168282 0.044398 -0.023384 -0.051414 0.299904 -0.306226 -0.309683 -0.108469 0.163669 -0.004288 0.152066 -0.020204 -0.128087 -0.280739 -0.056544 -0.288304 -0.115436 -0.146436 -0.305270 0.151916 -0.192116 0.449663 0.145015 0.036923 0.094576 -0.044347 0.002431 0.062914 -0.128729 -0.102563 0.293478 -0.185507 0.199895 -0.029499 -0.256114 -0.285774 0.000124 0.078685 0.253418 0.294281 -0.228838 0.049784 -0.074685 -0.135552 -0.059829 0.040562 0.231683 -0.017850 -0.040068 0.006041 0.030764 -0.017347 -0.280100 0.160176 0.289932 -0.104663 -0.064177 0.405272 -0.172455 -0.005103 -0.165759 -0.176735 0.151437 0.201258 0.273642 -0.339014 0.144551 0.084568 -0.362569 0.059640 0.079889 -0.164181 -0.099361 0.062555 0.070939 -0.276392 -0.306844 0.139422 -0.116558 0.099291 0.128213 -0.067100 0.313280 0.014495 0.339134 -0.273928 0.033065 0.230049 -0.062878 -0.148488 -0.038482 -0.066407 0.151410 -0.329942 -0.073157 0.332687 0.027945 -0.225351 -0.161893 0.101801 0.098929 -0.011098 -0.303246 0.071016 0.251044 -0.076596 0.184254 -0.293775 0.236147 -0.133744 0.049830 0.120972 -0.030758 0.050523 0.175153 0.007106 -0.268787 0.262729 -0.195717 0.111166 -0.049029 0.034905 -0.082880 -0.093283 -0.350605 0.061379 -0.122401 0.131578 -0.065197 0.104890 -0.134424 0.283396 -0.015729 0.111451 0.001132 0.303259 0.051846 -0.240706 -0.100324 -0.354032 0.011353 -0.091071 -0.080615 -0.130710 -0.170024 -0.081892 -0.122137 0.025528 -0.121101 -0.012782 -0.030918 -0.149359 -0.035839 -0.115262 0.272614 0.101092 0.000452 0.000842 0.015397 -0.069561 0.068290 0.091980 0.050386 0.041461 -0.106897 0.148029 -0.017812 0.180054 0.282041 0.117400 -0.035628 -0.154031 -0.048284 0.239350 -0.082896 0.176459 0.221732 0.088405 0.098333 0.176990 -0.141032 -0.053571 0.106553 0.061659 -0.136168 0.244847 -0.156049 -0.088087 -0.092837 0.149826 -0.046996 -0.276495 0.299767 0.157008 -0.059463 -0.193628 0.012156 -0.035329 0.112054 -0.003012 0.164039 0.226756 -0.031899 -0.000107 -0.162440 -0.091070 0.108348 0.247238 -0.133594 -0.034892 0.008784 -0.273501 -0.228693 -0.198660 -0.010766 -0.119050 0.075183 0.024634 0.005377 0.099399 0.282312 -0.180296 -0.070113 0.088272 0.110000 -0.095783 -0.293551 -0.088677 0.051140 -0.021793 -0.241878 0.231416 -0.158918 -0.219311 -0.032689 -0.276429 -0.308226 -0.155296 0.027331 -0.093215 -0.257215 -0.272799 -0.009709 -0.213690 0.034021 -0.209773 -0.144905 -0.192530 0.101855 0.087128 -0.163827 0.015721 -0.138894 -0.052929 0.026342 0.076896 0.207094 -0.092260 -0.310271 -0.146231 0.167784 0.090374 0.023713 0.115827 0.068947 0.063726 -0.235423 -0.083987 -0.031694 0.176736 -0.112124 0.093413 -0.307364 -0.168119 -0.124006 0.032542 -0.226955 0.187322 -0.000055 0.104465 0.033776 -0.038530 
一 0.252377 0.087847 -0.025434 -0.273145 -0.137560 -0.178742 -0.128460 0.182702 -0.124392 0.182049 0.142022 0.163541 -0.066635 -0.095711 0.018648 0.043427 0.068063 0.271086 -0.214768 0.078618 -0.150743 -0.274505 -0.057402 -0.357679 -0.095986 -0.100626 -0.070014 -0.113625 0.007705 -0.055749 -0.117474 -0.211222 -0.106042 -0.168894 -0.265443 0.249457 -0.335829 -0.255035 -0.166002 0.294369 0.171625 0.211569 0.122940 0.144213 0.119785 -0.358127 0.203618 -0.301372 -0.117686 0.084432 -0.101376 -0.115073 -0.240688 -0.496471 -0.170107 -0.272635 0.104763 0.074461 -0.280143 -0.153910 -0.022165 0.115988 -0.198617 0.356418 0.130858 0.107330 0.043817 0.044969 0.233287 -0.110339 -0.236804 -0.064152 -0.180672 0.091263 0.084421 -0.010362 -0.088034 -0.137234 0.112393 -0.035285 -0.110491 0.091190 0.371826 -0.262653 0.112619 -0.238311 -0.315141 0.200137 -0.100632 0.091034 -0.088099 0.198060 0.074292 0.149447 -0.246180 0.086156 0.068301 -0.116362 0.022069 -0.227611 0.301917 0.046782 0.032753 -0.257029 0.072948 0.362574 0.005624 0.341887 0.162698 -0.318398 0.077887 -0.217497 0.032476 -0.143070 -0.305476 0.177087 -0.510118 -0.138599 0.221773 0.264812 -0.294317 -0.104805 0.373461 0.078601 0.312528 0.047268 -0.180378 -0.055366 0.170678 0.250767 -0.319521 -0.137162 0.048180 -0.033303 0.203746 0.198563 0.184632 0.069972 0.127716 -0.067675 0.300601 0.077914 -0.344239 0.209903 0.079062 0.045955 0.162119 0.143190 0.271386 0.073876 0.139811 0.092688 0.420527 0.200500 -0.022670 0.044320 -0.379504 -0.128481 0.009229 0.303834 -0.078811 0.191605 -0.155863 -0.035721 -0.042548 0.397979 -0.208568 -0.012136 0.207013 0.268462 0.047479 -0.110817 0.265471 0.058700 0.185661 0.027693 0.016844 0.071793 -0.094862 0.002110 -0.087465 -0.294176 0.262288 0.186217 0.050953 0.037908 0.109541 -0.066570 -0.179711 -0.072485 -0.227725 0.527203 -0.005982 0.191973 0.024934 0.047769 -0.149908 0.052971 -0.027794 0.004846 -0.022065 -0.169722 0.170983 -0.017982 0.241402 -0.333459 0.126516 -0.096296 0.293386 -0.233756 0.252778 -0.068391 0.315674 -0.275361 -0.162341 0.194956 0.108337 -0.045664 0.185869 -0.010577 0.062941 0.157722 -0.222926 -0.148067 0.099378 0.496600 0.116746 -0.152350 0.013767 0.022600 -0.034127 -0.024892 0.207024 0.310527 -0.128405 -0.178289 -0.053019 -0.124404 0.304237 -0.557662 0.090015 -0.060315 0.047012 -0.211047 0.054156 -0.053203 0.241247 0.272163 -0.155811 0.341316 -0.053008 -0.063080 0.047409 -0.045443 -0.202836 -0.028338 0.246842 -0.170679 -0.077595 -0.107743 0.049071 -0.183547 0.114791 -0.042628 0.323496 -0.365645 0.078030 0.119136 -0.115947 -0.116393 -0.148777 -0.239258 0.040859 -0.033028 0.332189 -0.004534 -0.366468 -0.297183 0.077664 -0.050200 0.156346 0.055717 0.154876 -0.236233 -0.207297 0.353657 0.236630 0.155041 -0.065455 -0.143661 -0.414002 0.165838 -0.240360 0.318553 0.154027 -0.282819 -0.226523 0.047020 0.194409 0.108716 
（ -0.172076 0.146059 0.058829 -0.294573 -0.134009 -0.260968 0.057545 0.075399 0.088767 0.043856 -0.270991 -0.137653 -0.137437 -0.340352 0.409400 0.012872 -0.033250 -0.116049 0.232695 0.171047 -0.063927 0.117936 0.080040 -0.166988 0.088542 -0.168785 0.564985 -0.292807 -0.225069 0.207948 -0.149806 -0.082484 -0.635009 -0.070261 -0.156510 0.178952 -0.132393 0.043913 -0.056842 0.018034 -0.101430 -0.218357 -0.354783 -0.406256 -0.211294 0.063592 -0.376571 -0.340587 0.153018 0.010633 -0.174422 -0.030338 -0.149667 -0.468270 0.122214 0.185980 0.256485 0.296978 0.015556 0.033987 -0.266446 0.274851 0.336739 -0.168465 0.174388 -0.117726 -0.132650 0.036574 -0.028670 -0.021416 -0.093564 -0.247521 0.284941 -0.523080 0.076800 -0.135408 -0.164564 0.034565 0.079732 -0.118038 -0.183263 -0.563354 0.005624 -0.564464 0.146307 0.090640 -0.180130 -0.035960 0.548154 0.665789 -0.087710 -0.220370 0.347079 0.233718 0.327469 -0.266917 -0.574597 0.063920 0.256628 0.254349 -0.092878 -0.076274 -0.364213 0.079238 0.301453 0.266606 0.433503 -0.215121 -0.100774 0.016214 -0.040897 -0.104868 -0.378038 0.334953 -0.211476 0.229353 -0.218449 -0.025659 0.267478 0.009325 -0.373242 0.024315 0.127995 -0.017110 0.498026 -0.224738 0.002350 0.434543 0.038280 -0.159166 -0.056599 -0.160934 0.093630 0.096983 -0.199352 -0.189766 -0.315430 -0.003284 0.054725 0.168916 -0.191057 0.093157 0.153172 0.309314 -0.234511 0.151705 0.092543 0.100258 0.201792 0.239395 0.033458 0.183307 -0.163043 0.081148 -0.028600 -0.196062 -0.604086 0.250302 -0.188793 -0.232504 0.041400 -0.424648 0.238019 0.189292 -0.271732 0.001070 0.016052 -0.172282 -0.143197 0.117148 0.013279 -0.430074 -0.015511 0.146627 -0.029749 0.098440 -0.213158 -0.096698 0.061292 0.191198 -0.453095 -0.382290 -0.023390 0.114740 -0.005750 -0.074592 -0.057598 -0.268275 -0.121709 -0.374695 0.210877 0.354910 0.315679 0.609244 -0.367820 0.121910 -0.399882 -0.179855 0.184187 0.158051 -0.191416 0.198336 -0.073310 0.272861 -0.209407 -0.141958 -0.185432 0.044808 0.114400 -0.037803 0.166922 -0.179839 0.262443 -0.433306 0.059898 0.366913 0.085483 0.123089 0.191616 -0.118254 -0.003763 0.462446 -0.151933 -0.286530 -0.339623 -0.197598 0.031813 -0.179018 0.054146 -0.376242 0.121464 -0.053594 0.257131 -0.103345 -0.144067 -0.051448 0.004068 -0.217603 -0.110418 0.001320 0.073600 0.026997 0.204053 -0.309796 -0.462769 0.519870 0.223207 -0.023876 -0.100151 0.169315 0.043134 0.095777 0.144489 -0.063289 -0.262692 -0.349278 -0.343531 0.023318 -0.224720 -0.172716 0.395531 0.037126 -0.052205 -0.378008 0.208709 0.137101 -0.168435 -0.020959 -0.148682 -0.294443 0.137503 -0.369818 -0.017624 -0.036296 0.242458 0.223203 -0.052204 -0.222768 0.107305 0.231008 0.382354 -0.056527 0.399451 0.097239 0.373305 -0.176575 0.434205 0.285207 -0.324207 -0.126110 -0.147320 0.105382 -0.145546 0.096598 -0.044110 0.087658 0.053126 0.225397 0.068141 -0.658510 
） -0.019770 0.136132 -0.083146 -0.353496 -0.131909 -0.343641 0.066273 0.234422 0.144964 0.161308 -0.131110 -0.224604 -0.102147 -0.228124 0.202318 0.002539 -0.065743 -0.001520 0.225303 -0.008252 -0.104162 0.078237 0.028884 -0.215604 -0.027347 -0.331191 0.492081 -0.086825 -0.269068 0.184641 -0.224420 -0.101611 -0.717344 0.068568 -0.163969 0.026969 -0.085628 -0.130714 0.068283 0.034600 -0.017863 -0.174411 -0.191844 -0.457785 -0.120679 -0.014350 -0.384199 -0.283134 0.033657 -0.182164 0.063223 0.016000 -0.078842 -0.484516 0.124103 0.100269 0.118229 0.391723 0.095212 0.107749 -0.445111 0.186104 0.282816 0.072247 0.068061 -0.003047 -0.056407 0.100860 0.004944 -0.000635 -0.229276 -0.111549 0.216161 -0.335612 0.204663 -0.205876 -0.203355 0.081602 -0.013622 0.060192 0.006464 -0.502850 0.073972 -0.519758 0.170257 0.230193 -0.167382 -0.184113 0.640328 0.556219 -0.018643 -0.151111 0.512511 0.163099 0.305781 -0.272066 -0.584491 -0.010459 0.159903 0.312735 0.014466 0.079296 -0.203673 0.096524 0.341491 0.250120 0.367330 -0.091516 -0.026981 -0.116345 -0.155797 -0.107011 -0.410787 0.352038 -0.293641 0.219013 -0.210926 -0.183045 0.223922 -0.024095 -0.200584 0.005986 0.191634 0.133351 0.442427 -0.138004 0.040929 0.354188 -0.083419 -0.196474 0.113176 -0.106653 0.109781 -0.021996 -0.319175 -0.160440 -0.341572 -0.078584 -0.003035 0.166982 -0.219409 0.137546 0.010649 0.219836 -0.346342 0.256396 0.020114 0.146779 0.156310 0.161442 0.111743 0.193427 -0.297572 -0.083514 -0.096077 -0.129363 -0.484135 0.237753 -0.222727 -0.345976 0.163184 -0.198117 0.094994 -0.003674 -0.136808 -0.015647 -0.073422 -0.025664 -0.113284 0.043509 -0.056722 -0.203727 -0.076911 0.178428 -0.082730 -0.006346 -0.229183 -0.109931 -0.002653 0.263688 -0.339027 -0.313585 -0.003249 0.113599 0.007706 -0.140269 0.066428 -0.249667 -0.229777 -0.253923 0.208137 0.224634 0.362783 0.646499 -0.324879 0.048305 -0.544834 -0.250244 0.102740 0.163311 -0.327860 0.193341 -0.260899 0.217890 -0.062487 -0.165949 -0.151274 -0.083394 0.064553 -0.059235 0.284019 -0.131039 0.278696 -0.353361 -0.013806 0.291514 0.053248 0.098935 0.110358 -0.043629 0.109082 0.432630 0.072380 -0.024880 -0.267475 -0.238438 0.067545 -0.076840 -0.035930 -0.340313 0.057694 -0.096351 0.389854 -0.118005 -0.118778 -0.025168 -0.087588 -0.168777 -0.148987 0.067324 0.136850 -0.118221 0.121417 -0.436576 -0.464891 0.516259 0.178376 -0.009964 -0.020550 0.283415 0.198465 -0.054869 0.117749 -0.113163 -0.391427 -0.386866 -0.091881 0.080447 -0.232222 -0.343169 0.397666 -0.026395 -0.166778 -0.215781 0.236327 0.129700 -0.001311 0.015382 0.019304 -0.123832 0.011397 -0.341739 -0.064245 -0.017965 0.148073 0.035577 -0.246085 -0.155753 0.158875 0.264203 0.581414 -0.164002 0.383706 -0.085746 0.122285 -0.041417 0.418696 0.468777 -0.393471 -0.066477 -0.228982 0.182430 -0.158528 0.006837 0.058110 -0.031009 0.024417 0.132629 0.119191 -0.621603 
等 0.094167 0.002396 -0.083569 -0.451564 0.027431 0.061285 0.080225 0.371317 0.573184 0.072294 0.040063 0.099029 -0.382937 -0.216084 0.091136 0.087142 -0.260037 0.246337 -0.275292 0.019819 -0.042694 -0.422955 0.464251 -0.005955 -0.209120 0.189476 -0.009689 -0.264684 -0.150605 0.521042 0.058391 0.066020 -0.181158 0.154077 -0.319178 -0.257065 -0.158210 -0.076897 0.260197 -0.169198 -0.131046 0.323190 0.144274 -0.232250 -0.100497 0.073259 -0.173362 -0.094827 0.058285 -0.172502 -0.070203 -0.128730 -0.134637 -0.096092 0.292252 -0.116118 -0.021845 0.406779 0.181811 -0.152419 -0.131819 0.085200 0.028247 -0.016710 -0.170157 0.048797 -0.358672 0.073260 0.028100 0.076845 -0.049659 0.204682 -0.152713 0.136988 0.126613 0.269280 0.035070 0.311659 0.168972 -0.202094 -0.167985 0.153415 0.127215 -0.153698 0.106034 -0.042851 -0.131452 0.128734 0.062200 -0.371401 -0.016886 -0.359820 0.357392 0.052148 0.276077 -0.194947 0.094825 0.156745 0.046292 -0.227239 0.280566 -0.084624 -0.099247 -0.017772 -0.023880 0.099250 -0.013568 -0.160576 -0.003434 -0.211034 -0.206571 0.138094 0.023747 0.053391 0.492665 -0.064709 -0.080760 -0.276283 0.517172 0.202025 -0.146869 0.164764 -0.135328 -0.238609 0.128621 -0.161026 0.166617 0.013098 -0.068671 -0.019936 0.090474 0.019356 -0.236500 0.077700 -0.397365 0.343822 -0.499554 0.116158 0.073174 -0.381043 0.109640 -0.077594 -0.159948 -0.111485 -0.020620 0.266151 -0.010394 -0.035125 -0.029972 0.066700 -0.316433 0.282173 0.012754 0.196673 -0.278958 -0.352361 0.214548 -0.181169 -0.246678 0.402888 -0.257618 -0.221269 -0.060429 0.154069 -0.001756 0.144159 0.052543 -0.088045 0.024581 0.307893 -0.246694 -0.145691 -0.284358 0.074571 0.040455 0.128136 -0.629164 0.081332 -0.227974 -0.140752 0.022623 -0.157488 0.291394 -0.220680 -0.354827 -0.305202 0.159656 -0.284958 -0.165863 0.148963 0.040262 -0.381635 0.073651 0.083957 -0.218246 -0.100734 -0.074780 0.252550 0.438820 -0.060533 0.195076 -0.095390 -0.054245 0.299458 -0.260185 -0.155040 -0.003644 -0.171512 0.031696 -0.235981 0.410422 -0.066609 -0.136469 -0.094153 0.063950 0.293688 -0.143371 0.434410 -0.247922 0.105827 0.069672 0.340061 -0.322128 -0.277930 -0.012252 -0.118410 -0.175980 -0.019555 0.206520 -0.088674 -0.122864 -0.217291 0.188486 0.255731 -0.164766 0.187307 -0.023458 -0.043528 0.133796 0.155434 -0.133665 -0.216474 0.079808 -0.051238 -0.123923 0.367404 0.047468 -0.133904 0.133132 0.398076 -0.304401 0.407007 -0.037435 -0.432667 -0.044130 -0.000747 0.197618 0.203276 0.065432 -0.178749 -0.048362 0.293630 0.054528 0.233276 -0.122860 -0.369281 0.159535 0.172463 -0.145400 -0.177135 0.016350 -0.130633 0.143848 -0.370496 -0.189936 -0.190813 -0.366337 0.145057 -0.435935 0.133857 0.061058 0.167528 -0.025660 -0.052569 0.087083 -0.032952 -0.192579 0.299978 0.270473 -0.098882 -0.334364 -0.130928 0.031296 0.409809 -0.170259 0.131383 0.255575 0.259662 0.057678 0.059738 
： -0.144820 -0.128516 -0.089602 -0.562871 -0.347293 -0.183380 0.176803 0.404112 0.002141 0.227870 -0.161642 0.088177 0.016367 -0.188953 -0.044620 0.273096 0.049555 0.047619 -0.195053 -0.267779 -0.032221 -0.047855 0.034311 0.129624 -0.043244 -0.074754 -0.089644 -0.002183 -0.028663 0.328754 -0.187504 -0.275209 -0.450360 0.118711 -0.061623 0.095719 -0.231948 0.219702 -0.314091 0.373524 -0.055633 0.155771 -0.076222 -0.048098 -0.131757 0.010084 -0.019949 0.091493 -0.042578 0.514743 0.083270 0.229612 0.167540 -0.298045 0.332456 0.114011 0.162110 0.565021 0.021485 0.167231 -0.059059 0.150628 0.045970 0.001634 0.049814 0.020234 0.265528 0.091716 0.176714 0.190873 -0.427216 -0.167414 0.165320 -0.137166 0.044556 0.310706 0.139731 0.089347 0.006521 0.110482 0.077927 0.033506 0.430080 -0.162022 0.219666 0.025594 -0.215970 0.044616 0.218479 0.119009 -0.081386 -0.026193 0.210171 0.176681 -0.016972 -0.125960 -0.193064 -0.039792 0.043001 -0.358166 0.195547 0.261501 -0.095426 -0.114126 0.216787 0.144231 0.153756 0.025475 -0.046950 -0.084541 -0.145709 -0.033927 -0.077386 -0.176865 -0.086312 0.040633 -0.547654 -0.119340 0.143391 -0.200531 -0.087922 0.251334 -0.138643 -0.200670 0.267309 -0.161131 -0.223179 0.166551 0.267511 0.241951 0.181903 -0.175902 -0.363498 0.124006 0.013935 -0.030483 -0.102803 -0.052287 0.255584 0.117034 0.023051 -0.203965 -0.427490 -0.041932 -0.069302 -0.012546 0.104146 -0.013446 -0.128354 0.055415 0.247780 -0.029641 -0.260924 0.113934 0.029560 0.102395 -0.337276 -0.032837 -0.189519 -0.042184 -0.069113 0.002039 -0.300969 0.095803 -0.133965 0.044954 -0.329618 -0.183913 0.009153 -0.278960 0.032371 0.274974 0.303685 0.621325 0.064897 0.245782 0.302174 -0.136240 0.140675 0.114791 0.046653 -0.147445 -0.169949 0.462036 -0.028460 -0.094921 0.045662 0.177899 -0.063631 0.439809 -0.012870 0.195667 0.205457 -0.072836 0.096382 0.020848 -0.264931 0.008964 -0.159232 0.113341 0.266897 0.089276 -0.111942 -0.011384 -0.153761 -0.089171 0.112494 0.120014 0.084407 -0.196675 0.328818 -0.006638 -0.065415 -0.081451 -0.336139 0.166678 -0.312256 0.130300 -0.300750 0.181203 -0.168659 0.099556 0.224287 -0.041983 -0.223558 -0.304181 0.034641 0.090568 0.327477 -0.355120 -0.152895 -0.119410 0.096975 0.132343 -0.033725 0.085318 0.162920 0.134375 0.098152 -0.322104 -0.078456 -0.149743 -0.049288 -0.482996 0.074416 -0.009738 -0.112133 0.104447 -0.104331 -0.295283 -0.043209 -0.170705 0.436678 -0.358481 -0.194499 -0.013459 -0.123485 0.077761 0.260204 -0.017700 0.233834 -0.236293 0.203643 0.117569 0.042585 0.028258 0.624955 0.126383 0.336440 -0.052012 -0.295990 -0.223370 -0.095493 -0.199462 0.073546 -0.357217 -0.452229 -0.148160 0.374632 0.227755 -0.062782 0.116143 0.261954 -0.072696 0.038006 0.258667 0.162421 0.408562 -0.322318 -0.051285 -0.057951 0.056438 -0.288254 0.095409 -0.231006 0.135272 -0.037699 -0.065297 0.048550 -0.091714 
为 0.061067 -0.326622 -0.430153 0.018415 -0.063157 0.245886 0.398613 0.483121 0.166529 0.423164 -0.172692 0.023143 -0.075358 -0.230865 0.574225 0.275067 -0.074311 0.021577 -0.139711 -0.080743 -0.091013 0.053180 -0.077115 -0.227103 -0.019178 -0.147579 -0.033082 -0.108622 0.115225 0.070576 -0.089672 0.032873 -0.189898 0.084065 -0.063272 0.108719 -0.072196 0.053820 0.050162 0.418531 0.194731 0.134758 -0.178668 -0.058193 -0.180445 0.264232 0.078850 -0.123199 -0.140312 0.053800 -0.212030 -0.002173 -0.061164 -0.165865 0.279272 0.160719 0.372038 0.215988 0.007417 -0.148943 -0.312017 0.009528 0.424695 -0.467768 0.129751 0.111035 -0.143179 0.187071 0.193046 0.208987 -0.415208 -0.167346 0.266799 -0.093458 0.110272 0.120570 0.184721 0.296297 -0.061414 -0.128304 0.039678 -0.004451 -0.043239 -0.362639 0.044832 -0.019956 0.261237 0.125027 0.006671 0.008011 0.135182 0.246612 0.145843 -0.093773 -0.108441 0.119207 0.128461 0.272825 0.016212 0.089003 0.215242 -0.378945 -0.182849 -0.144421 0.112514 0.016173 -0.271117 -0.441298 -0.001985 0.231379 -0.065412 -0.041294 0.027912 0.038238 0.073167 -0.088587 -0.331350 -0.085275 0.259670 -0.017768 -0.141467 -0.229099 -0.121885 -0.018781 -0.100597 -0.319640 0.226294 -0.338150 0.000396 0.149034 -0.045629 0.156605 0.062661 0.297748 0.024187 0.370568 -0.424135 0.243068 0.043941 -0.319993 0.068191 0.129053 -0.144920 0.150267 0.062509 0.081256 0.157196 0.055895 0.101606 -0.127014 -0.192122 -0.106724 0.068594 0.193673 -0.035811 -0.171290 -0.198286 -0.501728 0.110887 0.109411 0.207084 -0.281986 0.329860 -0.422445 -0.203334 0.127360 0.080043 0.040251 0.169130 -0.057550 0.049985 -0.110432 0.361611 0.495219 0.259914 -0.168285 0.390203 -0.202496 -0.122087 -0.191815 -0.167961 0.048435 -0.015466 0.138743 0.125557 0.028388 0.214263 0.096915 -0.090485 -0.222027 -0.106081 0.459482 0.120221 0.335867 -0.111564 -0.102809 -0.159563 -0.071097 0.148621 -0.227291 0.059478 -0.125578 -0.241500 0.175870 -0.075582 -0.093054 -0.247525 0.043533 -0.136578 -0.007865 0.444096 0.476552 0.163691 -0.214231 -0.101835 -0.130931 -0.026575 0.223709 -0.453606 -0.028799 0.004143 -0.030781 -0.047183 -0.124234 0.168164 0.413893 0.071589 -0.150206 0.115072 -0.105608 -0.326203 -0.419208 -0.111680 -0.265036 -0.218303 0.103150 0.172131 -0.098352 0.033552 -0.451619 0.160611 -0.200574 -0.129421 0.397511 -0.407398 -0.059606 0.104220 -0.153498 0.190965 0.012443 -0.437617 -0.045889 -0.006143 -0.438143 0.053196 0.210073 -0.011296 -0.295503 0.096690 -0.065249 -0.042976 -0.283926 0.082289 -0.382513 -0.139222 -0.387175 -0.176932 0.015158 0.220788 -0.139322 -0.083692 -0.008324 0.046398 0.059849 -0.183353 -0.086399 -0.494384 0.256983 -0.398777 0.071674 0.251169 -0.073214 0.023277 0.016250 -0.005552 0.076340 0.012491 0.040272 -0.317561 0.199872 -0.155411 0.005781 -0.092213 -0.241178 0.092695 0.461138 -0.142331 -0.043907 -0.577587 -0.147951 
年 -0.144285 -0.196335 0.031275 -0.163990 -0.228771 -0.322611 -0.185581 -0.408569 0.297973 0.137396 -0.502655 0.134504 -0.126998 0.005506 0.308528 0.205856 0.267338 -0.006118 0.221445 0.269793 -0.103707 -0.347742 0.419176 -0.218423 -0.195618 -0.401985 -0.012096 -0.053612 0.867527 0.209490 0.216236 -0.234334 -0.620991 -0.161315 -0.304088 0.140831 -0.345053 -0.121958 0.020298 0.138025 0.076497 0.054765 -0.262913 -0.106060 -0.058643 0.202178 0.194079 0.086443 0.046205 -0.329156 0.052316 -0.149332 -0.246957 -0.417878 0.208592 0.262345 0.763479 0.124323 0.333090 -0.028364 0.299532 0.346338 0.161673 0.208208 -0.062547 0.282999 -0.210981 0.055624 -0.031560 -0.031178 0.004003 0.037618 -0.347553 -0.045614 0.039031 0.347177 0.108152 -0.134951 -0.198044 0.021297 -0.003550 -0.658441 0.174221 -0.322078 -0.314526 0.089798 0.114689 0.248380 0.076154 -0.256811 0.122160 0.143547 -0.028132 0.219775 -0.230570 -0.329817 0.121373 0.160850 0.303618 -0.165118 0.156784 -0.251257 -0.043838 -0.113746 0.023483 0.257633 -0.034747 -0.139622 -0.184698 -0.237083 -0.087688 -0.079476 -0.480221 0.202137 0.130009 0.136780 -0.166322 -0.042560 0.339454 0.068038 -0.298160 0.143019 0.312108 -0.161357 0.031516 0.125837 -0.005425 0.106155 0.030671 -0.319108 0.086667 -0.100717 0.092752 0.214565 0.220197 0.256573 -0.400192 0.086277 0.008690 0.145604 0.111764 -0.239332 0.038977 0.245808 -0.170851 -0.123030 0.185982 -0.230437 0.219016 -0.047313 0.420144 -0.049163 0.264705 0.082245 0.009507 -0.024687 -0.139756 0.017127 0.094823 0.250448 -0.378218 0.041743 -0.199827 -0.069716 -0.430161 0.450731 -0.190625 -0.281977 -0.056936 -0.165957 -0.323346 -0.483596 0.248698 0.004277 0.055699 -0.173491 0.017802 -0.132650 -0.042116 0.248606 0.013530 -0.050894 -0.214157 -0.273674 0.342675 0.343522 0.283727 -0.293925 -0.034336 0.015080 0.046245 0.269258 0.071060 0.061038 0.313640 0.076730 -0.243140 -0.094380 -0.131287 0.168254 0.072400 -0.389675 -0.057223 0.199216 -0.189043 -0.086870 0.145715 -0.156306 0.125526 -0.113337 0.203852 -0.096129 -0.074100 -0.234147 -0.146676 0.090696 0.005713 0.325282 -0.067082 0.217216 -0.061290 -0.132196 0.115883 0.179228 0.393865 -0.061745 0.266514 -0.030626 -0.027854 -0.241220 -0.135012 -0.193129 0.175613 -0.357629 0.016940 -0.279425 -0.198638 -0.284932 0.269154 -0.437832 0.165235 0.099882 0.132194 -0.069725 -0.135390 -0.048440 -0.111078 -0.251837 0.091706 0.152019 -0.161577 -0.150204 -0.051679 0.198865 -0.013274 0.058161 -0.188764 -0.014157 -0.128995 -0.016203 -0.066005 -0.053621 -0.197954 -0.132363 0.475714 0.057050 0.430311 0.322573 -0.127989 -0.042444 0.067295 -0.119150 0.228260 -0.117237 -0.267567 -0.319948 -0.013791 -0.182342 -0.276555 0.264756 0.326189 0.246671 -0.006018 -0.283863 -0.070707 -0.299498 0.071645 0.378722 -0.251628 0.026501 -0.069808 -0.227051 0.032826 -0.150591 -0.280003 0.169755 -0.077844 -0.000075 -0.364572 -0.371372 
对 0.024591 -0.190553 0.083187 -0.140530 -0.055805 -0.249742 -0.041640 0.083045 0.176468 -0.106868 -0.021669 0.239002 0.016955 -0.083474 0.063923 0.035269 -0.077907 0.257035 -0.069467 -0.236160 -0.151513 0.051901 -0.109979 -0.121276 -0.271429 -0.002456 -0.311817 -0.095134 0.418980 0.349584 0.141834 -0.044295 0.020139 -0.058603 -0.239258 -0.042553 0.100533 0.134995 -0.154840 0.190485 0.117672 0.027298 0.141859 -0.175973 -0.303897 0.082561 -0.161786 -0.183117 -0.092378 -0.095468 0.039333 0.135854 0.006281 0.135599 -0.003711 0.031892 -0.133856 0.095798 -0.242965 0.161031 0.005510 0.379733 -0.069632 -0.195634 0.453503 -0.069119 -0.127817 0.044532 0.055211 0.072956 -0.356716 0.110359 0.014458 -0.030314 -0.199056 0.210125 0.037487 -0.048809 0.100268 -0.162291 -0.257241 0.106227 0.191892 -0.242521 0.007063 -0.097063 0.030407 -0.024211 -0.059041 0.228857 0.064082 0.011804 0.155380 -0.185937 -0.188502 -0.156371 -0.118383 0.038446 0.178579 0.086451 0.345864 0.166582 -0.101551 -0.044149 0.154310 0.130551 0.057124 -0.039056 -0.164984 -0.146178 0.141667 -0.133416 -0.143071 0.027724 0.036971 -0.095047 0.196870 0.059236 0.443487 -0.132415 -0.110472 0.162732 0.176412 -0.322476 0.008359 -0.142534 0.057258 -0.173747 0.175178 0.242276 0.130935 0.021178 0.144823 0.040665 -0.224126 -0.076524 -0.326088 0.014020 -0.030739 -0.286769 0.091964 -0.143920 -0.374397 0.247199 -0.187617 0.176010 -0.196756 0.007204 -0.062876 0.462314 -0.136387 -0.105663 -0.026762 0.160494 -0.349964 -0.311357 0.209562 -0.131895 0.073794 0.097458 -0.138937 -0.273884 -0.078439 -0.108928 0.021150 0.430341 0.125457 0.060297 0.365771 0.145123 0.057189 -0.213112 0.164054 0.476454 -0.093555 0.035298 0.074130 -0.102011 0.173676 -0.250300 0.253125 0.132532 0.067264 0.000952 0.072137 -0.003145 0.414479 0.057480 0.024017 -0.194722 0.024908 0.096372 0.329937 0.234624 0.113180 -0.332716 0.185642 0.276569 0.014223 -0.104989 0.192988 -0.159244 -0.112136 0.128859 -0.353499 -0.208285 -0.041084 -0.029997 0.118413 0.086242 0.254771 0.356216 0.115443 -0.105201 0.111853 -0.000702 -0.030467 0.229016 -0.148902 0.148927 0.500047 0.182750 0.019276 0.235421 0.081397 0.041282 -0.214721 0.304950 -0.021259 0.047787 0.022726 0.022994 -0.102205 -0.253373 0.148412 -0.131423 0.226592 -0.244462 0.319298 -0.421658 -0.075998 -0.212358 -0.006135 -0.082870 0.126133 0.124049 0.083799 0.065289 -0.087729 0.402336 -0.087566 -0.124682 0.221022 -0.031403 -0.275455 0.081070 0.018769 0.134123 0.022415 -0.413175 0.073163 -0.454416 0.233651 -0.239287 0.204013 -0.128994 0.251306 0.246658 0.071878 0.044315 -0.034179 -0.102528 0.021385 -0.109034 0.140250 -0.006793 -0.326726 0.095376 0.013549 0.085689 -0.044628 -0.013134 0.147254 -0.145189 -0.205352 0.226046 0.186581 0.364230 -0.121449 0.172043 -0.138134 0.148039 0.096429 0.187894 0.067880 -0.031124 0.000200 0.100708 -0.145438 -0.047456 
月 -0.098241 0.045753 -0.232241 0.038143 0.229186 0.171426 0.241814 -0.232423 0.433965 0.062335 -0.381498 -0.047955 0.081142 -0.420110 -0.009666 -0.323494 -0.049696 -0.126877 0.011206 -0.065351 -0.338076 -0.160745 0.430586 -0.231005 0.066129 -0.312224 -0.243260 -0.050565 0.401771 0.128635 0.407390 0.124682 -0.343294 0.056159 -0.321645 0.387265 0.079843 -0.232178 -0.057209 -0.283438 -0.241353 0.146486 -0.015600 -0.217090 -0.050974 -0.009229 -0.332984 0.048425 0.063605 -0.286265 -0.341658 0.189165 -0.011702 -0.476686 0.280068 0.307167 0.200634 0.442340 -0.109806 0.078151 0.363848 0.345988 0.193580 -0.389208 0.093534 -0.221424 -0.372483 -0.048284 0.049855 -0.032010 -0.117776 -0.127558 -0.142276 -0.321486 0.019301 0.252983 -0.027755 0.012360 -0.163007 -0.206547 -0.124198 -0.237750 0.153689 -0.161719 0.025749 0.309356 -0.195805 0.204922 0.009916 -0.069363 0.013787 0.347343 0.013183 0.140370 -0.074608 -0.199219 -0.179010 -0.134499 -0.131294 -0.220267 0.300533 -0.053472 0.026143 0.080151 -0.115102 0.294624 0.287155 -0.352908 -0.333615 -0.613389 0.004346 -0.099285 -0.404001 0.151576 -0.266412 -0.115892 -0.425184 -0.421686 -0.133604 0.158099 -0.214212 0.065735 0.239386 -0.289154 0.248760 0.298609 -0.187968 0.371509 0.272017 -0.081246 -0.321625 -0.017032 0.141477 -0.254590 0.104184 0.368278 -0.346839 -0.131552 -0.145709 0.258603 -0.061400 -0.170413 0.040803 0.441555 0.124922 0.182416 -0.119100 -0.409721 0.227770 -0.083090 0.382011 -0.045605 0.041069 0.285075 -0.159789 -0.134555 -0.518507 -0.060569 0.274070 -0.117937 -0.251301 0.108420 -0.255345 0.166918 -0.235102 0.669399 -0.212610 -0.295918 -0.466685 -0.321481 -0.401140 -0.154432 0.397312 0.353631 0.059624 0.233793 0.099507 0.094499 0.148484 0.468925 -0.227066 0.003071 -0.272806 -0.365470 0.118732 0.308177 0.349598 -0.230565 0.023566 -0.243736 0.086829 0.175971 0.221391 -0.038797 -0.338721 -0.098713 -0.213271 0.242065 0.091132 -0.232476 -0.051567 -0.388329 -0.075279 0.222056 -0.236683 0.026417 0.054041 -0.189636 0.450081 -0.007716 0.528406 -0.476479 -0.079239 -0.103838 -0.154532 0.024262 -0.163689 0.191158 -0.054303 0.275718 -0.086918 0.240096 0.219036 -0.186767 0.249494 -0.407637 0.610296 -0.336617 0.325023 -0.474873 0.035049 0.023142 0.231387 -0.460048 0.352735 -0.074461 0.188509 0.086312 0.066816 -0.300576 0.105215 0.235339 -0.060651 -0.068473 -0.054914 0.194004 0.180248 -0.177694 0.190841 0.397506 -0.242073 -0.115257 0.272368 -0.081152 -0.190700 -0.296307 -0.172822 -0.210416 -0.132462 0.091685 0.397899 -0.121132 -0.337444 -0.146054 0.405407 -0.333416 0.270635 0.249209 -0.411771 -0.187281 -0.136224 -0.183485 0.011988 -0.229128 -0.154891 0.018558 -0.448186 0.486900 -0.536222 0.171494 -0.036246 0.426721 0.024364 0.197559 0.130287 0.239172 0.124145 0.288301 -0.384188 0.370339 0.074566 -0.532353 -0.000739 -0.101798 -0.112601 0.228427 0.012020 -0.028870 -0.153775 0.127010 
有 0.009865 -0.249511 -0.192893 -0.279247 -0.166540 0.285190 -0.079511 0.465441 -0.040935 0.314055 -0.044401 -0.091947 -0.142238 0.238790 0.088712 0.234268 0.184242 0.157800 -0.008610 -0.290240 -0.000078 0.094471 -0.222960 -0.027986 -0.294487 -0.201216 0.088552 -0.028386 0.152328 0.309951 0.152968 -0.104181 -0.277084 -0.110632 -0.087279 0.013601 -0.221622 -0.046692 -0.309362 0.095413 0.145820 -0.062794 -0.336771 -0.069553 -0.098648 0.031649 -0.171431 -0.086908 0.115392 0.271896 0.295170 0.308642 0.148938 -0.149693 0.258534 -0.109520 0.049882 -0.078328 0.114161 -0.016868 0.193122 0.158694 -0.387150 0.247877 -0.061681 -0.224031 -0.599069 0.228358 -0.130783 -0.280920 -0.155921 0.120286 0.038793 0.332765 -0.066844 0.024278 -0.019743 -0.047458 -0.227701 -0.351045 -0.352999 0.158072 0.499388 -0.198067 0.185712 0.243929 -0.282543 0.257090 -0.205356 -0.341971 -0.116914 0.032525 -0.147229 -0.095264 -0.220697 0.018386 -0.121372 -0.046644 -0.242678 0.121712 0.318919 0.079150 0.004217 -0.145848 0.266325 0.489088 -0.073358 -0.026388 0.014954 -0.331176 0.026832 -0.357924 0.064030 -0.335556 -0.314456 -0.190930 -0.010464 -0.056339 0.336734 0.199472 -0.388093 0.132107 -0.090418 -0.316849 -0.041928 0.062837 -0.216598 -0.264142 -0.038980 -0.242303 0.193902 0.044057 -0.208645 -0.105919 -0.216932 0.255037 -0.209552 0.083872 -0.417025 -0.030014 0.084600 0.000670 -0.126544 0.350679 0.027308 0.271717 -0.031261 0.158414 0.037265 0.053636 -0.247219 -0.061701 0.029656 0.413558 0.446416 -0.145939 -0.205656 -0.028582 -0.127388 0.259595 -0.115479 -0.119424 0.012516 0.096120 -0.464725 0.062411 -0.152563 -0.151398 0.449607 -0.305499 -0.119279 -0.363202 0.061676 0.194395 0.121955 0.160470 -0.208948 0.002555 0.094288 0.188642 -0.098277 -0.093677 0.515614 0.335150 -0.186718 -0.047191 -0.026827 0.282280 0.186315 0.087718 0.132405 0.350965 0.299641 0.184111 0.058573 -0.109610 0.098458 0.223820 0.200509 -0.111199 0.468930 -0.027535 -0.016154 -0.000021 -0.091998 -0.216581 -0.170655 0.200173 -0.239024 -0.233551 0.302888 0.054263 0.077490 -0.096661 -0.044316 0.167615 -0.066461 0.142358 -0.061635 0.063070 0.181216 0.097677 -0.154261 -0.054621 0.175912 0.029462 -0.134049 -0.259095 0.049728 -0.248000 0.059994 -0.228330 -0.155632 0.078417 0.236305 0.107864 0.094099 0.014184 0.024337 -0.294079 0.078069 -0.142516 0.162005 0.032795 -0.103713 0.008442 0.262730 -0.310423 -0.024299 0.004723 -0.254433 0.220892 -0.019850 -0.148295 0.087588 0.163226 0.039577 -0.361461 0.292887 -0.159498 -0.077532 -0.255848 -0.034485 -0.030802 -0.008479 -0.063972 -0.047225 -0.034494 -0.065172 -0.324886 0.366726 0.092897 -0.016996 -0.268952 0.118378 0.123750 -0.355110 -0.055432 0.248498 -0.029487 0.028263 0.130632 0.183457 -0.103035 0.112610 0.048969 -0.278449 0.198835 -0.098113 0.077937 0.099901 0.046323 -0.311572 -0.257835 0.028250 -0.332264 0.067023 0.015031 0.172315 -0.117502 
上 -0.029224 0.030711 -0.523686 0.115750 -0.061584 0.292223 -0.079534 0.430192 0.204756 0.136394 -0.129790 -0.123518 -0.349122 -0.171057 -0.064169 0.051310 0.072371 0.279599 0.266881 0.029769 -0.125973 0.072611 0.285530 -0.224293 -0.394510 0.113914 0.296331 -0.123056 -0.036735 0.103760 0.308215 -0.069610 0.115797 0.332436 0.237633 0.009271 -0.290216 0.212376 -0.043419 0.342370 0.305635 0.305990 0.004461 0.303856 0.380139 -0.326977 0.094622 0.223535 0.055730 0.278515 0.037549 -0.426003 -0.230470 0.094578 0.058080 0.310611 0.222671 0.171092 -0.115974 -0.084055 -0.011295 0.214403 -0.270415 -0.264357 -0.148696 0.256479 -0.280575 -0.044624 0.058592 -0.042248 0.104582 0.131867 0.121996 -0.153707 0.000917 -0.117007 -0.239676 0.127524 0.157398 -0.226368 0.024837 -0.097421 0.150125 -0.409933 -0.519265 0.127578 -0.580234 0.161864 -0.035722 0.076231 0.187021 0.308560 0.064202 -0.078840 -0.256412 -0.019181 -0.326217 0.224134 -0.230147 -0.071422 -0.153935 0.272569 0.376182 0.318442 -0.270387 0.155942 -0.002763 -0.161654 0.186724 -0.063649 0.395541 -0.017009 -0.102186 0.084490 0.019204 0.040438 0.058977 0.162861 0.399982 0.009046 -0.302867 0.646648 0.236521 -0.274152 0.232940 0.149462 0.031663 0.145318 0.167601 0.023848 -0.070535 -0.481888 -0.459988 -0.011723 -0.241764 0.028191 -0.425815 0.246791 -0.381215 0.153307 0.039699 -0.161669 -0.005701 0.058685 0.074039 0.106594 0.190781 -0.048069 -0.124121 0.123644 -0.077482 0.149979 -0.327005 0.028232 -0.458006 0.187263 0.079386 -0.231612 -0.365618 0.511928 -0.055434 -0.132811 -0.099239 0.296637 0.103733 0.193630 0.010466 -0.020297 0.552577 0.265977 -0.084947 -0.061053 0.265626 -0.237530 -0.256884 0.350164 -0.140123 -0.195952 0.075545 0.023637 -0.269124 -0.398001 0.115657 0.078974 -0.029678 0.152110 0.083170 -0.054796 -0.266023 0.172323 -0.066179 0.280299 -0.087801 0.216062 -0.047717 -0.047986 0.168176 -0.104267 0.083781 0.431344 0.098031 -0.230278 0.077354 0.088469 0.122907 -0.217187 0.187224 0.205442 0.283081 -0.341169 0.401449 -0.239031 0.271458 0.046191 -0.007328 -0.079503 0.021981 0.025591 -0.221263 -0.268621 0.091175 0.087680 -0.365346 -0.096006 0.181352 0.374140 0.290956 -0.155850 -0.270151 -0.151121 -0.208023 -0.006228 0.469030 0.038912 0.004258 0.677239 0.006367 0.121894 0.677791 -0.308641 -0.137647 -0.470045 -0.154240 0.359806 -0.119605 -0.289994 0.074405 0.102019 -0.180555 0.102146 -0.292952 -0.128684 0.171856 0.055229 0.200962 0.012931 0.138279 0.058576 -0.138761 -0.238067 0.468234 -0.254166 0.133385 0.069789 -0.039916 0.064805 -0.259322 0.292195 -0.372914 -0.064067 -0.240755 -0.146326 0.148028 -0.318582 0.027111 -0.290085 -0.358600 0.050909 -0.256184 0.064690 -0.207914 0.044782 -0.325969 0.080636 -0.253258 0.431091 -0.072439 0.229423 -0.368584 -0.512549 -0.295320 0.162210 -0.158413 0.040860 0.145605 -0.276538 -0.012884 -0.117298 -0.068254 0.117142 
中 -0.238874 -0.139876 -0.343933 -0.040359 0.065973 -0.111052 0.155163 -0.149596 0.311548 -0.088745 -0.028526 0.370221 -0.076968 0.018907 0.227678 0.157494 -0.132456 0.383126 0.443650 0.256487 -0.285028 -0.194952 -0.013056 -0.441866 -0.154164 -0.026848 -0.135597 -0.095295 0.101668 0.195918 -0.150963 0.094474 0.059735 0.229662 -0.511548 -0.162031 -0.212724 0.017932 -0.293188 0.005283 0.040142 0.310002 -0.012282 0.213916 -0.149406 -0.074819 -0.033055 -0.241035 0.015265 0.193049 -0.108339 0.118132 -0.148628 -0.289139 0.162190 0.163364 0.143353 0.006517 0.154966 0.001752 0.275931 0.325594 0.080454 -0.032878 0.094347 0.121322 0.572556 0.291898 -0.060926 -0.115115 0.036000 -0.056364 0.280040 -0.011166 0.245002 -0.103044 0.159579 -0.074420 0.172698 -0.205338 0.161978 0.076647 0.323129 -0.055845 0.084554 0.169959 -0.289105 -0.042892 -0.390664 -0.073803 0.069597 -0.121246 -0.147615 0.093700 0.009770 0.516982 -0.187126 0.196730 -0.313164 0.273821 0.000268 -0.273934 0.088508 -0.179445 0.103483 -0.067311 -0.086449 -0.196999 0.159725 -0.082923 -0.089111 -0.155984 -0.314777 -0.105828 0.288950 0.261733 -0.159034 0.117427 0.359900 -0.332800 -0.269006 0.215525 0.087294 -0.123725 0.078637 -0.472560 0.163452 -0.067540 0.204424 0.396131 -0.010934 -0.233791 -0.003227 -0.163383 0.184481 0.159064 -0.409708 0.327658 0.163691 -0.136001 0.276637 -0.307238 -0.193972 0.071142 0.037537 0.497846 0.052839 0.213976 0.083920 -0.156727 0.098059 0.119381 -0.042806 0.269566 0.211373 -0.595140 0.205875 -0.306615 -0.230575 0.302682 -0.268918 -0.312696 0.170235 -0.072883 -0.108547 -0.056678 0.264150 -0.330179 0.394062 0.209375 -0.310353 0.259462 0.047179 0.291434 -0.232288 0.522635 0.246266 0.099766 0.262047 0.260593 0.059989 -0.269654 0.251363 0.164609 -0.229823 0.375733 -0.014797 -0.133035 -0.031405 0.367982 -0.139096 0.312412 0.182612 0.040269 -0.187556 0.163861 -0.238397 0.275997 0.056930 0.017937 -0.076232 -0.123850 0.074702 0.304989 0.027692 -0.760868 0.119913 0.103573 0.496929 -0.302099 0.302152 0.217983 0.063573 0.036441 -0.078378 -0.321115 -0.043205 0.094474 -0.120790 0.233762 0.387007 0.276760 -0.007316 0.438019 0.238303 0.339898 -0.433499 0.149991 0.263023 0.093997 0.075245 -0.034817 -0.082838 -0.048223 0.247782 0.241704 -0.245174 0.180680 0.488767 -0.061650 0.267730 -0.301205 0.073671 0.078905 -0.209049 -0.276234 0.180309 0.007720 -0.116375 0.114919 0.088705 -0.025046 0.533556 0.185413 -0.121051 0.143595 0.098511 0.140279 0.087241 -0.159045 0.134526 0.062632 0.123596 0.099709 0.310280 -0.156768 -0.023711 0.373807 -0.130036 -0.108741 -0.249611 -0.014837 0.003687 0.380319 -0.002823 -0.263762 0.036625 0.047742 0.130246 0.055533 0.039169 0.133991 0.082326 -0.080528 -0.147341 0.315326 0.550962 0.438898 -0.191004 -0.018468 -0.281565 0.127252 -0.280640 -0.094066 -0.021462 -0.078482 -0.030919 0.359650 0.028624 -0.087424 
； 0.173881 -0.297589 -0.001207 -0.049262 -0.229199 -0.135738 0.215653 0.205800 0.211315 0.184472 0.069487 0.062109 0.017318 -0.004122 0.121480 0.109300 -0.052916 0.224118 0.081826 -0.105068 -0.012261 -0.036727 0.012225 -0.075806 -0.103038 -0.414064 0.102474 -0.196460 -0.124295 -0.001002 0.178395 0.028762 -0.198447 -0.167461 -0.152241 0.109356 -0.295682 -0.200313 0.172902 0.107460 0.130831 0.120995 -0.096657 0.145966 0.012965 0.015875 -0.100936 -0.144743 -0.033491 -0.143513 0.037558 -0.040543 -0.092277 0.019343 0.130095 0.000603 0.238483 0.209947 0.032745 0.084985 0.088432 0.040262 0.038447 0.088554 0.180371 0.124562 -0.053413 0.111342 0.126004 -0.284151 -0.127243 -0.035503 0.155903 0.044855 -0.163784 0.380433 0.011905 -0.012132 -0.016908 -0.275935 -0.209554 0.134887 0.152435 -0.158677 0.168584 -0.072066 -0.262031 0.053223 0.016860 -0.132823 0.154453 0.202475 0.006446 0.212400 -0.182824 0.264715 -0.107879 0.099855 -0.088912 -0.034146 0.052397 0.043473 0.115718 -0.005284 0.015398 0.131795 0.099990 -0.037557 0.164286 -0.041776 0.028374 0.030024 -0.009820 0.084870 0.017691 0.010382 -0.037932 0.141277 0.048915 -0.145512 -0.232393 0.208468 0.244074 -0.225429 0.061066 -0.228655 0.161987 0.016181 0.226101 -0.198836 0.020292 -0.235367 -0.101908 0.105013 -0.144018 0.188324 -0.270436 0.226746 -0.080806 0.040917 0.301655 0.226147 0.026150 0.091857 -0.040328 0.192399 0.043099 -0.061673 0.169671 0.178407 -0.046070 -0.229450 0.177385 0.171026 -0.004270 -0.250854 -0.114813 -0.005051 -0.106527 0.302584 -0.056176 -0.244153 -0.020797 -0.191693 -0.175670 0.114110 -0.013293 -0.134525 0.151754 -0.091168 -0.238928 -0.061250 0.045738 -0.002714 0.070517 -0.151528 0.007003 -0.180059 0.087160 -0.116050 0.175885 -0.060114 0.265606 -0.020289 -0.135158 0.021982 0.168591 -0.082675 0.033740 -0.273375 0.120495 0.163448 0.020929 0.031332 0.009524 -0.024507 -0.223146 0.244559 0.181376 0.079438 -0.007186 -0.124356 -0.042112 0.045851 -0.078932 -0.146141 -0.156167 0.075268 -0.064815 -0.359659 0.302086 0.140393 0.076225 -0.158635 0.201092 0.125287 -0.151451 0.350785 -0.044299 0.271469 -0.076555 0.246075 0.045428 0.027662 0.001177 0.105672 -0.076199 0.077112 -0.091785 -0.211581 0.049755 -0.165998 0.089870 -0.065794 -0.131521 -0.100760 0.134373 0.041809 0.271492 -0.253104 -0.078412 -0.138951 -0.206368 0.064422 0.101013 0.187713 0.215167 -0.031254 -0.192983 0.147004 -0.091733 -0.071683 -0.143053 -0.351517 0.042063 0.157581 -0.076287 0.088238 -0.012698 -0.163940 0.106527 -0.125166 0.046432 0.030541 0.029750 -0.092376 -0.086788 -0.015818 -0.007450 -0.069763 -0.118723 0.026243 0.015705 -0.027122 -0.058146 0.106596 0.018687 -0.035242 -0.101745 0.123368 0.186774 0.193868 -0.157783 0.026732 -0.315104 0.073580 0.048336 -0.060539 -0.090569 -0.069487 -0.262883 -0.124509 -0.084057 -0.020152 0.052307 0.098773 0.135446 0.072790 -0.077687 -0.087626 
与 -0.179015 -0.410029 0.058941 0.080094 -0.150268 -0.193910 0.190100 0.225036 0.217607 0.165339 -0.279484 -0.166988 -0.130484 0.035534 0.191790 0.285607 0.014924 0.248982 0.040083 -0.039003 -0.173146 0.101811 0.237446 0.065272 0.073797 0.139826 -0.092356 -0.242070 0.324848 0.134088 -0.058916 -0.065651 -0.320928 -0.031423 -0.111274 -0.051418 0.243448 -0.246252 -0.182538 -0.000568 -0.012069 0.033538 0.080201 -0.082857 -0.014825 -0.275835 -0.264105 -0.281937 -0.055106 -0.075688 0.079228 0.044265 0.062859 -0.046280 -0.107174 0.276067 0.050914 0.302879 -0.349336 0.149753 0.001084 0.093930 -0.024693 -0.351438 0.379817 0.002151 0.080073 -0.123873 0.261572 0.011577 -0.621910 0.020113 -0.020255 -0.071777 -0.019809 0.307285 -0.008270 0.149845 0.248374 -0.254057 -0.096760 0.033229 0.425630 -0.247479 0.328150 -0.275862 -0.152681 0.077038 -0.208521 -0.084431 -0.234940 -0.155096 0.259742 -0.140294 -0.082286 0.076280 0.035686 0.233461 0.134098 0.498386 0.098781 -0.201866 0.181366 -0.145898 -0.031574 -0.062150 0.180731 -0.283069 0.157280 -0.078187 -0.123514 0.060589 -0.089985 -0.145547 0.149417 -0.432989 -0.046641 0.047593 0.393225 0.237854 -0.154708 0.078405 0.056609 -0.244744 0.075800 -0.042856 0.297629 -0.209229 0.237351 0.068805 -0.122775 0.003015 -0.458589 -0.157384 -0.217996 0.201607 -0.140638 -0.084351 -0.131975 -0.200962 -0.146789 -0.111936 -0.023332 0.074112 -0.065719 0.161683 -0.133265 -0.165623 0.019145 -0.079013 -0.192203 0.060516 0.020217 0.085112 -0.090101 -0.313599 0.138081 0.154442 0.365337 0.080992 0.157659 -0.291784 -0.058651 -0.045780 -0.065751 0.111269 -0.057060 0.204443 0.217431 0.011543 -0.078476 0.144483 -0.026471 0.512364 0.085955 -0.101667 -0.073790 -0.042738 -0.292290 -0.064527 0.162431 0.001300 0.437552 -0.035065 0.008621 0.019351 -0.000372 0.313146 -0.201250 0.161885 0.312142 -0.002051 0.022706 0.378255 -0.035379 -0.234577 0.115146 -0.237656 0.081156 -0.199999 -0.144165 0.015528 -0.015560 0.160327 -0.280850 -0.351905 0.232458 -0.098557 -0.099815 -0.207179 0.112197 0.078780 0.548312 -0.155689 0.076793 -0.178947 -0.153963 0.130132 0.102621 0.163616 0.185491 0.116408 -0.081042 0.023039 0.016122 -0.150047 -0.093163 -0.119596 0.239817 -0.229313 -0.134505 0.186518 -0.115646 -0.166282 0.032432 0.267417 0.273614 -0.126829 0.598029 -0.231577 0.194906 -0.045319 0.314247 0.178401 0.171848 -0.008437 0.415508 -0.204533 0.171753 0.235485 0.025494 -0.087109 0.024585 -0.248038 -0.160258 0.015013 0.138536 -0.123243 -0.075169 -0.590241 0.262289 -0.271100 -0.194844 0.076168 0.156191 -0.221924 0.256716 -0.037402 -0.465586 0.043170 -0.010504 0.257034 -0.182198 0.357600 -0.049424 -0.050594 0.009242 -0.103059 -0.104607 0.101716 0.186603 -0.153412 0.041001 -0.058958 0.021726 0.162213 -0.035715 0.437061 -0.083566 0.047813 -0.477949 -0.202783 -0.213765 0.021481 -0.206523 0.023182 0.222373 0.244114 -0.087738 -0.159051 
地 -0.050597 0.073335 -0.252115 0.007374 -0.160480 -0.115764 -0.015771 0.272021 0.176777 0.154837 0.063976 -0.143947 -0.398626 0.062740 -0.170203 0.352548 -0.073329 0.361428 -0.065212 0.097834 0.179659 -0.269122 0.344421 -0.249593 -0.241986 -0.155834 -0.026086 -0.232586 0.213353 0.481093 -0.108724 -0.040418 -0.061832 -0.366037 -0.416295 -0.135272 -0.528489 0.366869 -0.063443 0.082519 -0.185236 0.182828 -0.090267 0.021209 -0.232808 -0.014240 -0.132424 -0.167936 0.033119 0.316179 -0.032862 -0.090470 -0.227062 0.423858 -0.139666 -0.012799 -0.160264 -0.337307 0.172010 -0.097833 -0.008105 -0.163855 0.014766 -0.174342 -0.232543 -0.198165 -0.010220 0.348698 0.211413 -0.273587 -0.485670 0.300337 0.169714 -0.020803 0.140139 0.404524 -0.016293 -0.274838 0.236214 0.208919 0.029025 -0.339284 -0.023463 -0.372158 0.240981 0.092997 -0.198286 0.266574 -0.066279 0.050029 0.254380 0.413443 0.110667 -0.122218 -0.309982 0.372602 0.225696 -0.062252 0.199571 0.052113 0.437248 0.161342 0.052482 -0.149688 0.104673 -0.249314 0.021604 -0.086103 0.118191 -0.370602 0.131124 0.109601 0.462477 0.053811 0.135805 -0.289977 -0.378554 0.067239 -0.193390 0.008195 0.037867 0.134150 0.136849 -0.228712 -0.087543 -0.117519 -0.333648 -0.166997 -0.098662 0.419143 -0.038538 -0.440063 -0.048255 -0.026609 -0.116489 0.308398 -0.170231 -0.068609 0.304887 -0.066261 -0.258836 0.056119 -0.081568 -0.004159 0.062103 -0.014154 0.267020 -0.140672 0.226201 0.098281 0.099408 0.074698 -0.070057 -0.266305 0.306331 -0.143247 0.122662 0.116629 0.118386 0.148906 0.055779 -0.201857 -0.354296 -0.104846 -0.134145 0.391059 0.182331 0.054128 -0.031516 0.027212 -0.377791 -0.169438 0.468973 0.808212 -0.244363 0.138834 0.159870 -0.222636 0.505661 0.265244 0.086081 -0.080101 0.355947 -0.042900 0.198059 0.558550 -0.271455 -0.365517 -0.250155 -0.098181 0.146234 0.139629 0.148189 -0.074672 0.037957 0.104089 0.550381 0.018635 -0.103835 -0.128046 -0.110190 -0.127394 -0.180261 0.501341 -0.161414 0.035125 0.304575 -0.038032 -0.001254 -0.376503 0.178922 0.232616 -0.180230 -0.277700 -0.068432 -0.005162 -0.070002 0.508276 -0.093589 0.057483 0.444754 0.606341 0.111517 -0.029771 0.483718 0.196674 -0.230835 0.206345 -0.034020 0.186087 0.211824 0.057200 -0.236741 0.487295 -0.554991 0.614304 -0.005990 -0.023136 0.256127 -0.312132 0.150464 -0.485134 -0.081172 -0.217814 -0.250421 0.086093 0.319080 0.304140 -0.250679 0.002838 -0.028558 -0.170415 0.145489 -0.403508 -0.331372 0.391101 -0.192527 -0.323153 0.455016 -0.080100 0.126010 -0.065801 -0.059872 0.395417 0.136206 0.146522 0.235343 0.081719 0.256709 -0.084355 -0.097281 -0.255825 -0.377612 -0.224930 0.324026 -0.102126 -0.095055 0.136567 0.125054 -0.117042 -0.182235 0.112882 -0.046197 -0.255521 0.009139 0.394166 -0.018006 0.264380 -0.587840 0.278599 -0.239422 0.434584 -0.355027 0.225415 0.151190 0.053617 -0.089862 -0.022062 -0.303077 0.284633 
也 0.084613 -0.269219 -0.052311 0.077168 0.079256 0.151199 0.003837 0.264170 0.179757 0.390225 -0.051476 -0.006184 -0.019661 0.043626 0.047702 0.288615 -0.004323 0.427310 0.024756 -0.040903 0.127135 -0.041211 -0.118053 -0.146929 -0.121366 -0.051370 0.283843 -0.350452 -0.023869 0.127948 0.235886 -0.066472 -0.030294 0.112775 -0.243706 0.123783 -0.293362 0.081802 -0.054311 0.120904 0.241800 0.239711 0.133666 -0.123956 0.048568 -0.031067 -0.068753 0.014446 -0.085165 0.027589 0.142261 -0.120480 -0.181074 0.189642 0.101535 0.045080 0.243085 -0.013134 0.130525 0.104852 0.107426 0.341586 0.072497 0.197665 0.148149 -0.052734 -0.033069 0.041556 0.181455 -0.042842 -0.165420 0.209078 0.015580 0.195473 0.084403 0.415604 0.045877 -0.001993 -0.041128 -0.522431 0.067556 -0.009559 0.190021 -0.094684 0.295163 -0.147891 -0.324055 0.326371 -0.249052 -0.269666 -0.045412 0.136224 0.044772 -0.192119 -0.228131 0.004281 -0.017858 0.144570 -0.145842 -0.035118 0.219473 0.170345 -0.094494 -0.142051 -0.171864 0.045207 0.037711 -0.066662 0.144330 -0.101324 0.041880 -0.226906 0.064242 -0.007512 0.011400 -0.053985 -0.152175 0.116015 -0.200211 -0.094567 -0.170873 0.289521 0.198735 -0.045933 0.217055 -0.158700 0.068302 -0.124276 0.030371 0.127119 -0.055482 -0.003535 -0.094877 -0.184987 -0.001015 0.324503 -0.316989 0.240372 -0.201484 -0.015819 0.275897 0.117555 -0.198674 0.208705 -0.063329 -0.001592 -0.044118 0.015055 -0.062101 0.262965 -0.020230 -0.031010 0.064079 0.194819 -0.127341 -0.119514 -0.168528 -0.045322 0.013390 0.042548 -0.315475 -0.280724 -0.036461 -0.059448 0.069463 0.358223 -0.072683 -0.149457 0.138889 -0.057193 0.042799 -0.171189 0.157260 0.040147 0.132346 -0.062680 -0.129866 0.011827 -0.004756 -0.122021 0.155225 -0.221764 0.227676 -0.007282 -0.011054 0.165060 -0.107286 0.146025 0.119944 -0.166647 0.098483 0.014795 0.241217 0.311348 -0.190577 0.026081 0.114202 0.131287 0.043975 0.188638 -0.078452 -0.062327 -0.036934 0.212540 -0.268994 -0.093791 0.012769 -0.081811 -0.162510 -0.108830 0.279014 -0.037535 -0.017880 -0.041867 -0.053925 0.094684 -0.068621 0.187608 -0.064143 0.025150 0.104026 -0.147066 -0.096806 0.120422 0.114058 0.138354 -0.213866 -0.065030 0.146313 -0.297817 -0.035686 -0.178164 0.030938 0.016550 -0.132658 0.032403 -0.053946 0.106917 0.367343 -0.038314 -0.031426 -0.219798 0.306421 0.021626 -0.098187 -0.037440 0.048648 0.145344 -0.374075 -0.029928 -0.052887 0.002804 0.190058 -0.089455 -0.211211 0.344104 -0.137712 -0.059411 0.054232 -0.387982 0.031653 -0.046702 -0.009649 0.064269 0.062396 -0.072556 0.050780 0.146576 -0.000989 -0.053485 -0.046820 -0.204521 0.019346 -0.080227 0.198698 -0.034647 -0.023612 0.130339 -0.137481 -0.043922 -0.107096 0.117022 0.106026 -0.065725 -0.092927 0.092305 -0.245179 0.214364 -0.061016 0.184662 -0.013292 0.177302 0.048637 0.313347 -0.114775 0.097805 0.006247 0.372784 -0.084315 0.188283 
日 -0.226627 -0.221713 -0.214339 0.238341 -0.142624 0.044623 0.010716 -0.099619 0.395014 -0.275493 -0.471976 0.449611 -0.022906 -0.192762 0.411887 -0.122231 -0.263176 0.146832 0.014545 -0.442001 -0.223123 -0.395841 0.379784 -0.507718 0.030977 0.338973 0.343369 -0.167965 0.113270 -0.150281 -0.198905 0.292998 -0.147335 0.427778 -0.122771 0.266606 -0.022529 -0.326194 -0.359952 -0.190505 -0.050201 0.087663 0.124463 -0.499059 0.335092 0.035240 -0.406968 0.193719 0.004340 0.066833 -0.484194 0.161714 -0.099834 -0.439931 0.272142 0.330335 0.092813 0.322032 0.159840 0.227019 0.182536 0.383239 0.321287 -0.187813 -0.139475 -0.032155 0.091238 0.208012 0.030731 -0.150341 0.041490 -0.286525 -0.175643 -0.599833 -0.131394 -0.057139 -0.005004 -0.085911 0.034565 0.211576 0.130441 -0.132992 0.358214 0.153649 -0.166951 0.083440 0.276945 -0.006065 0.035218 0.064186 -0.124622 0.301141 0.147007 0.246555 0.207873 0.089158 -0.119151 0.017846 -0.245438 -0.219752 0.137346 0.039166 0.242982 -0.240671 -0.172781 0.009609 -0.042996 -0.196829 -0.071516 -0.447920 0.174990 -0.284115 -0.372854 0.224985 -0.247085 -0.091777 -0.275375 -0.353873 0.072851 -0.257908 -0.189218 0.186091 0.168592 -0.164322 0.379448 0.073722 -0.211793 0.173586 0.148927 0.196317 -0.258039 -0.118469 -0.076700 -0.090492 -0.292210 0.124450 -0.228363 0.283469 -0.287017 0.250967 0.082896 -0.238885 -0.017627 0.291455 -0.048360 0.199066 -0.075884 -0.235135 0.067149 0.235481 -0.004771 -0.390576 -0.159345 -0.024421 -0.185717 0.011763 -0.311669 -0.211926 0.046034 -0.004612 -0.378983 0.151124 -0.599952 -0.033795 -0.079867 0.690256 -0.187562 -0.033542 0.106304 -0.106318 -0.266465 -0.127985 0.217304 0.432720 -0.268829 0.120225 0.115558 0.386352 0.063566 0.070692 0.069473 0.427476 0.069288 -0.360259 0.352345 0.037460 0.063712 -0.151069 -0.043871 0.001681 -0.223893 -0.060067 0.589298 0.079746 -0.264960 -0.000551 -0.087944 -0.295035 -0.058240 -0.202793 0.011237 -0.097486 -0.217189 0.228062 -0.063971 -0.178346 0.007007 -0.256875 0.496448 -0.255063 0.491654 -0.144692 0.183178 -0.047616 -0.457850 -0.111262 -0.440520 0.045350 0.102102 0.355751 -0.102921 0.180105 0.002287 -0.135734 0.055159 0.030772 0.711493 0.004511 0.323858 -0.244138 -0.098655 0.032786 0.200905 -0.057326 0.425037 0.081437 0.097118 0.143480 0.284425 -0.537300 0.097431 0.144634 -0.017607 -0.640169 -0.085092 0.171958 0.140038 -0.218687 0.341772 0.236051 -0.285362 0.016337 0.405647 -0.103349 0.127314 -0.109884 0.069968 -0.051235 0.013764 -0.116084 0.243567 -0.121046 -0.180448 -0.178544 0.293227 -0.297722 0.229112 0.310924 -0.031354 -0.123953 -0.053318 -0.033414 0.091571 -0.046659 -0.062215 0.019482 -0.563910 0.074597 -0.425429 0.224551 -0.025653 0.302563 0.073117 0.008375 0.278310 0.366980 0.142096 0.083045 -0.839319 0.350251 -0.183944 -0.316157 0.037223 -0.306119 -0.225400 0.426626 0.384510 0.013840 -0.049558 -0.023887 
中国 0.026601 0.238758 -0.036700 -0.173718 -0.145088 0.114146 -0.034751 0.246689 -0.032065 0.142977 -0.412998 -0.202874 -0.097226 0.004600 -0.124259 0.113100 -0.150525 0.251197 0.262577 -0.097067 -0.205916 -0.145549 0.005859 -0.296806 0.049761 -0.146610 0.198748 -0.356386 0.313614 0.078287 0.128622 -0.158475 -0.048439 0.057477 -0.283635 -0.111780 0.213151 0.048466 -0.240340 0.189933 0.216728 0.105744 0.254067 -0.186076 -0.058739 0.406886 0.063658 -0.420329 -0.238235 0.271514 -0.041844 0.392972 -0.175044 0.081189 -0.013158 0.232897 0.110531 0.151591 0.110024 0.145949 0.031539 0.174684 0.071094 0.093089 0.338817 0.132401 0.044482 -0.024778 0.159073 0.205379 0.075208 0.162260 0.067549 0.124126 0.212949 0.196671 -0.078846 0.202930 -0.239628 -0.382671 0.034069 -0.272473 -0.022523 -0.330730 0.195818 -0.014312 0.198336 0.004277 -0.346213 -0.118093 0.046151 -0.262371 -0.173650 0.222995 -0.200976 -0.114385 -0.080926 -0.473959 -0.183750 0.047943 -0.139864 0.320770 0.075992 0.016705 0.174321 0.474816 -0.301278 -0.014012 0.037488 -0.130136 0.065428 0.006389 -0.498810 -0.255692 -0.102957 -0.244023 -0.364801 0.065783 -0.158454 0.000094 -0.449390 0.286967 -0.006331 -0.183915 0.329667 -0.137193 -0.190684 -0.407825 0.250758 0.163565 -0.048811 0.146099 -0.272814 0.105504 -0.193500 0.277593 -0.354121 -0.004264 0.032612 -0.314568 0.125271 -0.118215 -0.142052 0.221467 0.060397 0.411536 -0.256551 0.127316 0.133964 0.467619 -0.249045 -0.074855 0.256278 -0.389331 -0.185416 -0.327276 -0.044399 0.411368 -0.107153 -0.242997 -0.410950 -0.324524 0.010139 0.192311 -0.536684 0.155983 -0.477082 0.128269 0.201801 -0.145018 0.144169 -0.114771 -0.082120 0.473960 -0.083849 -0.264433 0.009086 -0.176390 -0.218396 0.190389 0.042972 -0.224350 -0.087525 0.261091 0.124788 0.028017 -0.151349 0.426424 -0.050644 -0.158318 0.037950 -0.178867 0.072387 0.242849 -0.248251 -0.459818 -0.250861 0.038120 -0.289548 -0.402556 -0.131893 -0.266997 -0.040934 0.004049 -0.735522 -0.131223 -0.077268 0.159035 0.460357 -0.271661 0.171997 0.298631 0.147334 -0.142260 -0.425141 0.303798 0.174607 -0.048673 -0.096989 0.048293 0.087276 0.418466 -0.306793 -0.151312 0.208847 0.086259 -0.175425 -0.178936 0.142564 -0.203856 -0.299503 0.153172 -0.135716 -0.410479 -0.156428 0.030645 -0.105604 0.002240 0.005369 -0.285089 -0.125333 -0.326003 0.077310 0.047345 -0.105638 0.112037 -0.037618 -0.026378 -0.125610 -0.027215 0.213961 -0.536212 0.421959 0.105305 -0.034788 -0.125269 0.180679 0.164594 0.109768 -0.253516 0.501167 -0.268177 0.286980 0.102373 -0.002378 -0.250725 0.303782 -0.147076 -0.269157 0.026566 -0.261100 -0.643949 -0.053884 0.430100 -0.111057 -0.463210 -0.172609 0.114391 -0.325212 -0.346552 0.054633 0.348745 -0.177387 -0.080574 0.071357 -0.104042 0.271384 0.355662 -0.456506 0.122243 -0.225593 -0.063957 0.236119 -0.187304 0.059089 0.373802 0.040972 -0.223759 0.387938 -0.225809 
就 0.074199 0.001408 -0.306751 -0.013342 -0.116893 -0.018961 -0.117886 0.166955 0.005047 0.226981 -0.091197 -0.115470 -0.322208 0.037595 -0.096652 -0.009942 -0.012690 0.265914 0.108135 -0.093081 0.265357 0.177150 -0.300047 -0.328857 -0.313418 -0.236178 0.142017 -0.082863 0.100888 0.150279 0.093111 -0.131366 0.169757 0.093213 -0.227019 -0.041323 -0.332022 -0.149202 -0.029452 0.026884 0.219263 0.086268 0.219843 -0.028547 0.104140 0.202400 0.072011 -0.027258 -0.162976 0.082606 0.112757 -0.214970 -0.132507 -0.129958 -0.013645 0.420645 0.193682 -0.196973 0.166541 -0.170399 0.033927 0.093473 -0.160369 0.166235 0.050377 -0.027441 -0.321686 0.052354 0.150374 -0.026033 -0.102411 0.192139 -0.082777 -0.063055 -0.213854 0.209904 0.183699 -0.228874 -0.078681 0.069306 0.158885 -0.198487 0.419245 0.077628 0.021376 0.009040 -0.605822 0.139389 -0.416322 -0.051108 0.054823 0.359442 0.115563 -0.240792 -0.285607 0.029156 -0.069389 0.019023 -0.100279 0.007005 0.200465 0.083470 0.012420 -0.165963 -0.070256 0.034224 0.220430 -0.105716 0.075719 -0.242809 0.125289 -0.198989 -0.161757 0.114772 -0.274777 -0.082722 0.040056 -0.009909 -0.239678 0.065116 -0.296595 0.093800 0.646976 -0.056696 0.313273 0.208752 0.036064 -0.165419 -0.036769 -0.074547 0.055005 0.097492 -0.203900 -0.278487 -0.033907 0.069762 -0.509387 0.163312 -0.038717 -0.051492 0.048392 0.108529 -0.057994 0.188935 0.064611 0.328934 0.167894 -0.306443 0.134435 0.154494 0.073108 -0.213526 0.042954 0.199387 -0.137707 0.049947 -0.454690 0.096410 -0.082682 -0.085712 -0.056973 -0.247358 0.048811 -0.137928 -0.184647 0.454968 0.014701 -0.199296 0.023385 0.210700 0.044738 -0.174215 0.059568 0.148689 0.006521 -0.047504 0.033995 -0.196538 0.124259 0.015920 0.035360 0.200196 0.142754 0.060215 -0.325629 0.306422 0.046618 -0.078166 -0.048182 0.000188 -0.004097 0.287331 0.351472 0.198620 -0.310817 -0.029256 -0.018690 0.236669 0.190281 0.009703 0.009377 0.034059 0.008937 0.233672 0.087938 -0.006825 -0.122535 -0.136557 0.089023 -0.022010 0.024153 -0.107678 -0.189851 -0.200411 -0.128591 0.077157 -0.189699 0.204259 0.060230 0.106197 0.267415 0.057767 -0.097319 0.114024 0.008107 0.074675 -0.288207 0.005248 0.182786 -0.283993 -0.142938 0.001039 0.107702 0.119304 -0.117139 0.226707 0.081945 0.067031 0.420313 -0.218307 -0.125066 0.102050 0.155024 0.038875 -0.017075 -0.081668 0.040992 0.202577 -0.357418 0.234125 0.076913 0.026439 0.113062 -0.145852 -0.178321 0.295358 -0.070331 0.328400 0.060475 -0.244937 0.068888 -0.045784 -0.219298 0.061983 0.027599 -0.076773 -0.040270 0.259396 0.261782 0.320657 -0.256183 0.053273 0.076691 -0.122458 0.138197 0.152825 -0.045464 0.217877 0.038044 -0.080166 -0.238412 0.138244 0.193960 -0.166119 -0.290900 0.174437 -0.110092 0.294242 0.087699 0.075399 -0.039102 0.164223 0.118862 0.165954 -0.145898 0.114147 0.022976 0.147057 0.077600 0.038696 
个 0.164198 0.033487 -0.268200 0.061311 -0.483944 -0.081149 0.144790 -0.075887 0.245472 0.401745 0.053711 -0.110386 0.138397 0.106659 0.028617 0.280002 -0.075915 0.068499 0.080080 0.114788 0.184790 -0.206212 -0.017533 -0.252932 0.297993 -0.088271 -0.129609 -0.011475 0.347343 0.008177 -0.128715 -0.008579 -0.283375 0.083156 -0.537840 0.116637 -0.388082 -0.160838 -0.048124 0.157920 0.174923 -0.109601 -0.114584 0.050959 0.054153 -0.593401 0.324694 -0.140276 -0.143863 -0.370881 0.213650 0.177350 -0.580345 -0.645368 0.269432 0.418662 0.113713 0.020042 0.102666 0.170215 -0.161972 0.019501 -0.041890 -0.072897 0.059880 -0.186071 -0.547266 0.171612 -0.331965 -0.188752 0.130801 0.135333 0.058569 -0.158591 -0.207623 0.582738 0.118293 0.002010 -0.107256 -0.434184 -0.198773 -0.186131 0.498576 -0.110408 -0.056933 0.068140 -0.703262 -0.135710 0.047769 0.087574 -0.493188 0.103624 -0.474953 0.160229 0.032030 0.147809 0.195075 -0.123475 -0.073181 0.176014 0.139088 0.065566 0.263374 -0.044497 0.005270 0.147472 -0.168079 -0.198405 0.154681 -0.113736 -0.203017 -0.013684 -0.079471 -0.327749 -0.054472 0.184943 0.212733 0.303593 0.623969 0.033733 -0.384545 0.294020 0.390028 -0.089624 0.239373 -0.064614 0.066133 0.579811 0.194184 0.158073 0.174060 0.187582 0.082044 0.275243 0.207350 0.329498 -0.007252 0.224841 -0.250832 -0.172217 -0.045463 0.001334 -0.018191 0.081239 -0.087022 0.271525 0.033423 0.005319 0.227951 -0.098121 -0.004996 -0.133792 -0.141296 0.196679 0.599549 0.129247 -0.153324 -0.284600 -0.094099 0.053999 0.061953 -0.415183 -0.323135 -0.070050 -0.016288 0.342337 -0.311943 -0.208942 0.051051 0.115365 -0.493245 -0.381248 0.089226 0.144892 0.015830 -0.225159 -0.054836 -0.516535 -0.126241 0.113039 -0.120159 0.091116 0.249178 0.136615 0.188764 0.187523 -0.167355 -0.173592 -0.156169 -0.101356 -0.110076 0.394261 0.157064 0.401013 -0.480664 -0.033737 0.156472 0.627232 -0.209261 -0.407834 0.146166 -0.261304 -0.150619 0.127725 -0.567937 -0.303018 -0.042907 -0.182664 -0.061643 -0.134264 0.372057 -0.160314 -0.113739 -0.279930 -0.065442 0.069498 -0.072413 0.175790 -0.511273 0.458757 -0.120188 -0.134830 -0.273574 -0.214134 -0.149284 -0.225180 0.134932 0.076595 0.121569 -0.145735 -0.243788 0.087826 0.334384 0.143323 -0.061825 0.092432 -0.297115 0.240094 0.186743 -0.279367 -0.168457 0.090922 -0.057684 -0.187544 0.062797 -0.033236 -0.079842 0.398469 -0.069965 -0.070014 -0.244192 -0.116760 -0.306837 -0.141932 0.426771 -0.122643 0.115398 -0.068559 0.262768 0.253326 -0.203636 -0.023100 0.206449 0.152550 0.156622 0.058353 0.193760 0.038762 0.054114 -0.132400 0.153518 -0.387576 -0.008708 0.010843 -0.287878 0.291669 -0.192673 0.249536 0.209754 0.470935 0.024337 0.127331 -0.326041 -0.034205 -0.098980 0.045616 0.029452 0.296381 0.328031 0.057087 0.046462 -0.307142 -0.020449 -0.170973 0.196285 -0.322533 -0.096329 -0.197289 -0.509542 0.276639 
《 -0.322841 0.086431 0.256613 -0.299754 -0.321426 -0.171371 -0.102883 -0.179887 0.170123 0.400725 0.043912 -0.070886 0.118761 -0.009362 0.017362 0.069384 -0.185228 -0.255760 -0.208536 -0.041151 -0.307363 -0.340352 0.190112 -0.433594 -0.421546 -0.158721 0.539929 -0.234957 -0.076909 0.233955 0.444365 0.177608 -0.088427 -0.025083 -0.019887 0.225571 -0.060855 -0.084911 -0.213156 0.032614 0.228666 -0.106514 0.191144 -0.076389 0.213178 0.107236 -0.378190 -0.754737 -0.284914 0.015054 -0.099162 0.119669 0.052387 -0.691011 0.241124 -0.210303 0.137955 0.546260 0.157897 0.089662 0.170716 0.455829 -0.052409 0.059898 -0.181309 -0.221580 0.016057 -0.105622 0.186203 0.100740 -0.128463 0.068833 0.288568 -0.283123 -0.132618 0.178626 0.421849 -0.222114 0.000874 -0.130079 -0.134121 -0.532480 -0.036246 -0.576300 -0.135127 0.187005 -0.233599 -0.122673 -0.029173 0.000948 0.088998 0.303339 0.228110 0.067617 0.339981 -0.169160 -0.096247 -0.393665 0.239849 -0.062924 -0.259270 0.478853 -0.323486 0.244885 0.126708 -0.087238 0.368260 -0.296699 -0.142238 0.337943 0.015742 0.242943 0.050323 -0.156362 0.419366 -0.287142 -0.671920 0.174936 0.042765 0.118236 -0.484570 -0.187488 0.247910 -0.107334 0.099992 -0.196818 0.311138 0.209884 0.260157 0.217280 0.186433 0.082751 -0.495771 -0.060729 -0.344883 0.562716 -0.214856 0.210411 -0.022328 -0.005760 0.064411 -0.084816 0.299842 0.050777 0.069374 -0.021285 0.460336 0.423174 -0.293907 -0.055375 -0.405009 0.097164 -0.061100 -0.130162 -0.024764 -0.220003 -0.183982 -0.318666 -0.340367 -0.033480 0.242255 -0.057437 0.093405 -0.302482 -0.396668 0.662607 -0.134370 0.224456 0.319373 0.066819 0.244069 0.153157 0.286469 -0.076225 -0.338778 -0.027750 0.307333 -0.545498 -0.134354 0.142578 0.324099 0.293742 0.572427 -0.262012 0.264265 -0.267208 0.394686 -0.587236 -0.073377 0.010289 0.586950 0.303814 0.049286 0.272674 0.188547 0.295178 0.377906 -0.203390 0.255198 0.260232 -0.022335 -0.141924 -0.150733 -0.356905 -0.255836 -0.286635 -0.320037 -0.102445 -0.183863 -0.508746 0.185793 -0.116157 0.109565 -0.108433 -0.213662 -0.204141 -0.064314 0.270536 0.100104 0.188022 -0.041690 -0.026049 -0.174925 -0.120217 0.285294 0.520944 -0.208433 -0.295339 0.504451 -0.088276 -0.344026 -0.157846 0.053956 -0.248876 0.196297 -0.151522 0.389600 0.067005 0.107459 -0.049245 -0.089950 -0.154184 0.313865 -0.146470 -0.062706 0.068232 -0.225122 -0.206205 -0.151182 0.205839 0.225257 -0.324319 0.100409 -0.256197 -0.213667 -0.472019 0.122112 0.358910 -0.213548 0.039832 0.098021 0.272547 -0.027922 -0.063329 0.632497 -0.298545 0.313661 0.358388 -0.299115 0.178576 -0.151914 -0.433026 0.368327 -0.401040 0.402676 0.129791 -0.240594 -0.178287 -0.133770 0.619602 0.376464 0.119486 0.082046 -0.297587 -0.203991 0.034598 0.128978 0.020764 0.138661 0.119777 -0.017905 -0.384085 0.013549 -0.049800 0.350496 0.475402 0.589475 0.155386 0.211962 0.080823 
》 -0.252806 0.087600 0.253521 -0.299748 -0.384692 -0.221455 -0.021854 -0.193419 0.302744 0.440077 -0.136287 0.008617 0.189225 -0.146140 -0.101949 0.033454 -0.151473 -0.248804 -0.324295 -0.127593 -0.325154 -0.233297 0.208259 -0.419059 -0.362433 -0.183689 0.679440 -0.092277 -0.079585 0.266652 0.467754 0.148941 -0.080743 0.027844 -0.056397 0.048514 0.050086 0.037361 -0.350381 0.084351 0.287693 0.052477 0.224081 -0.022823 0.065403 0.169045 -0.512747 -0.835507 -0.218610 0.053741 -0.132375 -0.010178 -0.066947 -0.747621 0.231742 -0.212152 0.047291 0.611558 0.175595 0.077950 0.259564 0.558880 0.042391 0.001751 -0.244637 -0.162252 0.138963 -0.067254 0.105118 0.018144 -0.128524 0.045391 0.247829 -0.249133 -0.085061 0.230788 0.388452 -0.190854 -0.032767 -0.157422 -0.143164 -0.444847 -0.161908 -0.639190 -0.122077 0.172239 -0.148250 -0.091266 0.039744 -0.032067 0.100528 0.283128 0.223336 0.079607 0.367214 -0.233776 -0.073934 -0.351013 0.157835 -0.045030 -0.191816 0.480021 -0.236108 0.375515 0.193604 -0.049692 0.527235 -0.291430 -0.171820 0.317928 -0.107580 0.094111 -0.033315 -0.210243 0.489966 -0.246160 -0.659671 0.278233 0.040672 0.136423 -0.479786 -0.192554 0.126625 -0.222871 0.134667 -0.179778 0.234960 0.181040 0.348659 0.513827 0.327690 0.058724 -0.455367 0.065787 -0.295864 0.574857 -0.205077 0.273394 -0.086974 0.123527 0.074734 -0.326936 0.257587 0.017673 0.165498 0.098596 0.403410 0.419874 -0.196284 -0.079771 -0.399476 0.209490 -0.102673 -0.251531 0.052620 -0.274884 -0.106995 -0.249314 -0.408354 -0.069584 -0.090566 -0.046390 0.085959 -0.234838 -0.322815 0.543794 -0.142056 0.195060 0.197838 -0.000712 0.082784 0.032795 0.133568 -0.156648 -0.369862 -0.166905 0.429216 -0.592798 0.034428 0.209556 0.341233 0.477557 0.597918 -0.224898 0.250656 -0.183203 0.363213 -0.530265 -0.027303 0.145188 0.668913 0.439934 0.088957 0.236183 0.298041 0.242701 0.364047 -0.200397 0.379696 0.149159 -0.074965 -0.369294 0.048493 -0.437463 -0.271668 -0.287601 -0.394720 -0.159385 -0.247900 -0.501080 0.262437 -0.207841 0.071978 0.149792 -0.140904 -0.198465 0.067006 0.192402 -0.000325 0.285202 -0.026637 -0.175223 -0.249886 -0.052576 0.381231 0.532026 -0.230269 -0.245468 0.487956 -0.082555 -0.280716 -0.321199 0.016107 -0.076397 0.266136 -0.136468 0.383221 0.139429 0.089782 -0.138138 -0.227817 -0.176625 0.381128 -0.158960 -0.029553 -0.002382 -0.184472 -0.082914 -0.095258 0.075317 0.272951 -0.113158 0.047177 -0.307841 -0.236156 -0.351680 0.056808 0.332834 -0.097865 0.085701 0.135657 0.309017 -0.086539 0.013575 0.518019 -0.159119 0.295526 0.330592 -0.261416 0.154386 -0.006805 -0.443744 0.480956 -0.353188 0.441421 0.028278 -0.230515 -0.317185 -0.014768 0.453169 0.438561 0.196190 0.089121 -0.370222 -0.171821 -0.073135 0.050629 0.104920 0.155067 -0.050370 -0.143685 -0.389537 0.067539 -0.013360 0.387319 0.321077 0.506353 0.137866 0.166425 0.166191 
他 0.053499 -0.050164 0.005086 -0.139234 -0.208249 -0.372789 0.094740 0.218543 0.083488 0.404394 -0.050373 -0.044109 -0.290275 -0.019774 0.106422 -0.076880 -0.061297 0.164945 0.087883 -0.120684 -0.017065 -0.074735 -0.050538 -0.156892 -0.304869 -0.429153 -0.254280 -0.240309 0.153407 0.275397 0.217912 -0.226695 0.052623 -0.239071 -0.083785 0.292245 -0.210213 -0.060795 -0.213951 0.146352 0.168720 0.169038 0.052647 -0.006028 0.288878 0.272982 -0.019953 -0.040550 0.063059 0.351821 -0.145527 -0.016758 0.095031 -0.040197 0.175006 0.095616 -0.014319 -0.046609 0.030331 -0.206385 0.255329 0.145426 -0.234583 0.333417 0.022965 0.096623 0.195581 0.137570 0.057932 0.094671 -0.246424 0.051559 -0.016774 -0.017974 0.033498 0.197248 0.066978 -0.073667 -0.354726 -0.026620 -0.021205 0.049902 0.382368 -0.166799 0.100565 -0.191705 -0.321325 0.226925 -0.151697 0.214352 0.066434 0.248932 -0.073967 -0.236782 -0.321665 0.146882 -0.021109 -0.021535 0.038632 -0.175015 0.063506 0.040772 0.354771 -0.166564 -0.139886 0.197088 0.231281 0.096558 -0.043314 -0.454256 0.000395 -0.005751 -0.073461 0.151757 -0.216949 -0.104428 0.234618 0.235356 0.101764 0.041336 -0.285250 0.239080 0.350454 -0.151607 0.160043 0.059850 0.075774 0.004006 0.017794 0.107299 -0.168465 -0.309460 0.008924 -0.273407 0.003052 -0.100412 -0.194607 0.106947 -0.259008 -0.049908 -0.005848 -0.156879 -0.064031 0.193456 0.115067 0.010381 -0.060221 0.127300 0.066356 0.232799 0.099891 0.162333 0.195876 0.010387 -0.102507 -0.241583 -0.126391 -0.012978 -0.065018 0.042012 -0.192270 -0.211907 -0.058728 -0.258671 0.022107 0.293401 0.010774 -0.070077 0.203834 0.115840 0.015875 0.057161 0.173506 0.442303 0.115594 -0.123295 0.173168 -0.203725 0.061782 0.132678 0.251662 -0.099660 0.020188 -0.011455 0.052962 -0.167085 0.063690 0.166502 0.158495 0.082082 0.032209 0.014201 0.208330 0.151471 0.003076 -0.030005 0.087120 0.085412 0.178147 0.098028 -0.053758 -0.119189 -0.092949 0.045290 0.012505 -0.207659 0.041505 -0.139025 0.214068 0.122234 0.152029 -0.064456 0.106649 0.050799 0.174053 -0.233910 0.033056 0.205292 -0.165600 -0.006978 -0.009029 0.036524 -0.186511 -0.017428 0.133977 0.308142 0.036573 -0.030305 -0.077137 -0.200826 0.005135 -0.272891 -0.025340 -0.003988 0.000507 0.260097 -0.086342 -0.126240 0.213449 -0.029603 -0.085556 -0.404856 0.154544 0.026789 0.168208 -0.127248 -0.072714 0.072524 -0.286754 0.171450 -0.304521 -0.243058 0.022409 -0.164278 -0.178841 0.195904 0.164295 0.091825 -0.103522 0.097596 0.067632 0.021442 0.123685 0.031183 0.252270 -0.001565 0.164489 0.130246 0.198050 0.147510 -0.151025 -0.212754 -0.031298 -0.144667 0.203462 -0.107203 0.120101 0.149648 -0.173610 0.054126 -0.056343 0.256552 -0.264403 -0.003409 -0.023082 -0.012215 -0.085962 0.223378 -0.125197 0.198648 -0.067453 -0.161881 -0.007146 -0.039110 0.048307 0.036423 0.065137 -0.001794 -0.029678 0.086228 
到 0.492168 -0.172101 -0.425380 -0.190867 -0.261568 -0.153225 0.006409 0.185655 0.081694 -0.034131 -0.136334 -0.139683 0.015054 0.168916 0.008832 -0.216562 0.112125 0.060279 0.209251 -0.141092 0.396974 0.168729 0.102555 -0.267404 0.002506 -0.224524 -0.246803 -0.089466 0.400714 -0.085752 -0.027404 0.389655 -0.337459 0.228842 -0.212951 0.144310 -0.150549 0.115900 -0.186527 -0.000955 0.181877 0.208055 0.017183 -0.391181 -0.074803 0.161353 -0.239308 -0.130120 0.107350 -0.321681 0.036517 0.231686 -0.348991 -0.167611 0.539345 0.071921 0.361930 0.022478 0.246660 -0.387473 0.066319 0.055635 0.208461 0.125598 0.013977 0.055096 -0.219888 -0.350406 0.348243 0.005973 -0.057862 0.270543 0.070057 -0.079775 -0.289090 0.265286 -0.010384 0.131332 0.025306 -0.164820 -0.178234 -0.248060 0.423285 -0.253418 -0.257215 -0.291409 0.118227 0.325274 -0.253915 -0.313816 -0.047309 0.185005 -0.009369 0.504856 -0.086805 -0.046858 -0.060743 0.054237 -0.081517 -0.025183 0.038019 -0.284843 -0.161380 -0.080435 0.067607 0.387702 0.019592 0.171631 -0.256515 -0.336509 0.072613 0.010052 -0.415249 -0.058551 -0.072571 0.044068 0.275052 0.269694 -0.063375 0.363565 0.116932 0.482486 0.269065 -0.084884 -0.085671 0.158831 0.012154 -0.042812 -0.124576 0.092686 -0.323728 0.059359 -0.175131 -0.006771 -0.097797 -0.041495 0.089942 0.368691 0.281150 0.158859 0.071007 -0.148514 -0.500977 0.179063 -0.244471 0.049299 0.088226 0.309027 0.464641 0.118250 0.140860 0.021995 -0.129975 -0.084935 -0.016888 0.023960 -0.034444 -0.163165 -0.217653 0.266664 0.042274 -0.210983 -0.034013 -0.119008 -0.235418 0.022064 0.004780 -0.124615 0.524909 -0.127245 -0.147150 -0.238944 0.214551 0.124815 -0.313092 -0.265437 0.116344 -0.305277 -0.144172 0.079441 0.026971 0.200840 0.286334 0.008736 -0.192228 0.255564 0.247116 0.179205 -0.544713 -0.142842 0.224243 0.306226 0.351867 0.115116 0.082287 -0.194605 -0.080339 0.238583 0.322219 -0.056916 -0.364185 -0.306674 -0.110257 0.309642 -0.353458 0.263039 -0.107877 -0.154176 -0.448515 -0.463485 0.293481 0.091837 -0.097895 -0.046508 -0.003404 0.380999 -0.561233 0.408023 -0.064696 0.183523 0.014453 -0.155158 0.106411 -0.144252 0.186080 -0.144344 -0.048465 0.029425 0.147617 0.089200 -0.170851 -0.409184 -0.038902 -0.090315 0.156429 0.496678 0.236201 -0.416550 0.385447 0.172029 0.261862 -0.300220 -0.068596 -0.181779 -0.417784 -0.411740 0.213616 -0.069175 -0.065173 0.326025 -0.246286 0.109030 0.135516 -0.048200 -0.147777 -0.154403 -0.105979 -0.170132 0.141220 -0.076654 -0.256464 -0.270432 -0.193473 -0.032220 0.557781 -0.106297 -0.057486 0.262241 0.001842 -0.265687 0.001645 0.051183 0.132809 -0.243107 0.069240 -0.055556 0.073929 -0.261680 -0.264852 -0.229850 0.036167 0.466706 -0.118413 -0.163240 -0.039241 -0.142413 0.170981 0.130038 0.248678 -0.223089 -0.162091 0.234490 0.051803 -0.026852 0.130806 -0.064640 -0.245530 -0.135801 -0.273343 0.079388 
要 -0.083250 -0.012757 0.093706 -0.346839 -0.108055 -0.170478 0.065438 0.353727 0.070259 0.095665 0.056892 -0.368117 -0.172503 0.185913 -0.173181 0.381972 -0.143511 0.368898 0.016618 -0.005942 0.193071 0.026129 0.037082 -0.034683 -0.000002 -0.390362 0.060092 -0.170728 -0.004185 0.074894 -0.011529 -0.234763 -0.022458 -0.289412 -0.280374 0.181034 -0.313187 0.285177 0.025159 0.231191 0.084432 -0.073478 0.401735 0.101509 0.042653 0.050658 0.214061 -0.064333 0.042563 -0.013217 0.241930 -0.068360 -0.243740 0.128767 -0.020156 0.242852 0.054574 0.213796 -0.003276 0.184523 0.206524 0.152840 0.056905 0.169114 -0.037967 -0.021913 -0.063795 -0.132875 0.197566 -0.117772 -0.279549 0.094340 0.279631 -0.085431 -0.083519 0.336711 -0.159169 0.105732 0.061234 -0.080550 0.046786 -0.075199 0.349965 -0.193249 0.192260 -0.043110 -0.739853 0.021698 -0.091807 -0.222399 -0.019758 0.526123 -0.033684 0.092083 -0.226175 0.225241 -0.168911 0.164195 -0.098625 -0.111289 0.283196 -0.004816 -0.130224 0.088152 -0.132016 -0.015476 0.119155 -0.181506 -0.014554 0.336554 -0.104456 -0.027030 -0.363780 0.197288 -0.185102 -0.056230 -0.073883 0.451626 0.191558 -0.024176 -0.036772 0.202104 0.206459 -0.208485 -0.205346 -0.362342 0.142381 -0.103525 0.077986 -0.010009 -0.036741 -0.046760 -0.085339 -0.049667 -0.246222 0.265333 -0.613915 0.273438 -0.236382 -0.167975 -0.152936 0.040198 -0.235928 0.255357 -0.005291 0.241258 0.209304 0.030696 -0.137581 0.251089 -0.151033 -0.134055 0.157942 -0.157870 -0.010223 -0.476032 -0.291806 -0.259732 -0.073707 0.361363 -0.016349 -0.080337 0.008880 -0.403724 -0.266442 0.308994 0.220561 0.013288 0.082043 -0.303784 -0.295610 -0.155932 0.144621 0.354223 -0.026594 -0.068729 0.270095 -0.139519 0.216785 -0.248493 0.354916 0.021283 0.168621 -0.053771 0.205477 -0.116588 0.148795 -0.047832 -0.017513 0.010160 0.041836 0.255047 0.306403 0.357139 -0.048855 0.004740 -0.048242 0.408943 -0.169388 0.171054 -0.147374 0.058691 -0.150044 -0.042859 -0.045466 0.047991 0.038052 0.099146 0.199794 0.056722 0.401299 0.127135 0.110572 -0.171050 0.053960 0.081460 -0.106334 -0.074289 -0.021300 -0.003243 -0.043417 0.214599 0.125958 -0.406423 0.144324 0.121351 -0.004310 0.020505 0.072146 -0.119379 -0.043837 -0.314776 0.202719 0.155926 -0.026551 0.109806 -0.019527 -0.132549 0.297222 -0.484414 -0.093967 -0.053273 0.140852 0.020307 0.152318 -0.139798 0.137627 0.013861 -0.367395 0.046137 -0.112371 0.066754 0.165192 -0.302635 -0.188216 0.208790 -0.326314 -0.196976 0.065407 -0.133779 0.302022 -0.233133 0.074580 -0.093967 0.005968 -0.073140 -0.311326 0.044728 0.054261 0.017342 -0.159396 -0.227098 0.026600 -0.368698 0.152105 -0.071071 -0.214996 -0.091962 0.196438 0.167026 -0.097928 0.083277 -0.128449 -0.345754 -0.163129 -0.028568 0.252482 0.018339 -0.176662 -0.183434 -0.161741 -0.101728 0.114177 0.160654 0.154770 0.026847 0.306509 0.203177 0.147642 0.136170 
