1000 300
， 0.001817 0.126493 0.057636 -0.158955 -0.033884 -0.139531 -0.161882 -0.093825 -0.127333 0.014757 0.021553 -0.008556 0.023200 0.065136 0.051282 0.111670 -0.119642 -0.021140 -0.175442 -0.007632 0.263248 -0.039739 -0.077724 -0.030788 0.124075 0.086790 0.086834 -0.104764 -0.060238 -0.021277 -0.092064 -0.019712 -0.130028 -0.025002 -0.070694 0.190240 0.211882 -0.291040 -0.064757 0.037483 -0.131418 -0.086387 -0.212100 0.104373 0.068413 -0.026264 -0.177411 0.044033 0.052305 0.079478 0.008841 0.020143 -0.196927 0.223974 0.048441 0.027491 -0.121688 0.002289 -0.103343 0.098263 0.009455 0.114527 0.093439 -0.074822 -0.111437 -0.046814 0.016476 -0.324272 0.064816 0.079626 -0.052777 0.119524 -0.227457 -0.045036 -0.001166 0.224711 -0.149668 -0.217368 -0.145059 -0.009360 0.063969 0.040754 -0.126675 -0.055699 0.092770 -0.016542 -0.183112 0.088193 -0.050259 0.093042 -0.021391 0.101533 -0.276944 0.008786 -0.160790 -0.079871 0.238279 -0.164342 0.196749 -0.099911 0.009943 0.032587 -0.024465 -0.053899 0.073414 0.123510 0.074431 -0.002344 0.170365 0.136271 -0.086435 -0.018434 0.155567 -0.125927 0.095809 0.052382 0.026462 0.059298 0.034018 -0.122544 -0.002551 0.082478 0.015610 0.195257 -0.047981 0.175172 0.068492 0.106416 -0.082084 0.026430 -0.304402 0.117629 0.125433 0.101018 0.030700 0.046811 -0.024371 0.088446 0.090249 0.047167 0.035242 0.091173 -0.058055 0.063899 -0.083624 -0.060427 0.169286 0.157654 0.060698 -0.052982 0.000796 0.064582 0.107883 0.006424 -0.032896 0.053073 0.157879 -0.127721 -0.017854 -0.116801 0.109093 -0.180076 0.092334 -0.084268 0.064584 -0.195535 0.008099 0.122200 0.281426 -0.234703 0.103330 -0.074590 -0.041578 -0.124010 0.162146 -0.175506 -0.084931 -0.026996 -0.124163 -0.203333 -0.229697 0.137901 0.035553 0.243828 0.151215 0.159606 0.205180 0.122535 0.041946 -0.135901 0.205361 -0.178092 0.210522 0.041579 -0.108699 -0.004565 0.005732 -0.073108 0.198474 -0.174216 -0.270786 0.119361 0.146290 -0.158222 -0.125912 -0.031111 0.081070 0.176841 0.147035 -0.085326 0.099490 -0.020991 0.028863 0.012265 -0.170149 0.272413 0.083028 -0.053422 -0.002799 0.002550 0.331771 -0.095086 -0.254696 0.030962 0.156097 -0.129083 0.086204 -0.239154 -0.116466 -0.149270 0.200149 -0.172275 -0.145666 0.009077 -0.057063 -0.049059 -0.060870 0.233339 0.000559 0.059685 0.076491 0.281257 0.011633 0.076567 0.217152 -0.001673 0.123993 0.104086 -0.101182 -0.021598 -0.132818 0.004361 0.115213 0.010072 -0.051638 -0.135549 0.212254 0.182119 0.253416 -0.110607 -0.005841 -0.188342 -0.017962 0.063155 -0.139469 -0.073815 0.174036 -0.058781 0.062342 -0.133282 -0.084231 -0.000439 0.336193 -0.097220 0.124969 -0.036459 0.106288 0.111222 -0.003781 0.060980 0.346639 0.076591 -0.057064 -0.105080 -0.232490 0.314404 0.173070 0.005376 0.049732 0.188483 -0.007270 -0.091175 -0.082966 0.060262 0.104948 -0.072683 -0.040513 -0.024515 -0.172744 0.186213 
的 0.033872 -0.080880 0.010498 -0.173498 -0.016556 0.010948 -0.095279 -0.093525 -0.013191 0.009634 0.154210 0.063726 0.094022 0.027378 -0.000276 0.127504 -0.108631 -0.141659 -0.176601 0.000568 0.208315 -0.112912 -0.005526 -0.074923 0.081527 0.174941 -0.016914 -0.015164 -0.079040 -0.023839 0.031715 0.119478 -0.189922 0.155478 0.020544 0.042403 0.148524 -0.166429 0.136075 -0.036155 -0.050718 0.111083 -0.318643 0.088489 0.096006 0.023782 -0.299931 -0.063054 0.141494 0.123249 0.137935 -0.021713 0.078097 0.199493 -0.084000 0.189915 -0.123202 0.010795 0.054377 -0.031913 0.114535 0.140927 0.116199 -0.100684 -0.003318 -0.115059 -0.012888 -0.183922 -0.109973 0.095760 0.068773 0.182340 -0.043491 -0.155920 0.038309 0.025852 -0.083514 -0.172650 -0.151255 -0.014120 0.234820 0.159241 -0.116853 -0.072258 0.139350 -0.022062 -0.148955 0.217888 0.009484 0.159449 0.034059 -0.009839 -0.169847 0.074816 -0.038633 -0.080127 0.086383 -0.067346 0.219573 -0.061870 0.060203 0.081324 -0.069704 -0.014530 0.022563 0.225188 -0.039488 0.163112 0.133632 0.031400 -0.047145 -0.013748 0.149926 -0.238670 0.115468 0.028758 0.072495 -0.101806 0.128481 0.022316 -0.104684 0.095695 0.060965 -0.004121 -0.011929 0.222160 -0.010527 0.126147 -0.200400 -0.121956 -0.211236 0.061395 -0.057045 0.108579 0.043520 0.118173 -0.020933 0.304320 0.088241 0.005807 0.026347 0.086766 -0.006332 0.199701 -0.135878 -0.002447 0.103682 0.092779 -0.103121 -0.092865 -0.107526 0.168293 0.049648 -0.061217 -0.033937 0.122185 0.174808 -0.208042 -0.068645 -0.088882 0.038158 -0.039042 -0.057407 -0.060062 0.060594 -0.018431 -0.034911 0.184809 0.253143 -0.199677 0.342733 0.013822 -0.024543 0.047760 0.140563 -0.115563 0.148055 -0.059493 -0.058985 -0.160848 -0.146299 0.044814 0.020411 0.006771 -0.023599 0.023817 0.318594 0.170676 -0.066909 -0.134157 0.216575 -0.171193 0.156605 0.058419 -0.130033 -0.085081 -0.065900 -0.003681 0.078833 -0.064945 -0.158971 0.104760 -0.063780 -0.044694 -0.024145 0.050882 0.145531 0.170329 0.011506 0.008089 0.172309 0.042626 0.002723 -0.105812 0.033341 0.129292 0.117470 -0.078578 -0.126861 -0.160668 0.359847 -0.012705 -0.247120 0.063947 0.141502 0.011520 -0.048904 -0.188694 -0.034286 -0.198639 0.165392 -0.303703 -0.005080 0.073359 -0.225071 -0.131063 -0.057193 0.181317 -0.088855 -0.046898 0.170696 0.160317 0.151241 -0.020142 0.144994 -0.118034 0.025459 0.033463 -0.329627 -0.036282 -0.097797 -0.054720 0.089478 -0.072086 0.091480 0.026246 0.138471 0.061414 0.203888 -0.105693 0.072652 -0.114081 0.066664 0.019014 -0.168441 -0.068203 -0.018790 -0.040221 0.121485 -0.050267 -0.116553 -0.001139 0.352854 -0.128688 0.074258 -0.148561 0.022120 0.072438 -0.146018 -0.041768 0.225902 0.096192 -0.046707 -0.162343 -0.242106 0.372742 0.109456 -0.040759 0.132676 0.168187 0.088176 0.009930 -0.141039 0.002529 0.052608 -0.086548 -0.023647 -0.110906 -0.116245 0.031155 
。 0.112638 0.015553 -0.035014 -0.123741 -0.087958 -0.055435 -0.144418 -0.075014 0.028244 -0.121290 0.073529 0.097053 0.009985 0.075083 0.124264 0.135923 -0.080436 -0.046900 -0.133966 -0.039431 0.211452 -0.132348 -0.018923 -0.158648 0.217450 0.116671 0.070270 -0.111704 -0.090106 -0.123640 0.013671 0.068840 -0.039654 0.025160 -0.063358 -0.106502 0.093643 -0.303514 0.046008 0.029631 -0.042310 -0.005747 -0.231924 0.189921 0.100753 -0.025803 -0.268736 -0.098133 0.193560 0.258019 0.136942 -0.020551 -0.005759 0.186267 -0.033021 0.098934 -0.048456 -0.113627 0.080562 0.006371 0.014717 0.181123 -0.026406 -0.151206 -0.020247 -0.042459 0.036013 -0.171665 0.035397 -0.105900 0.095915 0.248450 -0.022136 0.024820 -0.011306 0.103291 -0.180721 -0.160327 -0.154521 -0.052649 0.115556 0.265038 -0.205855 -0.206569 0.051123 -0.029026 -0.197421 0.146113 0.086655 0.046300 0.128061 -0.171062 -0.216999 0.069646 -0.122272 -0.117313 0.009440 -0.108397 0.207434 -0.049266 0.060286 0.122329 -0.079507 -0.070186 0.098559 0.179667 -0.057381 -0.038799 0.081041 -0.043598 0.076156 0.062824 0.085756 -0.158954 0.183170 0.021594 0.053628 0.005221 0.142189 -0.178625 -0.042986 0.188385 0.002991 0.028460 -0.059953 0.226171 -0.040827 0.137424 -0.202879 0.055030 -0.121611 0.019703 -0.002693 0.081097 0.137162 0.039411 -0.044399 0.041005 0.068665 0.029475 0.013818 0.050400 -0.091543 0.009006 -0.200270 0.031637 0.036149 0.182612 0.145992 -0.080157 -0.234815 0.167247 0.118597 -0.069468 -0.017403 0.113117 0.001250 -0.113164 -0.051556 -0.105898 0.033765 -0.089337 -0.002214 -0.082729 0.009969 -0.077890 -0.005109 0.085834 0.219903 -0.144221 0.215558 0.096731 0.013795 -0.080056 0.106951 -0.160937 0.101288 0.020139 0.001146 -0.245145 -0.189763 0.054600 -0.023188 0.008835 0.059334 0.263135 0.231433 0.170439 -0.086141 -0.156293 0.071071 -0.132122 0.166657 -0.029384 -0.108614 -0.127066 -0.016005 0.092472 0.087777 -0.163146 -0.178943 0.047598 0.106606 -0.116408 -0.183830 0.068469 0.064430 0.146527 0.103419 -0.021834 0.143809 -0.026687 0.001147 -0.058386 -0.169244 0.238874 -0.036500 -0.183751 0.019225 -0.088196 0.370432 -0.015357 -0.184191 0.128750 0.016854 -0.076165 0.093663 -0.248744 -0.063867 -0.099774 0.116345 -0.033150 -0.142395 0.099547 -0.153288 -0.017549 0.012721 0.147636 -0.026184 0.013580 0.124324 0.131304 -0.005823 0.153840 0.261825 -0.030956 0.125114 -0.007332 -0.148794 -0.094637 -0.247729 0.114294 -0.034034 -0.055899 0.084240 -0.034303 0.282459 0.051792 0.175841 -0.088624 0.044295 -0.176599 0.112020 0.060074 -0.246788 -0.066095 0.083030 -0.095286 -0.026607 0.041691 -0.110366 -0.102395 0.244162 -0.010219 0.103905 -0.074171 -0.042382 -0.048159 -0.023176 0.081497 0.291042 0.101386 -0.038092 -0.161234 -0.183223 0.249753 0.074224 -0.176576 0.022131 0.274906 0.025643 -0.095435 -0.176686 0.090299 0.108494 -0.133009 -0.005908 0.059709 -0.158017 0.089282 
、 -0.024200 0.138164 0.276298 -0.152370 -0.261292 -0.044565 0.000183 0.083191 0.137788 -0.150363 -0.063685 -0.065924 0.028146 -0.061050 0.101027 0.162948 0.172773 -0.320288 -0.158283 -0.156346 0.112478 0.229806 0.032739 0.027467 -0.091698 0.271902 0.140847 -0.163649 0.017532 -0.288936 0.066115 0.022477 -0.373296 0.109370 -0.123693 0.198746 0.163407 0.013519 -0.075251 -0.076225 -0.104052 0.111619 0.171266 -0.144406 0.080180 -0.047365 0.136579 -0.102775 0.127426 0.309293 -0.277339 -0.056970 0.030254 -0.100373 0.088767 0.150211 -0.011667 0.033915 -0.141527 -0.135182 0.076322 0.404125 0.039182 -0.069411 0.103559 -0.260291 0.175527 -0.029506 0.160379 -0.011359 0.500347 0.199552 -0.288254 -0.113380 -0.240812 -0.067824 -0.183228 0.005838 0.252991 -0.254019 0.214961 0.136775 -0.122038 -0.195492 0.124724 -0.314990 0.067550 0.125733 0.172626 0.256256 -0.150002 -0.013882 -0.315508 0.222491 -0.150958 -0.040258 -0.087076 -0.077299 0.207979 0.055606 -0.149573 0.042205 0.162875 0.262155 0.144384 0.060487 -0.110017 0.126795 0.170442 0.155989 -0.007953 -0.081891 0.119599 -0.022808 -0.112920 0.178305 0.186159 0.203634 -0.144547 -0.257822 0.131494 0.376916 0.270047 0.177422 0.162634 0.006451 0.189672 -0.077865 -0.036483 -0.010679 0.283397 0.051273 -0.095523 0.540073 0.170223 0.098972 -0.166979 0.155842 -0.066700 0.073587 -0.384611 0.083934 -0.094027 -0.014145 -0.330941 0.185789 -0.009366 0.087854 0.000026 -0.272936 -0.669370 0.224151 -0.195776 0.052189 -0.284999 -0.186816 -0.073647 0.094740 -0.009869 0.092001 -0.017088 -0.008388 -0.082359 -0.425192 0.064240 -0.151971 0.108335 0.107430 0.410298 -0.354360 0.353811 0.007720 -0.079976 0.046972 0.234899 -0.235097 0.022265 -0.053945 -0.075867 -0.137392 -0.590720 -0.091941 -0.135826 0.022150 0.107221 0.168585 0.066396 -0.069966 -0.127854 0.032439 0.310488 0.153453 0.045137 0.135039 -0.200373 0.004881 0.036985 -0.231467 -0.060825 -0.056440 -0.065792 0.340056 -0.135786 -0.161886 -0.099059 -0.130808 -0.069880 0.296989 -0.102277 0.253362 -0.018884 0.199126 -0.545231 -0.197180 -0.104954 0.016595 0.210091 -0.086386 -0.270246 -0.034024 0.382705 0.044465 -0.368797 -0.047039 -0.029400 -0.135109 0.080333 -0.041421 0.163664 -0.087885 0.233405 -0.078276 -0.124289 -0.073634 -0.223552 -0.063714 0.084759 0.024212 0.164375 -0.247472 0.252935 0.211124 -0.045068 -0.019371 0.071466 -0.095347 0.136642 0.219503 -0.062257 -0.013821 0.059529 -0.153443 0.084554 -0.031032 -0.142811 -0.239827 0.167801 -0.040508 0.147608 -0.016334 0.126471 -0.033145 0.008809 -0.020166 0.064007 0.214164 -0.292443 -0.269676 0.097802 -0.170625 -0.039641 -0.055698 0.520085 -0.226742 0.084227 -0.237138 0.054884 0.042267 0.190206 0.003244 0.351594 -0.047690 -0.100526 -0.198160 -0.293934 0.362040 -0.086951 0.057449 0.113334 0.196201 0.144405 -0.013252 -0.169385 0.143058 0.274041 -0.178010 -0.099737 -0.228894 -0.019028 0.027365 
在 -0.039267 0.024735 -0.044926 -0.145441 -0.033517 -0.188062 -0.221200 -0.097472 -0.021015 -0.125898 0.139098 0.084951 0.132419 -0.083322 0.073061 0.066466 0.053404 -0.166082 -0.221725 -0.053854 0.165626 -0.123138 -0.029124 0.054428 0.160188 0.162601 0.111169 -0.067379 -0.238022 0.003734 0.113183 0.029712 -0.149822 -0.090399 -0.060983 -0.150436 -0.003572 0.012258 0.088346 0.006707 -0.162463 0.058969 -0.076422 0.111272 0.299244 0.065890 -0.193092 -0.041384 0.110403 -0.148313 0.036252 0.139080 0.092338 0.181536 -0.081872 0.146220 -0.050450 -0.070208 0.150541 0.009761 0.070908 -0.081420 -0.061602 -0.120335 0.194294 -0.180971 0.001400 -0.281204 -0.018861 0.178706 -0.105339 0.084224 -0.079528 0.071122 -0.001739 0.299332 -0.090981 -0.200426 -0.021188 -0.004043 0.019217 0.211575 -0.089036 -0.027915 0.116288 -0.072646 -0.135856 0.142101 0.068997 0.019795 0.046461 0.066734 0.064575 -0.193730 -0.238777 -0.111568 0.090639 -0.289986 0.185001 -0.114063 -0.096312 0.098665 -0.097549 -0.009242 -0.006532 0.286346 0.088497 0.063162 0.175846 0.062389 -0.047318 -0.165892 0.174888 -0.192560 0.054130 0.161561 -0.017331 -0.217239 0.265242 -0.032563 -0.089688 0.305291 0.092903 -0.140744 0.043902 0.010562 0.136365 0.043700 -0.074481 -0.110916 -0.154133 -0.003699 -0.033859 0.164305 0.114131 0.139093 -0.046943 0.170102 0.145294 -0.041963 0.054412 0.001576 -0.087132 0.111284 -0.169401 -0.175556 0.135151 0.125003 -0.073811 -0.100856 -0.212522 0.045742 0.144591 -0.075785 -0.138641 0.196920 0.077360 -0.097106 -0.155382 -0.067528 0.099907 0.110343 -0.179292 -0.109623 -0.107501 -0.031331 0.051518 0.018309 0.104400 -0.144876 0.311229 0.208157 -0.144609 0.014502 0.065829 -0.159918 0.037954 -0.006565 -0.098511 -0.216315 -0.145517 0.076055 0.082460 0.246763 0.003556 0.162670 0.133088 0.308283 -0.026433 -0.100585 0.201333 -0.039610 0.195116 0.004102 -0.033802 -0.196755 0.006863 0.036432 -0.065110 -0.144549 -0.061688 0.126550 0.167233 -0.083341 -0.039523 -0.191409 0.340573 0.309445 0.177339 -0.144437 -0.101953 -0.120767 0.077513 0.055477 -0.120604 0.256043 0.027864 -0.085769 -0.266476 -0.086981 0.299665 -0.104689 -0.238280 -0.089828 0.212345 -0.139289 0.018328 -0.184047 0.030301 -0.319482 0.020154 -0.034520 -0.131036 0.101821 -0.287430 0.026882 0.115764 0.136275 -0.080674 -0.076303 0.081495 0.260792 0.044858 -0.020776 0.096413 -0.056460 0.033367 0.121669 -0.225040 -0.019153 0.009457 0.010897 0.040051 -0.072386 0.043629 0.275782 -0.043240 0.038640 0.142095 -0.071130 -0.179008 -0.070368 0.244544 -0.064975 -0.053431 0.063744 0.123496 -0.004607 0.088778 -0.128915 -0.394577 0.136513 0.462523 -0.054177 0.104224 -0.070761 0.124981 0.238070 -0.254031 -0.069766 0.260396 0.275915 -0.159667 -0.095609 -0.164633 0.189185 0.093673 -0.063779 -0.029318 0.188901 -0.104343 0.107456 -0.182438 -0.092398 0.279946 -0.086445 -0.131790 0.010569 -0.161788 -0.044736 
和 -0.151804 0.024969 0.139791 -0.316604 0.011992 -0.000378 -0.228649 -0.023326 -0.049311 0.046951 0.000354 0.084401 0.139671 0.118048 0.006740 -0.034494 0.195516 -0.274501 -0.237882 -0.008336 0.164053 0.212630 -0.155697 -0.066795 -0.085273 0.164631 0.098512 -0.223247 -0.048629 -0.226790 -0.007702 -0.024584 -0.257349 0.108283 0.040678 -0.033289 0.190086 -0.000495 -0.073210 -0.156545 -0.051925 0.090944 -0.137595 -0.180435 0.043814 -0.059881 -0.080976 0.051344 0.127966 0.228258 0.096247 -0.084489 0.115112 0.026163 -0.078475 0.086834 -0.042988 0.052001 -0.003968 -0.043922 0.127191 0.189007 0.050188 -0.184186 0.008772 0.029107 -0.008791 0.084022 0.095845 0.164778 0.189096 0.215519 -0.288661 -0.114064 -0.252690 -0.024190 -0.056367 0.042237 0.004604 -0.063266 0.291880 0.269731 -0.308820 -0.202460 0.226340 -0.133384 -0.080340 0.177097 0.037569 0.185181 -0.061742 0.035637 -0.201269 0.010991 -0.142703 0.046369 0.099156 -0.144866 0.318841 -0.054901 -0.158642 0.043252 0.006062 0.150910 0.090127 0.212970 -0.051804 0.163156 0.116681 0.279815 0.039255 -0.061416 0.045229 -0.047915 0.020534 0.125772 0.197486 0.073553 -0.111798 -0.101939 0.071643 0.224135 0.169941 0.081269 0.000481 0.188784 0.190510 -0.166342 0.000520 -0.018774 -0.090525 0.027082 -0.033990 0.317121 0.289874 0.194970 0.052830 0.250845 0.027787 0.106613 -0.097715 0.184972 -0.041786 0.014359 -0.233580 0.038540 0.216449 -0.093028 -0.165281 -0.084184 -0.162214 0.110664 -0.196017 -0.030089 -0.157737 -0.021138 0.144728 -0.064625 -0.005756 -0.010349 0.292742 -0.081508 0.032923 -0.372278 -0.004932 -0.118567 0.021765 0.197051 0.256970 -0.210446 0.254782 0.028421 0.033122 0.145181 0.213829 -0.187745 -0.066163 -0.085366 -0.057522 -0.039384 -0.475714 -0.136066 -0.041702 0.051432 0.005029 0.106488 0.130467 -0.109258 -0.050211 -0.009504 0.236915 -0.044862 0.054749 -0.015351 -0.285240 -0.112070 0.077130 -0.107007 0.208371 0.099820 -0.056030 0.269578 -0.053714 -0.353958 -0.023707 0.100712 -0.066134 0.163697 -0.068373 0.105092 0.117646 0.188861 -0.167350 -0.114552 -0.043835 0.041998 0.045939 0.012203 -0.233576 -0.130607 0.381564 0.174081 -0.332820 0.217133 0.126853 -0.069620 0.108159 -0.135099 -0.039794 -0.125598 0.302426 -0.227285 -0.043019 -0.022416 -0.337312 -0.199728 0.005078 0.237343 0.090281 -0.193992 0.213959 0.232748 0.050746 -0.007314 0.050095 -0.229919 0.088040 0.136096 -0.272958 0.058508 -0.028195 -0.170832 0.033575 0.128538 -0.071649 -0.187295 0.061271 -0.068741 0.193480 -0.056751 0.296385 -0.118809 0.150617 0.015900 -0.109917 -0.161767 -0.065736 -0.056833 0.263601 -0.086306 -0.067754 -0.067468 0.459449 -0.208015 0.102297 -0.062620 -0.011038 0.112895 0.067759 -0.118393 0.495994 0.069795 0.040681 -0.051438 -0.302914 0.344277 0.083161 0.128789 0.112459 0.227545 0.140166 0.087333 -0.186192 0.041879 0.204319 -0.054529 -0.125421 -0.116591 -0.050387 0.041185 
% -0.173196 0.115632 0.089458 0.184951 -0.531738 -0.365631 -0.065902 -0.131769 0.161554 -0.096376 -0.115851 0.095425 -0.154642 -0.182232 0.159419 -0.134247 0.157264 -0.234748 -0.380721 -0.073711 -0.048096 -0.243503 -0.017834 -0.150243 0.030332 -0.088143 0.166369 -0.141282 0.099379 -0.055144 -0.229202 0.120397 0.028751 0.319513 0.069899 0.152054 0.206320 -0.333858 -0.393971 -0.117254 -0.217662 0.097307 -0.174337 0.188526 0.424969 -0.244745 -0.033976 0.071831 -0.078617 0.280711 -0.038351 -0.216546 -0.282591 -0.150076 -0.423989 -0.145813 -0.403159 0.157130 0.187298 -0.165506 0.016968 0.269287 0.250034 -0.226572 0.159722 -0.149082 -0.160266 0.010775 0.353985 -0.030980 -0.021804 0.001709 -0.257623 0.143087 0.103174 -0.175333 -0.202737 0.165842 0.030679 0.050650 0.065531 0.022982 0.092369 -0.622483 0.087703 0.033022 -0.522004 -0.086149 0.205237 -0.057721 -0.068281 0.105220 -0.368782 0.069650 -0.130023 -0.138261 0.295431 -0.076536 0.423864 0.074689 0.078308 0.259044 0.239646 -0.317633 0.199073 0.290347 0.087299 0.106594 -0.104016 0.365413 0.255860 0.325374 -0.042103 -0.275113 0.230288 -0.316636 0.065131 0.108541 -0.053579 0.029952 0.090688 0.403563 -0.026270 0.460610 -0.238849 0.116609 -0.038462 0.008229 -0.264141 -0.148485 -0.259683 -0.012776 0.196613 0.359513 0.125381 0.156076 0.035793 0.104939 -0.397828 -0.004774 0.097127 0.097150 -0.155796 0.018665 0.361382 -0.126453 0.313383 0.342645 0.251954 -0.084431 -0.166096 0.396096 -0.200671 -0.202064 -0.032784 -0.160296 0.236723 -0.108662 0.190160 0.133320 0.059805 -0.282984 0.544071 -0.525396 -0.214047 -0.332485 -0.198831 0.189064 -0.127026 0.051432 0.258612 -0.171383 -0.144501 0.197727 0.085581 -0.114551 0.140318 -0.045621 -0.076932 -0.646214 0.097415 0.341915 -0.232831 0.183436 0.575338 0.172087 -0.166426 0.153955 -0.090460 0.144223 0.239949 -0.183554 0.196028 -0.013936 -0.283570 0.261858 -0.130991 0.342981 -0.110613 0.137139 -0.280628 0.099370 0.146402 -0.040568 -0.174601 0.246540 0.278779 0.104288 0.033988 0.044621 -0.037395 -0.064451 -0.299066 -0.143827 0.093420 0.062876 0.095197 -0.097498 -0.223122 0.146150 0.224075 -0.137297 0.194272 0.185303 0.189948 -0.149415 -0.049577 -0.170655 0.160887 0.035886 -0.064924 -0.060417 -0.266384 0.204448 -0.115539 -0.026158 0.261271 0.106636 -0.230433 0.056411 0.198095 0.440427 0.024041 0.037322 0.273145 -0.072638 -0.053270 0.258199 -0.185743 -0.183114 -0.059976 0.062610 0.143061 -0.046655 0.164350 0.211830 0.135988 0.099328 0.521968 -0.057476 -0.184740 -0.068473 0.112657 0.192884 -0.128923 -0.153646 -0.061936 -0.195669 0.257118 -0.259278 -0.055194 -0.179666 0.070243 0.162354 0.337592 -0.093006 0.025605 0.009392 0.317788 0.157518 0.083314 -0.171253 -0.048788 0.097529 -0.488482 0.347648 0.172983 -0.032572 -0.180372 0.307876 -0.315814 -0.017630 0.302213 0.040777 0.109988 0.106851 -0.202292 0.042721 0.175184 -0.002996 
： 0.120948 0.119991 -0.126583 -0.175856 -0.341719 0.318953 0.206889 0.075217 -0.072528 -0.101333 -0.170280 -0.042654 0.008645 0.021552 0.431009 0.129515 0.185287 -0.319888 0.413624 -0.284717 0.324455 -0.222842 0.081652 -0.033016 0.190065 -0.053379 -0.044138 -0.166090 -0.168391 0.153437 0.043685 0.221687 0.049233 0.167603 -0.017571 -0.060496 0.214171 -0.407094 0.094001 -0.032169 -0.170027 0.201466 0.201988 0.066634 0.002657 -0.046552 -0.116950 -0.125712 -0.129988 0.254268 -0.071297 -0.002630 0.010159 0.252269 -0.248259 0.084040 -0.039682 -0.289924 0.231349 0.083100 0.055858 0.298450 -0.183971 -0.381901 0.195055 -0.109208 0.088677 -0.246263 -0.116727 -0.432168 0.376192 0.442011 -0.008401 0.197890 0.269927 0.029463 -0.148319 -0.245730 0.135853 -0.154533 0.054834 -0.093525 -0.386429 -0.402384 -0.009424 -0.001200 -0.029621 0.263397 0.427436 0.041498 -0.048026 -0.231771 -0.122786 -0.108100 0.013904 0.109358 0.105730 -0.089729 0.357981 -0.109176 0.020315 0.133329 -0.150106 0.081814 -0.024960 0.279284 -0.000869 -0.074428 -0.157105 -0.011153 -0.167707 0.014859 -0.169662 -0.088994 0.412869 0.031328 0.231285 -0.058746 -0.079103 -0.520376 0.113679 0.293835 0.028093 -0.057537 0.026876 0.154553 0.066084 -0.386257 -0.004543 0.038504 -0.142168 -0.224605 -0.456446 -0.049304 0.040787 0.070138 -0.086912 -0.009544 0.065273 0.211957 0.289495 0.388404 -0.373132 0.070408 -0.131347 0.009737 0.150582 0.093100 0.248519 -0.114834 -0.314699 -0.090900 0.016885 0.050729 -0.102511 0.276427 -0.309220 0.031297 0.043351 -0.120261 -0.277707 -0.171978 -0.124090 -0.308713 -0.143154 0.045189 0.018097 0.168573 -0.058571 -0.250370 0.057977 0.089116 -0.137355 0.164310 0.047857 -0.404338 0.202694 0.229843 0.155831 -0.104639 -0.241598 0.028175 -0.089961 0.039043 0.315554 -0.014307 0.329788 0.251783 0.350554 -0.148706 -0.170112 -0.217444 0.013686 0.248147 -0.229707 -0.151805 -0.119617 -0.082279 -0.059695 -0.131848 -0.199818 0.313177 0.328433 0.031206 0.167470 0.058219 0.058981 0.025662 -0.324805 -0.229590 0.380623 -0.412127 -0.288685 -0.136300 0.002017 0.167705 0.205014 -0.215061 -0.036928 -0.183370 0.049924 -0.084810 -0.237528 0.091200 -0.072847 -0.132548 0.002105 -0.053552 0.026233 -0.202571 0.172127 0.120270 -0.195479 0.108371 -0.162104 -0.116339 0.311124 0.094662 -0.003792 -0.098528 0.044008 0.093313 0.037717 -0.092054 0.097692 0.115095 -0.174233 0.275014 -0.205442 -0.137366 -0.543222 0.247594 0.010797 -0.442753 0.415755 -0.152716 0.008161 -0.027094 -0.156397 -0.265207 0.260770 0.032237 0.189403 0.175998 -0.128654 0.037367 0.266832 -0.085127 0.014645 -0.025119 -0.040524 0.085863 0.250074 0.133144 0.138068 0.221293 -0.103793 -0.052984 -0.038350 -0.003490 0.187053 -0.090242 -0.204223 -0.222090 0.068024 0.257974 0.125016 -0.148809 -0.105349 0.165856 -0.132332 -0.275911 0.357230 0.059446 0.243522 -0.098907 -0.158654 -0.377853 -0.465244 0.189590 
了 -0.188108 -0.094589 0.127933 -0.065042 0.173621 0.012486 -0.137023 -0.049751 -0.018209 -0.243616 0.263413 0.034657 0.073954 0.136648 -0.043946 0.128878 -0.049955 -0.144979 -0.237201 -0.047090 0.226989 -0.310304 -0.105514 0.104197 0.030324 0.294872 0.126622 -0.204894 -0.192401 0.085759 0.007790 0.157997 -0.044056 0.164871 0.026347 -0.160900 0.103778 -0.058736 0.216923 -0.079818 0.024782 0.130919 -0.108346 -0.000859 0.236923 -0.194647 -0.160778 -0.050051 0.201254 0.316597 0.275001 -0.074924 -0.018890 0.019506 0.009888 0.182608 -0.122917 -0.227707 0.037218 -0.087270 0.156331 0.220369 -0.067586 -0.038552 -0.041800 -0.181893 0.022713 -0.191006 0.058515 0.289479 0.113109 0.088878 -0.209543 -0.133058 -0.080629 0.104027 0.041527 -0.007739 -0.197447 -0.108405 -0.038668 0.231182 -0.058402 0.045727 0.022209 0.002682 -0.063954 0.160156 -0.071105 0.076007 0.127381 0.187340 0.029472 0.190761 -0.157218 -0.094832 0.000636 0.101358 0.228851 -0.158846 0.050841 -0.024846 -0.021949 0.017614 -0.057802 0.262372 0.056576 0.016338 0.065153 -0.026662 -0.069930 -0.156764 0.267883 -0.203578 0.058607 0.042648 0.086438 -0.276445 0.227759 -0.031115 0.083772 0.122811 -0.013429 -0.004116 -0.143475 0.238940 0.008231 0.254730 -0.132139 -0.004534 -0.079560 -0.090929 -0.084939 0.230913 0.158374 0.209112 0.054178 0.451335 -0.230315 0.032005 -0.148889 0.115555 0.012893 0.358418 -0.154104 -0.033188 0.178991 0.097172 -0.156557 0.067500 -0.175529 0.170003 -0.068897 0.071277 0.044918 0.065595 0.255500 -0.243092 0.012096 -0.083552 0.127727 0.080036 -0.110785 -0.094193 -0.071346 0.201715 -0.127679 -0.105986 -0.004364 -0.146591 0.225371 -0.206403 -0.144490 0.125837 -0.047293 0.010828 0.000910 0.016456 -0.076518 0.000538 -0.143097 -0.038185 0.091129 0.131365 -0.051827 0.139453 0.358424 0.141172 -0.111610 -0.254641 0.023520 0.163804 0.082360 0.056522 -0.346851 -0.121604 -0.247365 -0.049937 0.149338 -0.171928 -0.316762 0.231784 -0.058205 0.047868 -0.250576 0.009477 0.199879 0.288017 0.269942 -0.109023 0.010489 -0.038049 0.119893 0.085423 -0.064259 0.234180 0.035812 0.001605 -0.068403 -0.064415 0.350936 0.005280 -0.355648 -0.017758 -0.005072 0.155900 0.012842 -0.208693 -0.365048 -0.169803 -0.027229 -0.290901 -0.128593 0.109735 -0.316699 0.012501 -0.173737 0.126226 -0.151946 0.041197 0.030997 0.048961 0.107323 0.052410 0.195715 0.047353 -0.176150 -0.048380 -0.363386 0.080512 0.089439 -0.116218 0.194269 -0.053934 0.100802 0.005739 0.212539 0.106964 0.257836 0.014220 -0.085717 -0.107144 0.109461 -0.025638 -0.157477 0.024289 0.027651 0.110569 0.136044 0.057365 -0.225328 0.160705 0.614980 -0.025427 0.023564 -0.244462 0.117234 0.056309 -0.177763 -0.054566 0.084458 0.228218 0.001849 -0.154855 0.075390 0.106137 0.160005 0.138770 -0.103165 0.325420 0.069483 -0.118931 -0.082011 0.064435 0.159589 -0.170193 -0.100733 0.036768 -0.108533 0.030379 
“ 0.246509 0.097367 -0.044059 -0.142067 0.118863 -0.113104 -0.132592 0.091544 -0.048104 0.021840 0.133106 -0.057066 0.295826 -0.004915 0.035478 0.088723 -0.246379 -0.056989 -0.023868 0.033153 0.207208 -0.032163 -0.081258 0.166848 0.227983 0.115929 -0.233927 -0.045193 -0.185383 -0.208238 0.048297 0.092864 -0.142824 -0.093154 -0.074335 0.192178 0.301692 -0.301126 0.225149 -0.381394 0.016602 0.307658 -0.259392 0.078010 0.010740 -0.236817 -0.277169 -0.261627 0.000622 0.333269 -0.016094 0.487179 0.068977 0.111846 -0.187122 0.088753 0.049427 -0.278123 -0.097306 0.041173 0.050081 0.270334 -0.043511 -0.138545 0.325018 0.047372 0.136237 -0.169978 -0.034634 -0.163143 0.216739 -0.108562 0.161422 -0.122510 0.083757 0.109618 -0.060450 0.056654 -0.128670 -0.087595 -0.370521 -0.153860 -0.289649 0.013663 -0.007380 0.015911 -0.189540 0.271440 0.229142 0.324598 0.101350 0.201135 -0.035750 0.148197 0.279484 -0.069642 0.064910 0.005060 0.064213 0.107965 -0.066138 0.156479 0.142311 0.234549 0.415568 0.268295 0.183692 0.006421 0.069512 0.179743 0.073815 -0.165682 0.245900 0.017895 0.019227 -0.124371 0.171136 -0.014213 -0.087809 -0.316420 -0.113634 0.241241 -0.021106 0.051283 -0.115702 0.188709 -0.203232 -0.034240 -0.350352 0.114815 -0.105613 0.030449 -0.332837 0.069011 -0.187539 0.003257 -0.108078 0.167526 0.108987 -0.015369 0.072205 -0.009474 0.248477 0.257708 -0.243163 0.048113 -0.012385 0.224961 0.045878 0.098774 -0.008025 0.129515 0.039543 -0.108869 -0.120363 0.006904 -0.086540 -0.058566 -0.302949 -0.089998 0.217054 0.042110 -0.180956 0.303333 0.147264 0.044902 -0.097496 0.070253 0.195827 0.068743 0.209342 0.174199 0.008000 -0.181183 -0.149554 -0.252792 0.216999 0.069172 0.141262 -0.328309 -0.068022 0.110856 -0.047989 -0.198846 0.377496 0.475631 0.010079 0.207221 0.005163 -0.076241 0.073666 -0.158305 0.026872 0.234073 0.061653 -0.195981 -0.087255 -0.084633 0.060187 -0.308675 -0.135710 0.268429 0.041597 -0.137031 -0.302514 -0.021585 0.078173 0.102063 0.118161 -0.133758 0.133471 -0.087941 -0.095666 -0.164356 -0.089997 0.080180 0.148949 -0.074207 -0.025358 -0.392438 0.251800 -0.013068 -0.306010 -0.324886 -0.111643 0.056047 -0.062381 -0.131872 -0.175958 -0.371770 -0.159930 -0.165735 -0.112903 0.034928 -0.089395 -0.068260 -0.105335 0.649332 0.002389 -0.159119 0.245660 -0.153489 0.041180 -0.109937 -0.033726 0.029064 0.044594 0.042824 -0.127852 -0.000458 -0.092874 -0.120926 -0.024988 -0.061770 0.172108 0.075837 -0.130021 0.127794 0.010936 -0.050134 -0.088592 0.054909 0.064557 0.067260 -0.233997 -0.146992 -0.032401 -0.147659 0.180771 -0.018960 -0.324987 0.200956 0.551896 -0.185468 0.112544 0.121393 -0.026677 -0.103237 -0.278423 -0.032829 0.325207 0.448311 -0.219360 -0.183366 -0.177949 0.246532 -0.044393 -0.218068 -0.151887 0.032483 -0.217555 -0.215951 -0.138010 -0.268160 -0.079389 -0.005031 -0.083811 0.192458 -0.059088 0.145621 
” 0.316258 0.082678 -0.128506 -0.159244 0.067271 -0.134508 -0.119489 0.144604 -0.018802 0.008134 0.153143 0.011165 0.247136 0.040920 0.131190 0.138130 -0.241163 -0.057379 -0.040115 0.041155 0.148905 -0.032222 -0.065699 0.069158 0.250059 0.066061 -0.245590 -0.026044 -0.193630 -0.190995 0.099549 0.076983 -0.113022 -0.051598 -0.057300 0.120175 0.250368 -0.252057 0.301614 -0.303239 0.054948 0.286667 -0.233773 0.245815 0.006547 -0.254403 -0.274911 -0.292865 0.028107 0.307772 -0.077241 0.409502 0.117638 0.155546 -0.212695 0.066334 0.048880 -0.306630 -0.050385 0.011597 0.052185 0.277529 -0.050300 -0.209229 0.235463 0.035056 0.184100 -0.115936 0.026374 -0.206558 0.187103 -0.071921 0.221263 -0.146970 0.041422 -0.005466 -0.084082 0.033901 -0.188551 -0.183513 -0.384111 -0.109756 -0.206775 -0.082995 -0.085779 0.065118 -0.167256 0.242253 0.156328 0.311400 0.210016 0.207683 -0.120190 0.107284 0.270357 -0.157870 0.056297 0.069252 0.035955 0.168224 -0.020836 0.159054 0.173525 0.207197 0.448276 0.313356 0.166367 -0.079604 0.092853 0.170216 0.149017 -0.131182 0.209055 0.003938 0.029397 -0.190444 0.096470 -0.028025 -0.151175 -0.292350 -0.078874 0.242068 -0.062699 0.006246 -0.080377 0.047893 -0.267316 0.022225 -0.372441 0.136225 -0.081384 0.100456 -0.302227 0.015661 -0.164485 -0.031932 -0.061721 0.255006 0.176841 0.032739 0.049985 -0.060673 0.160806 0.278161 -0.311527 -0.013944 -0.013343 0.198679 0.131474 0.052519 0.008054 0.203275 0.073319 -0.125375 -0.027183 0.005904 -0.103263 -0.056621 -0.341122 -0.151011 0.180930 0.070581 -0.189886 0.243297 0.215039 0.064529 -0.009256 0.000121 0.174105 0.088893 0.228458 0.247798 -0.036964 -0.166178 -0.152374 -0.294134 0.229446 0.015144 0.132453 -0.324751 -0.077399 0.116826 0.015817 -0.338648 0.408373 0.464406 0.105623 0.192675 -0.016351 -0.102968 0.089270 -0.184662 0.039894 0.229068 0.047159 -0.216316 -0.073921 -0.086603 0.098699 -0.321988 -0.111190 0.244542 -0.050966 -0.172095 -0.365132 -0.000655 0.129957 0.110761 0.111296 -0.120288 0.098054 -0.054203 -0.048597 -0.176890 -0.105533 0.069353 0.134632 -0.026524 -0.039871 -0.376399 0.239993 0.013784 -0.303230 -0.327633 -0.135286 0.097897 -0.080941 -0.126404 -0.218299 -0.410574 -0.092868 -0.181484 -0.139481 0.075900 -0.016787 -0.058102 -0.055483 0.609720 -0.032033 -0.109606 0.183506 -0.139329 0.090677 -0.094052 -0.006324 -0.038072 0.014115 0.053920 -0.174403 0.018360 -0.118101 -0.220431 -0.111020 -0.173209 0.190352 0.141220 -0.072883 0.096689 -0.021925 -0.006921 -0.118662 0.046729 0.078124 -0.002108 -0.163531 -0.060103 0.012755 -0.147583 0.197170 -0.055586 -0.280716 0.223224 0.509567 -0.166707 0.141088 0.086242 -0.048872 -0.174758 -0.313002 0.040871 0.341061 0.439180 -0.199559 -0.125746 -0.186096 0.268526 0.099603 -0.177529 -0.148447 0.062331 -0.128510 -0.193695 -0.230271 -0.203785 -0.047664 -0.101917 0.001116 0.185562 -0.050689 0.173786 
是 0.213202 -0.006005 0.085025 -0.177084 -0.226192 0.012755 -0.029066 0.078402 -0.235060 -0.132504 0.208531 0.245721 -0.033313 -0.062596 0.026676 0.114792 -0.091945 -0.245332 -0.044067 -0.041017 0.097117 -0.016410 -0.049618 0.121581 0.171605 0.296267 -0.119629 -0.048768 -0.059669 0.131597 0.186705 0.037238 0.063497 0.076753 0.124517 0.098248 0.308000 -0.080082 0.147265 -0.030266 -0.110445 0.312096 -0.233529 -0.078968 0.154700 -0.042950 -0.407922 -0.150399 0.139788 0.174984 0.232065 0.125485 0.076853 0.081175 -0.173074 0.061455 -0.154214 0.017683 -0.003424 0.026187 0.088134 0.120852 0.081808 -0.074506 0.070478 -0.043902 0.043955 -0.297798 -0.073504 0.013534 0.210014 0.117214 -0.039486 -0.012137 0.068465 0.093939 0.061676 -0.137232 -0.185978 -0.100422 0.270467 0.243405 -0.105170 -0.294892 0.013272 0.017404 -0.109433 0.178885 0.221159 0.243880 0.092480 0.179833 -0.160733 -0.016542 -0.062691 -0.088923 0.126949 -0.322831 0.301220 0.005742 0.139413 0.203892 -0.070307 0.144326 0.086650 0.237376 -0.103319 0.212539 0.182145 0.010411 0.018113 0.044000 0.100683 -0.070723 0.049431 -0.036923 0.129874 -0.116331 0.097660 -0.087022 0.003319 0.189115 0.059105 -0.234870 0.010473 0.267596 -0.033334 0.154410 0.010086 -0.104747 -0.261355 0.162500 -0.036356 0.106286 -0.171370 0.194917 0.086080 0.324860 0.118282 -0.022709 0.117612 0.006425 -0.134560 0.112733 -0.234042 -0.091008 0.073779 0.005773 0.164089 -0.153602 -0.159179 0.095914 0.135431 -0.275502 -0.009537 0.141779 0.124302 -0.048972 0.100490 -0.134270 -0.011593 -0.139222 -0.029890 0.095448 -0.064581 0.004337 -0.022600 0.039094 0.184684 -0.160227 0.451191 0.093623 0.140724 0.018866 0.113624 -0.230121 0.187373 0.109682 -0.138096 -0.175197 -0.135618 0.000059 0.024568 -0.075069 -0.059200 0.153004 0.236846 0.181226 -0.033087 -0.153578 0.169931 -0.167878 0.069438 -0.049278 -0.018768 -0.040884 -0.125854 -0.014855 0.038465 -0.081727 -0.194326 0.108135 -0.050538 -0.270848 0.021499 0.155519 0.104171 0.138898 -0.066562 -0.040797 0.162391 0.086175 -0.029803 -0.062468 -0.068100 0.151777 0.053496 -0.088642 -0.076173 -0.331572 0.130136 -0.102166 -0.440314 0.127637 0.233113 -0.008184 -0.034545 0.005767 0.013020 -0.161903 0.264642 -0.158997 0.015550 0.023985 -0.340706 -0.220313 0.038590 0.050770 0.011768 -0.095689 0.332572 -0.117228 0.308892 0.077029 -0.041320 0.013747 0.182082 -0.203004 -0.149027 -0.096891 0.028298 -0.069362 0.115426 0.165663 0.132350 0.051250 0.008734 0.109243 0.102974 0.070791 -0.084957 -0.305823 -0.053628 0.072741 -0.169112 -0.060988 0.001737 0.004303 0.144505 -0.046703 -0.128256 0.095128 0.293553 -0.131977 -0.094238 -0.121536 -0.012470 0.037973 -0.223138 0.027064 0.159456 0.208540 -0.032709 -0.084682 -0.202651 0.186206 -0.042596 -0.064703 -0.092861 -0.002995 -0.170501 -0.110460 -0.100371 -0.071668 0.080986 -0.128107 -0.037539 -0.116607 -0.093252 -0.155989 
) 0.130171 -0.112940 0.243892 -0.312843 -0.313670 -0.202667 0.003223 0.249504 -0.284200 -0.133414 -0.523827 0.169013 -0.455562 -0.020795 -0.165371 0.091714 0.275918 -0.347938 -0.036490 0.006618 0.248075 -0.107573 0.213493 -0.247563 -0.150280 0.029964 -0.058487 -0.196789 0.049418 -0.247462 -0.112650 0.147333 0.111090 -0.273954 -0.244154 0.089951 0.327777 0.532034 -0.005671 -0.025200 -0.015631 0.130896 0.331230 -0.059700 -0.197291 0.318597 0.069120 -0.220015 -0.234679 -0.199247 0.303114 -0.187384 -0.166920 0.461994 0.098202 0.298083 -0.125261 0.011960 0.061487 -0.611265 -0.056746 0.064454 0.283207 -0.156659 -0.036130 0.002598 0.232578 -0.026984 0.444952 -0.495213 -0.459660 0.186378 -0.058537 0.298706 0.174944 -0.061307 -0.618342 -0.237075 0.145231 -0.424522 0.260030 -0.100058 -0.402985 -0.012421 0.250887 -0.233252 0.295402 -0.281374 0.196030 -0.190809 -0.169400 0.194823 -0.381799 -0.047564 0.174156 -0.238755 0.147573 -0.387564 0.069699 -0.066645 -0.293455 -0.142444 0.470895 0.373722 0.045289 -0.395866 0.107010 0.160208 0.380198 -0.062310 -0.287647 0.018264 0.023076 0.061738 -0.397549 0.086763 -0.146541 -0.173552 0.417522 -0.431412 -0.002816 0.442517 0.285215 0.515498 -0.463355 0.176704 -0.287446 0.200185 -0.210425 0.188432 -0.026041 -0.504438 -0.128514 -0.261236 0.040837 -0.109876 -0.204826 -0.063831 0.044844 -0.538221 -0.046114 0.106698 -0.164128 0.295539 -0.256430 -0.169784 0.516457 0.435970 0.025510 0.012757 -0.011486 -0.042799 -0.265165 0.303407 0.137152 -0.618762 -0.460710 -0.154443 0.095183 -0.265755 -0.413132 -0.006335 -0.119406 0.124469 0.031099 -0.157761 0.064667 -0.328200 -0.183437 -0.315600 0.552487 -0.121632 -0.003143 -0.096151 -0.046981 -0.565054 0.103001 0.210162 0.405907 -0.111989 -0.386314 0.093691 0.252064 0.056955 0.685402 -0.049766 0.248184 0.457327 -0.132165 -0.211989 -0.072639 -0.071567 0.021528 0.170034 -0.227583 -0.383527 -0.036341 -0.054643 -0.160695 -0.058960 0.061572 0.082074 -0.129429 -0.365019 -0.016786 0.009059 0.289345 0.331968 -0.126816 0.245064 -0.136660 0.007818 -0.370661 -0.240692 -0.597149 0.066248 0.247255 -0.189128 0.110948 0.156036 0.286055 0.028062 -0.490344 0.048413 0.207957 -0.053931 0.403016 -0.355823 0.271183 0.047449 -0.227685 0.009484 -0.399128 0.032736 -0.454101 -0.575953 0.335121 0.141725 0.284202 -0.296022 -0.082209 0.434010 0.227947 -0.085473 0.694255 0.100913 -0.379487 0.158661 -0.758809 -0.166680 -0.262309 -0.301561 0.382812 -0.089909 0.149262 -0.301489 0.100285 0.220078 0.469981 -0.217931 0.048675 0.088168 0.166829 0.050174 -0.351898 0.133237 0.228664 0.006944 0.254539 -0.150807 -0.140827 0.046758 0.091550 0.597227 0.251037 0.040079 -0.198164 -0.064332 0.018201 0.107069 0.057016 -0.092443 0.036790 0.080682 0.280662 -0.060949 -0.126070 0.404437 -0.211568 -0.000096 -0.263419 -0.081402 0.114206 0.282935 0.223351 -0.057752 -0.121152 -0.507288 -0.249853 0.088730 
( 0.098131 0.046234 0.290352 -0.349128 -0.313600 -0.110786 -0.143244 0.317435 -0.391457 -0.133786 -0.496863 0.275466 -0.405320 -0.090328 -0.048626 -0.023731 0.165461 -0.383587 0.015667 -0.127282 0.217907 -0.097802 0.227347 -0.448184 -0.263017 -0.051932 -0.143255 -0.239457 0.139716 -0.321159 -0.091483 0.062638 -0.002901 -0.215593 -0.426671 0.000291 0.474100 0.554072 0.026502 -0.086271 -0.095982 0.099437 0.255689 -0.176926 -0.252104 0.325579 -0.191331 -0.204207 -0.122963 -0.343332 0.375498 0.003400 -0.134283 0.445191 0.184243 0.366418 -0.074834 -0.050280 0.034211 -0.611154 -0.177257 0.172346 0.207751 -0.056498 0.031238 -0.076129 0.258386 -0.072977 0.196222 -0.589120 -0.437391 0.068602 -0.159844 0.377172 0.086832 -0.116473 -0.619985 -0.304836 0.200619 -0.473742 0.261260 -0.210925 -0.336089 -0.027101 0.283175 -0.120477 0.336074 -0.251498 0.422847 -0.042696 -0.119027 0.101981 -0.422077 0.037502 0.043913 -0.039977 0.177322 -0.310524 0.197299 -0.094954 -0.354320 0.031570 0.486622 0.357299 0.011588 -0.425207 0.139605 0.265796 0.422447 0.005057 -0.243241 0.083771 0.000260 -0.021336 -0.395000 0.079485 -0.090835 -0.214907 0.207384 -0.305499 0.205322 0.389461 0.127346 0.569803 -0.377729 0.130961 -0.274261 0.099322 -0.116630 0.277665 -0.106730 -0.267613 -0.266001 -0.300577 -0.131569 -0.102230 -0.238063 -0.028041 0.155556 -0.485334 0.007008 -0.058230 -0.194002 0.284597 -0.376166 -0.189762 0.445232 0.332553 0.166286 -0.117951 -0.071668 -0.139652 -0.396989 0.387571 0.163043 -0.690897 -0.478326 -0.197881 0.209174 -0.332668 -0.491344 -0.004708 0.050484 0.057702 0.056383 -0.269709 -0.052755 -0.361494 -0.189861 -0.445847 0.534522 -0.136355 0.018697 0.009383 -0.062850 -0.556948 0.267029 0.024926 0.370535 -0.182873 -0.404575 -0.082860 0.228235 0.140511 0.671417 0.124487 0.283260 0.451053 -0.065959 -0.256695 -0.081843 -0.069016 -0.057454 0.249452 -0.245807 -0.335773 0.024416 -0.114615 -0.283047 0.090679 0.007720 -0.039749 -0.083757 -0.323638 -0.077195 0.009265 0.208027 0.285205 -0.186320 0.179472 -0.172400 -0.032194 -0.353607 -0.396393 -0.550384 0.036037 0.340433 -0.159239 0.215538 -0.091436 0.233297 0.120568 -0.532942 0.158552 0.138764 0.009527 0.310447 -0.353672 0.207243 -0.017686 -0.070091 0.162419 -0.388751 0.005629 -0.410635 -0.466083 0.279283 0.055760 0.319110 -0.203755 -0.019915 0.626414 0.217749 -0.108405 0.590813 0.165804 -0.367063 0.040915 -0.739949 -0.290990 -0.123553 -0.420123 0.419206 -0.161037 0.132992 -0.277117 0.127367 0.260570 0.411703 -0.172419 0.076059 0.145603 0.126870 0.030911 -0.339679 0.141654 0.290740 -0.088228 0.549237 0.094384 -0.279050 0.105473 0.079281 0.433991 0.183351 0.214719 -0.161841 -0.093866 0.090231 -0.119114 0.096724 -0.202814 0.243232 0.044996 0.201751 0.053794 -0.176510 0.456307 -0.079949 0.107616 -0.200805 -0.179707 -0.012911 0.354519 0.194116 0.192018 0.084782 -0.409439 -0.353591 0.063599 
为 0.262156 0.071854 0.456505 -0.228622 -0.141383 -0.112368 -0.078325 -0.131599 -0.193042 0.001086 -0.136397 0.084219 -0.183317 -0.031911 0.052074 0.130618 -0.044921 0.042676 0.040095 -0.074181 0.072667 -0.040668 0.009310 0.137254 0.087979 0.077685 -0.025197 0.082435 0.255947 -0.020054 0.020351 -0.102585 -0.164982 -0.005448 0.021976 -0.035076 0.147675 -0.214681 0.040750 -0.086420 -0.069191 -0.005260 -0.163812 0.005346 -0.106148 0.080677 -0.018224 -0.089850 0.302124 0.230373 0.172909 -0.027298 -0.326897 -0.385082 -0.092108 0.431975 0.047819 0.095487 0.212942 0.014037 0.108170 0.115494 -0.135501 -0.264380 0.075880 -0.252359 0.195633 -0.226882 -0.296115 0.488411 0.120079 0.021520 -0.379283 -0.031087 0.263669 0.000496 -0.201569 0.110987 -0.065342 0.013309 0.241107 0.169894 -0.136477 -0.349566 -0.297713 0.005209 -0.045603 0.286829 0.036498 0.213583 -0.240450 -0.033877 -0.212534 0.081577 0.091832 -0.054570 0.194979 -0.243596 0.375947 0.101103 0.014674 -0.047834 -0.143144 -0.005284 -0.023875 0.116560 -0.056544 0.161716 -0.120237 0.018222 -0.067673 0.238814 0.193514 -0.277614 -0.213319 -0.266784 0.011576 -0.018125 0.281151 0.157180 0.302274 -0.070923 0.077529 0.091400 -0.283485 0.262031 0.015942 -0.011808 -0.187023 -0.056340 -0.105172 0.456167 -0.237646 0.229393 0.000826 0.022515 -0.165918 0.245556 -0.318221 0.431602 -0.045245 0.233611 -0.149928 0.098956 -0.180126 -0.189043 0.169643 0.020966 -0.083142 -0.259442 0.033510 0.074223 -0.068752 0.084851 0.289167 0.046208 -0.024593 -0.000763 -0.070446 0.157167 0.009122 -0.060836 0.327791 -0.181510 -0.088564 -0.004311 0.196791 0.130000 0.146046 -0.094396 0.359825 0.273504 0.017370 0.038084 0.106356 -0.178974 0.131964 -0.076017 -0.089967 -0.090565 -0.497398 0.029624 0.045413 -0.138146 -0.202760 -0.134909 0.278008 0.168174 -0.092802 -0.182784 0.151822 -0.074034 0.040325 -0.132831 -0.116647 -0.374611 -0.027602 0.202955 0.159442 -0.163069 -0.269466 0.067668 0.109554 -0.001496 0.237653 0.380305 0.068579 0.195421 0.154349 -0.129618 0.209275 -0.018500 -0.008080 0.083124 0.025890 -0.089820 0.147006 0.408626 -0.010002 -0.250527 0.607250 0.002058 -0.476463 0.045567 0.267675 -0.027789 -0.219423 -0.150957 -0.032557 -0.305669 -0.104015 0.221217 0.105775 -0.089683 -0.174805 -0.054681 0.085464 0.204421 -0.152432 -0.135069 0.258164 0.132833 0.013387 -0.024628 0.204738 -0.295636 -0.036160 0.018709 -0.388566 -0.082179 -0.314059 -0.278207 0.357785 0.181954 -0.111026 -0.230348 0.154592 -0.030208 0.235123 -0.363185 0.049724 -0.123202 0.080397 0.283066 -0.152744 -0.020912 0.155117 -0.525007 0.093286 0.049054 -0.185278 -0.106563 0.203226 -0.184372 0.012929 0.094295 -0.111241 -0.083325 -0.079870 0.236841 0.255768 0.162342 -0.111399 -0.107317 -0.347224 0.322977 0.124120 -0.037341 0.431902 0.042091 -0.410128 0.041581 -0.032190 0.239173 -0.101745 -0.105334 -0.122455 -0.211699 0.060254 0.296283 
, -0.112655 0.283234 -0.128311 -0.231126 -0.103653 -0.125098 0.062234 -0.005792 0.044076 -0.041016 -0.074943 -0.029674 -0.165331 0.262995 0.006160 0.082070 -0.059572 -0.325491 -0.132639 -0.119559 -0.237855 -0.117021 0.013114 -0.080269 -0.015529 0.130364 -0.113110 -0.046902 -0.020771 0.042550 -0.055858 0.024152 -0.191567 -0.281946 -0.144801 0.161079 0.182573 -0.078529 -0.185877 0.051338 0.029933 -0.006022 -0.148989 0.400104 0.027506 -0.267689 -0.031101 -0.130626 0.151246 0.194536 -0.014496 0.013074 -0.220098 0.114831 -0.177849 -0.040080 -0.207050 -0.132560 0.018205 0.157627 0.269478 0.054271 0.097699 0.159563 0.019801 -0.067230 0.222289 -0.510146 0.196091 0.090608 -0.062333 -0.040832 -0.317216 0.007782 0.145464 0.127236 -0.122502 -0.203127 -0.057110 0.034264 0.121838 0.007721 -0.190437 -0.175332 0.230367 -0.136443 -0.105240 0.207870 0.017436 0.134559 -0.006814 0.207055 -0.224729 0.118540 -0.216311 -0.364670 0.353193 -0.249324 0.513985 0.138635 0.023278 -0.163630 0.016550 0.107677 0.019082 0.140697 0.046395 0.014278 0.123496 0.161990 -0.137226 -0.241552 -0.138190 -0.442196 -0.073866 -0.069378 -0.030714 0.194820 0.042963 0.005540 0.175902 0.211728 -0.001155 0.227336 0.146577 -0.005425 0.147003 -0.268252 0.053593 0.149661 -0.043684 -0.229867 -0.048856 0.031882 0.190633 -0.003861 -0.178327 0.165771 0.172370 0.132214 0.368458 0.290543 -0.114629 0.055294 -0.100252 0.030053 0.205941 0.232080 0.245611 0.014510 -0.054364 0.465132 0.060846 -0.191005 -0.069207 -0.106013 0.471831 -0.240058 -0.086875 -0.054697 0.118611 0.003506 0.252573 -0.126372 -0.098773 -0.369225 0.001266 0.309290 0.309353 -0.155107 0.064692 -0.150602 -0.225532 -0.033444 -0.044526 -0.255812 -0.246868 -0.024356 -0.104203 -0.117023 -0.090297 -0.008336 -0.015225 -0.003539 0.439908 0.079135 0.186614 0.227046 -0.042940 -0.154191 0.203597 -0.342981 0.159733 0.136022 -0.070539 0.240180 -0.189382 -0.104040 0.183316 -0.287097 -0.408054 0.220996 0.197435 0.035457 0.160317 -0.005845 -0.127447 0.001755 0.182496 0.010941 0.008225 -0.283331 -0.243327 -0.232678 0.273750 0.104680 0.232447 0.182782 -0.158761 0.035072 0.140076 -0.260735 -0.266625 0.112970 -0.020984 -0.190212 -0.067529 -0.325433 -0.317865 0.062745 0.179540 -0.105232 -0.052224 -0.204944 0.127657 -0.008243 -0.036289 0.186054 0.060078 -0.090658 0.157847 0.475554 -0.013565 0.186888 0.182718 -0.036106 -0.022535 0.138847 -0.453849 0.034878 0.063023 0.059786 0.352823 0.103854 -0.160241 -0.200466 0.132309 0.288535 0.241167 -0.280564 -0.130057 -0.272857 0.111267 0.126968 -0.229085 -0.117049 0.119255 -0.296495 0.129765 -0.350271 0.336478 -0.280365 0.119489 -0.067728 0.236602 0.057263 0.287109 -0.027416 0.151518 0.335507 0.272045 -0.006237 -0.239681 0.070262 -0.045166 0.488934 0.071233 -0.051249 0.083623 0.162271 0.167110 -0.185456 0.126969 0.098596 -0.113629 0.301041 -0.063498 0.165784 0.133715 0.062329 
） 0.287788 -0.081366 0.222054 -0.305535 -0.338272 -0.158516 0.140463 -0.070241 -0.120430 -0.051041 -0.385652 -0.087268 -0.186437 -0.006051 0.271599 -0.099722 0.034249 -0.200894 -0.119435 -0.016549 0.012941 -0.315254 0.107724 -0.134740 0.016155 -0.002757 -0.215653 0.136560 0.026109 -0.164632 -0.265107 -0.204951 -0.138350 -0.285266 -0.254601 -0.116290 0.427912 -0.222207 0.006179 -0.157836 -0.089771 0.380569 0.112408 0.122818 -0.155293 0.294436 -0.215450 -0.112864 -0.096733 0.282471 -0.225801 0.034564 -0.062105 0.342722 -0.022980 0.154009 -0.074872 -0.060998 0.094356 -0.210121 -0.071920 0.329940 0.038133 -0.197162 -0.037044 -0.114771 0.110190 -0.118020 -0.095176 -0.150923 -0.036837 0.261313 0.116928 0.127827 0.071756 0.077301 -0.188439 0.173086 0.429033 -0.305824 0.155490 -0.067388 -0.203868 -0.602868 0.146834 -0.070920 0.055476 -0.030680 0.464232 0.053003 0.058195 0.187200 0.255295 0.049410 0.148085 -0.113841 -0.155217 0.010195 0.167208 0.047527 -0.252712 -0.213057 0.060898 0.090005 0.139475 0.078335 0.198195 -0.156554 0.197384 -0.001875 0.028966 0.146320 0.336686 0.083625 -0.271505 -0.136935 -0.197092 -0.098463 0.361097 -0.390424 0.034935 0.471213 0.398563 -0.073744 -0.206529 0.296997 0.091223 -0.176089 -0.366417 -0.350194 -0.442804 -0.274024 -0.040228 -0.049201 0.185043 0.036321 -0.100461 -0.209650 -0.028081 -0.094447 0.170974 0.266420 -0.154438 -0.042825 -0.446806 -0.012519 -0.216079 0.005746 0.134928 -0.315582 -0.143375 0.084445 -0.326323 0.119992 0.009992 -0.139560 -0.558688 -0.086943 0.035347 0.014608 -0.167888 -0.195103 -0.053649 -0.012205 0.100605 -0.197401 0.097200 0.262059 0.145191 0.074517 0.487324 0.099625 -0.041190 0.181571 -0.101762 -0.423540 0.237662 0.184196 0.401429 -0.268626 -0.316121 -0.003572 -0.014171 0.210212 0.260031 0.144594 0.272614 0.026395 0.032434 0.406338 0.391849 -0.140043 0.029389 0.373582 -0.057697 -0.060717 0.158899 0.050327 -0.127889 0.060428 0.073333 0.225998 0.059068 -0.033015 -0.175555 -0.050036 0.122931 0.066963 -0.132980 -0.074871 0.155375 -0.145938 -0.394301 -0.046899 -0.286157 0.290368 -0.097650 0.016834 -0.052900 0.018492 0.199863 0.222366 -0.087426 -0.007223 0.160801 0.108238 0.159705 -0.235990 0.119180 -0.249037 -0.077724 0.027302 -0.009135 0.043814 -0.065335 -0.214873 -0.057050 0.060634 0.122477 -0.275229 0.279920 0.551996 -0.043204 -0.047436 0.518045 -0.018912 -0.179607 0.315725 -0.319541 -0.358231 -0.270525 0.094725 0.396763 -0.155489 0.184799 -0.032374 0.047719 0.029530 -0.082171 -0.439723 0.135421 -0.136838 0.453932 -0.224157 -0.349533 0.035676 0.262784 0.046865 0.331338 -0.099419 -0.189012 0.454541 0.139666 0.138467 -0.148567 0.023738 0.235859 -0.159925 -0.071081 -0.128061 0.169010 0.174453 0.111215 0.010225 -0.132703 0.075549 0.061521 0.243489 -0.307855 0.387831 0.109399 -0.112301 0.211815 0.453589 0.199840 -0.272901 -0.231475 -0.269076 -0.189561 0.152305 
（ 0.193313 -0.193612 0.217962 -0.245252 -0.364064 -0.140762 0.142563 0.022843 -0.136404 -0.002773 -0.422304 -0.025102 -0.280574 0.046788 0.270361 -0.175122 0.054252 -0.187409 -0.056044 -0.045557 -0.107765 -0.381185 -0.037295 -0.216980 -0.108194 0.057416 -0.166206 0.205411 0.104246 -0.205296 -0.181019 -0.128070 -0.152937 -0.181845 -0.302134 -0.128985 0.408941 -0.153013 0.033102 -0.188065 -0.096571 0.453317 0.074773 0.014487 -0.246466 0.317450 -0.314467 -0.119705 -0.128037 0.173498 -0.151624 0.026823 -0.020494 0.298485 -0.014521 0.166311 -0.038860 -0.020468 0.066622 -0.287958 -0.180748 0.315449 0.089315 -0.173455 -0.060897 -0.007144 0.115099 -0.074367 -0.237063 -0.102284 0.058226 0.252571 0.068332 0.062437 0.164559 0.031734 -0.226250 0.141857 0.446575 -0.316333 0.213720 -0.103744 -0.199262 -0.526959 0.211020 -0.089567 0.061212 -0.089302 0.500282 0.092724 0.051952 0.050327 0.184280 0.134200 0.083501 0.029621 -0.263664 -0.024708 0.160105 0.048559 -0.206432 -0.156661 -0.004403 -0.037379 0.115523 -0.028481 0.220403 -0.060760 0.263398 0.156787 0.062100 0.247131 0.183789 0.252451 -0.218498 -0.167534 -0.204447 -0.037685 0.420773 -0.258838 0.172100 0.548942 0.496709 0.005042 -0.136976 0.303863 0.080982 -0.145970 -0.448038 -0.230808 -0.447717 -0.184376 -0.108217 0.121224 0.215618 0.069455 -0.158865 -0.227211 -0.013830 -0.003892 0.083921 0.232017 -0.272082 0.063193 -0.400282 0.019827 -0.139245 -0.115503 0.132731 -0.407021 -0.134690 0.061840 -0.350283 0.132028 -0.044671 -0.152330 -0.608902 -0.040599 0.102442 -0.040540 -0.147311 -0.179884 -0.089599 -0.097823 0.121617 -0.164903 0.097270 0.202519 0.085011 0.065941 0.473671 0.041912 -0.083367 0.225047 -0.172107 -0.379982 0.219879 0.147714 0.376370 -0.150600 -0.257880 0.049859 0.086068 0.256617 0.261220 0.244566 0.357865 0.046046 0.143101 0.311068 0.266210 -0.120829 -0.027043 0.337871 -0.056273 -0.048966 0.211913 -0.074913 -0.126037 0.035488 0.122196 0.253406 0.111840 -0.118502 -0.178899 -0.032182 0.121192 0.166366 -0.143461 -0.106702 0.232487 -0.142125 -0.410689 -0.104575 -0.379936 0.318140 0.080598 -0.013843 0.014865 -0.095126 0.270300 0.250904 -0.217318 0.076033 0.107889 0.125709 0.058985 -0.228454 0.139853 -0.272834 -0.133209 0.110474 -0.136518 0.070573 -0.032465 -0.201132 -0.045278 0.185723 0.188142 -0.285668 0.270815 0.439548 -0.028843 -0.102849 0.469253 0.097571 -0.177163 0.229827 -0.382068 -0.455547 -0.226326 -0.030235 0.446864 -0.127058 0.128660 -0.103195 0.000488 0.049177 -0.028924 -0.334436 0.048197 -0.053176 0.476892 -0.114389 -0.240226 -0.142297 0.332429 0.073757 0.274309 0.039724 -0.271117 0.580546 0.252460 0.107842 -0.217654 0.013379 0.190914 -0.301156 -0.122218 -0.167595 0.245607 0.142215 0.203262 0.076860 -0.154226 0.202806 0.057561 0.468760 -0.267139 0.326589 0.083770 -0.194593 0.166087 0.485830 0.253945 -0.223576 -0.066844 -0.294103 -0.225687 0.168641 
: -0.497221 0.543957 -0.143939 -0.341165 -0.360316 0.373923 0.014958 -0.149978 -0.059984 -0.265470 0.096446 -0.019186 -0.077409 0.535641 0.266055 -0.315741 0.233626 0.020594 -0.023773 -0.157403 0.776022 -0.115340 -0.299023 -0.628851 -0.232487 -0.257943 0.312171 -0.486180 0.338910 -0.152965 0.086363 0.227218 0.132459 -0.282558 -0.153961 0.286545 0.679081 0.545245 -0.365682 0.164083 -0.167686 0.237903 -0.011682 0.033294 -0.643105 0.249270 -0.408028 -0.004722 0.147345 -0.465147 0.096293 -0.252482 -0.222618 0.154927 -0.097735 -0.072476 -0.233842 -0.499584 -0.486878 -0.387481 -0.125533 0.421344 -0.160639 -0.409927 -0.238047 0.455862 0.370305 -0.238676 0.221236 -0.206711 0.064252 0.229286 -0.099206 0.344088 -0.023565 0.159807 -0.256933 -0.248700 -0.197167 -0.206725 0.169035 -0.588476 -0.310392 -0.311096 0.004844 -0.065404 -0.173219 0.197531 0.090491 0.101797 -0.331605 0.350449 -0.623233 -0.352283 0.005776 0.207056 0.487089 -0.136030 -0.077572 0.039472 -0.048240 0.700484 -0.063469 0.234917 -0.262899 0.002403 0.258439 -0.069959 0.088420 0.233867 -0.349156 -0.107457 -0.208702 -0.063478 -0.020709 0.233737 -0.492529 0.385355 0.016677 -0.670172 0.237495 -0.311151 -0.088686 0.427316 0.185018 -0.194582 -0.374702 0.161361 0.460760 0.528739 -0.224258 -0.271532 -0.060947 -0.490155 0.442571 -0.165272 0.222984 -0.236277 0.426280 0.198748 0.553770 0.244382 -0.492040 0.005508 -0.140351 -0.307224 0.968094 -0.013644 0.284979 0.137176 0.001546 -0.129400 -0.157879 -0.189425 0.144351 -0.494707 -0.274982 -0.012791 0.728970 -0.281485 -0.442942 -0.377508 -0.070814 -0.190465 -0.102205 -0.640600 -0.090416 -0.627858 0.016356 -0.227809 0.222926 0.081326 -0.074030 -0.065288 0.397916 -0.610128 -0.239691 -0.297008 0.455491 -0.118936 -0.072740 0.807244 -0.132232 0.182351 0.532613 -0.057567 0.595861 0.160011 -0.133889 -0.006870 -0.253240 -0.361263 -0.131956 0.125404 -0.328922 -0.244652 -0.381702 -0.360774 0.278571 -0.081197 -0.073767 0.076345 0.399417 0.252586 -0.115969 -0.069986 0.323462 0.465470 -0.473396 0.018988 0.268676 0.192594 0.579532 -0.151905 0.120022 -0.081107 0.775311 0.067188 0.085370 -0.028004 0.225913 -0.001708 -0.639577 0.326118 -0.139838 -0.069130 0.447813 -0.324586 -0.085561 -0.262368 0.438238 0.003496 -1.048225 -0.044090 -0.396342 -0.651067 0.263433 0.234405 -0.006977 0.224054 -0.529437 0.341877 0.346242 0.050873 0.097545 0.076196 -0.562888 0.459168 -0.305570 -0.081139 -0.131151 -0.388383 0.112636 -0.499838 -0.001650 0.185963 0.069580 0.688894 0.343581 0.241614 0.122839 0.234298 0.064935 0.229095 -0.218582 0.049542 0.850751 -0.146586 0.355523 -0.598545 -0.353009 -0.415338 0.357787 0.514513 0.667786 0.049464 -0.045601 0.306498 0.042995 0.250150 0.353182 -0.539511 -0.231520 0.414148 -0.058300 0.198332 0.440939 0.064014 -0.229231 0.002262 -0.781262 -0.512245 0.138186 0.985614 -0.226283 0.241709 -0.105936 -0.112168 -0.513308 0.282446 
公司 0.078630 -0.002657 -0.183340 -0.360696 -0.158470 -0.123608 -0.064755 -0.174885 -0.117332 0.015341 0.071772 -0.074498 0.082532 0.086507 0.389603 0.140558 -0.117394 -0.171878 -0.322256 -0.332222 -0.047042 -0.132399 -0.033733 -0.167883 0.274275 0.359682 -0.156683 -0.156605 0.075755 0.148144 -0.109308 0.083057 -0.170688 0.117611 -0.076601 -0.109676 0.313760 -0.161284 0.184474 -0.075275 -0.203472 -0.010846 -0.190539 -0.084408 0.173269 0.119963 -0.156342 -0.035297 0.070744 0.154450 -0.005248 -0.237889 -0.093380 0.111021 0.017943 0.102588 0.107859 -0.058023 0.145058 0.004641 0.268994 0.078273 0.061069 -0.264720 0.200090 0.036057 0.228196 -0.107436 0.179611 0.150142 -0.230153 0.114245 -0.242934 -0.136436 0.219136 0.002202 -0.242532 -0.053174 -0.124881 0.240471 -0.113704 -0.090880 -0.171804 -0.078678 0.057045 0.043163 -0.041675 0.151203 0.245099 0.200988 -0.009086 0.027118 -0.288058 -0.014428 -0.261874 -0.183910 0.109589 -0.179853 0.412654 -0.124501 0.128772 -0.182114 0.071049 0.238399 -0.110030 0.320663 -0.072050 -0.208570 0.261047 0.160954 -0.069991 0.145620 0.131470 -0.149949 -0.055935 -0.085334 0.080914 -0.063585 0.258026 -0.163951 -0.004230 0.266762 0.056524 0.038771 -0.041246 -0.030462 -0.163449 0.002149 -0.185980 0.152049 -0.219708 -0.074575 0.091634 -0.000238 0.249587 0.428944 -0.281795 0.108998 0.013077 -0.008455 0.062658 0.364197 -0.079735 0.206083 -0.280874 0.014341 0.220572 0.164478 0.246698 -0.016972 -0.206447 0.495747 0.109096 0.369122 -0.015387 0.088660 0.230655 -0.064293 -0.197916 0.075496 0.014199 -0.039715 -0.160315 -0.131513 0.106066 -0.227591 0.212392 0.371000 0.488857 -0.192288 0.309820 0.095523 -0.311030 -0.073052 0.143101 -0.241585 0.250835 -0.082648 -0.187165 -0.006411 -0.259691 0.089124 0.009228 0.221610 0.030389 -0.066260 0.281749 0.229660 -0.306433 -0.110537 0.086201 -0.092938 -0.019893 0.129827 -0.130527 -0.072900 -0.087289 0.183870 0.046256 -0.184640 -0.272082 0.119271 0.248163 0.096836 0.252455 0.362238 -0.062067 0.042959 0.084875 -0.074814 0.131840 -0.079127 -0.024531 0.001604 0.240262 0.117399 0.075964 -0.335787 -0.084051 0.082134 0.458135 -0.260674 -0.151027 -0.369873 -0.029764 0.050067 0.161685 -0.202175 0.076220 -0.116926 0.228802 -0.178222 0.209962 -0.015849 -0.168953 0.117205 0.017803 0.122822 -0.250254 -0.188822 0.268151 0.298361 -0.188108 0.108584 0.231903 -0.262341 0.032884 0.118949 -0.392725 -0.065975 0.033620 0.000579 0.371904 0.002274 -0.010132 0.028329 0.014241 -0.166347 0.287853 -0.356561 0.247504 -0.300072 -0.036487 -0.066867 -0.171764 0.013334 -0.095656 0.055355 0.177561 -0.108544 0.250288 -0.068953 0.337606 0.094873 0.381712 0.035730 0.137992 0.225128 -0.132505 0.117187 -0.012251 0.003577 -0.029663 -0.024537 -0.358651 0.285287 0.104656 -0.022444 0.297245 0.384986 0.205649 0.019314 -0.207925 0.109081 0.018752 0.131063 0.040253 0.162744 -0.166083 0.038830 
年 -0.113748 0.156351 0.072642 -0.082284 -0.380197 -0.295030 -0.102158 -0.011386 0.035908 -0.196580 -0.467722 0.273366 0.170641 0.038024 -0.109908 -0.061633 0.051869 0.271075 0.009391 0.072745 0.205912 -0.006927 -0.003581 0.009771 0.274214 0.077340 -0.161869 -0.155220 -0.272693 0.284886 -0.468983 0.081879 -0.076504 -0.321172 -0.245432 -0.024132 0.249179 -0.117260 0.119889 0.105719 0.087329 -0.043798 -0.156504 -0.116997 0.053277 -0.008355 0.083276 0.166530 0.249578 0.220489 0.088232 -0.181291 -0.275665 -0.106224 -0.123851 0.242600 0.206983 0.026684 -0.134786 -0.008523 0.187864 0.147969 -0.062630 0.121730 0.217726 -0.349752 0.104875 -0.227093 -0.187093 -0.007682 -0.159987 -0.040368 -0.049750 0.274160 0.085696 0.218062 -0.295102 0.112025 -0.080885 0.041363 -0.001208 0.156900 0.298366 0.055626 0.092412 -0.565508 0.128240 -0.032112 0.059976 -0.042123 -0.181404 0.192096 -0.068407 0.041674 -0.120476 -0.124056 -0.015541 -0.015655 0.199019 -0.237252 0.390025 0.144742 0.079611 0.299057 -0.016586 0.244360 0.041109 -0.252707 -0.102007 -0.079971 -0.101065 0.049796 -0.057018 -0.477032 -0.257702 -0.131761 -0.155073 0.106908 0.323987 -0.164716 -0.149314 0.519564 -0.105915 0.290973 0.049457 0.456116 -0.073930 0.054863 -0.166538 0.099510 -0.491389 -0.060674 0.015900 -0.282234 0.167818 0.145722 0.001474 0.233426 0.028700 -0.119063 0.004992 0.235279 -0.120515 0.049590 -0.293515 0.235152 -0.119148 0.226338 0.315013 -0.053944 -0.536599 0.035406 -0.190587 0.343042 0.009377 0.162013 0.131084 0.087693 0.059287 -0.069533 -0.024357 -0.089834 -0.168481 -0.106410 0.066758 -0.124733 -0.206186 0.548286 0.168549 -0.166723 0.287903 -0.110421 0.127904 -0.127982 0.082380 -0.135256 0.051892 0.117416 -0.078793 -0.426130 -0.005358 0.250770 -0.129993 0.104803 0.293250 0.107843 -0.085637 0.341706 -0.154089 -0.146695 -0.000641 -0.220382 -0.004708 -0.287928 -0.171405 0.021759 0.042062 0.006447 0.018762 -0.267585 -0.024226 0.265696 -0.062622 -0.089907 -0.187041 0.254041 0.003419 0.108420 0.014507 -0.305273 -0.001439 -0.256014 -0.018088 0.049517 -0.065256 -0.093378 0.347916 -0.272529 -0.349811 0.272730 0.335782 -0.090339 -0.335854 -0.120078 0.250379 0.129334 0.262033 -0.248139 0.101430 -0.015018 0.199190 -0.013776 -0.120800 0.280323 -0.261373 -0.147773 0.030050 0.186005 -0.103753 0.113102 0.252854 -0.130894 0.088223 -0.003389 0.195824 -0.162045 -0.258177 -0.261241 -0.034038 -0.119753 -0.189655 -0.003161 0.330100 -0.037686 -0.495931 0.133801 0.247965 -0.124966 0.403426 -0.090223 -0.082448 0.017582 0.148027 0.253342 -0.423637 -0.012991 0.169533 0.041219 0.203988 -0.109862 -0.196796 -0.177804 0.485387 -0.044522 0.295978 0.109040 -0.008934 0.066183 -0.517648 0.080821 0.093658 -0.028653 0.200206 -0.209926 0.001457 0.305993 0.061692 0.040577 -0.156601 0.351585 0.076441 -0.079997 0.019179 0.145594 0.085198 0.107445 0.251294 -0.214264 -0.354506 -0.120510 
- -0.459411 0.791215 -0.358602 0.085241 -0.578816 0.070933 0.153388 -0.189912 0.343156 -0.202122 -0.077898 0.008969 -0.310792 -0.124233 -0.002117 0.110115 0.193815 -0.216706 0.205873 -0.218235 -0.365741 0.081832 0.098600 0.249865 -0.106944 0.079312 0.640610 -0.515793 0.135341 -0.093680 0.059748 0.239070 -0.198860 -0.471981 -0.308237 0.076590 0.529033 -0.018066 -0.033865 -0.135537 -0.026969 0.264756 0.261359 0.119929 -0.005511 -0.121355 0.615140 -0.142871 -0.186951 0.420204 0.166626 0.206507 -0.109861 -0.027093 -0.153022 0.422154 0.064977 -0.487120 0.392191 -0.115194 0.082410 0.645425 -0.214159 0.029730 0.301316 0.007258 0.210516 -0.382295 -0.129152 -0.266624 0.031049 -0.016552 -0.091145 0.133462 0.061023 0.214958 -0.156501 -0.262669 0.171355 0.109130 0.015401 -0.016578 -0.505612 -0.088344 0.097090 0.128457 -0.193572 0.104093 0.579406 -0.206648 -0.183700 0.233805 -0.150821 0.469676 -0.415508 -0.247180 0.144498 -0.407180 0.363260 0.098024 0.050417 0.078551 0.401787 0.072616 -0.111282 0.180621 -0.447081 -0.054391 -0.246689 0.145895 -0.098210 -0.000297 -0.288228 -0.486605 -0.060205 0.091850 -0.106418 -0.086400 0.226004 -0.306471 0.353711 0.536506 0.146587 0.322359 0.039335 0.531025 0.328946 -0.300743 -0.145614 -0.005502 -0.330485 -0.084236 -0.099600 -0.138498 0.293235 0.509425 -0.125149 0.064415 -0.120092 -0.081249 0.140286 0.287033 -0.259725 -0.401939 -0.226502 0.020971 0.188663 0.145324 -0.047324 -0.409566 -0.136416 -0.089236 0.072283 -0.106214 0.164289 -0.171058 0.459875 -0.176616 0.635802 -0.092751 0.029195 -0.368132 0.234756 -0.312142 -0.255796 -0.174278 0.031852 0.184611 -0.224301 0.017420 0.072135 0.027465 0.119917 0.331655 -0.039364 -0.154113 -0.248176 -0.244448 0.176016 -0.425302 0.255997 -0.037857 0.069480 -0.227192 0.480969 0.019836 -0.296772 0.037869 -0.268707 0.071757 0.099117 -0.287122 0.197953 -0.124895 -0.231997 0.103008 -0.066117 -0.019804 0.130318 -0.078643 -0.566132 0.354470 0.286399 0.022853 -0.077797 -0.113691 -0.060077 0.017755 -0.261853 0.115845 0.085790 -0.241667 -0.301040 -0.369488 0.083085 -0.005459 0.268404 -0.156438 -0.687513 0.223088 0.280420 -0.189763 -0.037527 0.224787 0.048645 -0.221826 -0.230598 -0.058786 0.069167 -0.091765 0.415598 0.435595 -0.190266 0.179183 -0.027949 0.035201 0.438137 0.586131 0.250544 -0.336517 -0.157448 0.468443 -0.007104 -0.224913 0.114096 -0.043231 -0.306317 0.314238 -0.046012 -0.343555 -0.145567 -0.063913 0.160525 0.040284 -0.179851 -0.096304 0.064428 0.185736 0.278482 -0.200747 -0.109298 0.211081 0.497347 0.153709 -0.053728 -0.010511 0.308196 -0.089637 0.102248 -0.175400 -0.115818 -0.538560 0.227232 0.082185 0.172158 0.132901 0.201618 -0.161427 0.019027 -0.257931 -0.074888 -0.244374 0.436250 -0.036555 -0.002924 0.325471 0.016307 -0.118276 0.202460 0.111502 -0.168576 -0.091855 0.699801 -0.133365 0.203239 0.111006 -0.204170 -0.208090 0.382228 -0.184015 
等 -0.043772 -0.035162 0.163974 -0.118147 -0.038176 -0.035556 -0.079099 0.108403 0.090778 -0.186824 0.151032 -0.053763 0.126537 -0.160799 0.205932 0.134777 0.194401 -0.531740 -0.219493 -0.211291 0.113078 0.396222 0.050892 0.040015 0.075747 0.237134 -0.088818 -0.139565 -0.161473 -0.255221 -0.027331 0.054442 -0.300361 0.082986 -0.146039 0.051009 0.219742 0.139237 0.123377 0.047583 0.021963 -0.016232 0.092442 -0.038057 0.231405 -0.143019 -0.071844 -0.066679 0.096292 0.230276 -0.353047 -0.163769 0.150692 0.064658 0.055396 0.084028 -0.202671 -0.179077 0.031152 -0.265666 -0.013683 0.286057 -0.035435 -0.147717 0.005284 -0.149167 0.138836 0.081339 0.072145 -0.029696 0.232723 0.209614 -0.178896 -0.140936 -0.286472 -0.244592 -0.116316 -0.080454 0.196101 -0.163536 0.358419 0.163752 -0.072628 -0.151417 0.243424 -0.368524 0.165611 0.144504 0.199383 0.231347 -0.056440 -0.101845 -0.164873 0.191012 -0.124217 -0.263796 -0.093838 -0.072564 0.112639 -0.019641 -0.274927 0.099648 0.197637 0.170321 0.297506 -0.083327 0.003245 0.116241 0.363090 0.270765 0.121498 -0.205514 0.138509 -0.110386 0.059585 0.259031 0.144810 0.037566 -0.156272 -0.350175 -0.040516 0.244167 0.263852 -0.014591 0.153209 -0.053335 0.074114 -0.049852 0.110897 0.006060 0.192828 0.008135 -0.191437 0.433876 0.101677 0.268232 -0.023616 0.360872 -0.046946 -0.118770 -0.227164 0.001329 0.002224 0.105959 -0.360562 0.013504 0.159209 0.152776 -0.169762 -0.196704 -0.660482 0.264625 -0.098407 -0.054875 -0.220091 -0.214231 -0.093421 -0.025844 -0.087489 0.175423 -0.048654 -0.008533 -0.177446 -0.484517 0.113105 -0.171180 0.085966 0.065877 0.426366 -0.315440 0.312209 0.043335 -0.055456 -0.037836 0.296383 -0.195735 0.145024 0.021222 -0.054667 -0.156695 -0.167702 -0.014535 0.015844 0.011357 0.038279 0.138128 0.158505 0.201568 -0.073983 0.238216 0.135522 0.033644 0.033373 0.174050 0.048551 0.154422 -0.013631 -0.290518 -0.125508 -0.011006 -0.233322 0.157749 -0.039636 -0.047508 -0.283958 -0.103992 -0.021748 0.316621 0.116426 0.246304 0.069126 0.167416 -0.218618 -0.286666 0.016212 -0.019205 0.250825 -0.008712 -0.208943 -0.098947 0.177087 0.274963 -0.347243 -0.153652 0.024274 0.010112 -0.109385 0.009327 0.123623 -0.165589 0.125933 -0.263540 -0.151252 -0.009195 -0.058144 -0.133226 -0.033175 -0.033349 0.091166 -0.222489 0.123493 0.164472 0.003137 -0.038092 0.167272 -0.092540 0.173286 0.151486 -0.159355 -0.046606 0.093641 -0.018404 -0.042021 -0.349448 -0.066471 -0.084702 -0.071766 -0.005041 0.212522 -0.169195 -0.098175 -0.284159 -0.046741 -0.095316 -0.090634 0.113065 -0.284665 -0.075864 -0.049548 -0.112575 -0.203000 0.061470 0.560702 -0.163585 -0.054744 -0.298546 -0.189202 0.047333 0.119543 -0.185111 0.342969 -0.089652 -0.249542 -0.324796 0.054544 0.254410 0.241152 0.118858 -0.139950 0.280825 0.115121 -0.065399 -0.230778 -0.051832 0.318201 -0.097455 -0.020190 -0.212078 0.006328 -0.051989 
将 -0.018653 -0.133822 0.095792 -0.117549 -0.025297 -0.024135 -0.243393 -0.239747 0.058818 -0.169676 0.053982 0.106864 0.085044 0.141632 0.104691 0.195043 0.171636 0.024690 -0.216353 0.131824 0.130549 -0.194941 -0.291370 0.034962 0.230899 -0.044046 0.023896 -0.124234 -0.288283 -0.135446 -0.005820 0.073826 -0.198709 -0.067755 0.067462 -0.021916 -0.025593 -0.082405 0.163549 -0.046820 -0.084707 -0.207367 -0.381472 0.276684 -0.086743 -0.114160 -0.152369 -0.029576 0.093401 0.167841 0.186963 -0.083598 0.031867 0.016957 -0.055254 0.057917 -0.155322 0.025863 0.297651 0.046829 0.000753 0.048115 0.085166 -0.023225 0.329893 -0.294664 0.221696 -0.065743 -0.058792 0.013992 -0.080840 0.173978 -0.125182 -0.116395 0.119320 0.182560 -0.052255 -0.173760 0.068129 0.075691 0.048165 0.339520 -0.172449 -0.259421 0.341203 -0.055145 0.136667 0.078916 0.368427 0.170944 -0.026595 0.081845 0.011840 -0.066740 -0.075121 0.011228 0.047793 0.090710 0.430446 0.106266 -0.099123 0.053153 0.125659 0.104754 0.020726 0.383591 -0.110257 0.073805 0.294974 0.139362 0.096158 0.008331 0.279254 -0.229832 0.060901 -0.116308 0.029652 -0.163176 0.255194 -0.169527 0.146573 0.206625 -0.050005 -0.035701 -0.035890 0.089014 -0.160571 -0.065605 -0.121040 -0.102401 -0.183877 0.153482 0.021070 -0.004478 0.308261 0.051993 0.184493 0.151192 0.339026 -0.121615 0.001503 0.346043 -0.016256 0.123404 -0.205872 0.035697 0.142881 0.330475 -0.133183 -0.111007 0.069923 0.193568 -0.041799 0.145276 0.189409 0.058694 0.426621 -0.146788 0.144653 -0.182330 -0.046308 0.022893 -0.090717 -0.179381 -0.073994 -0.216219 -0.109024 0.116893 0.224537 -0.191347 0.052456 0.232026 -0.253505 0.066939 0.034553 -0.028396 0.209839 0.144322 -0.054345 -0.073092 -0.062247 0.351678 0.270630 0.187151 0.027451 0.300512 0.334446 0.342206 0.129948 -0.053430 0.070831 0.145277 0.113309 -0.001249 0.210629 -0.112902 -0.039424 -0.042424 0.041553 -0.141775 0.076188 0.136752 0.201490 0.060403 -0.177936 -0.030665 0.208768 0.228465 -0.155291 -0.225424 -0.066509 -0.172212 -0.122491 -0.074230 -0.047015 0.035291 0.143170 0.095850 -0.304457 -0.224355 0.291238 -0.246150 -0.088589 -0.259953 0.073458 -0.119947 0.040548 0.080029 -0.185462 -0.379921 0.259507 -0.106070 -0.038881 -0.045155 -0.125047 -0.223610 -0.165861 0.144456 -0.192174 -0.042739 0.111981 0.095265 0.188541 0.029767 0.206830 -0.251012 0.238466 0.126776 -0.368288 0.076767 -0.146947 -0.001466 0.095471 -0.017592 0.101357 -0.184734 0.129533 -0.187781 0.066281 -0.119669 -0.174368 -0.176381 0.119173 0.095732 -0.245907 0.027323 0.091206 0.072742 0.188676 -0.071892 -0.315322 0.107873 0.579750 -0.162646 0.199891 0.070219 -0.057621 -0.032070 -0.137723 0.153091 0.330754 0.101596 -0.216814 0.141153 0.150846 0.436529 0.214326 -0.029285 0.044397 0.167913 0.019222 0.011786 -0.184301 -0.189025 0.294562 0.036143 -0.180031 0.047387 0.081596 0.141135 
月 -0.515191 0.055807 -0.062812 0.022280 -0.409545 -0.068502 0.006506 -0.082454 -0.160902 -0.028510 -0.133420 -0.078229 -0.153906 -0.028987 0.259061 0.088550 0.137427 -0.145230 -0.003105 -0.121295 0.145471 -0.062500 -0.118780 -0.063408 0.312072 0.111992 0.137994 -0.162925 -0.360420 0.286480 -0.303578 0.065742 0.178518 -0.420920 -0.361658 -0.127695 0.290432 -0.106534 -0.113957 0.400022 0.070684 -0.169695 -0.000117 0.073473 0.279464 0.071936 -0.191404 0.361233 0.002651 0.063756 -0.014082 -0.215016 -0.232490 0.005736 -0.035479 0.125792 -0.085878 0.371317 0.130382 -0.122903 0.016036 0.356542 -0.191394 0.149884 0.137005 -0.288817 0.228204 -0.005237 -0.340281 -0.239205 -0.231338 0.268000 0.083180 0.182548 0.107279 0.072757 -0.160579 0.092385 -0.101455 0.054217 0.052918 0.002046 -0.031549 -0.128434 0.058435 -0.214261 -0.020471 -0.020750 0.014624 0.100576 -0.357204 0.026499 -0.113431 -0.064514 -0.030400 -0.249020 -0.018576 -0.039437 0.182977 -0.174496 0.109437 0.191895 0.108680 0.264286 0.572142 0.025849 0.287961 -0.458896 -0.101277 0.041071 0.227699 0.126600 -0.126611 -0.273060 -0.149082 -0.177382 -0.404591 0.239581 0.208871 -0.327685 -0.299411 0.755684 0.075266 -0.087313 -0.020886 0.372940 -0.068406 0.278644 -0.046345 0.214888 -0.335832 -0.093506 0.136719 -0.202521 0.174532 -0.367031 0.233456 -0.174490 -0.012440 -0.047185 0.190744 0.077977 -0.306816 -0.158445 -0.368388 0.009008 0.204400 0.423284 -0.059674 0.121773 -0.442311 -0.065845 0.073589 0.309100 -0.020642 0.141901 0.155351 0.178892 -0.223311 0.021690 -0.164760 -0.261238 -0.047976 -0.127384 0.144197 -0.050954 -0.131069 0.354244 0.125087 0.069142 0.128932 0.140038 0.351534 0.484195 -0.221982 0.109694 0.175095 0.184316 0.021514 -0.271740 -0.053019 0.327428 -0.086003 0.115820 0.041771 0.227131 -0.006395 0.501301 0.218447 -0.416154 0.004196 0.008590 0.152742 -0.348766 0.019223 -0.046264 0.348883 0.054193 -0.058207 -0.228618 -0.366189 0.202899 -0.025264 -0.181137 -0.037328 0.009881 -0.010241 0.335538 0.198098 -0.305042 -0.183466 -0.091435 -0.047066 0.097932 0.189123 0.023155 0.215401 -0.081100 -0.347243 -0.024381 0.133865 -0.093359 -0.195015 -0.419627 0.425793 -0.088257 0.119868 -0.055206 0.020135 -0.050400 0.020402 -0.260105 0.122598 0.018921 -0.232255 0.070576 0.223382 0.338845 -0.136235 -0.024866 0.259253 0.011242 0.003951 -0.025553 0.380261 0.200139 -0.034075 -0.045659 -0.055278 -0.274476 -0.680985 -0.329728 0.113893 -0.219707 0.020572 0.439726 0.170109 0.206114 0.404673 -0.328961 -0.254986 0.370873 -0.084473 0.139828 -0.148898 0.226701 0.353783 -0.010888 0.273108 0.055805 -0.369734 0.204938 0.575298 0.183364 -0.062832 0.113278 0.122765 0.090822 -0.179916 0.008578 -0.105605 -0.060564 0.026211 -0.067244 -0.070850 0.236510 0.343742 -0.055367 -0.177511 0.577232 0.092099 -0.157863 -0.136215 0.219532 -0.019879 0.042219 -0.110550 -0.244784 -0.320988 -0.185954 
. -0.324170 0.078477 -0.158069 -0.510615 -0.642185 0.007086 0.030543 0.179598 0.187714 0.218561 -0.030991 -0.221885 -0.437577 0.322453 0.573373 -0.133851 0.125919 -0.440689 -0.155479 -0.403782 -0.007336 -0.300057 -0.179621 -0.067870 0.174049 0.103569 0.407202 0.098841 0.149228 0.178308 0.357443 -0.087263 0.448305 -0.133541 0.045798 0.446734 0.498299 0.318828 -0.050028 -0.050196 -0.282957 0.001087 0.097236 0.121882 0.147402 -0.004469 -0.546166 -0.486388 0.177840 0.344625 0.219052 -0.404267 0.282357 0.512838 0.243633 0.403599 -0.331390 -0.133335 0.326787 -0.056841 -0.173687 0.594697 -0.098295 -0.015608 0.454470 0.129415 0.108397 0.372915 0.200321 -0.246374 0.129262 0.401586 0.688697 0.336128 -0.430049 -0.084402 -0.193429 -0.207514 0.006606 0.093894 0.009479 -0.042726 -0.208927 -0.217642 -0.031017 -0.133174 0.394255 0.059263 0.431286 -0.687776 -0.023222 0.266013 -0.041381 -0.319859 0.055777 -0.675588 -0.440115 0.081082 -0.312115 0.201434 -0.176979 -0.044260 0.083773 0.191608 -0.008150 -0.061879 -0.204240 -0.283062 0.192257 -0.284222 -0.068456 0.304072 0.054047 -0.546916 -0.234653 -0.056983 -0.143566 -0.248190 0.365562 -0.224055 -0.399785 0.394999 -0.161551 0.115814 -0.195990 0.514342 -0.255606 -0.033909 0.152774 0.186551 0.031662 -0.285586 -0.378384 0.017498 0.738318 0.715526 0.059718 -0.184446 -0.011328 -0.180264 0.053082 0.131236 -0.137726 0.504841 -0.186607 -0.010916 -0.534288 0.075794 0.126735 -0.076924 -0.030237 0.341092 -0.397813 0.260210 0.794569 -0.209477 -0.328837 0.090435 -0.079013 0.037399 -0.417523 0.318162 -0.382546 -0.256718 -0.097644 0.315142 0.049108 0.425953 -0.381641 -0.388326 0.661655 0.192301 -0.217831 0.526991 -0.533925 -0.261848 0.009180 0.391339 0.142227 -0.162819 -0.096751 -0.031662 -0.313331 0.053246 0.263201 -0.287477 0.530174 0.091580 -0.041307 0.916603 0.581294 -0.387777 -0.282783 0.472623 -0.093521 -0.287545 0.032302 -0.051368 0.203933 0.022670 -0.530612 0.058727 0.546907 0.422721 0.015464 0.008258 0.589765 -0.109384 -0.265229 0.214680 -0.006326 -0.271130 -0.004610 -0.216299 -0.231067 -0.179089 0.527909 0.095558 -0.424726 -0.006206 0.163417 0.024004 -0.232527 0.074708 -0.033995 0.153325 0.401030 -0.295695 0.161404 -0.150173 -0.078113 -0.490919 -0.115225 -0.158075 -0.618085 -0.482492 0.276852 0.169440 0.200844 -0.774831 -0.409749 0.165688 0.490539 0.127298 -0.109792 0.132966 -0.427982 0.431500 -0.208586 -0.007051 -0.079270 -0.215183 0.382056 0.021532 -0.076737 0.399941 0.034640 -0.198798 -0.098731 -0.327532 -0.158485 -0.235972 0.031102 0.410707 -0.544413 -0.229997 0.114819 -0.042103 0.407124 -0.404275 0.437313 0.187093 0.347041 0.161163 -0.092590 0.143398 0.499642 -0.049086 0.244303 0.066592 -0.088582 -0.014335 -0.286686 -0.001667 -0.094816 0.108439 -0.165705 -0.338086 0.009415 0.465978 -0.006229 0.468398 0.248875 0.152027 -0.245947 0.395284 -0.614500 -0.137347 -0.222368 0.083229 
与 -0.000098 0.026353 -0.072073 -0.159709 0.134425 -0.052924 -0.116977 -0.225701 -0.228873 -0.083376 0.209096 0.067984 0.326487 -0.006234 0.167725 0.223980 0.322132 -0.135125 -0.128165 -0.039665 -0.076177 0.165881 -0.193098 0.223405 -0.211625 0.122249 0.066025 -0.146836 -0.060932 -0.076232 -0.415699 -0.138357 -0.245422 0.064314 -0.087903 -0.228804 0.372481 -0.046604 0.012223 -0.149340 0.010844 0.238733 -0.071132 0.085334 0.233524 0.061568 -0.321695 -0.088177 0.256435 0.055242 0.131792 -0.187318 0.146264 -0.113628 -0.326106 0.224409 -0.011984 0.377584 0.186863 -0.152507 0.038632 0.143932 0.051758 -0.018952 0.136847 0.102337 0.053052 -0.218699 0.216413 0.285945 0.208483 0.253070 -0.145557 -0.070736 -0.099173 0.039331 -0.003292 -0.003702 -0.015957 0.044538 0.259765 0.166454 -0.429693 -0.245508 -0.000193 0.207991 0.119422 0.123371 0.187710 -0.084336 -0.085237 0.167606 0.149145 -0.043449 -0.132829 -0.133341 0.067570 -0.123339 0.101531 -0.044178 -0.094558 0.134408 0.100314 0.183445 0.170593 0.065325 0.055779 -0.025292 0.130973 0.084663 0.098072 -0.178618 0.067790 -0.168519 0.152813 -0.024379 0.016088 0.009856 -0.186907 -0.177343 -0.151896 0.017792 0.245241 -0.031636 0.022580 0.172427 0.011088 -0.043102 -0.128822 0.098362 -0.248520 0.047782 -0.118067 0.066592 0.212258 0.344190 0.139183 0.185855 0.056935 -0.043465 -0.030987 0.211832 0.201510 0.190965 -0.299412 0.077284 0.046888 0.130812 -0.242442 -0.016554 -0.378876 -0.093567 0.148707 0.206547 -0.020720 -0.035479 0.167051 -0.101917 -0.173698 -0.052882 0.114022 0.162924 0.114136 -0.297923 -0.080907 -0.185118 0.147673 0.074914 0.100782 -0.225925 0.227880 0.116314 -0.097715 0.131050 0.183929 -0.089745 -0.011583 -0.043591 -0.017284 -0.284670 -0.333790 -0.130569 0.087796 0.110057 0.267702 0.026995 0.065317 0.044061 0.214593 -0.215458 -0.129597 0.126123 -0.074267 -0.243790 0.107740 -0.245508 -0.171354 -0.010327 -0.147772 0.179831 -0.046023 0.317564 0.136357 -0.164108 0.065122 0.143943 -0.057787 0.238110 0.171582 0.223248 -0.018023 -0.069115 -0.263207 0.205003 -0.165883 -0.062800 0.179408 -0.242013 0.012013 -0.302031 0.458195 -0.086552 -0.526593 -0.045237 0.338165 -0.050499 0.346414 -0.109488 0.001557 -0.252486 0.022173 -0.192570 0.140855 0.264045 -0.313917 -0.257870 -0.135113 0.093037 0.316942 -0.195964 0.283606 0.473250 0.027040 -0.088150 -0.021493 -0.385214 -0.126681 0.067481 -0.250963 -0.189435 -0.185244 -0.013402 -0.003024 0.002093 -0.142942 -0.154024 -0.034428 0.178866 0.204160 -0.099402 0.064319 -0.257208 0.199749 -0.195764 -0.045903 -0.191084 -0.087799 -0.083579 -0.088605 -0.098875 -0.363439 -0.319749 0.652887 0.052755 0.032384 0.007287 -0.099881 0.013055 0.069289 -0.162255 0.366217 0.164279 -0.286344 -0.180945 -0.277306 0.248829 0.038869 0.100772 -0.017747 -0.068595 0.090515 0.074554 -0.346553 0.131216 0.328086 0.160693 -0.129749 -0.123117 -0.101866 0.113026 
； 0.036411 0.129895 -0.053846 0.011885 -0.288366 -0.064425 0.092160 -0.112819 -0.128974 -0.093823 -0.074982 0.038866 -0.284234 -0.195073 0.046047 -0.069208 0.260006 -0.112893 -0.192233 -0.229086 0.143651 -0.038748 -0.167827 0.046335 0.150935 0.057060 0.119913 -0.010721 -0.042727 -0.081756 0.102080 -0.124225 -0.014948 -0.063410 0.026463 0.032233 0.321500 -0.268013 -0.060424 0.145592 -0.293375 -0.013827 0.085240 0.133181 0.045766 -0.049495 0.011939 0.014811 0.050646 0.104268 -0.051317 -0.175451 -0.014113 0.021492 -0.132887 0.141063 -0.086130 0.071199 0.078512 0.111823 0.102800 0.334492 0.001610 -0.201407 0.255789 -0.054710 0.121732 0.029498 0.097982 -0.049886 0.427199 0.244041 -0.109964 -0.115164 -0.056839 0.112337 -0.009830 -0.090602 0.069714 -0.061468 0.375017 0.141126 0.045365 -0.307235 0.026283 0.099305 -0.115246 0.139024 0.177071 0.193150 -0.124743 -0.134879 -0.118060 -0.002754 -0.206594 -0.142996 0.077109 -0.291273 0.305620 0.143749 -0.032810 0.007772 -0.126758 0.037428 0.001687 -0.077433 -0.220278 0.004568 -0.033743 0.113221 0.185613 -0.039764 0.067722 -0.018714 0.022069 -0.021175 0.206060 0.189904 0.108938 -0.072334 0.197816 0.230633 0.090664 0.311398 -0.009661 0.029523 0.021690 0.258719 -0.121994 0.150049 -0.009609 -0.093129 -0.027680 0.317355 0.295877 0.013066 0.052419 -0.027108 -0.181937 0.311726 -0.167503 0.255614 -0.178941 -0.323166 -0.167959 0.103286 0.032949 0.073730 -0.012938 0.021239 -0.268009 0.356506 -0.300756 -0.182703 -0.072919 0.151727 -0.147644 -0.048370 0.004328 0.013235 0.044399 -0.049873 0.218627 -0.207445 -0.050751 -0.104651 -0.221002 0.430358 0.350386 -0.016698 0.293004 -0.022157 -0.154458 0.253672 0.036893 -0.182972 0.044329 0.039832 -0.290756 -0.242583 -0.611756 0.104966 -0.192253 0.096684 0.128663 0.332120 0.354727 0.119042 -0.104756 0.004700 0.246331 0.064238 0.141514 0.171010 -0.081550 0.007932 -0.059632 0.159454 0.123468 -0.137744 -0.399222 -0.001785 0.260835 -0.107542 -0.014665 0.008474 -0.158653 0.207011 0.249237 0.123818 0.090416 0.000240 -0.146093 0.094520 -0.246167 0.174266 0.192188 0.109046 -0.296120 -0.028309 0.485334 0.020347 -0.244413 0.207866 0.226559 -0.146294 0.222304 -0.209030 0.113026 -0.158302 0.007335 -0.048883 -0.088421 0.126208 -0.080130 -0.005991 -0.013692 0.256751 -0.065554 0.056984 -0.009020 0.206588 -0.076971 0.261615 0.274147 -0.083449 0.090219 0.138621 -0.193150 0.120727 -0.076102 -0.009507 0.148810 0.064541 0.090915 -0.221722 0.337456 -0.121083 0.172822 -0.005720 0.069055 0.056301 -0.052717 0.192424 0.019089 0.014863 -0.085622 -0.200778 0.023444 -0.126746 -0.068169 -0.270115 0.278752 0.077167 0.075042 -0.203828 0.050248 -0.315217 0.133238 0.032819 0.208546 -0.072409 -0.181123 -0.183040 -0.409696 0.377938 -0.011323 -0.064549 0.240535 -0.093118 0.156662 -0.137014 -0.176934 0.194821 0.022330 -0.045455 0.028554 -0.150504 0.026274 0.242022 
/ 0.521885 -0.005607 0.011781 -0.209191 -0.100385 -0.094456 0.341797 0.083668 0.094341 -0.312475 -0.287671 0.287657 -0.181821 0.144439 -0.036272 -0.067718 0.442453 -0.116487 -0.107466 -0.554215 0.089494 0.167727 0.127587 -0.061377 -0.013454 -0.071282 0.305414 0.267942 0.270664 -0.061977 0.140908 0.007943 -0.144606 -0.336915 -0.023934 0.101477 -0.003962 0.367640 -0.386359 0.082580 -0.077337 0.147838 0.055113 -0.230199 0.217032 0.190077 -0.085924 -0.293530 0.487577 0.272239 0.220232 -0.248091 0.151915 0.020139 0.111727 0.598826 -0.492206 -0.023248 0.393348 -0.074108 0.087518 0.168934 0.008532 -0.172563 0.291584 -0.276297 0.398947 -0.286246 -0.235866 -0.599349 0.113799 -0.061732 0.226377 0.534905 -0.308384 0.279445 -0.632895 0.178559 0.065846 0.273980 -0.150726 0.041763 -0.210156 -0.146401 0.169311 -0.032582 -0.276132 -0.564925 0.281653 -0.147517 -0.055086 -0.424244 0.188429 -0.032223 -0.207195 0.087721 0.290630 -0.000138 0.101696 0.017781 -0.238069 0.130834 0.061184 -0.231939 0.272898 0.617331 -0.036296 -0.051156 -0.440655 0.018364 0.385063 -0.070839 0.058639 -0.505029 -0.286452 -0.113117 0.352639 0.203699 0.477237 -0.223007 0.189938 0.362799 0.045554 0.328447 -0.118432 0.166105 0.306513 -0.195205 -0.110865 -0.139609 -0.067126 0.057628 0.106642 0.283764 0.107678 0.062323 0.143968 -0.267821 -0.539001 0.289025 -0.018932 0.244382 -0.388578 -0.382543 -0.252530 0.296939 0.230667 -0.157701 0.196330 -0.279716 0.007421 0.372462 0.162103 0.634964 0.518018 -0.056834 -0.175219 0.071437 0.323816 0.131700 0.032212 -0.092751 0.057751 -0.449659 -0.072610 -0.391547 -0.126059 0.387723 0.152027 -0.085411 0.368308 -0.089515 -0.053343 -0.241395 -0.113619 -0.168999 0.202367 0.250773 0.482875 -0.392281 -0.284196 0.255440 -0.071704 0.032173 -0.171575 -0.011512 0.433718 -0.068022 0.184764 0.109569 0.173994 0.032641 -0.072211 0.019264 -0.267682 -0.037760 -0.033430 -0.011972 0.310266 0.327895 -0.103162 0.140600 -0.067805 -0.265981 -0.167754 -0.005102 0.189419 0.268557 0.108469 0.313927 0.361124 0.046687 0.158557 0.229340 0.240813 0.167476 -0.021311 -0.185466 -0.558284 -0.345794 0.551444 0.239387 -0.380125 -0.233314 -0.177881 0.227504 0.393994 0.223821 0.039352 -0.043188 0.232414 0.079764 -0.307915 -0.281321 -0.078332 -0.153112 0.179107 -0.121261 -0.174224 -0.201018 -0.363347 0.574131 0.348672 0.327938 0.529696 -0.037354 -0.548457 0.409300 0.005324 -0.030401 -0.193476 -0.198000 0.095650 0.095331 -0.027064 0.166372 0.026269 0.257478 0.039783 -0.509831 0.220004 -0.032338 0.034544 0.271613 0.306247 0.011961 -0.097754 -0.384256 0.099920 -0.074347 -0.180367 -0.236112 0.046793 0.476090 0.314237 0.454579 0.431884 -0.020724 -0.204716 -0.296898 0.266417 0.046731 0.286310 0.098158 -0.143694 0.395981 0.356079 -0.191684 -0.488303 0.253295 0.217181 0.068018 -0.107294 0.470954 0.236110 -0.309225 -0.120451 0.381629 0.031922 -0.175916 
一 0.024460 -0.078624 -0.228291 -0.195329 -0.087674 -0.292313 0.026158 -0.035646 -0.042323 -0.021104 -0.162761 -0.051909 -0.005792 0.118381 0.197556 0.304557 -0.011927 0.018075 -0.102533 -0.110828 0.394743 -0.040013 -0.043015 0.133344 0.225264 0.391379 0.229882 -0.085436 0.021095 -0.088245 -0.017730 0.314311 -0.065750 0.155257 -0.069261 0.051860 0.201922 -0.061729 0.233195 0.043585 0.231373 0.177010 -0.114071 -0.073740 0.027806 -0.125856 -0.022550 0.203676 -0.035341 -0.077937 0.368147 -0.074965 0.013207 -0.171150 0.177771 -0.100482 -0.128394 0.052826 0.151860 0.120861 -0.155779 0.154873 -0.198802 0.107476 0.296488 -0.093331 -0.103286 -0.396773 -0.096067 0.064045 -0.085934 0.194574 0.234258 0.127591 -0.113560 0.137007 -0.122940 0.119146 -0.140880 -0.133455 0.324936 0.087921 0.049151 0.029386 -0.042790 -0.187789 -0.119131 0.514805 -0.049304 -0.036070 0.006328 0.196102 0.063337 0.055160 -0.170147 -0.045315 -0.060578 0.117463 0.152551 -0.018191 0.301855 -0.041575 0.124284 0.175781 -0.067852 0.282585 0.005316 -0.159720 -0.004115 -0.174411 0.218343 -0.028982 -0.173699 -0.172841 0.470761 0.071015 -0.016832 0.046453 -0.024362 -0.237293 0.007594 0.166512 -0.036105 -0.130556 -0.213067 0.144928 0.142817 0.009798 -0.263546 -0.151145 -0.038122 -0.103418 -0.060236 0.028238 -0.081437 0.180804 -0.140221 0.256449 0.022620 -0.100443 0.155054 0.311213 -0.075861 -0.301127 0.083955 0.062619 -0.185473 0.183252 -0.078470 -0.039769 0.049588 0.076238 0.127191 0.023865 0.318952 -0.115267 0.055251 -0.256952 0.069339 -0.248056 -0.024714 -0.059328 -0.208397 0.220616 -0.081054 -0.095395 -0.102269 0.184697 0.028331 -0.157372 0.325816 0.098738 -0.069638 -0.121775 0.033020 0.034445 -0.035630 0.153444 -0.065642 -0.271178 -0.235619 -0.161257 0.053199 -0.144814 0.227051 -0.052911 0.464606 0.086860 -0.112607 -0.128315 0.273377 0.052186 0.262122 0.280181 -0.437168 0.144333 -0.114028 -0.213146 0.176161 0.000504 -0.274097 0.535379 -0.188065 -0.032683 0.102137 0.022907 0.241535 0.351951 0.229387 -0.393233 0.100895 0.039571 0.034540 -0.173465 -0.074037 0.175653 -0.001413 -0.309870 -0.147910 -0.205950 0.269269 -0.073029 -0.416829 -0.131923 0.165862 0.116425 -0.000310 0.151198 -0.079376 -0.248875 0.028308 -0.032831 -0.065526 0.088916 -0.067712 -0.349968 -0.046510 0.255897 -0.033820 0.197007 0.283090 0.014906 0.518439 -0.053950 -0.054283 0.174545 0.123914 0.128393 -0.048733 0.132080 -0.167653 -0.080252 0.118202 0.003845 0.222352 -0.012921 0.123076 0.109662 -0.193276 0.174437 0.097412 0.023840 0.352957 0.058595 -0.211432 -0.094037 -0.284476 0.049579 0.161787 -0.249551 -0.204711 0.175646 0.232169 0.034481 -0.023831 0.031037 -0.138304 -0.011756 -0.039124 0.016323 -0.058490 0.476556 -0.001556 -0.232283 -0.113353 0.165175 -0.003776 0.028253 -0.281464 0.226053 -0.205929 -0.045137 0.113175 -0.023261 0.238045 -0.020733 0.242639 -0.043434 -0.330199 0.024768 
股 0.238400 -0.278313 0.147221 -0.434255 -0.255512 0.129823 0.060999 0.260456 -0.290284 -0.141917 0.063170 -0.252836 0.041887 0.165595 0.458786 0.116949 -0.336284 -0.121246 0.186457 0.087861 0.140044 -0.222046 0.292639 0.486554 -0.035512 0.278807 -0.123205 0.285168 -0.237764 -0.176999 0.089525 0.683576 0.322823 -0.587521 -0.298278 0.168592 -0.084849 -0.565815 0.219117 -0.232554 -0.062338 0.056597 0.358130 0.204033 -0.019053 0.205357 -0.269356 -0.010606 -0.585755 0.183717 -0.007344 -0.076705 0.047863 -0.017012 0.023042 -0.114571 0.001555 -0.092394 0.078998 -0.529747 0.112949 0.115342 0.338499 -0.151256 0.216414 -0.044316 -0.064652 0.126565 -0.011292 -0.083581 -0.484861 0.140823 0.445379 -0.366257 0.177845 0.133001 -0.215997 -0.484708 -0.290545 -0.322335 -0.247057 -0.559609 -0.357934 -0.142922 0.002087 -0.138370 0.058685 -0.133472 0.090858 -0.070220 -0.219221 -0.211507 -0.378265 0.396083 0.238689 -0.087193 0.383016 -0.221515 0.218393 0.166397 0.220327 -0.133782 0.094465 -0.014517 -0.082702 0.093748 0.300694 -0.330035 0.171314 -0.108484 0.184106 0.036974 -0.422522 -0.311063 0.052479 0.108202 0.083291 0.044511 -0.093654 -0.192956 -0.478596 -0.345439 -0.274214 0.347147 0.181136 -0.048197 -0.263537 0.349305 -0.252934 -0.192772 -0.068113 0.045591 0.103771 -0.139499 -0.003223 0.055770 -0.214675 0.059917 -0.377350 0.227726 0.123350 0.068902 -0.264629 0.407430 -0.144921 -0.078692 0.418416 0.485042 0.135818 -0.183249 -0.066934 0.282003 0.131971 0.179147 0.149609 -0.483336 0.046034 -0.239983 -0.358181 0.214240 -0.078405 -0.443563 0.114155 0.198879 0.255887 -0.669058 -0.247361 0.494308 0.138647 -0.480731 0.194708 -0.434767 -0.557041 0.090874 0.000748 -0.322563 -0.327528 -0.546026 0.028321 -0.242517 0.046715 0.241627 0.081669 -0.012726 -0.063410 -0.097477 0.253096 0.298292 -0.076625 -0.217535 0.398858 0.036432 0.249115 0.179429 0.124126 0.172020 0.116453 -0.202407 0.426655 0.085952 -0.781727 0.109687 0.546958 0.054162 -0.103084 0.144664 0.169904 -0.056135 -0.013548 -0.602314 0.395144 -0.412813 -0.178106 -0.237318 -0.179947 0.154619 -0.090463 -0.490456 -0.437906 -0.352224 0.871605 -0.111763 -0.572456 0.065807 0.530829 -0.251535 0.108314 -0.075454 -0.407700 0.216326 -0.080085 -0.266389 0.129020 -0.428985 -0.269908 0.439189 0.297264 0.036375 0.053098 -0.195739 0.174452 0.003907 0.565666 0.240686 0.132448 0.594176 0.150091 0.609049 -0.428200 -0.403000 -0.505523 -0.040548 0.271962 -0.162816 0.333106 -0.237340 0.188236 0.030868 0.616154 -0.401032 -0.354869 -0.296905 0.107532 0.430902 -0.045314 0.096946 -0.093006 0.014826 0.162566 0.159419 0.392306 -0.019137 0.284354 0.184742 -0.045101 0.078272 -0.364751 -0.077570 -0.633259 0.238919 0.275415 -0.015402 0.490306 0.230564 0.144975 0.245084 -0.048905 0.018593 0.274756 0.241548 -0.162000 0.321659 0.532818 -0.285836 0.284180 0.384257 -0.127981 0.306015 -0.425521 -0.156651 
市场 0.195670 -0.100248 -0.047882 -0.247043 0.089958 -0.004485 -0.216553 0.229879 -0.091953 -0.006234 0.060295 0.272682 0.228747 0.030109 -0.092805 0.032744 0.206314 -0.174059 -0.287195 -0.168179 0.079349 -0.290852 0.185838 0.089980 -0.024892 0.192073 -0.260447 -0.113756 -0.083007 -0.110346 0.052300 0.168916 0.179004 -0.002179 -0.382416 0.013412 0.305677 -0.053557 0.151083 0.031165 -0.052266 0.001071 -0.292346 0.374876 0.250715 0.034942 0.044071 -0.109123 0.207598 0.091859 0.153422 0.141604 0.234461 -0.135710 0.217232 0.391606 0.102261 0.020907 0.049671 0.192560 -0.261170 0.189082 0.226568 -0.202456 0.218560 -0.138329 0.148872 -0.221238 -0.074600 0.095097 0.021520 0.080103 -0.063973 -0.254485 0.133862 0.176566 -0.156774 -0.122015 -0.096879 0.112935 -0.087188 0.341009 0.007078 0.168588 0.122369 -0.209048 -0.186949 0.638805 0.034269 0.119746 -0.040065 -0.147412 -0.108647 -0.023251 -0.104538 -0.176747 0.105784 -0.324432 0.338870 0.092670 -0.360781 0.162885 0.020787 0.337125 -0.011725 0.193896 0.024132 0.092647 0.287007 0.131577 0.022304 -0.116689 0.046146 -0.122533 0.144151 0.056316 0.179464 0.136072 0.047704 -0.018060 0.124098 0.225576 -0.216782 -0.118804 -0.265997 0.120620 0.007484 0.099667 -0.129479 -0.110675 0.157623 -0.167850 0.125551 -0.084969 0.171436 -0.008175 0.356577 0.225292 -0.002322 0.117389 0.072409 -0.061870 -0.329548 -0.047703 -0.158600 -0.003768 0.014050 0.132493 0.190928 -0.491235 0.075243 0.323848 0.211220 -0.105775 -0.045412 -0.154758 0.282325 -0.300650 -0.072796 0.022340 0.090629 0.188599 -0.208451 -0.123433 -0.031835 -0.251294 -0.090804 0.232599 -0.035327 -0.256752 0.408736 -0.131048 -0.043797 0.151736 0.012779 -0.258522 0.277660 -0.139224 -0.103838 -0.308340 0.151575 0.150472 -0.196219 0.284792 -0.008395 -0.060606 0.313411 0.094450 -0.234535 -0.150861 0.193313 0.074535 0.375110 -0.034765 -0.086386 -0.119231 -0.377610 -0.121101 0.078005 0.099885 -0.419321 0.162905 0.306083 -0.000210 -0.359555 0.226642 0.279563 0.122348 0.132399 -0.326134 0.014707 0.029486 -0.070630 0.032403 -0.164754 -0.004036 -0.000313 -0.102492 -0.102541 -0.084217 0.269328 0.167435 -0.269542 0.121324 0.152396 0.061485 0.298348 -0.100444 -0.035494 -0.234091 0.222849 -0.355941 -0.071496 0.005818 -0.094213 -0.063668 0.092966 0.382710 -0.168901 0.068317 0.260994 0.220336 -0.042107 -0.019418 0.222365 0.093516 0.339006 -0.184601 -0.286916 -0.074172 -0.402156 0.372719 0.091559 -0.119745 -0.332876 -0.140276 -0.144180 0.093896 0.119332 -0.203417 -0.089263 -0.247923 -0.031339 -0.252747 -0.232068 0.029766 0.312281 -0.220093 0.101481 -0.074108 -0.110591 0.258319 0.064504 0.157263 0.473672 0.223369 -0.012732 -0.176524 -0.291228 0.215963 0.503349 -0.004284 -0.023732 0.041710 -0.144820 0.186412 -0.048747 0.071082 0.000235 0.156748 0.141749 -0.104443 0.214624 -0.033829 0.090453 0.014316 0.060831 0.053620 -0.092167 -0.140241 
也 0.042350 0.001302 0.026970 -0.099397 -0.026935 -0.124421 -0.204359 -0.117492 0.038056 -0.104019 0.356946 0.160500 0.062794 -0.053382 -0.149747 0.060002 0.015658 -0.093681 -0.330844 -0.032061 0.185250 0.002121 -0.148362 0.106555 0.097556 0.204773 -0.058819 -0.091629 -0.270565 -0.092552 0.075666 0.076546 -0.037681 0.088600 0.062780 -0.009848 0.141784 -0.087902 0.059081 0.084746 -0.044113 -0.027833 -0.226981 0.081983 0.139085 -0.101531 -0.533954 -0.130783 0.014971 0.160781 0.102439 -0.145859 0.068090 0.364437 0.031605 0.097317 -0.219471 -0.014154 -0.026289 0.002332 0.085717 0.033591 0.101990 0.066647 0.099784 -0.019805 -0.057241 -0.190344 -0.001039 0.045834 0.124287 0.115562 -0.180832 -0.182047 -0.053794 0.113112 0.001389 -0.236263 -0.195995 -0.156450 0.263220 0.363956 -0.151250 -0.223921 -0.020403 -0.060875 -0.022977 0.052050 -0.017808 0.082869 -0.000706 -0.011591 -0.073217 0.024019 -0.166359 -0.057479 0.130451 -0.198856 0.103787 0.035877 0.105667 0.146877 0.001912 -0.007686 -0.000825 0.234437 -0.020509 0.148089 0.208048 -0.057325 -0.098145 -0.126516 0.085344 -0.170997 0.007904 0.046534 0.056154 -0.082207 0.225858 -0.166274 -0.017746 0.156064 -0.097756 -0.118124 -0.054894 0.160386 -0.164971 0.136066 -0.069705 -0.000802 -0.045094 0.016132 -0.095521 0.208580 0.102484 0.151244 0.135491 0.355953 0.026488 -0.089165 0.064005 -0.080384 -0.009747 0.116385 -0.262352 -0.007545 0.078363 0.245107 0.030706 -0.062495 -0.135215 0.194047 0.216424 -0.102650 0.020097 -0.013624 0.146547 -0.238284 -0.075515 -0.161232 0.195054 0.040922 -0.075056 -0.082457 -0.006299 0.020519 -0.161538 0.044367 0.111448 -0.233105 0.322177 -0.027916 -0.022378 -0.004790 -0.117154 -0.137893 0.021218 0.007161 -0.001111 -0.120627 0.032805 0.075749 0.034601 0.110833 -0.009753 0.201790 0.346413 0.070487 -0.031737 -0.193317 0.128771 -0.096529 0.299462 -0.040756 -0.088567 -0.133396 -0.057037 -0.110941 0.087711 -0.070917 -0.388426 -0.092388 0.051427 -0.031656 -0.038559 -0.056760 0.069404 0.192839 0.158685 -0.065731 0.270833 0.137157 0.137599 0.030542 -0.198627 0.071497 -0.032909 -0.089285 -0.127848 -0.130090 0.137808 -0.145854 -0.183319 0.006076 0.037222 -0.076571 -0.111357 0.046663 -0.116977 -0.199569 0.205055 -0.361419 -0.119541 0.117475 -0.309991 -0.031402 -0.149767 0.186912 0.027661 -0.135158 0.132030 0.040831 -0.041530 -0.072429 0.273657 0.015793 0.257837 0.021176 -0.210301 0.090430 -0.169430 0.009232 0.058159 -0.169157 0.119895 0.091844 0.018435 0.123657 0.109574 -0.015862 -0.005371 -0.215828 -0.088882 -0.003565 -0.151578 0.032867 0.049603 0.025735 0.038570 -0.097743 -0.148249 0.112751 0.493767 -0.051280 -0.025693 -0.112103 -0.022229 -0.026702 -0.248234 -0.032414 0.195374 0.137252 -0.166326 -0.016265 -0.143993 0.149634 0.170749 -0.015497 0.102105 0.209196 0.023557 -0.080762 -0.091077 -0.199821 0.157063 -0.105640 0.059714 -0.023062 -0.157149 0.054591 
对 0.070753 -0.023019 0.079036 -0.192729 0.181458 0.135603 -0.055876 -0.219948 -0.021691 0.001513 0.409663 0.327263 -0.016728 0.066000 -0.112247 -0.139625 0.007969 -0.063070 -0.058221 -0.064892 0.333564 -0.024953 -0.027382 -0.146917 -0.013791 0.017893 -0.157731 -0.070671 0.005009 -0.004271 -0.146987 0.129773 -0.079148 0.129638 0.015724 -0.266045 0.224529 -0.027568 0.090998 -0.205276 0.244082 0.022607 -0.195207 0.167051 0.215774 0.022013 -0.161827 0.114869 0.111623 0.013590 0.205957 0.090416 0.079112 0.052634 -0.077450 0.380302 -0.186867 0.213513 0.024391 -0.047595 -0.098499 0.175753 0.196482 -0.040394 0.137363 0.034391 0.256119 0.113895 0.157618 0.105912 -0.042430 0.294325 -0.375908 -0.108499 -0.020122 0.232574 0.021033 -0.059250 -0.083337 -0.018704 0.232642 0.058608 -0.280322 -0.121569 0.052892 -0.013379 -0.242760 0.194694 -0.040172 0.204318 0.059140 0.148909 -0.255601 0.101415 -0.223234 -0.251189 0.079084 -0.086413 0.071756 -0.096134 -0.180984 0.067875 0.058773 -0.134480 -0.039919 0.202929 0.278663 0.066939 0.181170 0.132534 0.126276 0.166387 0.109700 0.036491 0.237805 0.338242 0.075946 -0.084871 0.120974 -0.272139 -0.151663 0.313977 0.141707 -0.148004 -0.111376 0.083185 -0.050249 -0.214601 -0.240847 -0.015202 -0.135907 0.059628 -0.038815 0.199987 0.276702 0.088781 0.003274 0.377429 0.199913 -0.180706 0.086212 0.122220 -0.170931 0.156295 -0.215554 0.104754 0.088963 0.237266 -0.298470 -0.248492 -0.260448 0.371234 -0.097040 0.165009 -0.078888 0.088325 0.021162 -0.257825 -0.255245 0.124097 -0.058104 0.020641 -0.006220 0.003658 0.232946 0.004752 -0.105825 -0.170128 0.306237 -0.055261 -0.126189 -0.123872 0.035071 -0.191413 0.361793 -0.233539 0.426246 0.215643 0.006083 0.233282 -0.247555 0.094499 0.157840 -0.042822 0.120648 0.116594 0.476101 0.200743 0.126873 -0.080967 0.160418 0.035693 0.016496 0.098063 -0.021905 0.041397 -0.131437 -0.039794 0.005220 0.110371 -0.026761 0.100408 0.109424 -0.119284 -0.172015 0.141619 0.065050 0.039372 0.179805 0.107231 0.235208 -0.064660 -0.164526 -0.127986 0.000431 0.123465 0.107043 -0.034431 -0.122435 -0.405606 0.037489 -0.135658 -0.265769 -0.148187 0.322821 0.203683 0.008473 -0.091226 -0.005614 -0.024943 0.116220 -0.269802 -0.026443 0.054282 -0.385103 -0.120511 0.068510 0.228257 -0.074994 -0.043680 0.153164 0.109482 -0.005456 -0.131809 -0.018772 -0.097353 0.023010 -0.027287 -0.286590 -0.198776 -0.117665 0.073054 0.043649 -0.055332 -0.030708 -0.142701 0.333925 0.019222 0.027286 -0.105067 0.034488 0.177844 0.212035 -0.076526 -0.191626 -0.082580 0.224468 -0.008132 0.079051 0.092482 -0.379741 0.056165 0.508760 -0.275947 0.140975 -0.041705 0.008463 0.198544 -0.051485 -0.019955 0.215439 0.284493 0.016863 0.125322 -0.146465 0.420763 0.023669 -0.091686 -0.124897 0.111853 0.381724 -0.137228 0.011141 -0.180682 0.148314 0.116043 0.036002 -0.160650 -0.069519 -0.032724 
日 -0.558157 0.397196 0.008463 -0.386103 -0.595447 -0.155862 0.144072 -0.128257 -0.172717 0.173588 -0.350852 -0.239340 0.116767 -0.061686 0.515352 0.182692 0.424967 -0.280819 -0.069553 0.227322 0.111710 -0.199560 0.011182 0.106986 0.031608 0.040966 0.147649 -0.270709 -0.554259 0.409443 0.007419 0.170092 0.392755 -0.129263 -0.710976 -0.097049 0.158577 0.110364 -0.089477 0.101829 0.151354 -0.003064 0.024823 0.142806 0.206666 0.160877 -0.127754 -0.000840 -0.119992 -0.102125 -0.108166 -0.067857 0.107555 0.044016 0.097379 0.386962 -0.199579 0.228365 0.296445 -0.208613 -0.034918 0.331753 0.077217 0.036521 0.047853 -0.027915 0.052461 0.159797 -0.219956 -0.306602 -0.323906 0.205389 0.071335 -0.003270 -0.106790 0.170127 -0.107057 0.250331 -0.183104 -0.061040 -0.105111 -0.066888 -0.226588 -0.309694 0.170747 -0.282526 -0.076073 0.007188 0.218905 -0.091918 -0.128211 0.053649 -0.173124 -0.071377 -0.010332 -0.276873 0.280056 -0.044573 0.113077 0.093600 0.337839 -0.092018 0.184449 0.098332 0.290764 -0.002060 0.476698 -0.322770 0.030711 0.053830 0.161588 -0.134053 0.072968 -0.172496 0.000093 -0.148937 -0.361180 0.261206 0.436109 -0.369362 -0.071745 0.705202 -0.164434 -0.230082 -0.214017 0.200249 -0.033845 0.299886 0.052973 -0.154344 -0.060137 0.206596 0.248239 -0.284950 0.023258 -0.331526 0.034880 -0.225542 -0.163049 0.117431 0.047318 0.278592 -0.281874 0.196455 0.142586 0.255278 -0.006890 0.447438 -0.149855 0.000688 -0.467088 -0.386326 0.065839 0.307895 -0.015477 0.116974 0.350325 0.128495 -0.174920 0.193046 -0.011911 -0.384096 -0.156302 -0.109212 0.390876 -0.080517 0.025897 0.421256 0.207318 0.087878 0.331262 0.258868 0.244000 0.263915 -0.291598 0.266917 -0.127154 0.131856 0.160722 -0.132341 -0.243956 0.315338 -0.059444 0.275247 0.256510 -0.140138 0.271169 0.039769 0.439891 -0.502453 -0.192875 0.106381 -0.051039 -0.213215 -0.247215 -0.084238 0.433390 -0.229117 -0.067693 -0.153191 -0.342491 0.015421 0.132096 -0.043688 -0.225739 -0.297737 -0.113097 0.115440 0.187092 -0.118419 0.022499 -0.034353 -0.186031 0.184730 -0.012550 0.071658 -0.006224 0.161962 -0.252984 -0.170418 0.490203 -0.210624 -0.376660 -0.655807 0.286514 -0.094332 0.165372 -0.120740 0.006768 -0.473526 -0.148235 -0.369578 -0.132277 0.162376 -0.235587 0.069788 0.183480 0.677570 0.046523 -0.350575 -0.210233 -0.088081 -0.070786 0.066091 0.523103 0.429831 -0.126736 0.187149 0.113184 -0.236599 -0.785335 -0.008360 0.228234 -0.446557 0.182802 0.354628 0.172539 0.336092 0.408324 -0.302696 -0.012770 0.295886 0.100538 0.112130 0.063902 0.053352 0.418589 -0.000031 0.272133 -0.099590 -0.429839 -0.087444 0.575656 0.292130 -0.143175 0.147855 0.004478 0.062866 -0.130840 0.002722 -0.058897 -0.088933 -0.030701 0.017184 -0.225413 0.140038 0.488678 -0.122669 -0.274365 0.375891 -0.176494 -0.235614 0.012529 -0.078786 0.045559 0.014831 -0.282560 -0.059208 -0.431925 -0.006007 
