1000 300
， -0.141209 0.270277 0.315273 0.063904 0.018635 0.188373 0.018318 0.143256 -0.110122 -0.056711 -0.127691 0.401443 0.109676 -0.466078 0.041475 -0.089593 -0.245918 0.000899 -0.219099 0.045863 0.235281 0.131398 -0.393297 -0.315075 -0.077209 -0.036193 0.032471 -0.183561 -0.199901 0.389450 -0.426391 -0.061947 0.011487 0.083087 -0.340556 0.097395 0.024262 0.283790 -0.158197 0.149759 -0.077999 0.075067 -0.341447 0.226689 -0.153494 0.056446 -0.012235 0.236743 0.035225 -0.480541 0.056590 -0.155351 0.210814 -0.099001 0.296238 0.151826 0.184500 -0.125586 0.017755 0.101021 -0.060686 0.113561 0.400264 -0.157350 0.244518 -0.192306 0.022866 0.295416 0.339506 0.045146 0.180683 -0.001199 -0.041044 0.020032 -0.087846 0.165686 0.240400 0.178259 -0.225307 0.021322 -0.093166 0.415369 -0.052051 -0.070922 0.183425 -0.133363 0.204990 0.451046 0.006393 0.039315 0.094244 0.043471 -0.134549 0.064677 0.126553 -0.194632 -0.244491 0.144148 -0.045290 -0.069143 -0.257413 0.340229 -0.117037 0.029434 0.163095 -0.251445 0.261487 0.099700 -0.367976 0.122736 -0.218618 -0.115647 0.040542 -0.028451 -0.101413 0.185596 -0.055135 0.224634 -0.107875 0.049833 0.046708 0.039830 0.193135 0.101548 0.079900 0.205276 0.184675 0.297252 0.075335 0.007953 0.001164 -0.001793 -0.154754 -0.067406 0.140329 -0.174258 0.161299 -0.206272 -0.011768 0.104022 -0.192872 0.252701 0.151734 0.115856 0.010023 -0.087551 0.109975 0.077449 -0.039766 -0.055369 0.227273 0.235813 -0.100709 -0.153619 -0.233432 -0.156170 0.167654 -0.487121 0.150276 0.109347 0.004534 -0.079862 0.017708 0.116424 0.002238 0.023373 -0.211729 -0.121130 -0.332937 0.486594 0.163303 0.287203 0.067351 -0.034290 -0.094294 -0.033789 0.142330 0.029110 0.292345 0.064599 0.258923 -0.048523 0.056995 -0.058147 -0.081045 -0.213228 0.007201 0.035168 0.199241 0.160786 0.070678 -0.149771 0.243737 -0.189613 0.342351 -0.122402 -0.332413 -0.023505 0.000552 -0.122315 -0.025907 -0.224903 0.069638 0.088858 -0.025562 -0.154693 0.239740 0.390284 -0.005929 -0.170413 -0.328853 -0.188038 0.295226 0.008298 0.035967 -0.014730 0.049151 0.188733 0.204304 -0.146463 0.189413 -0.155206 0.277218 -0.387571 0.106790 -0.089993 -0.208775 -0.076314 0.153776 -0.088475 -0.188465 -0.096686 0.185668 -0.034612 -0.033987 0.116941 -0.084292 0.152006 -0.003758 -0.079527 0.027687 -0.509634 -0.003767 -0.079569 0.199154 -0.053337 0.090185 -0.047752 0.104282 -0.095679 0.216457 0.044905 0.143610 0.215718 0.257893 -0.172961 -0.097324 -0.063186 0.039829 0.209273 -0.003343 -0.119247 -0.219285 -0.227239 -0.024859 -0.303188 -0.084483 -0.095918 -0.232390 -0.146976 -0.082810 0.010887 -0.298398 0.002300 -0.076710 -0.339654 -0.264181 0.175327 0.058720 0.175263 -0.013044 0.056401 -0.234130 0.044044 -0.012386 0.146618 0.151773 -0.129122 0.130367 0.140091 0.084388 -0.209528 -0.084111 -0.212611 0.051164 0.044872 -0.006749 0.156418 -0.192313 0.250606 
的 -0.063668 0.245708 0.077410 -0.232004 0.074862 0.269867 -0.032787 0.127365 0.049791 -0.012506 -0.211968 0.006606 -0.117596 -0.424000 0.065563 -0.262034 -0.168021 -0.022691 -0.182151 0.161342 0.166303 -0.122569 -0.456477 -0.137409 -0.180440 -0.050057 0.100847 -0.050506 -0.324448 0.380811 -0.033435 -0.022169 -0.069115 0.065466 -0.119025 0.124838 0.044094 0.093165 -0.159447 0.061632 -0.074532 -0.102763 -0.430111 0.080801 -0.221573 0.054669 0.057795 0.028347 0.018299 -0.311572 0.040922 -0.235242 0.015865 -0.093280 0.217815 0.200635 -0.161079 -0.283491 0.053349 0.063613 0.038403 0.043711 0.520405 -0.159492 0.250984 -0.038060 0.021447 0.321726 0.296832 0.132147 0.379075 -0.102589 -0.100223 -0.139659 -0.117036 0.028481 0.091152 -0.044947 -0.108117 -0.190567 -0.067311 0.195233 0.006959 -0.184293 0.244623 -0.273045 0.061271 0.319151 0.049771 0.107204 -0.107386 0.294692 -0.245396 0.214739 0.205763 -0.171626 -0.184378 -0.056048 -0.042092 -0.052042 -0.107556 0.352234 -0.109873 -0.096308 0.122727 -0.254170 0.320417 0.135510 -0.289667 -0.088104 -0.139068 -0.130398 0.197615 0.018976 -0.029455 0.084603 -0.122120 0.168803 -0.068138 0.049293 -0.020481 -0.046047 0.113997 -0.097153 0.004311 0.259101 0.170713 0.172063 0.043946 -0.240941 -0.033946 -0.049919 -0.309193 -0.027187 0.143717 -0.168057 0.293758 -0.161982 -0.228068 0.061018 -0.268167 0.015987 0.003381 0.043753 0.046510 -0.377927 0.003556 0.083802 0.214313 0.166008 -0.025971 0.153202 -0.073961 -0.169211 -0.274764 -0.298045 0.148842 -0.378407 0.072256 0.100729 -0.106788 -0.143864 -0.024930 0.066981 0.002647 0.263185 -0.234848 0.143369 -0.461704 0.305710 -0.103580 0.365353 0.160007 0.024951 -0.061769 0.138870 -0.165733 -0.006729 0.196614 0.022451 0.229696 -0.143371 0.226947 0.069372 0.028830 -0.195463 -0.007339 0.131279 0.302937 0.134744 -0.023820 -0.144531 0.325814 -0.283635 0.239082 -0.229107 -0.283902 0.028442 0.032879 -0.204989 -0.034384 -0.179460 0.046942 -0.016872 -0.121813 0.106356 0.259632 0.351808 -0.328758 -0.161863 -0.207398 -0.033529 0.141416 -0.001069 -0.011616 -0.183384 0.003954 0.014498 0.123636 -0.157798 0.238098 0.039088 0.166156 -0.192812 0.386717 0.001207 -0.299905 0.065287 0.179790 -0.024760 -0.376401 -0.106435 0.205810 0.167064 -0.120057 0.233551 -0.093229 0.271106 0.045554 -0.160447 0.247531 -0.265035 -0.081520 -0.061611 -0.088500 -0.044120 -0.006856 0.042900 0.101630 -0.001311 0.242107 -0.175038 0.059853 -0.100088 0.082951 -0.081549 -0.088019 -0.299944 -0.064007 0.139976 0.064719 -0.081307 -0.228706 -0.329093 -0.008576 -0.120183 0.080403 0.081605 -0.251238 -0.229209 -0.076636 -0.089867 -0.456877 0.053602 -0.232731 -0.463709 -0.074479 0.133602 -0.012313 0.092216 -0.143605 -0.126407 -0.102539 0.212549 0.146645 0.084046 -0.082539 -0.148354 0.043380 0.032334 0.026409 -0.141286 0.032825 -0.132899 0.020718 0.040620 0.058991 0.168320 -0.094569 -0.032701 
。 -0.141476 0.323197 0.234520 0.035564 0.112336 0.233337 0.019396 0.034489 -0.094744 -0.184300 -0.092718 0.404478 -0.018114 -0.417477 0.050052 -0.051759 -0.209901 0.070219 -0.053647 0.195196 0.077845 0.142497 -0.270944 -0.234963 -0.013537 -0.008978 -0.044227 -0.063347 -0.309964 0.386904 -0.280451 -0.030227 0.057728 0.241448 -0.155789 0.085583 0.081131 0.115850 -0.016046 0.116491 -0.097720 0.007311 -0.225642 0.367680 -0.163771 0.185269 0.136635 -0.096014 -0.253140 -0.150546 0.096309 0.004450 0.177704 -0.030255 0.081505 0.224483 0.061224 -0.058820 -0.057048 0.097265 0.117800 0.030983 0.402696 -0.101628 0.295606 -0.098977 -0.052792 0.290525 0.155601 -0.173432 0.121780 -0.024088 -0.177709 -0.090242 -0.026226 0.185008 0.149277 0.177800 -0.306061 0.037144 -0.051082 0.266516 -0.061332 -0.068115 0.084404 -0.093143 0.275732 0.313510 0.174260 0.009321 0.022972 0.031930 -0.311650 0.139763 0.113868 -0.377406 -0.221875 0.208518 0.074963 -0.136355 -0.115479 0.308566 -0.125524 -0.072393 0.057485 -0.275838 0.313500 -0.085368 -0.462282 0.049447 -0.346139 -0.136909 0.070927 0.053947 -0.091456 0.123832 -0.061353 0.455059 -0.179695 0.007688 0.038958 -0.003905 0.098614 0.093015 0.120588 0.124967 0.358084 0.090284 0.024855 0.053871 0.098342 -0.129109 -0.140503 -0.170627 0.109112 -0.361493 0.220239 -0.341736 -0.024209 0.064401 -0.315144 -0.014258 0.168147 0.225661 0.022481 -0.009327 0.177447 0.098528 -0.098865 0.090331 0.090168 -0.018418 0.083793 -0.118970 -0.247342 0.182289 0.163812 -0.372192 0.155776 -0.018008 -0.229913 -0.277193 -0.052890 0.211339 0.002847 0.002171 -0.180942 -0.129558 -0.168012 0.296993 0.257637 0.228640 0.077840 0.031159 -0.088972 0.085673 -0.034293 0.144766 0.344085 -0.019616 0.251926 -0.139640 0.068018 0.124086 0.076317 -0.076671 0.093739 0.055681 0.027240 -0.049915 -0.106891 -0.126142 0.141630 -0.199279 0.372848 -0.014704 -0.172452 -0.013333 -0.021908 -0.002834 -0.216507 -0.072070 0.136903 0.056577 -0.084743 -0.005632 0.160542 0.212490 -0.127492 -0.215884 -0.402899 -0.181888 0.332476 -0.049000 0.138670 0.053781 0.131858 0.029087 0.211427 -0.207380 0.214866 0.064586 0.101256 -0.261908 0.100865 -0.201535 -0.160919 0.028362 0.207996 -0.124827 -0.223289 -0.146148 0.287020 0.185838 -0.111553 0.219314 0.019646 0.098646 0.035345 -0.102057 -0.025302 -0.647934 -0.050892 -0.101231 0.191983 -0.114862 0.120505 -0.140898 -0.101368 -0.148104 0.077568 0.060369 0.048245 0.296793 0.137675 -0.034251 0.015674 -0.073764 -0.052419 0.168472 -0.141610 -0.075525 -0.219774 -0.283202 -0.091864 -0.401059 -0.150194 0.054837 -0.211127 -0.156981 -0.044494 -0.172192 -0.195464 0.019591 -0.130615 -0.368692 -0.124738 0.137944 -0.030683 0.052259 0.072599 -0.026425 -0.162000 0.002561 0.037136 0.183614 0.008868 -0.111122 -0.112835 -0.200659 0.112563 -0.222895 -0.075769 -0.240792 -0.116982 -0.091630 -0.023581 0.192956 -0.213973 0.142479 
了 0.069129 0.268287 0.020775 0.001612 0.076566 0.150568 -0.144764 -0.046387 0.015076 0.224718 0.193968 0.010122 -0.059267 -0.480093 0.136664 -0.140703 -0.039733 0.097892 -0.410364 0.117944 0.096497 -0.104412 -0.249317 -0.558258 -0.156478 -0.100281 0.122936 -0.035903 -0.114261 0.553127 -0.076767 -0.040968 -0.153933 0.086427 0.255906 -0.215685 0.136574 0.053450 -0.014192 0.039211 -0.252805 0.083639 -0.436968 0.231270 -0.278785 0.009460 -0.230862 -0.282169 -0.370153 -0.146655 0.127066 -0.088815 0.089741 -0.007447 0.117322 0.238781 0.004734 -0.274731 -0.350518 -0.044694 0.194507 -0.123642 0.359318 -0.248463 -0.027207 -0.286106 -0.389414 0.325734 0.393198 -0.110290 0.459417 0.030383 -0.162816 -0.073717 0.005361 -0.166275 0.334854 -0.072796 -0.225583 0.024110 0.048265 0.185231 0.066756 -0.030746 -0.193915 -0.071130 0.154670 0.298245 0.175784 -0.170211 0.226831 0.021749 -0.125652 0.184178 0.388307 -0.176939 -0.093488 0.054878 -0.079208 -0.037522 0.093602 0.277516 0.123803 0.002140 0.065689 -0.391060 0.234160 -0.133536 -0.321464 -0.067209 0.000363 0.114309 0.284312 -0.051554 0.150737 -0.160234 -0.118117 0.118681 0.053277 0.038753 0.112190 0.039237 0.570188 -0.001610 0.049201 0.093949 0.090159 0.008810 -0.230478 0.164502 0.093296 -0.196811 -0.072027 -0.070435 0.000329 0.020147 0.190528 -0.619611 0.271434 -0.058060 0.031924 0.179890 0.189281 0.312539 0.225480 0.000328 0.148573 0.107149 -0.113360 0.140301 -0.057802 -0.037883 -0.137352 -0.084919 0.003169 0.121261 -0.218306 -0.304428 -0.173471 0.234965 -0.139308 -0.144739 -0.190037 0.186677 -0.080212 0.221301 -0.107227 -0.075480 -0.187966 0.070978 -0.148292 0.203180 0.303812 -0.159128 -0.049236 -0.059450 0.055350 0.218571 0.121189 0.070909 0.214357 -0.443183 0.183846 0.131621 -0.191496 -0.187392 -0.329744 0.055181 0.190273 -0.019791 0.190321 0.092333 0.340763 -0.045010 0.086489 -0.106531 -0.149296 -0.024010 0.156273 -0.310141 -0.038879 -0.191274 0.104012 0.017556 0.076459 -0.111752 0.056475 -0.016688 -0.319863 -0.227955 -0.318920 -0.315498 0.190972 0.121035 0.030414 -0.079928 -0.202444 -0.019352 -0.062344 -0.403117 0.052402 0.506121 0.079101 -0.284105 0.236248 -0.048223 0.047273 0.120134 -0.057130 -0.000814 -0.089090 0.216390 0.248085 -0.037858 -0.065539 0.273102 0.071048 0.498359 0.077604 -0.191292 -0.163928 -0.166661 0.009279 -0.107317 0.298493 0.047617 0.378561 0.138533 -0.139127 0.143680 0.307116 0.267481 -0.283257 0.003801 0.016451 -0.423184 -0.348196 -0.399153 0.104213 0.135025 -0.170514 0.191601 -0.062957 -0.498219 -0.280378 -0.359664 -0.029135 -0.076600 -0.303379 -0.491078 -0.143788 -0.324546 -0.338242 -0.020145 0.005908 -0.196460 0.153524 -0.041583 0.062693 0.082389 0.044007 -0.108105 0.080383 -0.030003 -0.082693 0.316554 -0.027670 -0.451792 -0.136032 0.148894 0.061631 -0.146117 0.145908 -0.133322 -0.017976 0.164448 0.007602 0.035244 0.062498 -0.019716 
和 -0.100068 0.259799 -0.227210 -0.212539 -0.126704 0.123879 -0.152488 0.242198 -0.302427 0.303838 -0.452964 0.398161 0.290635 -0.501139 -0.041429 -0.422852 -0.172916 0.092852 -0.062048 0.256119 0.418765 0.089637 -0.554784 -0.094142 -0.178620 0.170587 0.209399 -0.027326 -0.131331 0.127059 -0.154422 0.056250 -0.422316 0.383783 0.093775 0.250462 -0.080258 0.079082 0.167295 0.238503 -0.352980 0.076484 -0.197583 -0.194906 0.188190 -0.217642 0.127171 0.058928 0.191590 0.081372 -0.260364 0.034544 -0.177023 0.069957 0.415870 0.196301 0.216991 -0.105890 0.136692 -0.211494 -0.040513 0.060658 0.069956 -0.262181 0.294407 -0.025001 0.100680 0.089522 0.047198 -0.146906 0.280467 -0.057224 0.177972 -0.158032 -0.011238 -0.256870 0.071126 -0.072024 -0.182190 -0.446073 -0.050039 -0.084203 -0.041446 0.024438 0.141100 -0.116375 0.090315 0.180259 0.134722 0.344527 0.000065 0.278259 -0.160608 0.416109 0.425851 -0.185167 -0.160767 0.016353 0.155640 0.031962 0.303223 0.257535 -0.006997 -0.204597 0.267378 0.083044 0.068871 -0.042576 -0.091723 -0.193840 -0.112181 -0.087459 0.019961 0.365165 -0.273577 0.115836 -0.148547 -0.194739 0.012012 0.206105 -0.101188 -0.151567 0.230553 0.305344 -0.147875 0.326539 0.377478 0.274803 0.205140 -0.080542 0.132178 0.026808 0.019137 -0.207431 0.079486 -0.318155 -0.007731 -0.152026 0.167429 0.153079 -0.472807 -0.054005 0.226741 0.076575 0.109195 -0.268704 -0.004851 0.049802 0.220011 -0.147977 -0.029468 0.332720 -0.027123 -0.202313 -0.063893 -0.098165 0.104261 -0.241769 0.202008 0.076840 -0.252243 -0.081878 -0.125394 0.324954 0.115259 -0.205027 0.027235 0.206456 -0.136405 0.215229 -0.020088 -0.033105 -0.042125 -0.258331 0.001235 0.013300 -0.157544 -0.027376 0.325541 0.189582 0.325633 -0.207946 0.183470 0.189472 -0.007290 -0.026118 0.190355 0.283521 0.083669 0.012765 0.247471 -0.220144 0.515908 -0.124531 -0.101181 -0.155148 -0.433532 0.050417 -0.070861 -0.113817 0.022503 0.039550 0.075643 -0.008732 0.111238 0.030294 0.107166 0.047878 -0.094054 -0.034596 0.144963 -0.209276 0.107009 0.029561 -0.124378 -0.039441 0.048052 0.219520 0.035875 0.102835 0.136229 0.020955 -0.061963 -0.014209 0.128335 -0.167684 -0.047930 0.039523 0.152624 -0.023462 0.057109 0.338228 -0.043927 0.255508 -0.175222 0.165620 -0.014202 0.203424 -0.465253 -0.243603 -0.059238 -0.220281 -0.545018 -0.083142 0.164320 -0.052335 0.211014 0.205552 -0.274312 -0.116749 0.178428 -0.266096 0.295732 0.272115 0.149815 -0.105988 0.029015 0.045890 -0.186031 0.142650 0.133035 0.165828 -0.429502 -0.461254 -0.465987 -0.054391 -0.002625 -0.106045 0.002881 -0.084431 -0.239240 0.109331 -0.554844 0.072355 -0.370663 -0.328034 0.018784 0.068121 -0.271171 0.131372 0.222217 -0.060790 -0.039487 -0.026137 0.147377 0.173683 0.075274 -0.205419 -0.027118 -0.059480 0.251257 -0.164312 0.019687 -0.106376 0.051307 -0.122550 0.131560 0.234187 0.004355 -0.062059 
是 -0.166937 0.368780 0.165970 -0.074695 0.277038 0.228472 -0.157383 0.115142 -0.321472 0.004853 -0.044934 0.184633 -0.021791 -0.333444 -0.029938 -0.017866 -0.257210 0.184362 -0.000535 -0.073276 0.260159 -0.207107 -0.175444 -0.028247 -0.051264 0.164377 0.201299 -0.080625 -0.507380 0.584768 -0.374735 0.032464 0.183121 0.239864 0.148141 0.141341 0.117243 0.285319 -0.232319 0.105246 0.029568 -0.101900 -0.248561 0.219601 -0.206761 0.109139 0.029108 -0.002176 -0.335784 -0.164709 0.177172 0.047668 0.009480 0.018626 0.297277 0.199860 -0.125933 -0.087490 -0.015427 0.036776 0.085086 -0.088282 0.169570 -0.226489 0.027833 -0.357884 -0.082871 0.033903 0.101836 0.104622 0.277355 -0.097577 -0.155740 -0.174609 -0.356302 0.085330 0.342548 0.130000 -0.152643 -0.101944 -0.026028 -0.153750 -0.059158 -0.030270 0.341538 0.274649 -0.161703 0.329518 0.014769 -0.027306 -0.042193 0.351459 -0.204223 -0.069607 -0.034241 -0.259577 -0.263850 -0.213369 0.063537 -0.178529 0.128068 0.343877 -0.147874 0.101774 -0.030085 -0.398341 0.499757 0.241908 -0.435154 0.060476 0.039005 -0.414489 0.115638 -0.077342 0.006890 0.000423 -0.155209 0.205199 -0.131037 0.071603 0.200770 0.037229 0.620542 0.192604 0.009733 0.399213 0.296728 0.194763 0.014245 0.076682 -0.078913 -0.177845 -0.153951 -0.167199 0.229493 -0.204127 0.351426 0.094660 0.070670 0.066141 -0.015106 -0.366895 0.069318 -0.010903 0.134229 -0.423649 0.157278 -0.056898 -0.068905 0.166624 0.160385 -0.261721 -0.046166 -0.029608 -0.016966 -0.155860 0.139828 -0.461571 0.063707 0.162295 -0.409030 -0.164462 0.208799 0.364601 -0.056834 0.061147 -0.308420 0.145486 -0.063689 0.386295 -0.033842 0.340930 -0.170440 0.245065 -0.052128 0.081568 -0.042449 -0.262307 0.144715 0.064821 0.131175 -0.070619 0.303796 0.174309 -0.039925 -0.224071 0.002864 0.030095 0.170105 0.137579 -0.112386 -0.303065 0.251586 -0.207707 0.040109 0.152663 -0.320392 0.154998 0.033572 -0.118193 -0.116422 0.016627 0.043139 -0.360778 0.079089 0.328787 0.105430 0.134222 -0.075628 0.087244 -0.185119 -0.076107 0.246808 -0.054725 -0.035975 -0.036742 -0.162981 0.459221 -0.110839 -0.114524 0.065426 0.032224 -0.116876 -0.114545 0.334872 -0.262911 -0.139112 -0.057212 0.153140 0.045164 -0.154496 -0.120817 0.192551 -0.170086 0.090739 0.307984 0.099264 0.172503 -0.044118 -0.268312 -0.103151 -0.020104 -0.215152 -0.080422 0.072131 -0.183876 0.218180 -0.120737 0.314833 -0.104901 0.034727 0.062449 0.251893 -0.020160 0.208419 -0.117554 -0.293413 -0.218267 -0.016700 0.314140 -0.160117 -0.022273 -0.134531 -0.228961 -0.037540 -0.163471 -0.153990 0.125333 0.042550 -0.287181 -0.027141 0.170899 -0.354593 0.125039 -0.190485 -0.110426 -0.239593 0.048920 0.051034 0.015276 -0.215609 -0.141472 0.170446 0.251040 0.251299 0.167543 -0.139080 -0.114750 -0.160771 0.097767 0.010512 -0.502771 -0.133690 -0.032721 -0.067723 -0.155953 0.173959 0.424660 -0.012973 -0.115294 
、 -0.080736 0.240971 -0.020342 0.056467 0.121436 0.253740 -0.095139 0.062403 0.059077 0.058006 -0.125262 0.446947 0.233531 -0.596807 0.260227 -0.243456 -0.105678 0.027683 -0.430577 -0.021875 0.275690 0.331437 -0.570217 -0.365108 -0.262468 0.012640 0.133349 -0.066957 -0.161038 0.155304 -0.256957 -0.015083 -0.375215 0.202118 -0.083113 0.084357 -0.155918 -0.055623 -0.004493 0.297957 -0.030397 0.042925 -0.168088 -0.002520 -0.014968 -0.086858 0.023985 0.114355 -0.036634 0.060240 0.159196 -0.150926 -0.205686 -0.055204 0.739169 0.494934 0.361674 -0.398593 0.427206 0.224195 0.008898 0.126508 -0.140121 0.021610 0.160642 -0.106293 -0.264336 -0.031919 -0.259544 -0.087465 0.877617 -0.092466 0.047562 -0.044971 -0.236976 -0.402792 -0.279278 0.010743 -0.139942 -0.338287 -0.059998 -0.097123 0.072089 -0.356456 0.182314 -0.087982 0.192795 0.234127 -0.126844 0.259963 -0.230698 0.001222 0.052061 0.495025 0.375194 -0.129274 0.049561 0.278079 0.004684 0.028021 -0.104377 0.321396 -0.158320 0.004303 0.362105 -0.127711 -0.104621 -0.148912 -0.156190 0.037068 -0.057650 0.027151 0.244105 0.180272 0.084788 -0.093540 -0.079994 -0.222992 0.322688 -0.035233 -0.122556 -0.398283 0.712231 0.586769 -0.031096 0.446918 0.453057 0.263624 -0.105303 -0.387155 0.115368 0.170831 0.004439 -0.107522 0.041244 -0.410643 -0.016387 0.333475 -0.196214 0.280782 -0.471046 -0.050383 0.355042 -0.212107 -0.007170 -0.459885 -0.034476 -0.169648 -0.181942 -0.055069 -0.083286 0.543209 0.261284 -0.071388 0.140182 -0.098142 -0.315611 -0.120272 0.021180 -0.101222 -0.290271 0.004234 -0.011347 0.057444 -0.132212 -0.110782 -0.159303 -0.153069 -0.365428 0.383986 0.206954 -0.003934 0.165354 -0.348303 0.089346 0.085712 0.064639 -0.462350 0.190947 0.403791 0.366761 0.073369 0.216031 0.122363 0.300265 -0.060324 0.253140 -0.048746 -0.212065 -0.225747 0.183516 -0.289850 0.264612 -0.344412 -0.003496 0.259627 -0.320977 0.034609 -0.194143 -0.267911 -0.308023 -0.038378 0.102476 0.279911 0.152548 0.012904 -0.058437 0.224924 -0.110076 -0.190655 -0.159651 -0.437588 0.021070 0.109586 -0.255288 -0.045902 0.261674 0.133796 0.249880 -0.011510 -0.143611 -0.486167 0.058991 -0.304531 -0.203945 0.263828 -0.218696 -0.320486 0.300002 0.024214 0.339547 -0.055799 0.184332 0.203986 -0.217592 0.149816 0.046274 0.357697 -0.311491 -0.259818 -0.319413 -0.700664 -0.390728 0.012801 0.242633 -0.016009 0.108781 -0.054746 0.125725 -0.112043 -0.032791 -0.346044 0.523923 0.209841 0.024662 -0.046710 0.131888 0.060337 -0.427874 0.180439 -0.086607 0.286076 0.084670 -0.291979 -0.298536 0.082977 -0.119728 0.187172 -0.355043 0.077843 -0.036259 -0.112255 -0.360358 0.131037 -0.354881 -0.094917 0.267678 -0.174670 0.123146 -0.044110 0.297877 0.281553 -0.089200 -0.072072 -0.101466 -0.191013 0.285314 0.043865 -0.285250 -0.142335 0.034635 0.244248 0.087083 -0.171734 -0.079018 -0.109266 -0.113375 0.377961 -0.033160 -0.012699 
一个 -0.326003 0.425066 -0.205147 -0.175781 0.140471 0.097350 -0.167934 0.295831 -0.138174 0.138699 -0.081159 0.377599 -0.068526 -0.285477 -0.079444 0.163828 -0.113077 -0.043815 0.210163 0.094805 0.235065 -0.155021 -0.362068 -0.247164 -0.049876 0.081344 0.411121 0.123174 -0.218545 -0.290659 -0.190721 -0.208617 -0.061125 0.313130 -0.204524 0.182917 0.278913 0.115366 -0.160175 0.177709 -0.130690 -0.058444 0.194735 0.350061 -0.107780 0.007705 -0.243646 -0.008512 -0.225099 -0.362173 0.026200 -0.052241 -0.131277 -0.020530 -0.035772 0.056034 0.341313 -0.365827 0.015056 0.124103 0.162008 0.015010 0.035150 -0.178176 -0.086951 -0.040513 -0.004078 0.016159 0.036081 0.202547 0.398424 -0.063757 -0.385605 -0.656799 -0.153159 -0.030854 0.140730 0.065448 -0.130340 -0.132119 0.025596 0.470888 0.120293 0.186289 0.237629 -0.128325 -0.137252 -0.128958 0.067082 -0.181964 -0.195788 0.051633 0.088203 0.133152 0.230444 -0.395739 -0.236797 -0.120723 -0.123385 -0.364799 0.007377 0.118084 -0.201460 -0.143130 -0.103635 -0.498414 0.435370 -0.108221 -0.238377 0.351667 0.169870 -0.155780 0.308084 -0.054111 -0.253036 -0.038492 -0.136685 -0.231580 0.005303 0.405547 -0.357177 0.029099 0.063610 0.091008 0.077932 0.149440 0.454654 0.167252 -0.146984 0.063744 -0.099436 -0.262408 0.076223 -0.020329 0.020809 -0.110720 0.099431 -0.114559 0.114267 -0.285160 -0.382802 0.050920 -0.591595 0.296936 0.117988 -0.065554 -0.069064 0.039197 0.138126 -0.068398 -0.040712 -0.036099 -0.328443 -0.054661 -0.221056 -0.133396 0.222034 -0.188997 -0.267709 0.220862 -0.084324 -0.210639 -0.309220 0.525766 0.070469 0.130478 -0.004859 0.003159 -0.172745 0.127033 -0.048766 0.104574 0.135591 -0.173333 0.073373 0.081495 -0.103167 -0.320854 0.819957 0.093134 0.232949 0.273717 0.389571 -0.023602 -0.187540 -0.042136 0.129022 0.294655 0.101256 -0.022282 0.373851 -0.400777 0.149711 0.077971 0.292493 -0.298403 -0.185594 0.093880 -0.078692 -0.360898 -0.247171 -0.193419 -0.166697 -0.173429 -0.037226 0.399505 0.142599 0.186287 0.023169 -0.078588 -0.473707 -0.013821 0.100616 -0.099274 -0.137991 -0.493239 -0.150746 -0.291461 0.207452 0.073549 0.231373 0.043627 0.321444 -0.327419 -0.223200 -0.009838 -0.198513 -0.219872 -0.024698 0.159357 -0.490950 -0.477341 0.343978 -0.083702 -0.076988 0.262410 0.146834 0.586097 0.380988 -0.189745 -0.366668 -0.478592 -0.186577 -0.280375 -0.407534 0.139818 0.052870 0.050311 -0.110946 0.359223 0.086491 0.273466 0.229477 -0.224021 0.320711 -0.176910 -0.137931 -0.485342 -0.117296 0.065708 0.347530 0.090464 -0.022945 -0.312165 0.003050 0.235242 0.173721 -0.139355 -0.003469 -0.272000 -0.405633 -0.127406 -0.444999 -0.222102 -0.318075 -0.121258 0.013150 0.152502 0.039005 0.140152 -0.107590 0.110494 -0.287730 0.027144 0.067834 -0.283203 -0.002195 -0.268447 0.120344 0.182756 -0.034074 0.073087 0.017743 -0.147960 0.238483 0.298416 0.078745 -0.078599 0.130886 -0.400681 
我 0.005664 0.407404 -0.153532 0.161316 0.168288 0.259601 -0.267191 0.001471 -0.149739 -0.156568 -0.104454 0.303622 -0.250317 -0.371434 -0.038906 0.029214 -0.108075 -0.068230 -0.152028 -0.002739 -0.030928 -0.001497 -0.213728 -0.319915 0.052701 0.211661 -0.024864 -0.221787 -0.151134 0.223576 -0.403268 -0.116983 -0.000387 -0.055736 0.070415 0.218243 0.179417 0.230369 -0.057366 0.280062 0.073237 -0.149186 -0.205465 0.210545 -0.102768 -0.028896 -0.221664 -0.209614 -0.079918 -0.294743 0.004507 -0.004346 0.206654 -0.011769 -0.112118 -0.217333 0.075400 -0.075098 -0.131219 0.086143 0.104218 -0.029595 0.166973 -0.225407 0.108308 -0.118827 -0.443527 0.281940 0.293261 -0.161399 0.262936 -0.193187 0.010456 -0.260518 0.101694 -0.043415 -0.006922 0.078828 -0.277055 0.125464 -0.106832 0.218548 -0.046891 -0.179982 -0.219262 -0.127344 0.065497 0.268156 -0.033146 -0.174954 0.212920 0.425314 -0.269960 -0.153418 0.250446 -0.204902 -0.150219 0.264619 -0.103229 -0.067756 -0.249973 0.488717 -0.218449 0.130944 0.162676 -0.296044 0.201920 0.080275 -0.166499 -0.099166 0.180898 0.059139 0.054575 0.029496 0.204472 0.116441 -0.162409 0.190856 -0.182787 0.087226 0.198786 0.179161 0.272342 -0.147090 -0.052193 0.352670 0.426592 0.132219 -0.040843 0.038947 -0.073099 -0.153521 0.053372 0.026983 0.345045 0.036874 0.086854 -0.360139 0.306990 -0.118236 -0.190187 0.016620 -0.118182 0.107914 0.341496 0.051132 0.111240 0.221884 -0.119258 -0.116458 0.236072 0.155273 -0.222117 0.161243 -0.152702 -0.092305 0.108057 -0.076887 0.024818 0.167777 -0.049335 -0.251550 -0.045914 0.286698 -0.024899 0.022041 -0.210949 -0.198045 -0.179456 0.198614 0.272090 0.291876 0.247655 -0.364736 -0.024256 0.107415 0.174316 0.242348 0.187946 0.203945 0.308516 0.025297 0.000235 -0.022590 0.160039 -0.054669 -0.095098 0.081031 0.064493 0.272538 0.021879 -0.061651 -0.224104 -0.361025 0.254077 -0.162991 -0.057083 0.176650 -0.017160 0.032679 0.123582 -0.192755 0.054037 -0.157061 -0.057485 0.100412 -0.184447 0.381303 -0.300472 -0.289401 -0.112444 -0.162739 -0.000736 0.060818 0.091840 -0.286848 -0.065820 0.162504 -0.132288 -0.114195 -0.134054 0.057663 0.135604 -0.240438 0.161516 -0.284943 0.108962 0.054359 -0.124681 0.141787 -0.231109 0.142480 0.224621 0.075947 0.198327 0.280429 0.202538 0.213175 0.069696 -0.082925 0.122844 -0.211105 -0.128077 0.038383 -0.162910 -0.157161 0.116518 -0.355215 -0.109523 0.186719 0.401633 0.046579 0.058264 0.334402 -0.019569 0.028895 0.063737 -0.082174 0.116389 0.292742 -0.084109 0.018890 -0.357250 -0.005000 -0.245091 -0.137747 0.079873 -0.055079 -0.285316 -0.012058 -0.052358 -0.226355 -0.200547 -0.040269 0.086654 -0.178600 -0.084029 0.048560 -0.012728 0.155725 0.045905 0.162263 0.052909 0.020387 0.243716 0.070503 -0.217084 -0.070433 0.113071 -0.060744 0.202950 -0.208847 -0.016749 -0.279669 -0.187384 0.328272 0.059953 0.019512 -0.055596 0.040319 
有 -0.524946 0.342831 0.059886 0.433878 0.533997 -0.003256 -0.038177 -0.012324 -0.448267 0.291379 -0.285202 0.103948 0.098643 -0.467577 0.016088 0.110245 0.140935 -0.301649 0.136218 -0.074877 -0.138911 -0.186766 -0.321774 -0.056289 -0.101277 0.154657 0.181961 0.195914 -0.462735 0.432804 -0.194956 -0.123861 0.249906 0.104608 0.044338 0.048126 -0.019001 0.015768 -0.049437 0.192676 -0.401487 0.154652 -0.107994 -0.118620 -0.213696 0.022311 -0.090973 0.227532 -0.275336 -0.164582 0.198450 -0.308154 0.146086 0.163027 0.319483 -0.020420 -0.113674 -0.116327 -0.380338 0.263891 0.138048 -0.461326 0.006883 -0.544038 0.376338 -0.296872 0.051537 -0.188936 0.135269 0.085483 0.423690 0.267979 0.335163 0.147321 0.151552 -0.159297 -0.009742 0.165503 -0.034935 -0.269585 -0.159960 0.114931 0.039440 -0.079857 -0.262022 -0.603546 0.323796 -0.196983 0.355964 0.064749 -0.036526 0.244989 -0.087891 -0.199558 0.207825 -0.616857 -0.225135 0.346342 0.012776 0.109344 -0.021067 0.174396 -0.147070 -0.184890 0.065766 -0.014344 0.412967 0.218009 -0.442381 0.169503 -0.049301 0.011221 0.277931 -0.061446 0.151257 0.196360 0.207839 0.095402 -0.177756 -0.047456 -0.139857 0.062789 0.459310 -0.058544 0.135182 0.134559 0.217778 0.379644 -0.200801 -0.041720 -0.078777 0.214141 -0.273971 -0.290125 0.174851 -0.265916 0.129378 -0.318289 -0.046806 0.100725 -0.021326 0.086172 -0.002158 -0.094322 -0.045817 -0.202282 -0.041868 -0.102322 0.050424 -0.100800 -0.198439 0.020792 -0.117708 -0.022641 0.076846 -0.196737 0.052300 -0.047604 -0.078491 -0.352393 -0.575137 0.025075 0.041010 0.163018 0.119614 0.035056 -0.290768 0.112296 -0.046986 0.346308 0.128730 0.439070 -0.046421 0.419197 -0.240289 0.265368 -0.231668 -0.107585 0.468908 0.395514 0.266721 0.037805 0.376754 -0.127837 -0.137993 0.164569 -0.069340 0.181225 0.250418 -0.231876 0.223411 0.150305 0.215703 -0.096228 0.300839 -0.111325 -0.150701 0.406151 0.163290 0.116860 -0.127239 0.014103 0.351885 -0.386881 0.254161 -0.160840 -0.080166 0.166449 0.158801 -0.121426 -0.444757 0.026677 0.329037 0.132948 0.026717 -0.465576 0.218241 0.258912 -0.311768 -0.046745 -0.125404 0.202321 0.123441 -0.529465 -0.124869 -0.438380 -0.311271 -0.122384 0.190336 -0.186336 -0.426072 0.328050 0.039164 -0.034283 0.132981 0.140142 0.249618 0.160741 -0.146556 -0.169054 -0.143366 -0.115289 -0.258282 -0.110398 0.025188 0.150855 -0.175014 -0.234620 -0.254823 -0.052465 0.299861 -0.019364 0.149457 -0.001008 0.201618 -0.323075 -0.263675 -0.201179 0.126963 0.266096 0.194594 -0.349053 -0.255601 -0.009124 -0.154408 -0.173647 -0.033881 -0.125446 -0.328342 -0.274069 -0.293730 -0.099899 0.109713 0.051848 -0.299839 -0.534038 0.166887 0.052458 -0.065282 0.143473 0.083206 0.077579 -0.142316 0.286668 0.146920 0.138311 0.039144 0.018726 -0.206825 0.142484 0.155001 -0.346332 0.102428 0.177750 -0.060058 0.055521 0.034624 0.333948 -0.301514 -0.193104 
（ -0.365003 0.113650 0.291185 -0.064721 0.213309 -0.137072 -0.259635 -0.161270 0.110798 0.188925 -0.219201 0.023622 -0.029537 -0.454370 -0.131702 0.019355 -0.365014 0.315887 -0.313157 0.148220 -0.033274 -0.059155 -0.168780 -0.199166 -0.033601 0.306990 0.284884 0.164600 -0.418904 0.099100 0.049539 0.228442 -0.198586 0.032622 -0.032055 0.134119 0.372239 0.316219 0.265745 -0.076822 0.057299 0.080701 -0.208837 -0.111708 0.028772 0.308839 0.148845 -0.203819 -0.244326 0.084818 -0.125339 -0.212848 0.116586 -0.170016 0.089189 0.342607 0.129084 0.103148 0.307474 0.016476 0.287936 0.002948 -0.102378 0.036528 0.264085 0.039004 0.436135 0.222203 0.106872 -0.098864 0.458053 -0.121364 -0.118784 0.109721 0.111239 -0.139828 0.090284 0.182188 0.127424 -0.096061 -0.304546 -0.190777 0.033060 0.164618 0.321512 -0.060554 -0.218609 -0.139626 0.079342 0.204901 -0.000171 0.107169 -0.132286 0.118857 -0.310697 0.161115 0.040735 -0.081722 -0.109111 -0.116878 0.023944 0.361256 -0.195328 0.074199 0.080732 0.056574 0.023258 0.234267 -0.099336 0.354305 -0.478570 -0.145103 0.193982 0.204079 -0.017275 0.123108 -0.058095 -0.145266 -0.014540 0.231371 0.072020 -0.164182 0.333609 0.322311 0.326684 -0.126345 0.082316 0.350091 0.143776 0.164287 0.064874 -0.331589 0.312111 0.210678 -0.092568 -0.333240 0.214545 -0.435615 0.346338 -0.046529 0.210401 0.056104 0.504656 0.001412 0.115691 -0.042055 -0.147253 -0.133161 -0.169485 -0.588327 -0.198208 0.242320 -0.085431 0.041903 0.052259 -0.079099 -0.357465 -0.012576 -0.167518 0.099092 -0.355284 -0.309553 0.081173 -0.024583 -0.059949 0.159741 -0.242231 0.079631 -0.089643 0.347759 -0.112711 -0.087363 -0.083099 0.047357 -0.072283 -0.282960 0.131509 0.065318 -0.100017 0.263925 0.108502 0.104231 0.118783 0.082483 0.213095 0.226571 0.193951 -0.093479 0.069056 0.213506 0.074850 -0.041191 0.182141 -0.103903 -0.099871 0.101745 -0.278392 0.078317 -0.050987 0.075243 -0.246720 0.185191 0.072253 0.209760 -0.126894 0.131389 -0.016862 0.075720 -0.341408 -0.067455 -0.283605 -0.128845 -0.180096 -0.045945 -0.154153 -0.020775 0.072751 0.173676 0.116846 0.256255 0.205617 -0.039402 -0.054849 -0.607532 -0.139132 0.124121 0.148944 -0.152034 -0.172408 -0.110398 0.374853 -0.002490 0.311583 -0.011592 -0.157463 0.295217 -0.077391 -0.016084 -0.316679 -0.181645 0.061585 -0.753245 0.018603 -0.237057 0.207280 0.078019 0.133966 0.327383 0.106039 -0.004278 0.201971 0.171894 0.105747 0.316958 0.056648 0.041821 0.112134 0.153886 -0.496317 0.173560 -0.177774 0.399249 -0.001205 -0.221422 0.241179 0.054103 -0.021196 -0.233043 0.338296 0.148051 -0.081114 0.283777 0.092550 0.365884 0.083197 -0.219324 0.009923 -0.001208 -0.365826 -0.193490 -0.039384 0.122272 -0.099876 -0.081118 0.268825 0.121899 0.109667 -0.125201 -0.014224 -0.046925 0.161644 0.103802 -0.111462 -0.089202 -0.186474 0.278066 0.079225 0.269233 0.159044 0.176081 
： -0.228185 0.196946 -0.037349 0.376358 0.071293 0.244257 -0.226475 0.536229 -0.047802 0.467995 0.034635 -0.319538 0.376624 -0.332121 0.085559 0.193380 0.155005 0.303626 -0.601759 0.367058 0.399991 -0.185917 -0.442165 -0.075970 -0.020262 -0.118400 -0.325819 0.024157 -0.328760 0.785119 -0.072451 -0.027799 -0.157044 0.406819 -0.092065 0.216971 0.031168 0.361886 -0.012521 -0.081546 0.346920 0.314422 -0.253239 -0.248907 -0.238543 -0.077839 -0.027663 0.155480 -0.270900 -0.280302 -0.065544 0.110906 0.553048 0.247449 0.639993 0.096365 0.185644 -0.390364 -0.107336 -0.008025 0.074957 -0.040233 -0.137629 -0.412791 0.470414 -0.226872 0.335933 -0.345708 -0.089899 0.381660 0.544967 -0.177308 0.012209 0.088933 -0.043694 0.369830 0.261116 -0.036111 -0.381245 0.453756 -0.153578 0.028120 0.133512 -0.029000 0.031032 0.302157 -0.186801 0.017524 0.345851 0.091002 0.070205 -0.129630 -0.090795 0.384748 0.100886 -0.214819 -0.116310 0.221714 0.081665 -0.092776 -0.120693 0.565292 -0.112053 0.036335 -0.086470 -0.131389 0.153445 0.193641 0.017661 0.489673 0.104128 -0.367281 0.087478 0.260884 -0.164138 0.264060 0.015949 0.262118 -0.208856 0.302689 -0.003471 -0.101226 0.333485 0.511071 0.014089 0.524943 0.636454 0.214986 -0.073656 0.050919 -0.036218 -0.271445 -0.282197 -0.440761 0.092318 -0.319633 0.004052 0.057228 0.271796 0.272498 -0.754803 0.014735 0.164869 -0.357862 0.249193 0.147649 -0.293810 0.396878 0.009993 -0.097775 0.017733 0.348910 0.088745 -0.445948 -0.105225 0.337819 -0.261496 -0.207089 -0.061837 0.310696 -0.038951 0.118685 0.304884 -0.085059 0.115938 -0.047790 0.152521 0.274168 0.096039 0.660033 0.238062 0.221372 -0.174147 -0.193525 -0.206464 0.148880 -0.286822 -0.014027 -0.090374 0.586056 0.100130 -0.104524 0.250119 -0.326984 0.405074 0.234532 0.257244 -0.049572 0.302921 0.115375 0.242278 -0.068353 -0.029678 -0.382900 0.077543 -0.238944 -0.100188 0.212525 -0.267529 -0.552607 -0.020304 -0.167639 0.059038 -0.144573 -0.049126 -0.182522 -0.070378 0.015135 -0.192702 -0.024986 0.056901 0.175286 -0.182284 -0.067742 -0.006073 -0.130286 0.240154 0.436331 0.006382 0.167689 0.102415 -0.532683 0.035815 -0.192800 -0.480879 -0.413578 0.354995 -0.062421 0.225961 -0.134698 0.133774 -0.113316 -0.039954 0.119290 0.001423 0.024458 0.063565 -0.133844 0.411039 -0.191440 0.277998 -0.700210 0.526962 -0.183273 0.271675 0.088325 0.263388 0.146612 0.114377 0.449336 -0.012905 0.049300 0.308536 -0.201180 -0.023893 -0.136955 0.276206 0.125520 -0.373308 0.643820 -0.219958 0.148312 0.319294 -0.677689 0.169964 -0.223959 -0.143754 0.060560 0.295686 -0.157106 -0.360789 0.161799 -0.205719 0.269556 0.053652 -0.622390 0.050980 0.240507 -0.429544 -0.093161 0.014499 -0.100945 -0.252835 -0.122792 0.202415 -0.114286 0.012640 -0.040248 0.296844 0.083127 -0.041361 0.010421 -0.031270 -0.154224 -0.336840 0.106011 -0.062438 -0.113803 -0.425791 0.122521 
不 0.158812 0.489716 0.101925 -0.112457 0.037513 0.316325 -0.208353 0.223768 0.058094 -0.072648 -0.109578 0.153012 -0.373740 -0.570101 0.140174 -0.055329 -0.150464 0.021108 0.333547 -0.501288 -0.223355 -0.345751 -0.374809 -0.338517 -0.263297 -0.280735 0.102107 -0.049818 -0.414385 0.609231 -0.301362 -0.008945 -0.330653 0.153324 0.116635 -0.016710 0.508059 0.127583 0.205233 0.170092 -0.289394 -0.476899 -0.042110 0.197555 0.253114 0.121087 -0.321347 -0.188137 -0.195099 -0.171867 0.065845 0.002701 0.408243 0.002830 0.706859 -0.063236 0.417193 -0.000576 -0.317968 0.078281 -0.122792 0.014631 0.219642 -0.258344 -0.188705 -0.107574 -0.127189 0.439451 0.164891 0.009116 0.239438 -0.213167 -0.205001 -0.172274 0.367526 0.330125 0.196492 -0.140987 -0.076896 -0.149038 -0.084765 0.129577 0.126503 -0.375668 -0.068475 -0.017323 0.013185 -0.031703 -0.069868 0.234716 0.163423 0.219530 -0.194129 0.102207 0.690959 0.177465 -0.481937 0.102122 -0.256248 -0.097636 -0.286846 0.212245 0.126627 -0.109850 0.246920 0.054991 -0.072855 -0.332551 -0.204580 -0.014586 0.252438 -0.209047 0.448142 -0.213067 0.095251 0.227050 0.384491 -0.042308 0.334532 0.062010 -0.071513 -0.026653 0.110711 -0.165011 0.243793 0.162059 0.032684 0.490686 -0.269526 0.002749 0.059011 -0.031736 0.217885 -0.182032 0.288315 -0.335118 -0.038642 -0.353349 -0.176709 -0.324731 -0.345399 0.078687 0.472446 -0.064662 0.222208 -0.433968 0.267255 -0.193157 -0.114577 -0.163060 0.047261 0.271144 -0.085220 -0.288005 -0.228351 -0.062062 0.332888 -0.775219 -0.037125 -0.113419 -0.072560 -0.299410 0.169409 0.272444 -0.580058 0.250250 -0.165551 0.394770 -0.102509 0.242866 0.148179 -0.068650 -0.068115 -0.403826 -0.437023 -0.152913 0.008344 0.084829 0.507955 0.073720 0.260232 -0.066319 -0.115827 0.332045 0.285799 -0.135605 0.153121 -0.008310 -0.066864 -0.204437 0.246850 0.212639 0.512031 -0.236792 0.095621 0.056447 0.007685 0.062964 0.022647 -0.378799 0.226119 -0.251710 0.424001 -0.284142 0.230590 -0.011443 -0.394990 -0.162139 -0.212927 0.180479 -0.108297 -0.280780 0.342336 0.245194 0.460750 -0.367460 -0.111861 0.308611 0.023604 -0.150435 0.057431 -0.254125 -0.019114 -0.155214 0.062881 -0.150532 0.173545 -0.033993 0.244162 -0.047895 -0.022003 -0.318898 0.069035 0.124171 -0.023542 -0.073668 0.140834 0.264575 0.164768 -0.326163 -0.098285 -0.170111 0.100467 0.154954 -0.013622 -0.355931 0.273946 -0.075408 0.037506 0.102632 -0.039191 0.240464 -0.030146 0.280822 0.102389 0.098016 -0.469446 -0.110288 0.287366 0.165367 0.051080 0.126574 -0.147146 0.015488 -0.153453 -0.069905 -0.013561 0.066917 -0.404717 0.076697 -0.105481 -0.347650 -0.232763 -0.149391 -0.376335 0.107586 -0.089398 0.203833 -0.163523 0.176002 0.080070 -0.400778 -0.052422 -0.120313 0.392871 0.360461 -0.032487 -0.166914 0.052592 -0.252306 0.113132 0.013706 0.060313 -0.089402 -0.314315 -0.103557 0.071646 0.005617 -0.102050 0.305291 
都 -0.079033 0.232349 0.194975 -0.020190 0.135878 0.121259 0.095399 0.201977 -0.300493 0.035009 -0.203779 0.326408 0.154380 -0.473980 0.174607 0.110089 0.089659 0.063844 -0.082052 -0.075930 0.191277 0.100182 -0.232498 -0.265820 -0.214130 0.227963 0.125983 -0.345476 -0.373481 0.337086 -0.097706 0.039797 0.095423 0.312645 0.328493 0.167946 -0.088342 0.254537 -0.025297 0.243370 0.115093 -0.109882 -0.074573 0.180740 -0.284773 -0.076674 -0.090933 -0.025346 -0.508243 -0.062439 0.162745 -0.193045 0.041494 -0.039143 0.049567 0.123241 0.005349 0.139413 -0.209332 -0.001986 -0.211028 -0.165510 0.239676 0.000877 -0.222832 -0.355963 0.089230 0.079255 0.486816 -0.143361 0.259360 -0.215627 -0.557810 -0.231079 0.030299 -0.116168 0.103400 -0.072171 0.046489 -0.247162 -0.144935 0.073642 -0.193170 -0.210208 0.025171 0.028435 0.223260 0.286377 -0.050758 -0.114912 -0.085894 0.382181 -0.142500 0.057694 0.375000 0.066876 0.022176 -0.349004 -0.119023 0.056391 -0.106175 0.369413 -0.015828 -0.093926 0.215268 -0.084890 0.113975 0.040217 -0.365720 -0.220905 0.059860 -0.162584 0.073203 -0.172205 -0.144703 0.164075 0.006835 -0.097610 -0.119223 0.377446 -0.087413 0.036948 0.310456 -0.312335 -0.017253 0.208062 0.337629 -0.043588 -0.180111 0.075259 -0.066006 -0.067151 -0.228428 0.030704 0.003793 -0.024812 0.269306 -0.029617 -0.003144 -0.092887 -0.254186 -0.352518 0.089374 0.186808 0.314052 -0.113138 0.208643 0.131771 -0.143452 -0.238070 0.152177 0.348350 -0.001706 0.433683 -0.207536 0.066062 0.044470 -0.266091 0.298057 -0.187555 -0.472866 0.244188 0.127921 0.281585 -0.235279 0.304813 -0.204649 -0.268701 -0.353821 0.237747 0.192399 0.071895 -0.349906 -0.271919 -0.396961 -0.019996 0.151768 -0.081974 0.420254 0.331242 0.063645 0.133630 0.144129 0.311813 0.045523 -0.330631 0.089829 0.017073 -0.071830 -0.021885 -0.037169 -0.088936 0.261778 -0.108239 0.337583 0.078802 -0.220669 -0.387595 -0.075418 -0.252793 0.300669 -0.203625 0.195737 0.100988 0.185478 0.314872 -0.149534 0.401136 -0.029080 -0.277638 -0.148942 0.082669 0.234928 -0.009013 -0.225919 -0.207942 0.039110 0.070995 -0.118706 0.105978 -0.014808 0.118923 0.398295 -0.048247 0.203795 -0.197370 -0.041791 -0.025204 0.491410 -0.209671 -0.310722 0.088208 0.063767 -0.097150 -0.299984 0.213337 0.199110 0.034131 0.204677 -0.532395 0.181863 -0.569268 0.084787 -0.223867 -0.126863 -0.200747 0.263135 0.281288 -0.110076 -0.060629 0.341668 0.092775 -0.140603 -0.078439 0.226272 -0.235409 -0.418041 -0.150873 0.024611 -0.013694 -0.300696 -0.046912 0.052830 0.004735 -0.257465 -0.284805 0.100803 -0.027881 -0.116296 -0.104167 -0.062485 0.280783 -0.188609 0.098291 -0.158855 0.071770 -0.145669 0.247654 0.009414 0.249058 -0.122668 0.144096 -0.051780 0.180740 0.225704 0.365811 0.143365 -0.210533 0.091556 -0.090814 0.378075 -0.045016 -0.184163 -0.122838 0.096945 0.235728 0.182036 0.185312 -0.260930 -0.316063 
在 -0.080844 0.365711 0.026342 0.082233 0.304467 0.340183 -0.185055 -0.087607 -0.057714 0.152314 -0.058386 0.148908 0.038184 -0.840050 -0.197585 -0.292356 -0.058975 -0.191826 -0.236125 -0.227155 0.469361 -0.171204 -0.381487 -0.238275 0.018393 0.023247 0.113686 0.035092 -0.269417 0.325622 -0.382616 -0.228309 -0.121561 -0.076945 0.069913 0.073321 -0.063990 0.173167 -0.137205 0.035690 -0.104129 0.045999 -0.166218 0.169089 0.175319 0.246071 0.189858 -0.130610 0.401031 -0.314622 0.079333 -0.267908 0.192636 -0.074950 -0.013024 -0.057740 -0.006749 -0.347371 -0.132256 -0.163049 -0.100067 -0.286492 0.221264 -0.278035 0.174145 -0.301721 0.212715 -0.074656 0.254679 0.101983 0.195788 -0.233396 -0.194465 0.005092 -0.209949 -0.066333 0.124518 0.146655 -0.561702 -0.107691 0.010343 0.311891 0.009416 0.134581 0.074413 0.160835 -0.039451 0.172424 0.133578 0.086524 0.009347 0.002223 -0.115858 0.333468 -0.055333 0.097213 -0.028815 0.213804 -0.253313 -0.024361 -0.141661 -0.151935 0.011682 -0.004527 0.140212 -0.050458 0.085600 0.129303 -0.543837 -0.026383 -0.220006 0.066698 0.109989 0.015859 0.171887 -0.081806 -0.112725 0.171317 0.213102 0.372225 -0.170729 -0.030514 0.168861 0.000399 -0.030112 0.287302 0.137585 -0.190699 -0.268199 0.145038 -0.283859 0.154559 -0.116953 0.128745 0.057120 -0.119509 0.321033 -0.412960 -0.147440 0.044069 -0.186486 -0.000035 0.181900 -0.042355 -0.139359 -0.124012 0.165525 -0.022681 -0.075831 0.069746 0.285058 -0.008152 0.043650 -0.191709 0.132324 -0.277713 -0.111694 -0.312871 0.149056 0.014857 -0.123465 -0.209839 -0.024087 0.198883 0.004842 0.228238 -0.287862 0.036106 -0.129771 0.237092 0.056889 0.074484 0.023353 -0.344133 0.020269 -0.243570 -0.088700 0.159161 0.242935 0.084303 0.068435 -0.141781 0.269706 -0.002992 -0.143088 -0.401955 0.030049 0.276855 0.030557 -0.312605 0.215620 -0.089534 0.130048 -0.317867 0.357309 -0.159323 -0.047512 -0.131391 -0.140685 0.003911 -0.314209 0.019109 0.058089 -0.293702 0.150909 0.083579 0.076458 0.276801 -0.090833 -0.151176 -0.223511 -0.053813 -0.035036 -0.154575 0.042195 -0.342884 0.140233 0.408402 -0.024027 -0.220051 -0.161214 -0.123656 0.110839 -0.020905 -0.324458 -0.133371 -0.043533 0.246403 -0.057012 0.106775 -0.284266 0.137751 0.031501 0.041106 0.098908 0.260790 0.005332 0.250482 0.115566 -0.334642 0.032499 -0.179489 -0.103267 -0.076710 0.289225 -0.133822 0.209919 -0.139450 -0.091467 0.067171 0.345384 -0.077675 0.136519 0.355723 0.483307 0.029651 -0.022420 -0.030913 -0.339710 -0.120498 -0.104548 0.167436 -0.168491 -0.357823 -0.267329 0.014654 -0.230075 0.145407 -0.323925 -0.295415 -0.390802 -0.021696 -0.392471 0.020199 0.244218 -0.176510 -0.119372 0.118373 0.167306 -0.099831 -0.253949 -0.122318 0.187645 0.093712 0.454781 0.289240 -0.007849 0.197868 -0.194689 0.362989 0.307019 -0.010570 0.131165 0.207006 0.136942 -0.144855 0.648956 0.201646 0.036052 0.133162 
上 -0.166823 0.440631 -0.202386 -0.230516 0.419607 0.022364 -0.035804 0.029403 -0.228097 0.205465 -0.154827 0.110719 -0.057299 -0.288293 0.129950 -0.016099 0.156598 0.074180 -0.025893 -0.308997 -0.077690 0.098583 -0.116827 -0.170667 0.039789 -0.001542 -0.149949 -0.090829 -0.161855 0.181627 0.213466 -0.403533 0.097031 0.268304 0.712648 0.467350 0.056933 0.269948 0.524548 0.129900 -0.097649 -0.050696 -0.111301 -0.026069 0.255633 0.422421 -0.110858 -0.033752 0.084673 -0.268184 0.127948 -0.222199 -0.367444 0.451927 0.256484 0.238757 0.115831 0.181208 0.353607 0.275882 -0.173894 -0.374453 -0.367949 0.428231 -0.021345 0.117560 -0.150407 0.136903 -0.012487 -0.220362 0.499891 0.252673 0.380457 -0.266509 0.100532 0.544017 0.414197 -0.248442 -0.765333 -0.306945 -0.168115 -0.097508 0.214514 0.146105 0.298763 -0.027201 -0.420885 0.063950 -0.043202 0.123853 -0.033848 0.001762 -0.096636 0.470738 -0.203060 0.169352 -0.124419 0.112841 0.134693 -0.224131 0.010312 0.301072 -0.546758 -0.355676 0.233445 -0.012737 0.139166 0.232789 -0.374308 0.191775 -0.431771 0.264042 -0.024949 0.174367 0.456185 0.161657 -0.035020 0.318269 -0.310646 0.036263 0.292753 0.074980 -0.129822 -0.155028 -0.190710 0.040264 -0.149982 -0.137748 -0.334067 -0.022452 0.340160 -0.021603 -0.378288 0.274004 -0.206513 -0.135097 0.179151 -0.196904 0.119099 0.469529 -0.203437 0.200733 -0.023415 -0.151641 -0.096406 -0.250734 0.000529 -0.515617 -0.541951 0.087330 -0.062679 0.508461 0.050301 0.031087 0.134365 -0.077784 0.141759 -0.165994 -0.011871 -0.258843 0.171774 -0.120731 0.049283 0.193312 0.354628 -0.093198 -0.015493 0.067774 -0.081310 -0.224199 -0.158762 0.490153 -0.487114 -0.215368 -0.145587 -0.324522 0.075771 0.101299 0.362041 0.155524 0.332115 -0.242811 0.001095 0.099033 0.198261 -0.138126 -0.232108 0.190940 -0.040685 -0.438948 0.406959 -0.281340 0.214580 -0.624740 0.304312 -0.289419 -0.060825 0.047886 -0.241774 0.256017 0.091936 0.011616 -0.397576 0.380767 0.304716 0.283242 0.375213 0.012245 -0.065227 -0.053120 0.071241 -0.142524 -0.103320 -0.078289 -0.044886 -0.056113 -0.101545 0.069501 0.196061 0.442839 -0.063911 -0.136284 -0.034112 0.212389 0.340823 -0.241818 -0.344184 -0.075738 -0.109867 0.048673 0.277009 -0.129442 0.643143 -0.199946 0.184624 0.233194 -0.227014 0.552826 0.064516 -0.548368 0.176131 -0.319517 -0.113290 -0.132190 0.178186 -0.378288 0.295332 0.059758 -0.132627 -0.029082 0.114233 0.082386 -0.026072 -0.040464 0.238861 -0.215624 -0.096698 -0.260101 -0.020717 0.103156 0.260889 0.112846 -0.047589 -0.185402 -0.276753 -0.017578 0.244376 -0.351860 0.104897 -0.238779 -0.534656 0.064050 0.031910 0.271367 0.297785 -0.417754 -0.223826 0.003334 0.175381 -0.194950 -0.098210 -0.076551 -0.157098 -0.146340 -0.129519 0.037416 0.295167 -0.078492 -0.006813 0.379850 0.264445 -0.085344 0.051337 -0.121888 0.149591 0.361559 0.355146 0.167851 -0.032371 0.015666 
他 -0.184117 0.200163 -0.106182 -0.090567 0.226245 0.110696 -0.025529 0.041628 -0.163071 0.136615 0.156105 0.256586 0.138840 -0.187714 -0.177035 0.010602 -0.133499 -0.375489 -0.169361 0.060056 0.157276 -0.113858 -0.333610 -0.231297 -0.066279 0.139740 0.045739 -0.085912 -0.116611 0.290606 -0.177442 -0.168657 0.001612 0.063909 -0.146669 0.026536 0.201879 0.289415 -0.069338 0.371718 0.018415 0.008278 -0.305714 0.214568 -0.115355 -0.006416 -0.117223 -0.021612 -0.192996 -0.042226 -0.045807 -0.084170 -0.172983 0.233289 -0.032096 -0.193058 0.329295 -0.152458 -0.179208 -0.050849 0.128380 -0.189346 0.178914 -0.159178 0.109321 -0.071598 -0.076632 0.084513 0.296822 -0.160452 0.333470 0.028677 -0.266853 -0.157040 -0.081311 -0.225816 0.082826 -0.166049 -0.242951 -0.134943 -0.111165 0.178437 0.134331 -0.082232 0.110701 -0.057352 0.115005 0.201045 -0.075763 -0.271887 0.112625 0.236936 -0.104169 -0.098748 0.161799 -0.310670 -0.088039 0.103422 -0.188348 0.073908 -0.254702 0.387901 -0.263460 0.080532 0.074302 -0.345931 0.169591 0.047468 -0.210817 -0.037287 -0.213969 -0.049573 0.207694 0.085941 0.176263 -0.014207 0.061396 0.164010 -0.137711 -0.004539 0.340172 0.130230 0.194438 -0.239387 -0.123333 0.125903 0.574517 0.143104 -0.124960 0.114467 -0.086553 -0.060031 -0.087300 0.263817 0.230964 0.206971 0.193072 -0.108468 0.248004 -0.181626 -0.293102 0.038908 0.089453 0.096551 0.120385 -0.163364 0.130982 0.150135 0.062951 -0.000265 0.304657 0.298491 -0.013433 0.181760 0.085162 -0.081090 0.405020 -0.189096 0.036036 0.227440 0.073676 -0.230887 -0.181407 0.093120 0.105024 -0.255384 -0.143308 -0.204648 -0.014789 0.011291 -0.068609 0.143263 0.269300 -0.313597 -0.224501 0.189693 0.076131 0.051907 0.363056 0.155807 0.063107 0.048074 0.057897 0.171813 0.241040 -0.113200 -0.051835 0.107275 0.355072 0.037094 0.051956 -0.014502 0.054849 -0.460294 -0.039103 -0.023097 -0.208648 -0.042638 -0.007022 0.056493 -0.094547 -0.046741 0.020192 -0.191154 -0.021413 -0.085754 -0.047231 0.189395 -0.041300 -0.092099 -0.142414 -0.294207 0.109547 -0.076052 -0.022196 -0.308066 -0.164036 0.192968 -0.167653 0.057149 0.108890 0.041016 0.285960 -0.171653 0.078906 -0.163710 -0.000652 0.053348 -0.148476 0.261849 -0.075295 0.084273 0.057485 0.005398 -0.129407 0.198898 0.255772 0.277654 0.082739 -0.184325 0.047954 -0.161356 -0.106100 -0.134028 0.072575 -0.034080 0.251384 -0.320856 -0.241252 0.082342 0.395758 0.045614 0.020698 0.108492 -0.120186 0.043315 -0.134312 -0.087147 0.010717 -0.110740 -0.128860 0.005743 -0.144717 -0.029018 -0.163687 -0.052320 0.134574 0.196324 -0.140938 0.155461 0.146231 -0.138552 -0.057180 -0.043580 -0.111266 0.012241 -0.072491 0.098762 -0.181517 -0.029783 0.070267 -0.101704 -0.176519 0.042005 0.051044 0.110400 -0.011981 -0.238585 0.234180 0.041263 0.173041 -0.151558 0.189555 -0.101960 -0.071579 0.055286 0.228752 -0.055013 0.051184 0.185991 
个 -0.451872 0.589764 -0.314618 -0.067721 0.063733 -0.045655 -0.165843 0.072956 -0.178070 0.153203 -0.276554 0.065458 -0.058724 -0.599955 -0.121100 0.261080 -0.206873 0.492553 -0.157425 0.050996 0.016547 0.060552 -0.350918 -0.194479 0.026200 0.235257 0.469192 0.416441 -0.232890 -0.039493 -0.258294 0.071552 -0.069465 0.081708 0.040726 0.152486 0.231340 -0.255231 -0.104326 0.102570 -0.184861 -0.535585 -0.022050 -0.122916 -0.094632 -0.025102 -0.112933 0.029723 -0.180400 -0.066895 0.100310 0.212432 0.058104 -0.181396 -0.315552 -0.083998 0.502074 -0.343390 0.094453 0.010273 -0.007413 -0.318476 -0.016435 -0.455173 0.021995 -0.085014 -0.173228 0.358287 -0.025222 0.059345 0.366162 -0.431230 -0.122317 -0.359980 -0.202031 -0.253865 0.156544 0.369171 -0.467705 -0.191022 0.062531 0.636304 0.373143 0.069105 0.238771 -0.103632 -0.044525 -0.112822 0.252958 -0.036603 -0.188669 -0.188929 0.094656 0.105625 0.143252 -0.186740 -0.367422 0.033164 -0.104516 -0.292590 -0.229429 0.082718 0.105406 -0.157768 0.319674 -0.557673 0.542631 -0.091366 -0.186911 0.399878 0.081697 0.068928 -0.037053 -0.174708 -0.010106 0.014006 0.008008 -0.494218 -0.259375 0.268198 -0.571473 -0.128989 0.141283 -0.079399 0.035575 -0.094293 0.305968 0.156623 -0.296063 0.075233 -0.075712 -0.074565 -0.235507 -0.114381 -0.099139 -0.127408 -0.275481 -0.197070 0.086656 0.068582 -0.141024 -0.045931 -0.587998 0.111131 0.198064 -0.013176 -0.326778 -0.058638 -0.260061 -0.300248 0.181913 -0.178792 -0.036424 -0.099874 -0.190771 0.235873 0.234805 -0.336644 -0.263618 0.315524 -0.221003 -0.241161 0.090276 0.377329 -0.261857 0.146830 0.001500 -0.281774 -0.270491 0.096780 -0.037870 0.276720 0.093294 -0.194260 -0.134988 -0.013444 -0.121020 -0.377300 0.623949 0.070457 -0.027629 0.057328 0.131387 -0.108399 0.079904 0.041822 0.074771 -0.026143 0.109766 0.048685 0.395636 -0.454730 0.020002 -0.106689 0.369621 -0.222649 -0.333164 0.113455 0.155931 -0.310601 -0.158129 0.053141 -0.200987 -0.273863 -0.179536 0.216431 0.210714 0.015364 0.246549 0.097694 -0.567020 0.074505 0.003970 0.119751 -0.208596 -0.450832 0.026373 -0.086433 -0.009222 0.330847 0.243124 0.274765 0.511146 -0.410201 -0.107649 -0.335182 0.115869 -0.067779 0.088463 0.051459 -0.103154 -0.459804 0.061259 -0.026338 -0.043744 0.014549 0.222645 0.202751 0.468106 -0.119874 -0.319085 -0.483334 -0.354567 -0.039752 -0.432642 0.067503 -0.064309 -0.082656 -0.058266 0.105192 0.300902 0.235191 0.363164 -0.122556 0.304272 -0.139441 -0.010046 -0.546423 -0.120830 0.107660 0.045187 -0.206885 0.057440 -0.507416 -0.002132 0.354571 0.128596 -0.093465 -0.027414 -0.327758 -0.325798 -0.280194 -0.480353 0.014822 -0.525607 0.039910 0.026362 0.280749 -0.096357 0.021144 0.112233 0.078759 -0.233003 -0.123393 0.036622 -0.065991 0.123669 -0.475413 0.134375 0.066165 -0.042852 0.030152 -0.206534 0.150204 0.304773 -0.067938 -0.196232 0.199676 -0.182583 -0.417320 
人 -0.378881 0.453848 -0.097175 0.148890 -0.043981 0.161963 0.008146 -0.249935 -0.026009 0.171470 -0.274043 0.540746 -0.214194 -0.251358 0.169152 -0.399061 0.118022 -0.290698 -0.246744 0.083425 -0.257637 -0.304912 -0.363400 -0.506562 -0.042997 0.317417 -0.391184 -0.038753 -0.164426 0.413079 0.017584 0.010108 -0.052814 -0.090727 0.194358 -0.249953 0.371040 -0.138884 0.209389 0.245965 -0.175560 0.145519 -0.069861 0.045084 -0.034339 0.121792 0.122665 -0.111130 -0.335478 -0.043823 -0.019639 -0.175388 0.303726 -0.056350 -0.162408 -0.176892 0.134289 0.218545 -0.264864 -0.107867 -0.120252 -0.259648 0.162748 -0.725885 0.083898 0.009659 -0.054687 0.174916 0.311264 -0.433242 0.384725 0.079884 -0.054571 -0.241941 -0.023596 -0.191606 -0.078117 -0.012092 0.088199 -0.014224 -0.039698 0.232351 -0.022838 0.023386 -0.169074 -0.152162 0.296753 -0.068719 0.286216 -0.214850 -0.061875 0.300234 -0.292089 0.105581 0.120878 -0.120894 -0.211237 0.011778 -0.070790 -0.229616 -0.087505 0.311298 0.015879 0.516236 0.220414 -0.345003 0.382094 0.184970 -0.013351 -0.007973 0.247036 -0.361210 -0.053977 0.376302 0.019604 -0.306343 -0.127373 0.258743 0.397610 0.061779 0.135281 -0.073500 0.427551 -0.075984 -0.163743 0.279238 0.279531 0.072247 -0.397179 0.058426 -0.084997 -0.143157 -0.055873 -0.285617 -0.085889 0.066621 0.271416 0.048218 0.102806 0.215981 -0.403606 -0.048301 -0.021250 -0.153922 0.003734 -0.234892 0.116718 0.144648 0.141277 0.031302 0.322928 0.235742 0.120307 0.172748 -0.176776 -0.226228 0.053418 -0.134564 0.230187 0.114748 -0.043469 0.005858 0.164975 0.490045 -0.138756 -0.068873 -0.056809 -0.105275 -0.068093 0.134419 0.204925 0.331700 0.167050 -0.293760 -0.367164 0.328503 -0.157217 0.067931 0.271650 0.170726 0.461557 -0.272637 -0.248315 0.081770 0.041501 -0.199844 -0.273964 -0.042613 -0.031900 0.185328 0.008349 0.235954 0.369216 -0.520107 0.091192 -0.501201 -0.097147 -0.003152 -0.212004 -0.234068 -0.133621 -0.038982 0.128658 -0.002268 -0.102507 -0.041176 0.068095 0.404658 -0.116607 0.206854 -0.040162 -0.109477 -0.197857 -0.059606 -0.096534 -0.381459 -0.098468 0.435067 0.005044 0.003980 -0.135254 -0.287108 0.103151 -0.141426 0.064103 -0.148678 -0.060853 -0.052193 -0.096737 0.058632 -0.382098 -0.140831 0.259766 -0.377724 -0.072601 0.056241 0.258705 0.250729 0.212488 -0.187870 0.093802 -0.359563 -0.519346 -0.083831 -0.099870 -0.126531 0.198275 -0.200124 0.513725 -0.047707 0.339462 0.099812 0.228339 0.251231 0.385659 0.006587 -0.296176 -0.120631 -0.029445 -0.003172 0.075823 -0.022490 -0.041290 0.042230 -0.184765 -0.025424 0.035180 0.132546 -0.459321 -0.347986 0.149077 -0.139070 -0.003255 0.025872 -0.109372 0.221865 -0.152909 0.053352 0.046384 -0.024668 0.148888 -0.104929 -0.721380 0.072300 0.171777 0.255838 0.132249 -0.120502 -0.182282 -0.182942 0.344812 0.058350 -0.041115 -0.211610 -0.293595 -0.285514 -0.008606 0.143458 -0.065091 -0.149760 
被 -0.348051 -0.042620 0.136524 0.116711 0.260462 0.016464 -0.397891 0.110040 -0.070104 0.109440 0.182087 -0.026770 -0.103173 -0.562285 0.033205 -0.014183 0.057010 -0.202939 -0.148854 0.097363 0.622977 0.137339 0.153014 -0.243436 0.014086 0.225979 -0.343008 0.499816 0.054790 0.259199 -0.299832 -0.386391 -0.244251 -0.143644 0.200138 -0.043538 0.109680 0.233729 0.008181 0.357747 -0.332621 -0.203260 -0.361136 0.195611 -0.046040 -0.032368 -0.156880 -0.553262 -0.349711 0.159960 -0.098339 -0.676759 -0.165846 -0.011296 0.546351 0.168757 0.138852 0.143890 -0.204328 -0.063446 0.073368 -0.080434 0.500655 -0.482694 0.172771 0.193108 -0.241334 0.229953 0.233601 0.023303 0.449497 0.185744 0.190387 -0.178182 -0.018553 0.110770 0.361587 -0.434726 -0.159799 -0.194071 -0.105330 -0.016737 0.072561 0.294239 0.018164 0.107421 -0.000158 0.047048 -0.201995 -0.040951 -0.091036 -0.073223 -0.198481 0.413777 0.221043 0.063240 -0.149501 -0.451016 0.167657 0.012741 -0.036923 0.094964 -0.249273 -0.031388 -0.024822 -0.584680 0.086799 -0.167671 -0.248145 -0.444918 0.047954 -0.250738 0.103448 -0.117121 0.492746 0.009851 -0.223320 -0.061551 0.181250 -0.210476 -0.074581 0.139745 -0.367614 -0.114226 -0.371154 -0.259144 0.222639 -0.063046 -0.119287 -0.141499 0.244027 -0.083390 0.014749 0.290982 -0.283612 0.196317 0.646262 -0.452051 0.094585 -0.050159 -0.035894 -0.137366 0.069117 -0.047191 -0.277077 0.137652 -0.266165 0.033911 -0.087305 -0.248544 -0.049899 -0.041863 -0.039430 0.046886 0.076369 -0.249324 0.371580 0.166079 0.011118 -0.185760 0.084847 0.291427 -0.056715 -0.158988 0.007226 -0.177534 0.007930 0.036505 -0.150715 -0.024379 0.211531 -0.208673 -0.033728 -0.356046 -0.410218 0.168162 -0.019432 0.204795 -0.050261 0.452270 0.477810 0.076467 -0.332494 0.073977 -0.076001 -0.163560 -0.071741 0.184190 0.235705 0.013305 0.330771 -0.339425 0.308932 -0.344157 -0.205074 0.044260 0.408035 0.215665 -0.560268 -0.285132 -0.237757 0.182071 -0.035219 -0.330765 0.228254 0.260829 0.136663 -0.251453 -0.026967 0.248272 0.582023 0.093082 0.039626 -0.095564 0.001202 -0.313201 -0.029880 -0.108698 -0.029112 -0.336410 -0.076539 0.232111 0.540408 -0.756206 0.121717 -0.114192 -0.161779 0.216742 0.064784 0.025105 0.335929 0.426265 -0.203876 0.484297 0.257006 -0.060554 0.147883 0.189658 -0.256729 0.033284 0.360255 -0.102745 -0.335462 -0.440862 -0.162278 -0.195844 0.251642 0.476458 -0.027291 -0.098583 0.474974 0.220211 0.144670 0.034180 0.169910 -0.256385 -0.072238 -0.466535 0.046976 -0.045414 -0.391045 -0.109133 -0.149364 -0.211954 0.199465 -0.114176 0.200186 -0.127143 -0.136745 -0.206744 0.383413 -0.381068 0.095283 -0.232012 -0.061893 0.346441 -0.214330 -0.067636 0.070618 0.112471 0.004179 0.063996 0.071143 -0.397596 0.277830 0.024573 -0.206093 -0.368651 -0.291882 0.227060 0.390361 -0.088900 0.183091 -0.255885 0.022960 -0.302304 -0.362874 0.378344 0.292316 -0.201124 
“ -0.231910 0.366945 -0.093982 -0.267811 -0.046505 0.311738 -0.077849 0.085281 0.034184 0.248569 -0.008789 -0.253808 0.366679 -0.418821 0.104386 0.187729 0.327127 -0.036617 -0.139351 -0.020946 -0.022137 -0.081442 -0.231528 -0.041830 -0.035915 0.359349 -0.124877 0.223628 -0.392716 0.086082 -0.298840 0.096613 0.046480 0.222955 -0.105321 0.130491 0.246775 -0.007133 0.029068 0.091302 -0.035970 0.158169 -0.128789 0.436465 -0.034304 0.295458 -0.478463 0.081193 -0.191091 0.103486 -0.109184 -0.245539 0.344336 0.358382 0.304085 0.012877 -0.051385 -0.219688 -0.002836 -0.073937 -0.403420 0.045303 0.129123 -0.447403 0.469931 0.193150 0.130668 0.143159 0.170991 0.131050 0.283838 -0.203623 0.008811 -0.084872 0.130662 -0.290219 0.285382 -0.370911 -0.021635 0.048890 0.112331 0.211719 -0.061627 -0.206816 -0.023820 0.088928 -0.010519 0.263280 0.097058 0.096209 -0.069318 -0.155902 -0.143104 -0.100918 -0.163435 -0.178255 0.105015 0.151579 -0.138846 0.082628 -0.091163 0.548372 -0.214857 0.066685 0.139128 0.106084 0.694115 -0.173742 -0.586750 0.293186 0.296335 0.164705 0.202234 -0.025490 0.162598 -0.015785 0.280957 0.439742 -0.125019 -0.002903 -0.098942 -0.035187 0.186419 -0.004527 -0.333845 0.130830 0.509322 0.242320 -0.110999 0.050689 0.028956 -0.063978 0.043164 -0.034841 -0.040577 0.085284 0.410841 -0.309061 0.154747 -0.051709 -0.370954 -0.167843 0.162427 0.245778 0.155809 0.143689 -0.069357 -0.040109 0.344631 -0.098837 0.034449 0.157502 -0.045357 -0.160102 -0.068659 -0.038647 -0.096079 0.043389 0.011248 0.288159 0.026332 0.035651 -0.045805 -0.024694 -0.222769 -0.454871 0.155605 0.134644 0.026231 0.665995 0.213588 0.442109 -0.088711 -0.124768 -0.295224 0.127023 -0.196821 0.140585 0.303588 0.334898 -0.075002 0.179777 0.220125 -0.184225 -0.055349 0.050392 -0.077684 0.232430 -0.268599 0.106248 0.313920 0.073442 -0.162247 -0.161408 0.041931 0.306075 -0.432399 0.141057 0.550671 -0.406572 -0.030102 -0.116371 -0.102409 0.062680 0.260193 0.086732 -0.440034 0.143325 0.143250 0.063037 -0.114854 -0.051627 -0.056072 -0.168507 0.139673 0.137940 -0.111126 0.266065 -0.337058 0.032761 -0.049095 -0.530882 0.146415 0.092616 -0.342282 -0.163121 0.070488 0.033353 0.025403 -0.354856 0.286016 -0.007216 0.083223 -0.003117 -0.207452 -0.139343 0.089310 0.072101 0.337830 -0.196815 -0.165189 -0.249433 -0.171373 -0.151377 -0.102646 -0.137912 0.272783 0.251240 0.144194 0.075972 0.236713 0.063536 0.211155 0.196140 0.268481 -0.043007 0.181528 -0.005067 0.037186 0.359573 0.016012 -0.092888 -0.011840 -0.172582 0.288543 -0.243394 -0.156489 -0.073821 0.105056 -0.373623 -0.079225 -0.062431 -0.276417 0.186031 0.012517 -0.181600 -0.185532 0.200806 -0.198294 0.181533 -0.016850 -0.318989 0.011606 -0.179570 -0.096269 -0.064476 -0.123226 0.162347 0.394277 -0.002238 0.163723 -0.180799 -0.160932 0.056891 -0.273760 -0.037631 0.098591 -0.031370 0.163465 -0.031695 
） -0.127395 0.260771 0.165410 -0.122391 0.139842 -0.058791 -0.340654 -0.044406 0.124832 0.189006 -0.263772 -0.089091 0.013917 -0.190764 -0.032779 -0.112689 -0.253625 0.227907 -0.269213 0.289593 0.123055 -0.110725 -0.103201 -0.179293 0.041796 0.349913 0.285123 0.167333 -0.302324 0.080757 0.030041 0.142387 -0.382692 -0.016238 -0.086283 0.408554 0.184674 0.316171 0.336843 -0.076369 0.058193 0.154513 -0.092937 0.144661 -0.178154 0.146829 -0.038450 -0.198720 -0.239730 0.179099 -0.193461 -0.288886 0.092595 -0.118371 0.183263 0.210155 0.117847 0.238012 0.330792 -0.080874 0.231332 -0.188808 -0.102289 0.108960 0.392755 0.309115 0.143771 0.317497 0.190105 -0.144903 0.392817 -0.222539 -0.064949 -0.075826 0.055578 -0.106044 -0.107277 0.049783 0.140471 -0.175535 -0.234565 -0.210375 0.036620 0.331561 0.262836 -0.059753 -0.187094 -0.452449 -0.076197 0.145435 0.280603 0.244593 -0.204421 0.098530 -0.141665 -0.129807 -0.088287 -0.131462 -0.124204 -0.287051 0.078380 0.377055 0.020326 -0.055303 0.108136 0.044691 0.130906 0.025070 -0.067495 0.300754 -0.398959 -0.191952 0.275249 0.328827 -0.051145 0.171136 -0.075104 -0.071093 -0.010248 0.166323 -0.107102 0.084850 0.055682 0.102057 0.233134 -0.130028 0.193261 0.081779 0.113276 0.350768 0.076374 -0.491084 0.178263 0.161739 -0.378832 -0.053919 0.189274 -0.523315 0.269423 -0.141439 -0.175119 0.019624 0.432043 -0.010221 0.073749 -0.085731 -0.150464 -0.105232 -0.364799 -0.356848 0.014606 0.332787 0.117249 -0.000781 0.204150 -0.006000 -0.244093 -0.198911 -0.219409 -0.079281 -0.399334 -0.362492 0.135537 -0.165536 -0.070156 -0.028224 -0.297307 0.053589 -0.066861 0.318535 -0.115623 0.124800 -0.112416 0.256389 -0.307108 -0.026101 0.137398 0.071058 -0.009269 0.190529 -0.034489 -0.044378 0.200223 0.135339 0.283339 0.189128 -0.117082 -0.176532 -0.319348 0.084751 0.111240 -0.029929 0.232808 -0.059094 -0.219048 0.006438 -0.317376 0.162178 -0.125727 -0.042208 -0.390514 0.013557 0.045416 0.163383 0.194463 0.272897 -0.070246 0.245510 -0.580596 0.026643 -0.237110 0.075806 -0.039621 -0.230013 -0.051299 0.011371 0.129642 -0.013553 0.238568 0.075910 0.078378 0.024704 -0.071921 -0.355622 -0.267761 -0.011904 0.478845 -0.304833 0.174557 -0.070543 0.256671 0.158914 0.145583 -0.050549 -0.327061 0.405822 0.009034 -0.146962 -0.068270 -0.079846 -0.190521 -0.644381 -0.028135 -0.046197 0.093099 0.086542 -0.115259 -0.060509 -0.056454 -0.141728 0.109598 0.195241 -0.057179 0.306484 -0.031567 -0.154105 0.177216 0.236259 -0.188992 -0.187812 -0.235612 0.340838 -0.101645 -0.215279 0.211585 0.001426 0.067647 -0.122156 0.173067 0.042913 -0.089978 0.292846 -0.124401 0.150993 0.160950 -0.318406 -0.052026 0.214876 -0.202993 -0.262011 0.036569 0.148344 -0.016173 0.004828 0.080279 0.148470 0.110148 -0.173476 -0.043554 0.036086 0.029017 0.051647 -0.014164 -0.241441 -0.529596 0.054337 -0.098135 0.300770 -0.110937 0.224659 
要 -0.010972 0.361268 -0.123944 -0.196179 0.086074 0.043897 -0.377385 -0.136120 -0.099477 0.217576 -0.209126 -0.038421 -0.106383 -0.232364 0.093838 0.157425 0.114536 -0.153614 -0.166331 -0.094454 0.054285 -0.031787 -0.085132 -0.084680 0.274363 0.009595 0.098207 -0.150141 -0.228469 0.299058 -0.035742 0.044999 -0.134327 0.102045 0.145779 -0.028829 0.165282 0.128819 -0.332087 0.276223 0.046880 -0.097866 -0.330396 0.321673 0.159293 0.194947 -0.208669 -0.127077 -0.135302 -0.399804 0.331120 -0.377116 -0.069695 -0.153288 0.058727 0.197180 0.016523 0.175769 0.202037 0.178975 -0.210369 -0.081481 0.172617 -0.183174 0.022464 -0.121424 -0.193647 -0.064967 0.352030 0.303567 0.267857 0.008077 -0.028613 0.269103 -0.112471 0.071575 0.149898 0.075105 -0.206567 0.125506 0.186826 -0.136967 0.202500 -0.140512 0.378321 -0.063793 -0.094153 -0.142814 -0.255174 -0.166527 -0.252680 0.448386 0.045170 0.310484 0.344609 -0.006062 -0.173284 0.146197 -0.003433 -0.093782 -0.039130 0.274881 0.059728 -0.054493 0.263356 0.283772 0.196119 0.023151 -0.209159 -0.050949 0.008334 0.181019 0.181736 -0.204548 0.132537 -0.234010 -0.303823 0.048231 -0.094977 0.032420 0.131616 -0.272885 0.244296 0.024439 0.143642 0.210900 0.154526 0.155472 0.159229 0.273996 -0.033547 -0.110872 -0.073690 0.190306 0.267439 -0.193299 0.284090 -0.144189 0.190431 0.129966 -0.350478 0.090984 0.252869 0.078638 0.060349 0.359415 0.086892 -0.398767 0.076757 -0.229258 -0.153321 0.142713 -0.086137 -0.041920 0.216975 0.112661 0.289978 -0.463532 0.248954 -0.139279 -0.178563 -0.514706 0.211297 0.472595 0.207088 0.044793 0.065035 -0.285299 0.015274 0.394358 -0.133746 -0.172891 -0.320040 -0.086431 -0.139811 -0.014863 0.070444 0.048631 0.307116 0.476748 0.054601 -0.029297 -0.159097 0.463401 -0.101519 0.161510 0.071197 0.232778 -0.357172 -0.012642 0.083514 -0.123517 0.101040 -0.302705 0.427580 0.082537 -0.227484 0.063519 0.156366 -0.043533 0.038034 -0.371674 -0.283284 0.032379 0.145733 -0.071999 0.084630 0.157851 -0.310667 0.125402 0.136943 -0.017510 0.158343 0.221235 0.092737 -0.024011 0.029820 0.023890 -0.335168 -0.043578 0.062286 0.064475 -0.116911 -0.488668 -0.277510 -0.357443 0.730403 0.323795 0.162142 -0.002454 0.028978 0.199813 0.138159 -0.039715 0.068542 0.212453 -0.234530 0.317935 -0.090894 -0.179120 0.213186 -0.199587 -0.157212 -0.108343 0.005125 0.058781 -0.005495 -0.139792 0.180611 0.155539 0.194293 0.472302 0.053372 0.167965 0.313482 0.129059 -0.285107 -0.179224 0.109897 -0.157264 -0.001147 0.077758 -0.063321 0.188404 0.075803 -0.332520 0.284574 0.280373 -0.343298 -0.080375 0.053026 -0.385409 0.049786 -0.079141 -0.357812 0.156839 -0.203459 0.117019 -0.164450 0.401744 -0.122974 0.133105 -0.279333 -0.284963 -0.274013 -0.188242 0.109989 -0.028592 -0.153150 -0.019930 -0.304779 -0.171601 0.116714 -0.238502 0.257869 -0.000879 -0.139810 -0.145095 -0.222450 0.088383 
就是 0.029064 0.293515 0.026003 -0.067339 -0.038820 0.362439 -0.127342 0.206008 -0.098220 0.249006 -0.039689 0.140981 -0.116813 -0.570848 0.023824 0.248057 -0.546458 0.030250 -0.002939 0.011444 0.190539 0.189657 -0.126544 -0.076797 -0.083515 0.241396 -0.194196 -0.176589 -0.369379 0.273656 0.134918 0.132456 -0.214814 0.458399 0.206663 0.114540 0.279420 0.305602 -0.125546 -0.249684 0.267563 -0.158673 -0.219370 0.329486 -0.089760 0.171265 0.045091 -0.083538 0.185829 -0.343064 -0.162625 -0.196328 0.028296 0.137587 0.088497 0.165453 0.087189 0.216601 0.364133 0.305970 -0.077155 0.081273 -0.074258 0.156557 0.156932 -0.073459 0.048730 -0.125314 0.089975 0.119455 0.359960 -0.061708 -0.070180 0.128720 -0.240434 0.050915 0.190063 0.144336 0.038045 -0.046697 -0.133418 0.023821 0.150826 -0.095258 0.245415 -0.206609 -0.249887 0.109302 -0.214917 -0.248130 0.161332 0.220571 -0.335865 0.451553 0.019694 -0.132831 -0.253015 -0.225468 0.160465 -0.350586 0.076534 0.280177 -0.201477 -0.062379 -0.127846 0.096320 0.418382 -0.178081 -0.171455 -0.070206 -0.189985 -0.043994 -0.149056 0.180147 -0.039473 0.284017 0.170426 -0.110490 0.122654 0.165137 -0.021857 -0.139117 0.460801 0.124248 0.104129 0.038330 0.328891 0.222416 0.073662 -0.036912 0.018973 -0.066480 -0.141220 -0.183354 0.006108 -0.137078 0.207678 -0.083439 0.355590 0.028466 0.048968 -0.429751 -0.376500 -0.305706 -0.148759 -0.259542 -0.031167 0.404920 0.008260 0.152044 0.048701 -0.022813 0.023826 0.213837 0.145714 0.070606 0.234079 -0.368899 -0.057985 0.319927 -0.438292 -0.042419 0.389914 0.076650 -0.064551 -0.211708 -0.273561 0.335129 0.097234 0.310674 -0.461547 0.250824 -0.369265 -0.132876 -0.410081 0.268124 0.025471 0.166879 0.003462 0.056830 0.034039 0.329223 0.045585 0.408983 -0.150465 -0.265109 -0.208697 -0.045802 -0.141135 0.122069 -0.193154 0.106837 0.365947 -0.295646 0.077807 0.036614 -0.309241 0.538577 0.002860 -0.057050 -0.183919 0.105436 -0.049003 -0.199217 -0.015917 0.237015 0.235380 0.165263 -0.028254 0.101439 0.275274 -0.204740 0.122417 -0.205646 -0.113719 -0.124156 0.058745 0.328336 -0.264993 0.043586 0.117088 0.075428 0.233411 -0.183359 -0.108340 -0.187489 0.021569 0.050644 0.120551 -0.063266 0.068567 0.036587 0.232611 -0.077615 0.000845 0.115400 0.051906 -0.117522 0.223451 -0.223500 -0.104098 -0.107882 -0.111713 -0.061748 0.289606 -0.060169 -0.035514 -0.091377 0.294499 -0.048265 0.216955 0.170585 -0.059701 -0.277972 0.356083 -0.158010 -0.110311 -0.234818 -0.040185 0.053825 -0.038459 0.145994 -0.140136 -0.139313 0.092742 -0.044813 0.251947 0.036894 0.230935 -0.187012 0.084250 0.066841 -0.145020 0.214362 0.026695 0.217240 -0.154085 0.031906 -0.142559 0.043796 -0.055390 -0.144524 0.044142 0.074412 0.108282 0.017651 0.269276 0.135808 -0.048559 -0.194909 -0.250783 -0.379915 -0.132258 0.020977 0.263760 0.194694 -0.154774 0.448263 0.130570 -0.194411 
去 -0.276005 0.182422 0.050947 -0.217490 0.312675 -0.147978 -0.054906 0.315023 -0.141247 0.140800 -0.107364 0.438323 -0.041490 -0.391672 -0.099692 -0.302986 -0.142511 -0.480373 0.080185 -0.189468 0.206648 0.166298 -0.048330 -0.140220 -0.085745 0.105754 -0.256423 0.017895 -0.274525 0.199034 -0.127161 -0.527808 -0.031656 -0.518863 0.328976 -0.086730 -0.234840 0.222372 0.036810 -0.314045 0.125898 0.263595 -0.219195 -0.135066 0.335988 0.249093 0.246316 -0.003524 0.278837 -0.200786 -0.029796 -0.374312 -0.351022 0.204779 0.356924 -0.337311 0.018061 -0.202961 -0.056143 0.495058 -0.003973 -0.062240 0.454848 -0.108397 0.249491 0.159791 -0.286615 0.111199 0.225890 -0.386574 0.113137 0.141459 0.118746 -0.054419 0.170347 -0.136175 -0.097687 0.013444 0.002190 -0.104116 -0.169025 0.201735 0.514232 -0.442129 0.295760 -0.045323 0.030418 -0.283921 -0.035531 -0.150311 0.308350 0.086038 -0.034307 0.551827 -0.091665 0.139293 -0.260757 -0.078720 -0.103069 0.229132 -0.104539 0.237143 0.027708 0.078476 0.139931 0.043628 0.017855 0.090268 0.071218 0.243961 -0.372281 0.528743 -0.008827 -0.448550 -0.304018 0.457224 -0.414002 -0.058176 -0.044606 -0.151105 -0.205915 0.026572 0.360423 0.355908 0.087957 0.137673 0.179962 -0.020430 0.051362 -0.055317 0.332525 -0.137931 -0.074593 -0.067160 0.014166 -0.039161 0.187651 -0.244548 0.099267 -0.113757 -0.159282 -0.116984 -0.032385 0.111540 -0.105197 0.035755 -0.017060 0.041059 0.007013 -0.304218 0.148891 -0.114031 -0.193777 0.164158 0.074954 0.206749 0.245928 -0.758160 0.230492 0.032200 -0.099868 -0.329427 -0.091956 0.502184 0.252479 -0.144042 -0.017663 -0.218253 -0.525559 0.279820 -0.048087 0.198440 0.224551 -0.112184 -0.031376 0.144012 0.299447 0.129881 0.030317 -0.147314 -0.133814 -0.165161 -0.176906 0.307375 -0.081101 0.077082 0.085985 0.204719 -0.121026 -0.029323 0.334542 -0.333953 -0.073798 -0.010009 -0.080529 -0.021230 0.118692 0.412469 -0.090951 -0.266943 -0.148522 -0.361423 0.230826 0.188344 -0.076339 0.342001 -0.476213 0.286343 -0.563889 0.037466 0.168382 0.167113 -0.314058 -0.042428 0.299921 -0.293053 0.189414 0.383893 -0.145606 -0.029936 0.075925 -0.199016 0.158613 -0.128165 -0.144386 -0.347571 0.153023 0.430138 0.260831 -0.587356 0.201653 0.225590 0.094012 -0.190284 -0.368316 -0.026456 0.103559 0.412520 0.197408 -0.243458 -0.007541 -0.086217 -0.376940 -0.186447 -0.168171 -0.094357 0.124210 -0.100459 -0.301026 -0.173283 0.179597 0.343448 -0.032275 -0.122610 0.301076 0.036673 -0.312822 -0.254749 -0.231275 -0.039919 -0.176787 0.315960 0.021264 -0.085499 -0.205955 -0.048854 0.582660 0.207202 -0.061953 0.209147 -0.114859 -0.056083 -0.037989 0.201548 -0.083906 -0.045356 0.132044 -0.106720 -0.223403 0.336075 0.043603 0.097038 -0.288715 -0.102470 -0.107534 -0.031028 0.252658 0.061667 -0.103609 0.486034 0.040276 0.021462 -0.066893 0.172948 -0.066178 0.063497 0.659469 0.195811 0.369667 0.055866 
？ -0.049663 0.490487 0.038414 -0.042552 -0.124380 -0.014276 -0.134647 0.005932 -0.128302 -0.058139 0.102188 0.175533 -0.097704 -0.406927 -0.311954 0.076675 -0.081416 -0.198877 -0.046810 -0.113209 -0.175558 -0.016060 -0.405257 -0.249671 0.045503 -0.226847 -0.041838 -0.024678 -0.138636 0.559468 -0.250058 -0.016040 0.045957 0.296281 0.061901 0.287879 -0.070853 0.104060 0.094260 -0.071071 -0.187385 0.266206 -0.226202 0.323033 0.071408 -0.056668 0.062746 -0.132855 -0.414776 -0.100390 0.110570 -0.238525 0.285135 -0.027191 0.156265 -0.097202 0.048824 -0.200941 -0.042042 0.347202 -0.125471 -0.089186 0.173179 -0.322065 0.102681 -0.295406 -0.017620 0.269159 0.113348 -0.045487 0.060097 -0.209061 -0.467168 0.162428 0.173873 0.036494 0.125685 0.232000 -0.009679 -0.039688 0.017004 -0.015986 0.056503 -0.154177 -0.140196 0.146156 -0.166329 0.039076 0.347140 0.064905 0.002977 0.101804 -0.303753 -0.044920 0.111393 -0.444090 -0.253946 0.089120 0.139945 -0.307225 -0.199501 0.390392 -0.325353 -0.288208 -0.003515 0.106194 0.224907 0.208071 -0.276829 0.253944 -0.118339 -0.066544 0.389047 -0.024593 0.046040 0.046189 -0.111259 0.482337 0.034390 -0.081715 -0.047445 -0.078351 0.331009 -0.106508 0.059690 0.533511 0.083169 0.020304 -0.212485 -0.314537 0.143292 -0.142432 0.103338 -0.025105 -0.008872 -0.502953 0.041220 -0.234805 0.123709 0.028690 -0.309897 -0.537098 0.003490 0.172511 0.167046 -0.055719 0.098180 0.013190 0.001463 -0.435693 0.209451 0.083827 0.136791 -0.148290 0.004554 0.010918 0.041778 -0.146204 0.207726 0.234686 0.017961 -0.066182 -0.050812 0.266664 -0.031171 -0.076730 -0.176384 -0.326266 -0.055499 0.055532 0.190819 -0.204082 0.212740 -0.096350 -0.088066 0.037221 -0.085320 -0.112033 0.243455 0.124031 0.128997 0.165441 0.188153 0.007615 0.287765 -0.093634 0.241947 0.036476 0.059153 0.210981 -0.047799 -0.076423 0.214728 -0.371238 0.067952 -0.191433 -0.258011 0.029571 0.110318 -0.016094 0.004808 -0.240978 -0.073535 -0.441191 0.124097 0.017016 -0.067131 0.283109 0.170608 0.462845 -0.213138 -0.118829 0.049872 0.056340 0.288944 -0.264971 0.082443 0.087631 -0.150424 -0.345044 -0.008870 0.214405 0.025027 0.108450 0.089685 0.043975 -0.228580 0.215561 0.184021 -0.329995 0.514660 0.188166 0.060942 0.268159 -0.225249 0.067052 0.078283 0.146780 0.284606 -0.132399 -0.127886 -0.431181 -0.120512 -0.331704 -0.074427 -0.334836 -0.026964 0.122628 0.181805 -0.267492 0.154039 -0.141644 0.142394 -0.143728 0.089985 -0.139108 -0.244048 -0.300575 0.108577 0.281025 -0.008965 0.068217 -0.249082 -0.447572 0.032279 -0.133246 0.018435 -0.089594 -0.144476 -0.196384 0.139770 -0.155521 -0.033413 0.145806 -0.187541 -0.288716 -0.265878 0.227728 -0.281244 0.033003 -0.121121 -0.222518 -0.160469 -0.224170 0.132986 0.393613 -0.173096 -0.093325 -0.206009 -0.416163 -0.089103 0.182246 -0.157142 -0.236225 -0.298296 0.296476 0.035222 0.157042 -0.154495 -0.051479 
” -0.186325 0.263986 -0.027868 -0.291174 -0.018091 0.295643 -0.258350 0.019706 0.049843 0.118462 0.072172 -0.094088 0.175061 -0.353645 0.020093 0.044573 0.085550 -0.012403 0.111651 -0.035318 0.021035 0.140092 -0.034790 -0.051522 -0.147024 -0.084710 0.087428 0.165846 -0.238404 -0.133279 -0.268635 0.091619 0.013933 0.217896 -0.065666 0.031250 0.348949 -0.013091 0.017189 0.040515 -0.187650 -0.037514 -0.245829 0.385940 -0.019017 0.362604 -0.339238 -0.134343 -0.306024 0.080836 -0.022781 -0.279848 0.205113 0.279039 0.122230 0.046793 -0.177379 -0.031749 -0.093678 0.135469 -0.109520 0.025380 0.189337 -0.350354 0.515233 0.175786 0.016468 0.205133 0.306597 -0.153777 0.336523 -0.125975 -0.013540 -0.101927 0.083999 -0.180678 0.263466 -0.122061 -0.068026 -0.049430 0.276851 -0.025807 -0.142242 -0.063339 -0.090948 -0.037490 0.260522 0.181307 -0.041770 -0.091258 -0.058960 -0.079526 -0.152077 -0.133448 -0.008075 -0.198706 0.234340 0.091919 -0.247917 -0.083381 -0.161580 0.272642 -0.310743 -0.226317 0.182281 0.067287 0.573635 -0.229248 -0.472191 0.227115 0.049132 0.048798 0.261294 -0.066718 -0.007290 0.072939 0.079501 0.589557 -0.173402 -0.123831 -0.190086 -0.096362 0.225930 -0.085292 -0.382138 0.083920 0.412422 0.134761 -0.088120 -0.045367 0.036139 -0.163185 0.064498 -0.160079 -0.004767 0.015858 0.224902 -0.231302 0.246247 -0.009145 -0.450627 -0.205785 0.138493 0.388973 0.023751 0.150968 -0.063242 -0.166929 0.245242 -0.171145 -0.021593 -0.006686 -0.143688 -0.080595 -0.038192 0.025989 0.200464 0.103086 0.019581 0.005076 0.083606 -0.194779 -0.015400 0.221336 -0.227927 -0.149185 0.286495 0.161505 -0.103669 0.361569 0.364980 0.293906 0.199899 0.091206 -0.131519 0.068751 -0.343641 -0.087488 0.368831 0.087057 0.093061 -0.106587 0.338164 -0.073455 0.107638 0.157381 -0.100055 0.252080 -0.260193 -0.038134 0.259930 0.204994 0.021038 -0.344551 0.085530 0.176619 -0.231624 -0.006640 0.283490 -0.214367 -0.217464 -0.022214 -0.040850 0.147495 0.135198 0.215400 -0.297263 0.164247 0.275200 0.008921 -0.361178 -0.296803 0.075338 -0.027548 0.100048 0.069701 -0.159387 0.075903 -0.203767 -0.007028 0.038179 -0.269892 0.057495 0.068583 0.034775 -0.199864 -0.022218 0.046316 0.192648 -0.319245 0.234706 -0.138337 0.342556 0.184678 -0.304121 0.021320 0.104076 -0.073738 0.330748 -0.270233 -0.160393 -0.367391 -0.339782 -0.151008 0.125947 -0.215436 0.124456 0.091391 0.282167 -0.133806 0.194635 -0.009018 0.105837 0.026776 0.196783 0.013170 0.109062 0.128681 -0.065168 0.109983 -0.214599 -0.210097 -0.056318 -0.384604 0.213760 -0.233377 -0.120960 -0.086705 0.051622 -0.180524 0.037550 -0.235421 -0.197805 0.384751 -0.041500 -0.091744 -0.074049 0.256986 -0.314308 -0.076526 -0.151532 -0.309758 0.058548 -0.017598 -0.075557 0.055401 0.034983 0.067935 0.040082 -0.212668 -0.126029 -0.094002 -0.171632 0.037883 -0.464325 -0.070899 0.131627 0.072545 0.064546 0.002397 
也 -0.075654 0.515432 0.187096 -0.124749 -0.187424 0.082341 -0.104674 0.062573 -0.087688 0.124293 -0.234517 0.633779 0.337102 -0.383757 -0.063371 -0.063738 0.078534 0.296970 -0.112427 0.086113 -0.027544 0.349726 -0.164424 -0.345136 -0.073108 0.097307 0.267356 -0.512446 -0.394806 0.685352 -0.089764 0.088495 0.043252 0.077952 0.249577 0.021539 0.063143 0.100960 0.090021 0.237014 0.005731 0.123924 -0.185435 0.179197 -0.239645 0.112238 0.189103 -0.111529 -0.190440 -0.136885 -0.171849 -0.037457 0.149226 -0.201428 0.106335 0.041597 0.062832 -0.192225 -0.189661 0.160230 0.051727 -0.177894 0.069744 -0.207464 0.079448 -0.332004 0.055012 0.523205 0.428941 -0.111677 0.333360 -0.156980 -0.110071 -0.219656 -0.246302 0.115138 0.128358 -0.082895 -0.070223 0.031818 -0.106143 0.129057 -0.102911 -0.281817 0.021432 -0.285941 0.155017 0.353901 0.267419 -0.017511 -0.231658 0.157466 -0.033090 0.030381 0.389868 -0.300739 -0.206562 0.095299 0.249041 -0.110861 -0.018425 0.085283 0.072118 -0.309806 0.129555 -0.145652 0.190419 -0.079057 -0.357623 -0.121265 0.191936 0.105494 0.242244 0.186493 0.010709 0.250639 0.091597 0.159065 -0.065250 0.185940 0.073766 0.038680 0.159835 -0.015854 0.052017 0.262602 0.202335 0.188622 -0.219584 0.133302 -0.025322 -0.079659 -0.018269 0.079646 0.101727 -0.053807 -0.023502 -0.088865 0.211669 -0.120704 -0.313533 -0.016811 0.202387 0.316970 -0.013929 -0.058413 0.009883 0.378008 -0.096456 0.140236 0.226762 0.096332 -0.118694 0.151954 0.180781 -0.047479 0.060373 -0.280236 0.056180 -0.231535 -0.218459 -0.231410 0.097784 0.184687 -0.028271 0.083789 -0.249948 0.128457 0.084193 0.121868 0.031438 0.197526 0.152746 -0.268708 -0.363342 0.268393 0.069088 0.143084 0.470310 0.134395 0.143186 0.033560 -0.068348 0.040256 0.008384 -0.118657 0.285468 -0.178701 0.097807 -0.032375 0.121871 -0.024285 0.114199 0.046994 0.377440 -0.027034 -0.152529 -0.133388 0.106266 -0.138695 0.033979 -0.151913 0.151663 -0.125594 -0.063270 0.176786 0.048901 0.209952 0.070263 -0.178153 -0.085459 -0.086332 0.330110 0.067813 -0.021920 -0.258357 -0.114151 0.222532 0.091915 -0.032369 0.114081 0.116877 0.358000 -0.162003 0.102078 -0.246153 -0.000337 -0.086917 0.313997 -0.061967 -0.118347 0.142104 0.196877 0.134554 -0.015806 0.133346 -0.010375 0.183430 0.220415 -0.308721 0.157440 -0.279528 -0.176206 -0.142618 0.007424 -0.219002 0.098810 0.130117 -0.265857 -0.008796 0.108073 0.262023 -0.053621 0.179469 0.032260 0.043577 -0.232615 0.010055 0.109744 0.225503 -0.134354 -0.044341 -0.205554 0.093479 -0.066811 -0.498331 0.025478 0.229991 0.033360 -0.247723 0.050852 0.060546 -0.222025 -0.041422 0.012066 -0.216227 -0.169492 0.279546 -0.096738 0.068808 0.085201 0.090755 0.202841 0.176263 0.123694 0.281535 0.026547 -0.211601 -0.060097 -0.003979 0.269492 -0.156498 -0.238679 -0.001589 -0.000411 -0.301752 0.233993 0.238131 -0.115088 0.147953 
可以 0.073219 0.288628 -0.174324 -0.079691 -0.292173 -0.042464 -0.342206 -0.209621 -0.142878 0.017244 -0.123412 0.101338 -0.307144 -0.162871 0.385094 0.365267 -0.136718 0.173730 0.189539 0.175273 0.007958 0.576904 -0.006805 -0.049869 0.311208 0.172022 0.207843 -0.224813 -0.261888 0.176826 -0.129006 -0.167408 0.193281 0.065130 0.125564 0.014600 0.318455 0.004123 -0.315690 0.292313 0.063597 0.038566 -0.108957 -0.220040 0.150676 -0.103524 -0.212931 -0.534199 -0.083959 -0.191685 0.204416 -0.458739 0.229560 0.245496 0.109274 0.177573 0.186204 0.194375 0.375538 0.339002 -0.107705 -0.050959 0.166504 -0.216569 -0.033871 -0.031133 0.194419 0.097698 0.281425 -0.022524 0.350169 0.316744 -0.063345 0.021429 -0.011569 0.209522 0.070715 -0.038968 -0.119599 -0.112158 -0.143616 0.040642 0.375789 -0.094447 0.264226 -0.013651 -0.018090 0.172289 0.214320 0.249029 -0.097994 -0.024003 0.130726 0.164092 0.055940 -0.049809 -0.369498 -0.118598 -0.096492 0.083859 -0.340493 -0.098934 -0.009535 -0.171072 0.090086 0.048790 0.029913 0.225943 -0.513501 0.088571 -0.153765 0.144557 0.302205 -0.019798 0.116491 0.286101 0.000970 -0.543988 -0.103512 0.084895 0.160019 -0.220838 0.199461 0.094624 0.065864 0.104109 0.119939 -0.005087 0.208030 0.079221 0.154676 0.099132 -0.001218 -0.068339 0.027716 -0.161317 0.097865 -0.402055 0.134569 -0.072488 -0.032279 -0.050328 0.376516 0.107316 0.167459 -0.010683 -0.024340 -0.061017 0.300339 -0.024769 -0.100421 -0.001761 0.292995 0.210370 -0.212707 0.061256 0.018509 -0.324842 0.264529 0.065738 0.118789 -0.257599 -0.051238 0.648529 0.117382 -0.058280 -0.347919 -0.051797 -0.274281 0.123051 -0.088163 0.354429 0.175660 0.003119 -0.170419 0.259488 0.082932 -0.004687 0.020704 0.258731 -0.158753 -0.257813 -0.259558 0.292331 -0.283652 -0.250100 0.368749 -0.034623 -0.085016 -0.090150 -0.093507 -0.228793 0.452820 -0.058151 0.245997 -0.273479 -0.117777 0.176810 -0.141998 -0.211202 -0.485533 -0.188101 -0.349607 0.137784 0.061368 -0.019943 0.032044 0.283471 0.020012 0.196289 0.292843 0.079915 0.156662 0.257713 -0.410314 -0.214624 -0.027298 -0.060521 -0.424870 -0.110374 -0.178569 -0.196413 0.040961 -0.566945 -0.175312 -0.007378 0.471114 0.341833 0.271438 -0.137283 0.249147 0.112123 0.096329 0.347965 0.019590 0.142374 -0.194108 0.054347 -0.362490 -0.160438 -0.409967 -0.379488 -0.199397 -0.195376 0.070870 0.325574 0.307297 0.105154 -0.071333 0.271338 0.455708 0.190221 -0.022005 0.021589 0.094548 0.186894 -0.278059 -0.405802 -0.093627 -0.271297 -0.055317 0.080730 -0.209938 -0.392183 0.012183 -0.112271 0.154901 -0.089193 -0.184057 -0.296178 0.007512 0.085771 -0.242768 0.199433 -0.069815 -0.246085 -0.028907 -0.038313 -0.342523 0.202867 0.006187 0.017733 -0.249448 -0.004898 -0.027517 -0.194473 0.095043 -0.071740 0.105474 0.057173 0.140728 -0.445372 -0.000710 0.096261 -0.011418 0.438583 0.062534 0.151288 -0.265200 0.074311 
！ -0.259745 0.570077 0.042620 0.203530 -0.042561 0.057665 -0.196399 0.259314 -0.040780 -0.026540 0.076700 0.212640 0.234087 -0.397277 -0.312665 0.279627 -0.285540 0.215442 0.131226 0.090561 -0.141561 -0.236392 -0.295504 -0.268213 0.136728 -0.194410 0.004625 0.108378 -0.222976 0.150854 -0.222093 0.144646 0.103578 0.247481 0.395231 -0.094473 0.119190 0.139752 -0.085853 0.087303 0.166982 -0.170736 -0.100775 0.202207 0.154219 0.119726 -0.067189 -0.255349 -0.414940 0.072482 -0.066565 -0.051330 0.233794 0.151534 -0.000633 0.094459 0.106640 -0.171244 -0.172194 0.033264 -0.063987 -0.096076 0.017096 -0.140704 -0.009131 -0.211319 0.059408 0.210287 -0.010691 -0.175845 0.234860 0.096259 -0.351672 0.103634 0.110326 -0.031363 0.253093 0.322113 -0.160418 -0.035333 -0.287110 0.024335 0.106519 0.089804 -0.041235 0.037719 -0.262828 0.112741 0.159807 -0.220456 -0.169530 -0.006072 -0.368504 0.067832 0.173967 -0.095589 -0.221305 0.132642 0.363218 -0.226688 -0.230015 0.501346 -0.091252 -0.109923 0.161646 -0.045383 0.267468 -0.008034 -0.261164 0.137983 -0.123946 -0.047910 0.205728 -0.123364 0.199868 0.084868 0.222367 0.563884 -0.059226 0.251284 0.250735 0.219256 0.209077 0.216918 0.002578 0.404418 0.246293 0.193539 -0.149598 0.081996 0.420449 0.009436 -0.018411 0.142708 0.273051 -0.247925 -0.016192 -0.352725 0.194089 0.106464 -0.225618 -0.419396 0.004405 0.291113 0.067869 0.060199 0.293368 0.217999 -0.184469 -0.004518 0.052643 -0.136594 -0.078171 -0.137256 -0.264764 0.030717 0.295307 -0.472586 -0.061424 0.015299 -0.371067 -0.195218 0.115676 0.195062 -0.122862 0.037914 0.051443 -0.310785 -0.359192 0.067277 0.220397 0.101033 0.353780 0.041215 -0.216822 0.129306 -0.271827 -0.103194 0.220900 0.178987 0.030261 0.057213 0.215726 0.064007 0.227468 0.074090 0.100445 -0.025867 -0.045523 0.338067 -0.004368 0.087189 0.163315 -0.458057 0.299757 0.037185 0.085564 0.052354 0.113157 -0.020637 -0.044995 -0.097829 0.039536 0.117402 0.061523 -0.138344 -0.115264 0.365361 -0.134804 -0.157807 -0.119248 -0.251107 0.398580 0.404589 0.148931 0.030481 0.307522 0.220541 -0.206409 -0.274237 0.188956 0.139812 -0.088467 -0.106338 0.067115 -0.124829 0.176873 0.166563 0.078345 -0.165940 0.058465 -0.164499 0.073087 0.147610 -0.063191 0.065100 -0.053788 0.253502 0.286865 -0.055676 0.068200 -0.768087 0.012227 -0.082066 -0.008904 -0.063242 0.273755 -0.166843 0.103555 -0.139846 0.106517 -0.046500 0.265648 -0.005072 0.280110 -0.239534 0.133433 0.068238 0.089750 0.167013 -0.216335 -0.116056 -0.109558 -0.534752 0.218600 -0.121885 0.067404 0.181946 -0.390131 -0.372944 -0.011467 -0.142811 -0.121519 0.323443 0.222376 -0.221219 0.073098 0.224728 -0.067332 0.312988 -0.141444 0.074960 -0.061595 -0.222935 -0.096215 0.198792 -0.076902 -0.112501 -0.163376 -0.376263 -0.028727 0.136515 -0.072896 -0.253686 -0.372905 0.229577 -0.249879 -0.013510 -0.049583 0.107585 
会 -0.334759 0.040354 0.225783 -0.013618 -0.011881 0.039356 -0.476965 -0.227010 -0.045828 0.095004 -0.084560 0.113559 -0.394675 -0.552810 -0.035894 0.161980 0.112582 -0.063262 0.019238 0.149964 0.040115 0.325144 -0.484140 -0.331024 0.201864 0.158960 0.317862 -0.009572 -0.311176 0.384955 -0.075344 -0.078324 -0.027421 0.127153 0.190457 0.036256 0.260373 0.056575 -0.092292 0.187766 -0.203147 -0.183556 -0.051839 0.181043 -0.072238 -0.203695 0.145286 -0.237224 -0.133295 -0.145795 0.183754 -0.238582 -0.484971 -0.299716 -0.098016 0.013053 -0.102128 -0.233920 0.219927 0.262747 0.173392 0.005437 0.097168 -0.028192 0.196612 -0.168668 0.022290 0.143553 0.622420 -0.041982 0.213670 0.107558 0.102797 -0.065818 -0.061073 0.293614 0.018210 0.193942 -0.167714 0.063859 -0.000979 0.122636 -0.073663 0.027031 -0.082034 0.066333 -0.015612 0.087287 -0.113482 -0.080379 -0.362347 0.477822 0.147839 0.124794 0.123413 -0.264124 -0.441024 0.055584 -0.002144 -0.085276 0.095080 0.282221 -0.136584 -0.043540 0.191014 0.228852 -0.186903 -0.158907 -0.414622 0.012430 -0.151457 -0.177623 -0.021622 -0.008408 0.217732 0.147169 0.339766 -0.168945 -0.149030 0.256917 0.339970 0.003565 0.184302 0.048032 -0.024513 0.069980 0.232204 0.493491 -0.228615 -0.167981 -0.249175 -0.096382 0.054351 -0.206827 0.298322 -0.092385 0.222237 -0.230930 0.133369 -0.025262 -0.096677 -0.038507 0.360696 0.236030 -0.333042 0.169659 -0.009082 0.036685 0.112920 0.001124 -0.364002 0.001511 -0.084274 0.183491 -0.108209 0.011192 -0.275227 -0.245628 0.253931 0.069057 0.201900 -0.509860 0.248988 0.187167 0.209361 0.073619 -0.395050 0.113001 -0.040183 0.393733 -0.036576 -0.013791 -0.114772 -0.096640 0.050529 0.126976 0.203970 -0.048616 0.195021 0.370624 0.187941 0.054781 -0.147189 0.270080 -0.262393 0.176386 -0.079552 0.191330 0.073169 -0.196012 0.321773 0.168095 0.046433 0.146111 0.080780 0.016639 0.109614 -0.337020 0.140194 -0.184988 -0.159999 -0.244796 -0.032603 0.240717 0.341010 0.001122 0.303721 0.550658 0.017358 0.083359 0.008357 -0.016428 -0.089033 -0.041658 -0.287783 -0.241490 -0.074159 0.422307 -0.162874 0.067079 -0.035577 -0.019348 0.001457 -0.159633 -0.136521 -0.364963 0.495118 0.386849 0.253316 -0.070536 -0.037817 0.300818 0.019594 0.138928 0.152428 -0.120339 0.004687 -0.014097 0.200116 -0.218250 0.006841 -0.054492 -0.148381 -0.338111 -0.065062 -0.230293 0.361474 0.154376 0.189097 0.227181 0.617720 0.245043 0.163600 -0.140207 -0.051775 -0.009742 -0.318532 -0.421167 0.073340 -0.090721 -0.281731 0.053109 0.067370 -0.348131 0.265715 -0.377983 0.014676 0.194393 -0.308835 0.069680 -0.008766 -0.056078 0.165312 -0.226781 -0.408981 -0.109816 -0.005525 -0.056327 0.143436 -0.243180 -0.000904 0.005582 -0.217179 0.117159 -0.157671 0.460540 -0.342968 -0.256889 -0.089074 -0.003122 -0.249090 -0.337964 0.032955 0.072989 0.076203 0.164890 -0.153798 0.365608 -0.273917 -0.147664 
没有 0.066648 0.387902 -0.027996 0.164608 0.282887 -0.053255 -0.004489 -0.098658 0.073312 0.135367 -0.184106 0.258557 -0.286910 -0.423093 0.145527 0.239608 -0.125559 -0.282796 0.031768 0.131155 0.046209 -0.247508 -0.378878 -0.004355 -0.045452 -0.367979 -0.099455 0.137863 -0.146739 0.294586 -0.436769 -0.130615 0.107806 0.434550 0.695045 -0.232696 0.239917 0.608452 0.090925 0.209708 -0.010893 0.157277 -0.258231 0.039899 0.027410 0.420982 -0.090706 0.046656 -0.000208 0.018840 0.115609 -0.208049 -0.462290 0.490643 0.158277 0.278540 -0.378759 0.134799 0.120634 0.221715 0.117967 0.036476 -0.313927 -0.153043 0.103146 -0.249537 -0.015977 0.351507 0.251951 0.014702 0.262180 0.083024 -0.232989 0.091733 -0.273036 -0.151432 -0.057481 0.155070 0.179387 -0.450932 0.116744 0.225916 0.257682 -0.206344 0.065049 -0.307781 0.045779 -0.207962 -0.057744 -0.106169 0.151434 0.147539 -0.017357 -0.109367 0.312211 -0.268653 -0.341685 -0.098324 -0.059861 -0.003480 0.023119 0.445002 0.079293 -0.337822 -0.028578 0.268219 0.494846 0.090496 -0.208621 -0.002067 0.348699 -0.058196 0.280341 -0.193127 -0.160037 0.205241 0.045594 -0.075446 0.234111 0.061453 0.102348 0.177550 0.103095 -0.138043 -0.042637 0.072833 0.021179 0.143540 -0.099943 0.325039 -0.085473 0.183913 -0.059365 -0.311847 0.196573 -0.204450 0.127365 -0.308701 -0.111619 -0.139769 -0.120293 -0.069070 0.282176 0.280780 -0.076345 -0.326013 0.157303 0.144173 0.136005 -0.090960 -0.049548 -0.030356 -0.085792 -0.179690 0.297359 -0.256436 0.012227 -0.032698 -0.162092 -0.433028 -0.119108 -0.142394 -0.389166 -0.175074 0.135325 -0.299470 -0.156286 0.277902 -0.398275 0.163165 -0.366994 -0.260311 -0.059706 -0.088619 0.031133 0.138035 0.243616 0.133160 0.050844 0.155607 0.356732 -0.057820 -0.117790 -0.044384 -0.021472 -0.066201 -0.248345 0.033629 0.124208 -0.288267 0.621346 -0.124388 0.406224 -0.104962 0.112446 -0.108846 -0.121924 -0.151463 0.171523 -0.214212 -0.049857 -0.137625 0.036121 -0.077138 0.096760 -0.014832 -0.097406 0.182661 -0.285253 0.339631 -0.211311 -0.228530 0.130140 0.192218 0.038432 -0.319300 -0.023351 0.231413 -0.092324 -0.039300 0.164105 0.232298 -0.109024 -0.355674 -0.295038 0.000085 -0.237982 0.140964 0.206807 -0.165140 0.245382 0.009009 0.100423 -0.137458 -0.161618 0.023211 0.020671 0.180306 -0.312654 -0.128238 -0.124714 -0.279850 -0.108046 -0.092125 -0.246156 -0.001707 -0.241742 0.052358 -0.090318 0.175483 0.273732 0.306892 0.067301 -0.097939 0.307768 -0.131917 0.022464 -0.121562 0.036514 0.140943 -0.141532 -0.217188 -0.098836 -0.238952 -0.141252 -0.438325 0.108100 -0.167788 -0.268789 0.149510 -0.131132 -0.009384 -0.033434 0.206346 -0.398191 -0.141923 -0.174355 0.179477 -0.067016 0.178834 0.063380 0.182953 -0.058501 -0.156229 0.006601 0.356051 0.160230 -0.049467 0.414935 0.187383 0.258361 -0.111886 0.019622 0.153245 0.065977 0.283391 -0.315026 -0.170471 -0.126669 -0.123092 
这 -0.236618 0.442682 0.079126 0.341621 0.329745 0.285172 -0.241524 -0.217440 -0.089552 0.008437 -0.156594 -0.030480 0.155095 -0.099151 -0.083707 -0.206094 -0.195444 -0.384660 -0.202510 0.053155 -0.021005 -0.253841 0.043298 0.082177 -0.262767 0.023678 -0.010036 0.109144 -0.325077 0.247178 -0.239628 0.161060 -0.093496 -0.114952 0.151621 0.351967 0.594560 0.295031 0.127966 0.130051 -0.241878 0.328755 -0.164248 0.114148 -0.270718 0.140559 -0.300552 0.090905 -0.206356 -0.210073 -0.089674 -0.077897 0.042466 -0.286119 -0.116268 0.373185 0.259167 -0.333557 0.237469 0.099130 -0.231716 -0.113160 0.076422 -0.010745 -0.113129 -0.317968 0.045476 0.320266 0.210894 -0.100974 0.017199 -0.219352 -0.127911 0.100392 -0.290816 0.283629 0.200827 -0.059349 -0.311194 -0.329743 -0.239803 0.185921 0.013605 -0.186277 0.071586 0.244314 0.289121 -0.206332 -0.590060 -0.013948 -0.264314 0.156246 -0.403944 -0.198818 -0.168853 -0.079009 -0.333444 0.312763 0.091898 -0.109370 0.067663 0.445683 -0.142992 -0.158775 0.220357 -0.245673 0.171084 0.199972 -0.534671 -0.086579 -0.064287 -0.340296 -0.058569 -0.149596 0.073242 -0.121238 0.253123 0.338922 0.082232 0.019676 -0.033774 -0.107918 0.065595 -0.020210 0.044226 0.130855 0.404312 -0.051055 -0.292060 -0.072196 0.005434 -0.373289 0.001378 -0.117922 0.051388 -0.167590 0.142511 -0.436340 0.241368 -0.248863 -0.515674 -0.067563 -0.105538 0.399873 0.296759 -0.165955 0.293731 0.284612 0.085257 -0.177132 0.483197 -0.154688 0.089546 -0.060583 0.236462 -0.251985 0.077058 -0.194061 -0.165078 0.118277 -0.136855 0.147132 0.114632 0.447792 0.352964 -0.134942 -0.237445 -0.258950 0.042410 0.185966 0.133674 0.277256 -0.096275 0.028449 -0.311589 0.170267 -0.034649 0.210738 -0.193765 0.176443 0.188880 -0.098933 0.313740 -0.085926 0.125252 -0.296485 0.026453 -0.024686 0.276439 -0.186599 0.277973 -0.118707 0.261313 0.212559 -0.119617 -0.497914 -0.503855 0.037549 -0.090036 0.032505 -0.083996 -0.104449 -0.173398 -0.008877 0.090743 0.105115 -0.027270 0.014507 0.001968 -0.114979 -0.224020 -0.306963 0.037652 0.127133 0.144881 -0.089642 -0.097390 0.440967 -0.296785 -0.145873 0.013353 0.243007 -0.145434 -0.219657 0.286675 -0.333542 0.045207 0.281019 0.089173 0.077704 -0.431092 -0.135673 0.126311 0.276887 -0.013387 -0.115048 0.349095 -0.034462 0.206055 -0.170795 -0.089866 -0.250914 0.051185 -0.207431 -0.141422 -0.017102 -0.081595 0.235334 -0.128492 -0.230428 0.244129 -0.070087 0.115208 0.061705 0.001500 -0.441207 -0.387395 0.045588 -0.129306 0.176781 -0.414307 -0.120849 -0.230026 -0.025017 -0.187684 -0.121354 0.055917 0.302590 0.087035 -0.160225 0.207034 0.132093 -0.433445 -0.008569 -0.290466 -0.186065 0.181249 0.155642 -0.101733 -0.026532 -0.085714 -0.137211 -0.111300 -0.072971 -0.020576 -0.073359 -0.094181 0.128372 0.136572 -0.217872 -0.056870 0.179024 -0.162335 0.043975 -0.005544 0.217019 -0.001128 -0.195154 -0.054169 0.026910 
对 -0.260212 0.156451 -0.205853 -0.057267 -0.212699 0.296423 -0.279233 0.151293 -0.297914 0.082606 -0.264858 -0.180187 -0.005130 -0.244747 -0.225557 0.024038 0.194595 -0.268229 -0.325604 -0.253475 0.593485 0.158688 0.006197 0.015076 -0.195875 0.007218 0.187159 -0.222570 0.259159 0.234302 -0.004936 -0.170516 -0.046024 0.133000 0.186407 -0.166192 0.209014 -0.105713 0.011887 -0.135087 -0.017134 -0.104894 -0.131127 -0.401934 -0.079945 0.211603 0.245220 0.077839 -0.195137 0.167101 0.208662 -0.038573 -0.136526 0.276523 -0.064673 0.059095 -0.136911 -0.066731 0.382466 0.243142 0.078006 0.348484 0.027226 -0.285932 0.007787 0.140907 0.129348 0.222359 0.408457 -0.364619 0.109071 -0.014936 -0.036246 0.191367 0.074681 0.059614 0.092842 0.063923 0.304016 -0.281504 0.187919 0.424794 -0.268025 -0.014078 0.071779 -0.132931 -0.004931 0.209566 -0.021402 0.262762 -0.007658 -0.088676 0.106713 0.205966 0.598067 0.138101 -0.541237 0.213536 0.037524 0.062648 0.232017 0.493413 -0.044487 -0.369027 0.215798 -0.272538 0.314594 -0.163478 -0.619651 -0.174832 -0.300844 -0.083004 0.118557 0.201932 0.079184 -0.304466 -0.081203 -0.178505 -0.121786 0.266996 -0.007720 -0.049290 0.203149 0.064693 0.142249 0.238706 0.328968 0.284013 0.339102 0.111874 0.305686 -0.497748 0.005073 -0.056175 -0.085798 0.112587 0.148552 -0.213839 -0.030708 -0.195312 -0.351060 -0.172941 0.107398 -0.203643 0.018407 0.036585 0.228576 0.270460 0.013114 0.124856 -0.188545 0.027035 0.012507 -0.138980 0.308610 -0.071010 0.205500 0.062368 0.204313 -0.101790 0.331187 0.060282 0.034203 -0.102495 0.006312 -0.011711 -0.137729 0.254562 -0.141014 0.565728 -0.085593 -0.228394 -0.139376 0.281968 -0.469899 -0.028266 0.147309 0.203217 0.167005 0.179302 0.346167 0.348772 -0.221599 -0.140179 -0.129567 -0.227709 -0.100903 0.197678 0.355953 0.246190 0.316301 -0.197794 0.229507 -0.391738 0.258014 -0.170759 -0.127292 -0.116822 -0.040307 -0.068889 -0.576973 0.352801 -0.153913 -0.120225 0.203469 0.169541 -0.078411 -0.006555 0.339938 0.054446 0.268177 -0.064852 -0.268759 -0.270430 0.128048 0.052769 0.404291 -0.064772 -0.041985 -0.045241 0.109022 -0.267644 -0.432644 -0.170963 0.000841 0.028655 0.143045 0.349299 -0.277779 -0.109213 -0.053025 -0.101234 0.292343 -0.165962 -0.359217 0.016670 0.395627 0.193718 0.072380 -0.271789 0.179181 -0.220233 -0.401251 -0.120372 -0.229700 -0.206884 -0.203359 0.135983 0.596868 -0.227953 0.081326 0.088284 -0.033744 -0.115123 0.063627 -0.125579 -0.150772 0.159254 -0.194979 -0.231664 -0.251840 0.048330 -0.024123 -0.317370 -0.319229 -0.037299 -0.152112 -0.056218 -0.005747 -0.205849 -0.159179 0.300405 0.036153 -0.394026 -0.237190 -0.428811 -0.110498 0.294980 0.081902 -0.071420 0.042234 -0.120321 -0.144471 0.026427 0.073918 0.282119 -0.071946 0.235552 -0.018641 0.364785 0.468643 -0.509411 0.389442 -0.146346 -0.181403 0.111992 -0.017251 0.139972 -0.086667 0.131220 
很 -0.013606 0.178790 -0.186231 -0.182104 0.257814 0.372419 -0.340600 -0.209573 -0.554319 -0.042802 -0.225651 0.130929 -0.175262 -0.092282 0.060472 0.026841 -0.071203 -0.087504 -0.071229 -0.173540 0.041781 0.165339 0.123723 -0.263558 0.347705 0.240979 -0.078504 0.052663 -0.470349 0.427665 -0.306097 0.207266 -0.027260 0.241002 0.364025 0.036441 0.349621 0.187766 -0.016661 -0.133396 -0.087772 -0.125111 0.042563 0.010868 0.198837 0.042595 0.034332 -0.416108 0.153198 -0.615938 -0.058059 -0.236578 0.016682 0.006594 0.273417 0.092475 -0.099474 0.043594 -0.145259 -0.030451 -0.101450 -0.519384 -0.113225 -0.007440 0.100603 0.312926 0.102643 0.013040 0.535601 0.193648 0.203199 0.105111 -0.298714 0.080675 0.196650 -0.176043 -0.135923 0.160772 -0.327063 0.097248 -0.339501 0.244045 -0.464371 -0.215779 -0.285143 -0.452139 -0.128620 0.287040 0.037519 -0.088182 0.012706 0.316461 -0.063862 0.405103 0.021195 -0.181084 -0.412827 -0.375612 -0.067472 -0.332034 -0.128035 0.448340 -0.074836 0.161995 0.461582 -0.342046 0.149039 0.111294 -0.086706 0.173168 0.110660 -0.071147 0.329905 0.029013 0.139894 0.136649 0.107143 -0.116229 0.283497 0.303860 -0.083731 -0.280673 -0.378456 0.153435 0.406651 -0.204972 0.134676 -0.208931 0.215517 0.065957 -0.006217 -0.070450 0.059895 -0.266204 0.376647 -0.169072 0.155188 -0.169815 -0.295342 0.087878 -0.103538 -0.215431 -0.058159 0.329678 0.046077 -0.351516 -0.101580 0.197771 -0.272524 0.081547 0.055588 0.390992 0.435010 0.203278 0.144103 0.039799 0.477059 -0.014070 -0.201283 -0.118572 -0.201915 -0.129752 0.187786 0.039618 -0.097856 0.341985 -0.437238 0.594740 -0.210441 -0.013769 -0.011237 -0.153297 0.008139 -0.346677 -0.249079 -0.071931 -0.103427 -0.528571 0.074457 0.227010 0.427422 -0.005404 -0.230706 -0.019570 -0.255851 -0.140174 0.176512 -0.162947 0.022414 -0.073095 0.592248 0.031905 0.210232 -0.329762 0.344595 0.027842 -0.261065 0.051580 0.219107 -0.213340 -0.333754 -0.300933 -0.017926 -0.099566 0.164113 0.071010 0.074420 0.179187 -0.271017 0.317639 0.238468 0.164646 -0.174978 0.049412 0.358845 -0.190542 0.116537 0.356943 0.002802 -0.015198 0.040880 0.104118 0.173073 -0.253484 0.116141 -0.234055 0.284125 0.225360 0.471106 0.029594 0.037641 0.335873 0.357636 -0.180383 -0.057734 -0.338742 0.036635 0.299811 -0.093355 0.108456 -0.166390 -0.386363 -0.369739 0.071935 0.038927 -0.098488 0.481726 0.515476 -0.274061 -0.049161 0.348654 0.166638 0.269894 -0.141935 -0.102129 0.164404 0.010365 0.256434 -0.119211 0.264956 0.057549 -0.017656 -0.033476 0.255715 -0.091185 -0.152037 0.322116 -0.015892 -0.151296 -0.102551 -0.142057 0.067603 -0.190280 -0.213548 -0.373592 -0.069044 0.212702 -0.279418 -0.342137 0.090438 0.427835 -0.201128 0.174349 0.304952 -0.088942 -0.309278 0.059100 0.103199 -0.457367 -0.360617 -0.002028 -0.118984 -0.076089 -0.251566 0.080452 0.567537 -0.071512 0.128995 -0.146440 -0.084160 
